{"learner":{"attributes":{"best_iteration":"0","best_score":"1.5933026232602405"},"feature_names":["Resonance_Frequency_log_snr","Dissipation_log_snr","Resonance_Frequency_entropy","Dissipation_relative_standard_deviation","Resonance_Frequency_skew","Resonance_Frequency_normalized_entropy","Resonance_Frequency_relative_standard_deviation","Dissipation_entropy","Resonance_Frequency_standard_deviation","Resonance_Frequency_std","Resonance_Frequency_absolute_skew","Dissipation_standard_deviation","Dissipation_std","Resonance_Frequency_signal_to_noise","Dissipation_mean_diff","Dissipation_range","Resonance_Frequency_mean_diff","Dissipation_peak_max","Dissipation_signal_to_noise","Dissipation_max","Dissipation_absolute_skew","Relative_time_normalized_entropy","Relative_time_median","Dissipation_autocorr_max_lag","Resonance_Frequency_autocorr_max_lag","Relative_time_autocorr_max_lag","Resonance_Frequency_area_under_curve","Resonance_Frequency_kurtosis","Resonance_Frequency_num_peaks","Dissipation_peak_mean","Resonance_Frequency_range","Dissipation_num_peaks","Dissipation_mean","Dissipation_rolling_mean","Resonance_Frequency_snr","Resonance_Frequency_composite","Dissipation_area_under_curve","Dissipation_median","Dissipation_composite","Dissipation_snr","Relative_time_log_snr","Relative_time_mean","Relative_time_rolling_mean","Relative_time_signal_to_noise","Resonance_Frequency_fft_energy","Resonance_Frequency_fft_entropy","Relative_time_relative_standard_deviation","Dissipation_mean_difference_of_peaks","Relative_time_mean_diff","Resonance_Frequency_num_outliers","Relative_time_snr","Relative_time_composite","Relative_time_std","Relative_time_standard_deviation","Dissipation_skew","Relative_time_range","Relative_time_max","Dissipation_fft_energy","Dissipation_lag_diff_mean","Resonance_Frequency_fft_peak_freq","Dissipation_normalized_entropy","Relative_time_rolling_std","Relative_time_entropy","Relative_time_std_diff","Relative_time_mean_difference","Relative_time_area_under_curve","Relative_time_num_outliers","Dissipation_kurtosis","Resonance_Frequency_rolling_std","Relative_time_skew","Relative_time_absolute_skew","Relative_time_trend","Relative_time_lag_diff_mean","Resonance_Frequency_std_diff","Dissipation_fft_peak_freq","Dissipation_num_outliers","Dissipation_mean_difference","Dissipation_rolling_std","Relative_time_normalized_mean_difference","Relative_time_fft_peak_freq","Dissipation_trend","Resonance_Frequency_mean_difference","Resonance_Frequency_normalized_mean_difference","Resonance_Frequency_mean_difference_of_peaks","Relative_time_num_peaks","Relative_time_peak_mean","Relative_time_peak_max","Resonance_Frequency_trend","Relative_time_fft_energy","Relative_time_fft_entropy","Relative_time_kurtosis","Resonance_Frequency_lag_diff_mean","Dissipation_normalized_mean_difference","Resonance_Frequency_peak_max","Resonance_Frequency_peak_mean","Dissipation_fft_entropy","Dissipation_std_diff","Resonance_Frequency_min","Resonance_Frequency_median","Resonance_Frequency_mean","Resonance_Frequency_rolling_mean","Dissipation_min","Resonance_Frequency_max","Relative_time_min","Relative_time_zero_crossings","Relative_time_mean_difference_of_peaks","Resonance_Frequency_zero_crossings","Dissipation_zero_crossings"],"feature_types":["float","float","float","float","float","float","float","float","float","float","float","float","float","float","float","float","float","float","float","float","float","float","float","int","int","int","float","float","int","float","float","int","float","float","float","float","float","float","float","float","float","float","float","float","float","float","float","float","float","int","float","float","float","float","float","float","float","float","float","float","float","float","float","float","float","float","int","float","float","float","float","float","float","float","float","int","float","float","float","float","float","float","float","float","int","float","float","float","float","float","float","float","float","float","float","float","float","float","float","float","float","float","float","float","int","int","int","int"],"gradient_booster":{"model":{"gbtree_model_param":{"num_parallel_tree":"1","num_trees":"357"},"iteration_indptr":[0,7,14,21,28,35,42,49,56,63,70,77,84,91,98,105,112,119,126,133,140,147,154,161,168,175,182,189,196,203,210,217,224,231,238,245,252,259,266,273,280,287,294,301,308,315,322,329,336,343,350,357],"tree_info":[0,1,2,3,4,5,6,0,1,2,3,4,5,6,0,1,2,3,4,5,6,0,1,2,3,4,5,6,0,1,2,3,4,5,6,0,1,2,3,4,5,6,0,1,2,3,4,5,6,0,1,2,3,4,5,6,0,1,2,3,4,5,6,0,1,2,3,4,5,6,0,1,2,3,4,5,6,0,1,2,3,4,5,6,0,1,2,3,4,5,6,0,1,2,3,4,5,6,0,1,2,3,4,5,6,0,1,2,3,4,5,6,0,1,2,3,4,5,6,0,1,2,3,4,5,6,0,1,2,3,4,5,6,0,1,2,3,4,5,6,0,1,2,3,4,5,6,0,1,2,3,4,5,6,0,1,2,3,4,5,6,0,1,2,3,4,5,6,0,1,2,3,4,5,6,0,1,2,3,4,5,6,0,1,2,3,4,5,6,0,1,2,3,4,5,6,0,1,2,3,4,5,6,0,1,2,3,4,5,6,0,1,2,3,4,5,6,0,1,2,3,4,5,6,0,1,2,3,4,5,6,0,1,2,3,4,5,6,0,1,2,3,4,5,6,0,1,2,3,4,5,6,0,1,2,3,4,5,6,0,1,2,3,4,5,6,0,1,2,3,4,5,6,0,1,2,3,4,5,6,0,1,2,3,4,5,6,0,1,2,3,4,5,6,0,1,2,3,4,5,6,0,1,2,3,4,5,6,0,1,2,3,4,5,6,0,1,2,3,4,5,6,0,1,2,3,4,5,6,0,1,2,3,4,5,6,0,1,2,3,4,5,6,0,1,2,3,4,5,6,0,1,2,3,4,5,6],"trees":[{"base_weights":[1.7773786E-3,2.345026E0,-5.012623E-1,9.3695796E-1,9.683834E-2,6.7567664E-1,-1.6989031E-1,-9.2801146E-2,4.5608398E-1],"categories":[],"categories_nodes":[],"categories_segments":[],"categories_sizes":[],"default_left":[0,0,0,0,0,0,0,0,0],"id":0,"left_children":[1,3,5,-1,7,-1,-1,-1,-1],"loss_changes":[7.914179E2,1.8144507E2,1.05521515E2,0E0,4.05542E1,0E0,0E0,0E0,0E0],"parents":[2147483647,0,0,1,1,2,2,4,4],"right_children":[2,4,6,-1,8,-1,-1,-1,-1],"split_conditions":[1.3324343E-9,-2.0427996E1,2.2545E0,9.3695796E-1,3.177536E-8,6.7567664E-1,-1.6989031E-1,-9.2801146E-2,4.5608398E-1],"split_indices":[47,73,22,0,58,0,0,0,0],"split_type":[0,0,0,0,0,0,0,0,0],"sum_hessian":[6.394899E2,1.1436667E2,5.251232E2,8.3314156E1,3.1052513E1,9.869354E0,5.152539E2,2.184442E1,9.208096E0],"tree_param":{"num_deleted":"0","num_feature":"108","num_nodes":"9","size_leaf_vector":"1"}},{"base_weights":[-0E0,-4.6527526E-1,8.133307E-1,-1.590609E-1,-0E0,8.035358E-2,1.4826597E0,1.960887E-1,-5.495858E-2,-8.3318755E-2,4.293198E-1,2.2945206E0,2.7606165E-1,3.417335E-1,8.000519E-1,-0E0,2.4412905E-1],"categories":[],"categories_nodes":[],"categories_segments":[],"categories_sizes":[],"default_left":[0,0,0,0,0,0,0,0,0,0,0,0,0,0,0,0,0],"id":1,"left_children":[1,3,5,-1,7,9,11,-1,-1,-1,-1,13,15,-1,-1,-1,-1],"loss_changes":[2.547817E2,9.914719E0,1.100363E2,0E0,1.3807261E1,7.670269E1,1.0652042E2,0E0,0E0,0E0,0E0,1.2635345E1,1.2998776E1,0E0,0E0,0E0,0E0],"parents":[2147483647,0,0,1,1,2,2,4,4,5,5,6,6,11,11,12,12],"right_children":[2,4,6,-1,8,10,12,-1,-1,-1,-1,14,16,-1,-1,-1,-1],"split_conditions":[2.2686107E2,2.1492815E2,-5.556933E-8,-1.590609E-1,-8.9965235E-9,-2.066802E1,2.2109905E1,1.960887E-1,-5.495858E-2,-8.3318755E-2,4.293198E-1,2.44391E2,8.6187197E-7,3.417335E-1,8.000519E-1,-0E0,2.4412905E-1],"split_indices":[0,0,96,0,96,73,73,0,0,0,0,0,14,0,0,0,0],"split_type":[0,0,0,0,0,0,0,0,0,0,0,0,0,0,0,0,0],"sum_hessian":[6.3974695E2,4.0724002E2,2.3250691E2,3.5540213E2,5.1837906E1,1.1470762E2,1.17799286E2,9.562422E0,4.2275482E1,8.817481E1,2.6532806E1,6.7735886E1,5.00634E1,2.0080027E1,4.765586E1,3.0914148E1,1.9149252E1],"tree_param":{"num_deleted":"0","num_feature":"108","num_nodes":"17","size_leaf_vector":"1"}},{"base_weights":[-2.6209543E-2,-1.538852E-1,4.6883178E-1,1.1347E0,-2.2606456E-1,1.5923198E0,1.0642245E-1,-1.3628994E-1,2.7552274E-1,6.1542505E-1,2.9684272E-1,8.403777E-1,-8.145475E-2,-0E0,2.4423029E-1,5.0168383E-1,-0E0],"categories":[],"categories_nodes":[],"categories_segments":[],"categories_sizes":[],"default_left":[0,0,0,0,0,0,0,0,0,0,0,0,0,0,0,0,0],"id":2,"left_children":[1,-1,3,5,7,9,-1,-1,11,-1,13,15,-1,-1,-1,-1,-1],"loss_changes":[1.6240141E2,0E0,1.5445087E2,5.0549133E1,2.1681053E1,4.5979004E1,0E0,0E0,2.2011745E1,0E0,8.332201E0,1.4685045E1,0E0,0E0,0E0,0E0,0E0],"parents":[2147483647,0,0,2,2,3,3,4,4,5,5,8,8,10,10,11,11],"right_children":[2,-1,4,6,8,10,-1,-1,12,-1,14,16,-1,-1,-1,-1,-1],"split_conditions":[1.7033778E5,-1.538852E-1,1.9202156E-4,6.4958454E-7,-1.4097549E1,2.4464946E2,1.0642245E-1,-1.3628994E-1,-7.8E-1,6.1542505E-1,4.285948E-8,1.9478391E-7,-8.145475E-2,-0E0,2.4423029E-1,5.0168383E-1,-0E0],"split_indices":[13,0,82,12,4,0,0,0,16,0,77,14,0,0,0,0,0],"split_type":[0,0,0,0,0,0,0,0,0,0,0,0,0,0,0,0,0],"sum_hessian":[6.3512067E2,3.2535928E2,3.0976138E2,1.6155708E2,1.482043E2,9.758599E1,6.39711E1,1.085882E2,3.9616096E1,6.91678E1,2.841819E1,2.3684177E1,1.5931921E1,1.7866968E1,1.0551222E1,9.438876E0,1.42453E1],"tree_param":{"num_deleted":"0","num_feature":"108","num_nodes":"17","size_leaf_vector":"1"}},{"base_weights":[3.5756293E-3,-3.196003E-1,6.313236E-1,-1.06298715E-1,-1.5460838E-1,1.3519144E0,-7.610341E-2,-8.142044E-2,8.324175E-2,5.247945E-1,-2.8649058E-2],"categories":[],"categories_nodes":[],"categories_segments":[],"categories_sizes":[],"default_left":[0,0,0,0,0,0,0,0,0,0,0],"id":3,"left_children":[1,3,5,7,-1,9,-1,-1,-1,-1,-1],"loss_changes":[1.4053401E2,1.5722538E1,1.538053E2,1.7159355E1,0E0,7.8249695E1,0E0,0E0,0E0,0E0,0E0],"parents":[2147483647,0,0,1,1,2,2,3,3,5,5],"right_children":[2,4,6,8,-1,10,-1,-1,-1,-1,-1],"split_conditions":[6.060318E-1,-1.4117722E-1,2.2505907E2,7.5140274E-1,-1.5460838E-1,4.7601472E-5,-7.610341E-2,-8.142044E-2,8.324175E-2,5.247945E-1,-2.8649058E-2],"split_indices":[67,27,0,20,0,19,0,0,0,0,0],"split_type":[0,0,0,0,0,0,0,0,0,0,0],"sum_hessian":[6.392327E2,4.170858E2,2.2214697E2,2.1148167E2,2.0560411E2,1.25277565E2,9.68694E1,1.5683267E2,5.4648987E1,1.0093471E2,2.4342861E1],"tree_param":{"num_deleted":"0","num_feature":"108","num_nodes":"11","size_leaf_vector":"1"}},{"base_weights":[-0E0,-1.6114855E-1,4.7414488E-1,1.0034094E0,-1.5350368E-2,1.1672031E0,-0E0,4.6706522E-1,8.7175214E-1,8.5104E-2,3.582661E-1],"categories":[],"categories_nodes":[],"categories_segments":[],"categories_sizes":[],"default_left":[0,0,0,0,0,0,0,0,0,0,0],"id":4,"left_children":[1,-1,3,5,-1,7,-1,-1,9,-1,-1],"loss_changes":[1.7268283E2,0E0,1.01916824E2,2.4515915E1,0E0,1.1062897E1,0E0,0E0,1.1777405E1,0E0,0E0],"parents":[2147483647,0,0,2,2,3,3,5,5,8,8],"right_children":[2,-1,4,6,-1,8,-1,-1,10,-1,-1],"split_conditions":[1.8093646E-6,-1.6114855E-1,2.3715267E-5,-1.7945263E1,-1.5350368E-2,3.8234644E-5,-0E0,4.6706522E-1,4.0198107E0,8.5104E-2,3.582661E-1],"split_indices":[11,0,15,73,0,19,0,0,50,0,0],"split_type":[0,0,0,0,0,0,0,0,0,0,0],"sum_hessian":[6.3897565E2,3.0145825E2,3.3751736E2,1.7244849E2,1.650689E2,1.4769353E2,2.475495E1,5.5807186E1,9.1886345E1,3.810034E1,5.3786003E1],"tree_param":{"num_deleted":"0","num_feature":"108","num_nodes":"11","size_leaf_vector":"1"}},{"base_weights":[2.3895029E-2,-1.6529723E-1,8.163597E-1,9.465376E-1,-0E0,1.155263E0,2.620987E-1,4.313388E-1,2.342614E-1,-0E0,2.6285043E-1],"categories":[],"categories_nodes":[],"categories_segments":[],"categories_sizes":[],"default_left":[0,0,0,0,0,0,0,0,0,0,0],"id":5,"left_children":[1,-1,3,5,-1,7,9,-1,-1,-1,-1],"loss_changes":[3.054984E2,0E0,3.0301727E1,2.7194473E1,0E0,1.2122787E1,1.0620496E1,0E0,0E0,0E0,0E0],"parents":[2147483647,0,0,2,2,3,3,5,5,6,6],"right_children":[2,-1,4,6,-1,8,10,-1,-1,-1,-1],"split_conditions":[4.010756E-6,-1.6529723E-1,1.1579928E0,5.2522737E-9,-0E0,-5.033563E-5,4.107982E-1,4.313388E-1,2.342614E-1,-0E0,2.6285043E-1],"split_indices":[11,0,20,76,0,82,60,0,0,0,0],"split_type":[0,0,0,0,0,0,0,0,0,0,0],"sum_hessian":[6.392331E2,3.6722174E2,2.7201138E2,2.39015E2,3.2996376E1,1.774704E2,6.1544605E1,9.32951E1,8.417529E1,4.8722153E1,1.2822451E1],"tree_param":{"num_deleted":"0","num_feature":"108","num_nodes":"11","size_leaf_vector":"1"}},{"base_weights":[-8.4930975E-3,-5.122357E-1,1.1937778E0,-1.672056E-1,-0E0,3.2652026E-1,1.5732503E0,1.6905721E-2,2.688151E-1,7.88174E-1,2.2088628E0,3.2190165E-1,4.5583856E-1,1.6764368E-1,7.886773E-1,-0E0,2.0557365E-1],"categories":[],"categories_nodes":[],"categories_segments":[],"categories_sizes":[],"default_left":[0,0,0,0,0,0,0,0,0,0,0,0,0,0,0,0,0],"id":6,"left_children":[1,3,5,-1,-1,7,9,-1,-1,11,13,15,-1,-1,-1,-1,-1],"loss_changes":[3.9914273E2,8.835114E0,5.2623627E1,0E0,0E0,9.204314E0,5.3100616E1,0E0,0E0,1.7658031E1,2.7564117E1,8.550071E0,0E0,0E0,0E0,0E0,0E0],"parents":[2147483647,0,0,1,1,2,2,5,5,6,6,9,9,10,10,11,11],"right_children":[2,4,6,-1,-1,8,10,-1,-1,12,14,16,-1,-1,-1,-1,-1],"split_conditions":[2.1510486E-5,2.68109E1,-1.3107913E0,-1.672056E-1,-0E0,-4.303561E-5,-4.596811E-1,1.6905721E-2,2.688151E-1,4.8856347E-8,-5.620501E-1,7.110327E-2,4.5583856E-1,1.6764368E-1,7.886773E-1,-0E0,2.0557365E-1],"split_indices":[15,55,67,0,0,82,54,0,0,96,4,61,0,0,0,0,0],"split_type":[0,0,0,0,0,0,0,0,0,0,0,0,0,0,0,0,0],"sum_hessian":[6.36405E2,4.5153842E2,1.8486664E2,4.173507E2,3.418772E1,6.0445965E1,1.2442067E2,4.7126556E1,1.33194065E1,5.9604218E1,6.481645E1,4.0872784E1,1.8731434E1,1.5656986E1,4.9159466E1,1.8152338E1,2.2720446E1],"tree_param":{"num_deleted":"0","num_feature":"108","num_nodes":"17","size_leaf_vector":"1"}},{"base_weights":[-7.959748E-3,-4.5707586E-1,1.2140234E0,6.948255E-1,-1.6401997E-1,4.042924E-1,-0E0,3.2881284E-1,-0E0],"categories":[],"categories_nodes":[],"categories_segments":[],"categories_sizes":[],"default_left":[0,0,0,0,0,0,0,0,0],"id":7,"left_children":[1,3,5,7,-1,-1,-1,-1,-1],"loss_changes":[3.6130597E2,5.280208E1,1.8637146E1,1.0756657E1,0E0,0E0,0E0,0E0,0E0],"parents":[2147483647,0,0,1,1,2,2,3,3],"right_children":[2,4,6,8,-1,-1,-1,-1,-1],"split_conditions":[3.516622E-4,5.903312E0,4.318173E-9,2.2771887E-1,-1.6401997E-1,4.042924E-1,-0E0,3.2881284E-1,-0E0],"split_indices":[82,9,47,54,0,0,0,0,0],"split_type":[0,0,0,0,0,0,0,0,0],"sum_hessian":[6.3472876E2,4.6727783E2,1.6745091E2,2.9357203E1,4.3792062E2,1.4894159E2,1.8509325E1,2.0057764E1,9.2994375E0],"tree_param":{"num_deleted":"0","num_feature":"108","num_nodes":"9","size_leaf_vector":"1"}},{"base_weights":[-0E0,5.1577353E-1,-1.4557634E-1,-1.2490074E-1,6.902836E-1,1.8195814E-2,8.42086E-1,-0E0,1.0073609E0,-6.677421E-2,1.2390595E-1,3.7439972E-1,4.4115725E-1,-0E0,2.4545872E-1],"categories":[],"categories_nodes":[],"categories_segments":[],"categories_sizes":[],"default_left":[0,0,0,0,0,0,0,0,0,0,0,0,0,0,0],"id":8,"left_children":[1,3,-1,-1,5,-1,7,9,11,-1,-1,-1,13,-1,-1],"loss_changes":[1.6635811E2,5.416873E1,0E0,0E0,1.9273819E1,0E0,2.6586868E1,9.1115E0,1.6438843E1,0E0,0E0,0E0,9.116556E0,0E0,0E0],"parents":[2147483647,0,0,1,1,4,4,6,6,7,7,8,8,12,12],"right_children":[2,4,-1,-1,6,-1,8,10,12,-1,-1,-1,14,-1,-1],"split_conditions":[5.1285248E1,1.7629106E3,-1.4557634E-1,-1.2490074E-1,3.7297745E-5,1.8195814E-2,2.4393624E-1,-6.109684E-8,7.588409E0,-6.677421E-2,1.2390595E-1,3.7439972E-1,4.4987652E-7,-0E0,2.4545872E-1],"split_indices":[8,65,0,0,82,0,54,96,73,0,0,0,14,0,0],"split_type":[0,0,0,0,0,0,0,0,0,0,0,0,0,0,0],"sum_hessian":[6.2569403E2,3.0381244E2,3.218816E2,4.345071E1,2.6036172E2,5.689636E1,2.0346536E2,3.2816994E1,1.7064838E2,2.252386E1,1.0293135E1,1.1352984E2,5.7118534E1,2.9451044E1,2.766749E1],"tree_param":{"num_deleted":"0","num_feature":"108","num_nodes":"15","size_leaf_vector":"1"}},{"base_weights":[-2.2862412E-2,3.5188124E-1,-1.463743E-1,7.262117E-1,-1.0926382E-1,6.2276974E-2,2.845758E-1],"categories":[],"categories_nodes":[],"categories_segments":[],"categories_sizes":[],"default_left":[0,0,0,0,0,0,0],"id":9,"left_children":[1,3,-1,5,-1,-1,-1],"loss_changes":[1.1712283E2,9.837689E1,0E0,2.1097809E1,0E0,0E0,0E0],"parents":[2147483647,0,0,1,1,3,3],"right_children":[2,4,-1,6,-1,-1,-1],"split_conditions":[8.777956E1,-2.86E0,-1.463743E-1,3.845466E1,-1.0926382E-1,6.2276974E-2,2.845758E-1],"split_indices":[8,16,0,18,0,0,0],"split_type":[0,0,0,0,0,0,0],"sum_hessian":[6.234484E2,3.393693E2,2.8407913E2,2.2724307E2,1.1212623E2,7.475829E1,1.5248479E2],"tree_param":{"num_deleted":"0","num_feature":"108","num_nodes":"7","size_leaf_vector":"1"}},{"base_weights":[4.299943E-3,-2.7745724E-1,4.2874295E-1,1.7798979E-2,-1.1275542E-1,9.344915E-1,-6.0383916E-2,7.570533E-2,-6.9797E-2,1.4176974E-1,1.241999E0,4.192178E-2,-1.1464555E-1,-0E0,4.229745E-1],"categories":[],"categories_nodes":[],"categories_segments":[],"categories_sizes":[],"default_left":[0,0,0,0,0,0,0,0,0,0,0,0,0,0,0],"id":10,"left_children":[1,3,5,7,-1,9,11,-1,-1,-1,13,-1,-1,-1,-1],"loss_changes":[8.291428E1,1.2271755E1,7.158665E1,9.289453E0,0E0,1.3193222E1,1.3517508E1,0E0,0E0,0E0,8.536041E0,0E0,0E0,0E0,0E0],"parents":[2147483647,0,0,1,1,2,2,3,3,5,5,6,6,10,10],"right_children":[2,4,6,8,-1,10,12,-1,-1,-1,14,-1,-1,-1,-1],"split_conditions":[6.060318E-1,-9.421581E-5,-7.135135E-1,1.688703E-1,-1.1275542E-1,2.636894E-7,5.971566E1,7.570533E-2,-6.9797E-2,1.4176974E-1,2.2386789E-4,4.192178E-2,-1.1464555E-1,-0E0,4.229745E-1],"split_indices":[67,82,83,4,0,96,27,0,0,0,6,0,0,0,0],"split_type":[0,0,0,0,0,0,0,0,0,0,0,0,0,0,0],"sum_hessian":[6.296547E2,3.717151E2,2.579396E2,8.042049E1,2.9129462E2,1.3142477E2,1.2651483E2,5.149414E1,2.8926348E1,5.9300255E1,7.212453E1,6.891247E1,5.7602364E1,9.62102E0,6.25035E1],"tree_param":{"num_deleted":"0","num_feature":"108","num_nodes":"15","size_leaf_vector":"1"}},{"base_weights":[-0E0,-1.5861745E-1,3.4900844E-1,6.3036263E-1,-1.05682835E-2,2.224636E-1,-0E0],"categories":[],"categories_nodes":[],"categories_segments":[],"categories_sizes":[],"default_left":[0,0,0,0,0,0,0],"id":11,"left_children":[1,-1,3,5,-1,-1,-1],"loss_changes":[1.22997955E2,0E0,4.54625E1,1.5374619E1,0E0,0E0,0E0],"parents":[2147483647,0,0,2,2,3,3],"right_children":[2,-1,4,6,-1,-1,-1],"split_conditions":[1.5107947E-6,-1.5861745E-1,2.2781389E-5,-1.7945263E1,-1.05682835E-2,2.224636E-1,-0E0],"split_indices":[11,0,14,73,0,0,0],"split_type":[0,0,0,0,0,0,0],"sum_hessian":[6.2432153E2,2.4365112E2,3.8067038E2,2.2679773E2,1.5387267E2,1.9577269E2,3.102504E1],"tree_param":{"num_deleted":"0","num_feature":"108","num_nodes":"7","size_leaf_vector":"1"}},{"base_weights":[2.6518837E-2,-1.5497193E-1,5.8536726E-1,2.1987206E-1,3.0636078E-1,5.825906E-1,-0E0,2.3188488E-1,-0E0],"categories":[],"categories_nodes":[],"categories_segments":[],"categories_sizes":[],"default_left":[0,0,0,0,0,0,0,0,0],"id":12,"left_children":[1,-1,3,-1,5,7,-1,-1,-1],"loss_changes":[2.0185072E2,0E0,9.3085785E0,0E0,1.1807099E1,9.36709E0,0E0,0E0,0E0],"parents":[2147483647,0,0,2,2,4,4,5,5],"right_children":[2,-1,4,-1,6,8,-1,-1,-1],"split_conditions":[-9.531869E-1,-1.5497193E-1,1.772351E-1,2.1987206E-1,4.3440447E-9,-2.7968055E-5,-0E0,2.3188488E-1,-0E0],"split_indices":[4,0,54,0,76,82,0,0,0],"split_type":[0,0,0,0,0,0,0,0,0],"sum_hessian":[6.298504E2,3.152496E2,3.146008E2,1.9430067E2,1.2030014E2,6.416287E1,5.6137268E1,5.3674465E1,1.0488411E1],"tree_param":{"num_deleted":"0","num_feature":"108","num_nodes":"9","size_leaf_vector":"1"}},{"base_weights":[-5.0618076E-3,-1.564586E-1,7.2934735E-1,4.2790666E-2,8.9726526E-1,-0E0,9.6694225E-1,9.243429E-2,3.3028153E-1],"categories":[],"categories_nodes":[],"categories_segments":[],"categories_sizes":[],"default_left":[0,0,0,0,0,0,0,0,0],"id":13,"left_children":[1,-1,3,-1,5,-1,7,-1,-1],"loss_changes":[2.4724066E2,0E0,1.9364868E1,0E0,1.2616592E1,0E0,8.479538E0,0E0,0E0],"parents":[2147483647,0,0,2,2,4,4,6,6],"right_children":[2,-1,4,-1,6,-1,8,-1,-1],"split_conditions":[1.7931105E-5,-1.564586E-1,-1.406301E0,4.2790666E-2,1.3553227E0,-0E0,-1.2000333E0,9.243429E-2,3.3028153E-1],"split_indices":[14,0,67,0,2,0,90,0,0],"split_type":[0,0,0,0,0,0,0,0,0],"sum_hessian":[6.225513E2,3.696487E2,2.5290257E2,6.2878815E1,1.9002376E2,9.067636E0,1.8095612E2,3.6709625E1,1.4424649E2],"tree_param":{"num_deleted":"0","num_feature":"108","num_nodes":"9","size_leaf_vector":"1"}},{"base_weights":[-1.5192015E-2,3.074598E-1,-2.75025E-1,-1.5512185E-1,7.0137936E-1,2.7563757E-1,-3.189568E-2],"categories":[],"categories_nodes":[],"categories_segments":[],"categories_sizes":[],"default_left":[0,0,0,0,0,0,0],"id":14,"left_children":[1,-1,3,-1,5,-1,-1],"loss_changes":[1.6946402E2,0E0,1.2025073E2,0E0,1.9669395E1,0E0,0E0],"parents":[2147483647,0,0,2,2,4,4],"right_children":[2,-1,4,-1,6,-1,-1],"split_conditions":[4.415379E0,3.074598E-1,7.715221E2,-1.5512185E-1,-5.556933E-8,2.7563757E-1,-3.189568E-2],"split_indices":[48,0,27,0,96,0,0],"split_type":[0,0,0,0,0,0,0],"sum_hessian":[5.944923E2,1.1491217E2,4.7958017E2,3.8867722E2,9.090295E1,7.635574E1,1.4547206E1],"tree_param":{"num_deleted":"0","num_feature":"108","num_nodes":"7","size_leaf_vector":"1"}},{"base_weights":[-0E0,-1.4366798E-1,3.9026424E-1,-3.780425E-2,5.7245874E-1,1.5969905E-1,2.6515764E-1,2.5562257E-1,1.20005915E-2],"categories":[],"categories_nodes":[],"categories_segments":[],"categories_sizes":[],"default_left":[0,0,0,0,0,0,0,0,0],"id":15,"left_children":[1,-1,3,-1,5,7,-1,-1,-1],"loss_changes":[1.2051604E2,0E0,3.480075E1,0E0,2.9292892E1,1.1626633E1,0E0,0E0,0E0],"parents":[2147483647,0,0,2,2,4,4,5,5],"right_children":[2,-1,4,-1,6,8,-1,-1,-1],"split_conditions":[1.2374825E11,-1.4366798E-1,-2.1351828E1,-3.780425E-2,2.4048897E2,2.0149559E1,2.6515764E-1,2.5562257E-1,1.20005915E-2],"split_indices":[35,0,73,0,0,18,0,0,0],"split_type":[0,0,0,0,0,0,0,0,0],"sum_hessian":[6.010796E2,2.664662E2,3.3461337E2,8.043385E1,2.5417953E2,1.1611122E2,1.3806831E2,1.0704455E1,1.0540676E2],"tree_param":{"num_deleted":"0","num_feature":"108","num_nodes":"9","size_leaf_vector":"1"}},{"base_weights":[-1.7971404E-2,2.764811E-1,-1.4132361E-1,4.6466348E-1,-1.0226202E-1,5.6156135E-1,-9.7938225E-2,3.5174657E-2,2.124845E-1],"categories":[],"categories_nodes":[],"categories_segments":[],"categories_sizes":[],"default_left":[0,0,0,0,0,0,0,0,0],"id":16,"left_children":[1,3,-1,5,-1,7,-1,-1,-1],"loss_changes":[8.804276E1,4.6014366E1,0E0,2.4570213E1,0E0,1.2369667E1,0E0,0E0,0E0],"parents":[2147483647,0,0,1,1,3,3,5,5],"right_children":[2,4,-1,6,-1,8,-1,-1,-1],"split_conditions":[9.223575E1,4.4338016E2,-1.4132361E-1,5.426802E-4,-1.0226202E-1,1.1322421E3,-9.7938225E-2,3.5174657E-2,2.124845E-1],"split_indices":[9,27,0,82,0,39,0,0,0],"split_type":[0,0,0,0,0,0,0,0,0],"sum_hessian":[6.004793E2,3.5744324E2,2.4303604E2,2.7999448E2,7.744878E1,2.5500592E2,2.4988548E1,7.142459E1,1.8358133E2],"tree_param":{"num_deleted":"0","num_feature":"108","num_nodes":"9","size_leaf_vector":"1"}},{"base_weights":[2.5036403E-3,-2.4480563E-1,3.2765922E-1,-1.10539205E-1,-0E0,5.339776E-1,-9.604367E-2,1.2503712E-1,-5.4612815E-2,6.4140046E-1,-7.3832385E-2,2.3971239E-1,1.8583728E-1,-0E0,2.2697124E-1],"categories":[],"categories_nodes":[],"categories_segments":[],"categories_sizes":[],"default_left":[0,0,0,0,0,0,0,0,0,0,0,0,0,0,0],"id":17,"left_children":[1,3,5,-1,7,9,-1,-1,-1,11,-1,-1,13,-1,-1],"loss_changes":[5.553432E1,1.1771927E1,4.13737E1,0E0,1.4640291E1,2.0794998E1,0E0,0E0,0E0,9.235786E0,0E0,0E0,1.2531271E1,0E0,0E0],"parents":[2147483647,0,0,1,1,2,2,4,4,5,5,9,9,12,12],"right_children":[2,4,6,-1,8,10,-1,-1,-1,12,-1,-1,14,-1,-1],"split_conditions":[6.060318E-1,2.9546289E-8,5.971566E1,-1.10539205E-1,4.468851E-2,5.5059347E-5,-9.604367E-2,1.2503712E-1,-5.4612815E-2,2.1873772E2,-7.3832385E-2,2.3971239E-1,3.1730742E1,-0E0,2.2697124E-1],"split_indices":[67,47,27,0,70,19,0,0,0,0,0,0,67,0,0],"split_type":[0,0,0,0,0,0,0,0,0,0,0,0,0,0,0],"sum_hessian":[6.1628235E2,3.4168805E2,2.7459433E2,2.3775829E2,1.03929756E2,2.1395947E2,6.0634857E1,3.7932873E1,6.599689E1,1.9357787E2,2.0381609E1,1.3585661E2,5.7721245E1,4.0853794E1,1.686745E1],"tree_param":{"num_deleted":"0","num_feature":"108","num_nodes":"15","size_leaf_vector":"1"}},{"base_weights":[-0E0,-1.5839179E-1,2.5875178E-1,-0E0,4.404204E-1,1.8007594E-1,-0E0],"categories":[],"categories_nodes":[],"categories_segments":[],"categories_sizes":[],"default_left":[0,0,0,0,0,0,0],"id":18,"left_children":[1,-1,3,-1,5,-1,-1],"loss_changes":[9.009419E1,0E0,1.8295055E1,0E0,1.7836758E1,0E0,0E0],"parents":[2147483647,0,0,2,2,4,4],"right_children":[2,-1,4,-1,6,-1,-1],"split_conditions":[4.7895373E-6,-1.5839179E-1,2.7209686E1,-0E0,-1.952344E1,1.8007594E-1,-0E0],"split_indices":[14,0,1,0,73,0,0],"split_type":[0,0,0,0,0,0,0],"sum_hessian":[6.1119086E2,1.9608908E2,4.1510178E2,1.8045871E2,2.3464307E2,1.7764793E2,5.6995136E1],"tree_param":{"num_deleted":"0","num_feature":"108","num_nodes":"7","size_leaf_vector":"1"}},{"base_weights":[2.460279E-2,-1.5263447E-1,4.2069882E-1,1.3880089E-1,-4.5048714E-2],"categories":[],"categories_nodes":[],"categories_segments":[],"categories_sizes":[],"default_left":[0,0,0,0,0],"id":19,"left_children":[1,-1,3,-1,-1],"loss_changes":[1.3888866E2,0E0,9.877464E0,0E0,0E0],"parents":[2147483647,0,0,2,2],"right_children":[2,-1,4,-1,-1],"split_conditions":[4.010756E-6,-1.5263447E-1,1.3479341E0,1.3880089E-1,-4.5048714E-2],"split_indices":[11,0,54,0,0],"split_type":[0,0,0,0,0],"sum_hessian":[6.182717E2,2.5838983E2,3.5988187E2,3.435182E2,1.6363705E1],"tree_param":{"num_deleted":"0","num_feature":"108","num_nodes":"5","size_leaf_vector":"1"}},{"base_weights":[-0E0,-4.8845458E-1,5.1376504E-1,-1.5872961E-1,8.832206E-2,2.3796558E-1,2.113642E-1,-0E0,5.6652355E-1,-6.362374E-2,7.8816935E-2,-0E0,3.0304718E-1],"categories":[],"categories_nodes":[],"categories_segments":[],"categories_sizes":[],"default_left":[0,0,0,0,0,0,0,0,0,0,0,0,0],"id":20,"left_children":[1,3,5,-1,-1,7,-1,9,11,-1,-1,-1,-1],"loss_changes":[1.5995795E2,1.1846802E1,1.206723E1,0E0,0E0,1.2460419E1,0E0,8.670471E0,1.5127037E1,0E0,0E0,0E0,0E0],"parents":[2147483647,0,0,1,1,2,2,5,5,7,7,8,8],"right_children":[2,4,6,-1,-1,8,-1,10,12,-1,-1,-1,-1],"split_conditions":[6.347586E-6,7.2006726E-1,1.3984065E-2,-1.5872961E-1,8.832206E-2,-4.747277E-5,2.113642E-1,1.5209622E0,2.2710571E0,-6.362374E-2,7.8816935E-2,-0E0,3.0304718E-1],"split_indices":[11,4,63,0,0,82,0,91,68,0,0,0,0],"split_type":[0,0,0,0,0,0,0,0,0,0,0,0,0],"sum_hessian":[5.98254E2,3.11436E2,2.8681805E2,3.02326E2,9.110037E0,1.2782503E2,1.5899301E2,7.3196465E1,5.462856E1,4.205225E1,3.1144218E1,2.4422749E1,3.020581E1],"tree_param":{"num_deleted":"0","num_feature":"108","num_nodes":"13","size_leaf_vector":"1"}},{"base_weights":[-2.077436E-2,6.352087E-1,-1.4953512E-1,-9.0898864E-2,2.2707577E-1],"categories":[],"categories_nodes":[],"categories_segments":[],"categories_sizes":[],"default_left":[0,0,0,0,0],"id":21,"left_children":[1,3,-1,-1,-1],"loss_changes":[1.795312E2,2.86931E1,0E0,0E0,0E0],"parents":[2147483647,0,0,1,1],"right_children":[2,4,-1,-1,-1],"split_conditions":[9.876378E-8,-1.31E0,-1.4953512E-1,-9.0898864E-2,2.2707577E-1],"split_indices":[14,16,0,0,0],"split_type":[0,0,0,0,0],"sum_hessian":[5.407204E2,2.2333342E2,3.1738696E2,2.08297E1,2.0250372E2],"tree_param":{"num_deleted":"0","num_feature":"108","num_nodes":"5","size_leaf_vector":"1"}},{"base_weights":[-0E0,3.1441665E-1,-1.3953689E-1,-1.1746622E-1,4.0822273E-1,5.1327354E-1,1.6602833E-2,-2.3858348E-2,1.7861141E-1,1.7324705E-1,-1.8316887E-3],"categories":[],"categories_nodes":[],"categories_segments":[],"categories_sizes":[],"default_left":[0,0,0,0,0,0,0,0,0,0,0],"id":22,"left_children":[1,3,-1,-1,5,7,9,-1,-1,-1,-1],"loss_changes":[9.119554E1,2.6290844E1,0E0,0E0,9.498306E0,1.3001526E1,9.113977E0,0E0,0E0,0E0,0E0],"parents":[2147483647,0,0,1,1,4,4,5,5,6,6],"right_children":[2,4,-1,-1,6,8,10,-1,-1,-1,-1],"split_conditions":[4.2344432E-4,2.0682378E0,-1.3953689E-1,-1.1746622E-1,2.3889622E1,5E0,1.8720278E1,-2.3858348E-2,1.7861141E-1,1.7324705E-1,-1.8316887E-3],"split_indices":[6,42,0,0,8,49,18,0,0,0,0],"split_type":[0,0,0,0,0,0,0,0,0,0,0],"sum_hessian":[5.7464886E2,3.463756E2,2.2827325E2,3.441131E1,3.119643E2,2.3613043E2,7.583386E1,2.1345633E1,2.1478479E2,1.0720627E1,6.5113235E1],"tree_param":{"num_deleted":"0","num_feature":"108","num_nodes":"11","size_leaf_vector":"1"}},{"base_weights":[-1.2097381E-2,-1.3422689E-1,2.2391E-1,3.5970056E-1,-8.983101E-2,4.2723766E-1,-8.328237E-2,2.0542938E-1,2.555639E-1,1.359862E-1,-0E0],"categories":[],"categories_nodes":[],"categories_segments":[],"categories_sizes":[],"default_left":[0,0,0,0,0,0,0,0,0,0,0],"id":23,"left_children":[1,-1,3,5,-1,7,-1,-1,9,-1,-1],"loss_changes":[6.603944E1,0E0,2.9273617E1,1.5115986E1,0E0,1.0360477E1,0E0,0E0,1.1492731E1,0E0,0E0],"parents":[2147483647,0,0,2,2,3,3,5,5,8,8],"right_children":[2,-1,4,6,-1,8,-1,-1,10,-1,-1],"split_conditions":[2.7044723E10,-1.3422689E-1,4.4338016E2,5.426802E-4,-8.983101E-2,5.7379015E-7,-8.328237E-2,2.0542938E-1,1.7792443E-5,1.359862E-1,-0E0],"split_indices":[34,0,27,82,0,14,0,0,82,0,0],"split_type":[0,0,0,0,0,0,0,0,0,0,0],"sum_hessian":[5.7063635E2,2.0779652E2,3.6283984E2,2.955094E2,6.733042E1,2.7419247E2,2.1316921E1,9.797331E1,1.7621918E2,1.08587006E2,6.763217E1],"tree_param":{"num_deleted":"0","num_feature":"108","num_nodes":"11","size_leaf_vector":"1"}},{"base_weights":[2.9853978E-3,1.4704204E-1,-1.289006E-1,4.205964E-1,-2.0531288E-1,2.4992717E-2,1.6506308E-1,1.2539683E-1,-8.0364436E-2],"categories":[],"categories_nodes":[],"categories_segments":[],"categories_sizes":[],"default_left":[0,0,0,0,0,0,0,0,0],"id":24,"left_children":[1,3,-1,5,7,-1,-1,-1,-1],"loss_changes":[4.121774E1,4.8842007E1,0E0,8.422039E0,1.0397868E1,0E0,0E0,0E0,0E0],"parents":[2147483647,0,0,1,1,3,3,4,4],"right_children":[2,4,-1,6,8,-1,-1,-1,-1],"split_conditions":[-5.686E1,2.647386E-1,-1.289006E-1,4.0644393E0,2.0258748E-8,2.4992717E-2,1.6506308E-1,1.2539683E-1,-8.0364436E-2],"split_indices":[16,5,0,50,58,0,0,0,0],"split_type":[0,0,0,0,0,0,0,0,0],"sum_hessian":[5.942506E2,4.5432172E2,1.3992892E2,2.634124E2,1.9090929E2,8.343043E1,1.79982E2,1.0019876E1,1.808894E2],"tree_param":{"num_deleted":"0","num_feature":"108","num_nodes":"9","size_leaf_vector":"1"}},{"base_weights":[-0E0,-1.5396248E-1,2.078927E-1,3.9104983E-1,-8.343886E-4,2.244031E-1,8.254563E-2],"categories":[],"categories_nodes":[],"categories_segments":[],"categories_sizes":[],"default_left":[0,0,0,0,0,0,0],"id":25,"left_children":[1,-1,3,5,-1,-1,-1],"loss_changes":[6.921175E1,0E0,1.929664E1,9.207981E0,0E0,0E0,0E0],"parents":[2147483647,0,0,2,2,3,3],"right_children":[2,-1,4,6,-1,-1,-1],"split_conditions":[4.7895373E-6,-1.5396248E-1,3.0000964E-1,3.5628554E-1,-8.343886E-4,2.244031E-1,8.254563E-2],"split_indices":[14,0,5,54,0,0,0],"split_type":[0,0,0,0,0,0,0],"sum_hessian":[5.9597565E2,1.6551442E2,4.304612E2,2.4227534E2,1.8818588E2,4.868529E1,1.9359004E2],"tree_param":{"num_deleted":"0","num_feature":"108","num_nodes":"7","size_leaf_vector":"1"}},{"base_weights":[1.7720833E-2,-1.4856206E-1,3.187993E-1,1.8684451E-1,1.5596657E-1,-5.78889E-2,8.966282E-2],"categories":[],"categories_nodes":[],"categories_segments":[],"categories_sizes":[],"default_left":[0,0,0,0,0,0,0],"id":26,"left_children":[1,-1,3,5,-1,-1,-1],"loss_changes":[1.0091735E2,0E0,9.067104E0,1.3209196E1,0E0,0E0,0E0],"parents":[2147483647,0,0,2,2,3,3],"right_children":[2,-1,4,6,-1,-1,-1],"split_conditions":[3.9319416E-6,-1.4856206E-1,3.9575794E-1,-1.2000877E0,1.5596657E-1,-5.78889E-2,8.966282E-2],"split_indices":[11,0,60,90,0,0,0],"split_type":[0,0,0,0,0,0,0],"sum_hessian":[6.094154E2,2.1951108E2,3.8990433E2,2.5027562E2,1.3962871E2,4.697719E1,2.0329843E2],"tree_param":{"num_deleted":"0","num_feature":"108","num_nodes":"7","size_leaf_vector":"1"}},{"base_weights":[-0E0,-1.4787588E-1,4.1514158E-1,1.841407E-2,1.59748E-1],"categories":[],"categories_nodes":[],"categories_segments":[],"categories_sizes":[],"default_left":[0,0,0,0,0],"id":27,"left_children":[1,-1,3,-1,-1],"loss_changes":[1.25535576E2,0E0,9.6034775E0,0E0,0E0],"parents":[2147483647,0,0,2,2],"right_children":[2,-1,4,-1,-1],"split_conditions":[1.7159153E-5,-1.4787588E-1,-8.218435E-5,1.841407E-2,1.59748E-1],"split_indices":[14,0,82,0,0],"split_type":[0,0,0,0,0],"sum_hessian":[5.700666E2,2.6137024E2,3.0869635E2,8.7024185E1,2.2167215E2],"tree_param":{"num_deleted":"0","num_feature":"108","num_nodes":"5","size_leaf_vector":"1"}},{"base_weights":[-3.185088E-2,-1.5641172E-1,1.7749606E-1],"categories":[],"categories_nodes":[],"categories_segments":[],"categories_sizes":[],"default_left":[0,0,0],"id":28,"left_children":[1,-1,-1],"loss_changes":[1.596334E2,0E0,0E0],"parents":[2147483647,0,0],"right_children":[2,-1,-1],"split_conditions":[-1.31E0,-1.5641172E-1,1.7749606E-1],"split_indices":[16,0,0],"split_type":[0,0,0],"sum_hessian":[4.905969E2,2.7923532E2,2.1136157E2],"tree_param":{"num_deleted":"0","num_feature":"108","num_nodes":"3","size_leaf_vector":"1"}},{"base_weights":[-0E0,-1.46892E-1,2.3609038E-1,2.990753E-1,-1.03607364E-1,1.1863325E-1,-0E0],"categories":[],"categories_nodes":[],"categories_segments":[],"categories_sizes":[],"default_left":[0,0,0,0,0,0,0],"id":29,"left_children":[1,-1,3,5,-1,-1,-1],"loss_changes":[6.997141E1,0E0,1.627269E1,1.0097439E1,0E0,0E0,0E0],"parents":[2147483647,0,0,2,2,3,3],"right_children":[2,-1,4,6,-1,-1,-1],"split_conditions":[1.4843134E5,-1.46892E-1,-7.532845E7,2.7613108E1,-1.03607364E-1,1.1863325E-1,-0E0],"split_indices":[13,0,89,73,0,0,0],"split_type":[0,0,0,0,0,0,0],"sum_hessian":[5.4807513E2,1.758946E2,3.721805E2,3.435121E2,2.866845E1,2.6478625E2,7.8725815E1],"tree_param":{"num_deleted":"0","num_feature":"108","num_nodes":"7","size_leaf_vector":"1"}},{"base_weights":[-8.148067E-3,1.7118901E-1,-1.446784E-1,-9.0425014E-2,1.3941602E-1],"categories":[],"categories_nodes":[],"categories_segments":[],"categories_sizes":[],"default_left":[0,0,0,0,0],"id":30,"left_children":[1,3,-1,-1,-1],"loss_changes":[5.4086174E1,5.958206E1,0E0,0E0,0E0],"parents":[2147483647,0,0,1,1],"right_children":[2,4,-1,-1,-1],"split_conditions":[-1.1220819E0,-5.8573704E0,-1.446784E-1,-9.0425014E-2,1.3941602E-1],"split_indices":[4,73,0,0,0],"split_type":[0,0,0,0,0],"sum_hessian":[5.453675E2,3.8841544E2,1.5695204E2,1.4239467E2,2.4602077E2],"tree_param":{"num_deleted":"0","num_feature":"108","num_nodes":"5","size_leaf_vector":"1"}},{"base_weights":[7.06636E-3,1.13025025E-1,-1.20891854E-1,9.27494E-2,-7.4077256E-2],"categories":[],"categories_nodes":[],"categories_segments":[],"categories_sizes":[],"default_left":[0,0,0,0,0],"id":31,"left_children":[1,3,-1,-1,-1],"loss_changes":[2.8310032E1,3.6732002E1,0E0,0E0,0E0],"parents":[2147483647,0,0,1,1],"right_children":[2,4,-1,-1,-1],"split_conditions":[6.740057E5,-3.3127725E-1,-1.20891854E-1,9.27494E-2,-7.4077256E-2],"split_indices":[13,4,0,0,0],"split_type":[0,0,0,0,0],"sum_hessian":[5.7115027E2,4.6342792E2,1.07722336E2,3.0882584E2,1.546021E2],"tree_param":{"num_deleted":"0","num_feature":"108","num_nodes":"5","size_leaf_vector":"1"}},{"base_weights":[3.0354904E-3,-1.4959964E-1,1.6708311E-1,2.6984102E-1,-3.8026232E-2,9.9801004E-2,-6.268392E-2],"categories":[],"categories_nodes":[],"categories_segments":[],"categories_sizes":[],"default_left":[0,0,0,0,0,0,0],"id":32,"left_children":[1,-1,3,5,-1,-1,-1],"loss_changes":[5.2441227E1,0E0,1.5518202E1,1.2143793E1,0E0,0E0,0E0],"parents":[2147483647,0,0,2,2,3,3],"right_children":[2,-1,4,6,-1,-1,-1],"split_conditions":[4.7895373E-6,-1.4959964E-1,2.359836E0,3.473298E-7,-3.8026232E-2,9.9801004E-2,-6.268392E-2],"split_indices":[14,0,7,96,0,0,0],"split_type":[0,0,0,0,0,0,0],"sum_hessian":[5.787201E2,1.3520555E2,4.4351456E2,3.4076245E2,1.0275212E2,3.1050906E2,3.025337E1],"tree_param":{"num_deleted":"0","num_feature":"108","num_nodes":"7","size_leaf_vector":"1"}},{"base_weights":[1.8454855E-2,-1.4351453E-1,2.5721085E-1,9.766366E-2,-3.9088656E-3],"categories":[],"categories_nodes":[],"categories_segments":[],"categories_sizes":[],"default_left":[0,0,0,0,0],"id":33,"left_children":[1,-1,3,-1,-1],"loss_changes":[7.6139404E1,0E0,8.531136E0,0E0,0E0],"parents":[2147483647,0,0,2,2],"right_children":[2,-1,4,-1,-1],"split_conditions":[1.3765879E1,-1.4351453E-1,5.9466636E-9,9.766366E-2,-3.9088656E-3],"split_indices":[3,0,76,0,0],"split_type":[0,0,0,0,0],"sum_hessian":[5.928742E2,1.8584341E2,4.070308E2,3.3944315E2,6.758766E1],"tree_param":{"num_deleted":"0","num_feature":"108","num_nodes":"5","size_leaf_vector":"1"}},{"base_weights":[-0E0,-1.428714E-1,9.952235E-2],"categories":[],"categories_nodes":[],"categories_segments":[],"categories_sizes":[],"default_left":[0,0,0],"id":34,"left_children":[1,-1,-1],"loss_changes":[9.414599E1,0E0,0E0],"parents":[2147483647,0,0],"right_children":[2,-1,-1],"split_conditions":[1.7159153E-5,-1.428714E-1,9.952235E-2],"split_indices":[14,0,0],"split_type":[0,0,0],"sum_hessian":[5.478419E2,2.2350179E2,3.2434015E2],"tree_param":{"num_deleted":"0","num_feature":"108","num_nodes":"3","size_leaf_vector":"1"}},{"base_weights":[-3.7245993E-2,-1.4799438E-1,1.557127E-1],"categories":[],"categories_nodes":[],"categories_segments":[],"categories_sizes":[],"default_left":[0,0,0],"id":35,"left_children":[1,-1,-1],"loss_changes":[1.20729385E2,0E0,0E0],"parents":[2147483647,0,0],"right_children":[2,-1,-1],"split_conditions":[0E0,-1.4799438E-1,1.557127E-1],"split_indices":[16,0,0],"split_type":[0,0,0],"sum_hessian":[4.4000522E2,2.4660905E2,1.9339616E2],"tree_param":{"num_deleted":"0","num_feature":"108","num_nodes":"3","size_leaf_vector":"1"}},{"base_weights":[-0E0,2.19318E-1,-1.3093887E-1,-9.304022E-2,8.236188E-2],"categories":[],"categories_nodes":[],"categories_segments":[],"categories_sizes":[],"default_left":[0,0,0,0,0],"id":36,"left_children":[1,3,-1,-1,-1],"loss_changes":[5.584301E1,1.2605337E1,0E0,0E0,0E0],"parents":[2147483647,0,0,1,1],"right_children":[2,4,-1,-1,-1],"split_conditions":[4.617341E-4,3.692733E0,-1.3093887E-1,-9.304022E-2,8.236188E-2],"split_indices":[6,48,0,0,0],"split_type":[0,0,0,0,0],"sum_hessian":[5.236275E2,3.531097E2,1.705178E2,2.4687681E1,3.2842203E2],"tree_param":{"num_deleted":"0","num_feature":"108","num_nodes":"5","size_leaf_vector":"1"}},{"base_weights":[-8.467466E-3,1.4473559E-1,-1.3163222E-1,6.8431586E-2,-1.0624512E-1],"categories":[],"categories_nodes":[],"categories_segments":[],"categories_sizes":[],"default_left":[0,0,0,0,0],"id":37,"left_children":[1,3,-1,-1,-1],"loss_changes":[4.1330315E1,1.856824E1,0E0,0E0,0E0],"parents":[2147483647,0,0,1,1],"right_children":[2,4,-1,-1,-1],"split_conditions":[1.1719274E2,4.7354045E-4,-1.3163222E-1,6.8431586E-2,-1.0624512E-1],"split_indices":[8,82,0,0,0],"split_type":[0,0,0,0,0],"sum_hessian":[5.215321E2,3.7646045E2,1.4507167E2,3.312228E2,4.523765E1],"tree_param":{"num_deleted":"0","num_feature":"108","num_nodes":"5","size_leaf_vector":"1"}},{"base_weights":[3.6995758E-3,-1.0647361E-1,1.1333485E-1,2.3192255E-1,-1.006796E-1,-7.5104153E-3,9.846886E-2],"categories":[],"categories_nodes":[],"categories_segments":[],"categories_sizes":[],"default_left":[0,0,0,0,0,0,0],"id":38,"left_children":[1,-1,3,5,-1,-1,-1],"loss_changes":[2.5282701E1,0E0,2.6723896E1,1.0285587E1,0E0,0E0,0E0],"parents":[2147483647,0,0,2,2,3,3],"right_children":[2,-1,4,6,-1,-1,-1],"split_conditions":[8.788215E-2,-1.0647361E-1,-5.686E1,2.9950876E0,-1.006796E-1,-7.5104153E-3,9.846886E-2],"split_indices":[54,0,16,62,0,0,0],"split_type":[0,0,0,0,0,0,0],"sum_hessian":[5.5874457E2,1.2034538E2,4.3839917E2,3.554435E2,8.295564E1,8.304468E1,2.7239883E2],"tree_param":{"num_deleted":"0","num_feature":"108","num_nodes":"7","size_leaf_vector":"1"}},{"base_weights":[5.494944E-4,-1.4158536E-1,1.3650829E-1,1.4278668E-1,6.1838817E-2,7.175496E-2,-1.6121566E-2],"categories":[],"categories_nodes":[],"categories_segments":[],"categories_sizes":[],"default_left":[0,0,0,0,0,0,0],"id":39,"left_children":[1,-1,3,-1,5,-1,-1],"loss_changes":[4.0640022E1,0E0,1.1944233E1,0E0,1.05943985E1,0E0,0E0],"parents":[2147483647,0,0,2,2,4,4],"right_children":[2,-1,4,-1,6,-1,-1],"split_conditions":[1.385359E-6,-1.4158536E-1,-1.5954779E0,1.4278668E-1,1.487941E-5,7.175496E-2,-1.6121566E-2],"split_indices":[11,0,67,0,14,0,0],"split_type":[0,0,0,0,0,0,0],"sum_hessian":[5.6617004E2,1.1839109E2,4.4777896E2,6.865749E1,3.791215E2,1.6595677E2,2.131647E2],"tree_param":{"num_deleted":"0","num_feature":"108","num_nodes":"7","size_leaf_vector":"1"}},{"base_weights":[1.4868232E-2,-1.4008453E-1,6.4186834E-2],"categories":[],"categories_nodes":[],"categories_segments":[],"categories_sizes":[],"default_left":[0,0,0],"id":40,"left_children":[1,-1,-1],"loss_changes":[6.0809155E1,0E0,0E0],"parents":[2147483647,0,0],"right_children":[2,-1,-1],"split_conditions":[-1.1220819E0,-1.4008453E-1,6.4186834E-2],"split_indices":[4,0,0],"split_type":[0,0,0],"sum_hessian":[5.807993E2,1.6249312E2,4.183062E2],"tree_param":{"num_deleted":"0","num_feature":"108","num_nodes":"3","size_leaf_vector":"1"}},{"base_weights":[-0E0,-1.4300044E-1,2.5415087E-1,-0E0,3.9031622E-1,1.6208659E-1,1.8524796E-1,-0E0,1.4911807E-1],"categories":[],"categories_nodes":[],"categories_segments":[],"categories_sizes":[],"default_left":[0,0,0,0,0,0,0,0,0],"id":41,"left_children":[1,-1,3,-1,5,7,-1,-1,-1],"loss_changes":[7.05442E1,0E0,1.2498848E1,0E0,9.862156E0,9.127249E0,0E0,0E0,0E0],"parents":[2147483647,0,0,2,2,4,4,5,5],"right_children":[2,-1,4,-1,6,8,-1,-1,-1],"split_conditions":[1.5917578E-5,-1.4300044E-1,3.4817127E-8,-0E0,1.3984065E-2,-3.9080864E-5,1.8524796E-1,-0E0,1.4911807E-1],"split_indices":[14,0,58,0,63,82,0,0,0],"split_type":[0,0,0,0,0,0,0,0,0],"sum_hessian":[5.270419E2,1.807582E2,3.4628366E2,1.1830976E2,2.279739E2,1.2461175E2,1.0336217E2,8.470071E1,3.9911037E1],"tree_param":{"num_deleted":"0","num_feature":"108","num_nodes":"9","size_leaf_vector":"1"}},{"base_weights":[-4.5933105E-2,-1.3812251E-1,3.5983223E-1,1.8876953E-1,1.4620471E-1,-1.3512163E-2,1.3127911E-1],"categories":[],"categories_nodes":[],"categories_segments":[],"categories_sizes":[],"default_left":[0,0,0,0,0,0,0],"id":42,"left_children":[1,-1,3,-1,5,-1,-1],"loss_changes":[7.443645E1,0E0,9.652754E0,0E0,1.10662985E1,0E0,0E0],"parents":[2147483647,0,0,2,2,4,4],"right_children":[2,-1,4,-1,6,-1,-1],"split_conditions":[1.959456E-4,-1.3812251E-1,2.0682378E0,1.8876953E-1,2.4569897E2,-1.3512163E-2,1.3127911E-1],"split_indices":[82,0,42,0,18,0,0],"split_type":[0,0,0,0,0,0,0],"sum_hessian":[3.9610284E2,2.0193558E2,1.9416728E2,7.553776E1,1.18629524E2,6.1841324E1,5.67882E1],"tree_param":{"num_deleted":"0","num_feature":"108","num_nodes":"7","size_leaf_vector":"1"}},{"base_weights":[-0E0,-1.3833304E-1,1.6989106E-1,-8.498927E-2,2.2552547E-1,-1.195899E-3,9.55525E-2],"categories":[],"categories_nodes":[],"categories_segments":[],"categories_sizes":[],"default_left":[0,0,0,0,0,0,0],"id":43,"left_children":[1,-1,3,-1,5,-1,-1],"loss_changes":[4.4896843E1,0E0,1.1618273E1,0E0,8.63958E0,0E0,0E0],"parents":[2147483647,0,0,2,2,4,4],"right_children":[2,-1,4,-1,6,-1,-1],"split_conditions":[2.0687657E2,-1.3833304E-1,-1.3626374E0,-8.498927E-2,-1.886077E1,-1.195899E-3,9.55525E-2],"split_indices":[0,0,83,0,73,0,0],"split_type":[0,0,0,0,0,0,0],"sum_hessian":[5.0466757E2,1.3160103E2,3.7306653E2,3.1084772E1,3.4198175E2,8.347279E1,2.5850897E2],"tree_param":{"num_deleted":"0","num_feature":"108","num_nodes":"7","size_leaf_vector":"1"}},{"base_weights":[-3.528805E-3,-1.1590546E-1,9.400074E-2],"categories":[],"categories_nodes":[],"categories_segments":[],"categories_sizes":[],"default_left":[0,0,0],"id":44,"left_children":[1,-1,-1],"loss_changes":[6.79087E1,0E0,0E0],"parents":[2147483647,0,0],"right_children":[2,-1,-1],"split_conditions":[-7.3453608E0,-1.1590546E-1,9.400074E-2],"split_indices":[73,0,0],"split_type":[0,0,0],"sum_hessian":[5.0188025E2,2.3414069E2,2.6773956E2],"tree_param":{"num_deleted":"0","num_feature":"108","num_nodes":"3","size_leaf_vector":"1"}},{"base_weights":[2.8679064E-3,-9.805152E-2,9.5657706E-2,5.597374E-2,-8.5103214E-2],"categories":[],"categories_nodes":[],"categories_segments":[],"categories_sizes":[],"default_left":[0,0,0,0,0],"id":45,"left_children":[1,-1,3,-1,-1],"loss_changes":[1.9543413E1,0E0,1.7691101E1,0E0,0E0],"parents":[2147483647,0,0,2,2],"right_children":[2,-1,4,-1,-1],"split_conditions":[8.788215E-2,-9.805152E-2,5.971566E1,5.597374E-2,-8.5103214E-2],"split_indices":[54,0,27,0,0],"split_type":[0,0,0,0,0],"sum_hessian":[5.429587E2,1.0762494E2,4.3533377E2,3.6177066E2,7.356311E1],"tree_param":{"num_deleted":"0","num_feature":"108","num_nodes":"5","size_leaf_vector":"1"}},{"base_weights":[6.7598594E-4,-1.3937865E-1,1.1278534E-1,1.5394948E-1,-9.4460614E-2,6.90112E-2,-2.0847026E-2],"categories":[],"categories_nodes":[],"categories_segments":[],"categories_sizes":[],"default_left":[0,0,0,0,0,0,0],"id":46,"left_children":[1,-1,3,5,-1,-1,-1],"loss_changes":[3.2775997E1,0E0,1.0151108E1,8.656241E0,0E0,0E0,0E0],"parents":[2147483647,0,0,2,2,3,3],"right_children":[2,-1,4,6,-1,-1,-1],"split_conditions":[1.261434E-6,-1.3937865E-1,-1.0289243E1,2.359836E0,-9.4460614E-2,6.90112E-2,-2.0847026E-2],"split_indices":[11,0,73,7,0,0,0],"split_type":[0,0,0,0,0,0,0],"sum_hessian":[5.538928E2,9.895714E1,4.5493567E2,4.2557666E2,2.9359007E1,3.3385873E2,9.171794E1],"tree_param":{"num_deleted":"0","num_feature":"108","num_nodes":"7","size_leaf_vector":"1"}},{"base_weights":[1.3735397E-2,-1.3831182E-1,5.1573563E-2],"categories":[],"categories_nodes":[],"categories_segments":[],"categories_sizes":[],"default_left":[0,0,0],"id":47,"left_children":[1,-1,-1],"loss_changes":[4.7108833E1,0E0,0E0],"parents":[2147483647,0,0],"right_children":[2,-1,-1],"split_conditions":[-1.2330154E0,-1.3831182E-1,5.1573563E-2],"split_indices":[4,0,0],"split_type":[0,0,0],"sum_hessian":[5.675605E2,1.3392664E2,4.3363382E2],"tree_param":{"num_deleted":"0","num_feature":"108","num_nodes":"3","size_leaf_vector":"1"}},{"base_weights":[-0E0,-1.3297072E-1,6.478468E-2],"categories":[],"categories_nodes":[],"categories_segments":[],"categories_sizes":[],"default_left":[0,0,0],"id":48,"left_children":[1,-1,-1],"loss_changes":[5.468461E1,0E0,0E0],"parents":[2147483647,0,0],"right_children":[2,-1,-1],"split_conditions":[1.7159153E-5,-1.3297072E-1,6.478468E-2],"split_indices":[14,0,0],"split_type":[0,0,0],"sum_hessian":[5.0801044E2,1.6436258E2,3.4364786E2],"tree_param":{"num_deleted":"0","num_feature":"108","num_nodes":"3","size_leaf_vector":"1"}},{"base_weights":[-5.1380582E-2,-1.4833122E-1,3.7066635E-1,1.345154E-1,-7.463717E-2],"categories":[],"categories_nodes":[],"categories_segments":[],"categories_sizes":[],"default_left":[0,0,0,0,0],"id":49,"left_children":[1,-1,3,-1,-1],"loss_changes":[7.450753E1,0E0,1.0795856E1,0E0,0E0],"parents":[2147483647,0,0,2,2],"right_children":[2,-1,4,-1,-1],"split_conditions":[-1.31E0,-1.4833122E-1,8.6058397E-11,1.345154E-1,-7.463717E-2],"split_indices":[16,0,96,0,0],"split_type":[0,0,0,0,0],"sum_hessian":[3.5403998E2,1.783798E2,1.7566017E2,1.6325694E2,1.2403229E1],"tree_param":{"num_deleted":"0","num_feature":"108","num_nodes":"5","size_leaf_vector":"1"}},{"base_weights":[-0E0,-1.3374478E-1,4.252441E-2],"categories":[],"categories_nodes":[],"categories_segments":[],"categories_sizes":[],"default_left":[0,0,0],"id":50,"left_children":[1,-1,-1],"loss_changes":[3.5716057E1,0E0,0E0],"parents":[2147483647,0,0],"right_children":[2,-1,-1],"split_conditions":[2.0687657E2,-1.3374478E-1,4.252441E-2],"split_indices":[0,0,0],"split_type":[0,0,0],"sum_hessian":[4.844955E2,1.1346524E2,3.7103027E2],"tree_param":{"num_deleted":"0","num_feature":"108","num_nodes":"3","size_leaf_vector":"1"}},{"base_weights":[-0E0,1.1679647E-1,-1.2105444E-1,-1.2452928E-1,2.2511691E-1,1.08223036E-1,-0E0],"categories":[],"categories_nodes":[],"categories_segments":[],"categories_sizes":[],"default_left":[0,0,0,0,0,0,0],"id":51,"left_children":[1,3,-1,-1,5,-1,-1],"loss_changes":[2.8513151E1,2.469619E1,0E0,0E0,9.327808E0,0E0,0E0],"parents":[2147483647,0,0,1,1,4,4],"right_children":[2,4,-1,-1,6,-1,-1],"split_conditions":[1.1719274E2,-1.957905E1,-1.2105444E-1,-1.2452928E-1,5.70356E-7,1.08223036E-1,-0E0],"split_indices":[8,73,0,0,96,0,0],"split_type":[0,0,0,0,0,0,0],"sum_hessian":[4.789787E2,3.6561996E2,1.1335876E2,5.4106007E1,3.1151395E2,1.9144774E2,1.20066216E2],"tree_param":{"num_deleted":"0","num_feature":"108","num_nodes":"7","size_leaf_vector":"1"}},{"base_weights":[4.040858E-3,6.30395E-2,-1.1257006E-1,-4.8011012E-2,4.959092E-2],"categories":[],"categories_nodes":[],"categories_segments":[],"categories_sizes":[],"default_left":[0,0,0,0,0],"id":52,"left_children":[1,3,-1,-1,-1],"loss_changes":[1.4480116E1,1.2920219E1,0E0,0E0,0E0],"parents":[2147483647,0,0,1,1],"right_children":[2,4,-1,-1,-1],"split_conditions":[1.22668655E2,2.9950876E0,-1.1257006E-1,-4.8011012E-2,4.959092E-2],"split_indices":[27,62,0,0,0],"split_type":[0,0,0,0,0],"sum_hessian":[5.276179E2,4.6793167E2,5.968622E1,1.3202354E2,3.3590814E2],"tree_param":{"num_deleted":"0","num_feature":"108","num_nodes":"5","size_leaf_vector":"1"}},{"base_weights":[-0E0,2.7633753E-2,-1.3273442E-1],"categories":[],"categories_nodes":[],"categories_segments":[],"categories_sizes":[],"default_left":[0,0,0],"id":53,"left_children":[1,-1,-1],"loss_changes":[2.5533073E1,0E0,0E0],"parents":[2147483647,0,0],"right_children":[2,-1,-1],"split_conditions":[2.0149559E1,2.7633753E-2,-1.3273442E-1],"split_indices":[18,0,0],"split_type":[0,0,0],"sum_hessian":[5.41191E2,4.5721432E2,8.397662E1],"tree_param":{"num_deleted":"0","num_feature":"108","num_nodes":"3","size_leaf_vector":"1"}},{"base_weights":[1.41114555E-2,4.451321E-2,-1.2992376E-1],"categories":[],"categories_nodes":[],"categories_segments":[],"categories_sizes":[],"default_left":[0,0,0],"id":54,"left_children":[1,-1,-1],"loss_changes":[3.7367756E1,0E0,0E0],"parents":[2147483647,0,0],"right_children":[2,-1,-1],"split_conditions":[1.3671191E0,4.451321E-2,-1.2992376E-1],"split_indices":[20,0,0],"split_type":[0,0,0],"sum_hessian":[5.555379E2,4.3586212E2,1.1967576E2],"tree_param":{"num_deleted":"0","num_feature":"108","num_nodes":"3","size_leaf_vector":"1"}},{"base_weights":[-0E0,-1.3569105E-1,1.750562E-1,-3.271964E-2,8.726742E-2],"categories":[],"categories_nodes":[],"categories_segments":[],"categories_sizes":[],"default_left":[0,0,0,0,0],"id":55,"left_children":[1,-1,3,-1,-1],"loss_changes":[4.4132946E1,0E0,1.396774E1,0E0,0E0],"parents":[2147483647,0,0,2,2],"right_children":[2,-1,4,-1,-1],"split_conditions":[1.83144E1,-1.3569105E-1,8.396409E-8,-3.271964E-2,8.726742E-2],"split_indices":[55,0,77,0,0],"split_type":[0,0,0,0,0],"sum_hessian":[4.9008075E2,1.3225179E2,3.5782898E2,9.136889E1,2.6646008E2],"tree_param":{"num_deleted":"0","num_feature":"108","num_nodes":"5","size_leaf_vector":"1"}},{"base_weights":[-5.7387847E-2,-1.3210553E-1,8.645714E-2],"categories":[],"categories_nodes":[],"categories_segments":[],"categories_sizes":[],"default_left":[0,0,0],"id":56,"left_children":[1,-1,-1],"loss_changes":[4.869893E1,0E0,0E0],"parents":[2147483647,0,0],"right_children":[2,-1,-1],"split_conditions":[3.2221316E-4,-1.3210553E-1,8.645714E-2],"split_indices":[87,0,0],"split_type":[0,0,0],"sum_hessian":[3.153405E2,1.5617264E2,1.5916788E2],"tree_param":{"num_deleted":"0","num_feature":"108","num_nodes":"3","size_leaf_vector":"1"}},{"base_weights":[-0E0,-1.2914248E-1,3.7951853E-2],"categories":[],"categories_nodes":[],"categories_segments":[],"categories_sizes":[],"default_left":[0,0,0],"id":57,"left_children":[1,-1,-1],"loss_changes":[2.9630154E1,0E0,0E0],"parents":[2147483647,0,0],"right_children":[2,-1,-1],"split_conditions":[2.2071345E10,-1.2914248E-1,3.7951853E-2],"split_indices":[34,0,0],"split_type":[0,0,0],"sum_hessian":[4.6918225E2,9.8649925E1,3.7053232E2],"tree_param":{"num_deleted":"0","num_feature":"108","num_nodes":"3","size_leaf_vector":"1"}},{"base_weights":[-0E0,-1.1491044E-1,2.9378343E-2],"categories":[],"categories_nodes":[],"categories_segments":[],"categories_sizes":[],"default_left":[0,0,0],"id":58,"left_children":[1,-1,-1],"loss_changes":[2.274866E1,0E0,0E0],"parents":[2147483647,0,0],"right_children":[2,-1,-1],"split_conditions":[2.0432407E2,-1.1491044E-1,2.9378343E-2],"split_indices":[0,0,0],"split_type":[0,0,0],"sum_hessian":[4.6204263E2,9.9473625E1,3.6256903E2],"tree_param":{"num_deleted":"0","num_feature":"108","num_nodes":"3","size_leaf_vector":"1"}},{"base_weights":[6.54955E-4,1.4907786E-1,-4.8199613E-2,8.676447E-2,-1.6220259E-2],"categories":[],"categories_nodes":[],"categories_segments":[],"categories_sizes":[],"default_left":[0,0,0,0,0],"id":59,"left_children":[1,3,-1,-1,-1],"loss_changes":[1.5385251E1,1.0435335E1,0E0,0E0,0E0],"parents":[2147483647,0,0,1,1],"right_children":[2,4,-1,-1,-1],"split_conditions":[-7.135135E-1,8.6717084E-2,-4.8199613E-2,8.676447E-2,-1.6220259E-2],"split_indices":[83,61,0,0,0],"split_type":[0,0,0,0,0],"sum_hessian":[5.2000726E2,2.862857E2,2.3372154E2,1.8351054E2,1.0277515E2],"tree_param":{"num_deleted":"0","num_feature":"108","num_nodes":"5","size_leaf_vector":"1"}},{"base_weights":[-0E0,-1.3400927E-1,7.39837E-2,3.4506813E-2,-8.136351E-2],"categories":[],"categories_nodes":[],"categories_segments":[],"categories_sizes":[],"default_left":[0,0,0,0,0],"id":60,"left_children":[1,-1,3,-1,-1],"loss_changes":[2.138995E1,0E0,8.499128E0,0E0,0E0],"parents":[2147483647,0,0,2,2],"right_children":[2,-1,4,-1,-1],"split_conditions":[4.3655033E0,-1.3400927E-1,3.473298E-7,3.4506813E-2,-8.136351E-2],"split_indices":[3,0,96,0,0],"split_type":[0,0,0,0,0],"sum_hessian":[5.350283E2,6.886064E1,4.661677E2,4.2957858E2,3.6589115E1],"tree_param":{"num_deleted":"0","num_feature":"108","num_nodes":"5","size_leaf_vector":"1"}},{"base_weights":[1.3311533E-2,-1.3696808E-1,3.620331E-2],"categories":[],"categories_nodes":[],"categories_segments":[],"categories_sizes":[],"default_left":[0,0,0],"id":61,"left_children":[1,-1,-1],"loss_changes":[3.1328833E1,0E0,0E0],"parents":[2147483647,0,0],"right_children":[2,-1,-1],"split_conditions":[3.170528E-6,-1.3696808E-1,3.620331E-2],"split_indices":[11,0,0],"split_type":[0,0,0],"sum_hessian":[5.4687665E2,9.300491E1,4.538717E2],"tree_param":{"num_deleted":"0","num_feature":"108","num_nodes":"3","size_leaf_vector":"1"}},{"base_weights":[-0E0,-1.3616721E-1,4.2033445E-2],"categories":[],"categories_nodes":[],"categories_segments":[],"categories_sizes":[],"default_left":[0,0,0],"id":62,"left_children":[1,-1,-1],"loss_changes":[3.536146E1,0E0,0E0],"parents":[2147483647,0,0],"right_children":[2,-1,-1],"split_conditions":[-9.531869E-1,-1.3616721E-1,4.2033445E-2],"split_indices":[4,0,0],"split_type":[0,0,0],"sum_hessian":[4.7684848E2,1.0850553E2,3.6834296E2],"tree_param":{"num_deleted":"0","num_feature":"108","num_nodes":"3","size_leaf_vector":"1"}},{"base_weights":[-5.3945273E-2,-1.4324595E-1,8.4521316E-2],"categories":[],"categories_nodes":[],"categories_segments":[],"categories_sizes":[],"default_left":[0,0,0],"id":63,"left_children":[1,-1,-1],"loss_changes":[4.9073658E1,0E0,0E0],"parents":[2147483647,0,0],"right_children":[2,-1,-1],"split_conditions":[-1.31E0,-1.4324595E-1,8.4521316E-2],"split_indices":[16,0,0],"split_type":[0,0,0],"sum_hessian":[2.9218542E2,1.3547636E2,1.5670906E2],"tree_param":{"num_deleted":"0","num_feature":"108","num_nodes":"3","size_leaf_vector":"1"}},{"base_weights":[-0E0,3.2121897E-2,-1.24784105E-1],"categories":[],"categories_nodes":[],"categories_segments":[],"categories_sizes":[],"default_left":[0,0,0],"id":64,"left_children":[1,-1,-1],"loss_changes":[2.4499907E1,0E0,0E0],"parents":[2147483647,0,0],"right_children":[2,-1,-1],"split_conditions":[1.0115776E2,3.2121897E-2,-1.24784105E-1],"split_indices":[8,0,0],"split_type":[0,0,0],"sum_hessian":[4.5966278E2,3.721634E2,8.749938E1],"tree_param":{"num_deleted":"0","num_feature":"108","num_nodes":"3","size_leaf_vector":"1"}},{"base_weights":[-0E0,-1.0903494E-1,2.39398E-2],"categories":[],"categories_nodes":[],"categories_segments":[],"categories_sizes":[],"default_left":[0,0,0],"id":65,"left_children":[1,-1,-1],"loss_changes":[1.8374826E1,0E0,0E0],"parents":[2147483647,0,0],"right_children":[2,-1,-1],"split_conditions":[1.2803612E5,-1.0903494E-1,2.39398E-2],"split_indices":[13,0,0],"split_type":[0,0,0],"sum_hessian":[4.535599E2,8.886414E1,3.6469577E2],"tree_param":{"num_deleted":"0","num_feature":"108","num_nodes":"3","size_leaf_vector":"1"}},{"base_weights":[-0E0,9.151285E-2,-5.5550523E-2,-8.706552E-2,5.7581603E-3],"categories":[],"categories_nodes":[],"categories_segments":[],"categories_sizes":[],"default_left":[0,0,0,0,0],"id":66,"left_children":[1,-1,3,-1,-1],"loss_changes":[1.2995191E1,0E0,1.0938204E1,0E0,0E0],"parents":[2147483647,0,0,2,2],"right_children":[2,-1,4,-1,-1],"split_conditions":[-2.0248227E0,9.151285E-2,2.995251E0,-8.706552E-2,5.7581603E-3],"split_indices":[83,0,62,0,0],"split_type":[0,0,0,0,0],"sum_hessian":[5.1281696E2,8.7850876E1,4.249661E2,1.17994316E2,3.0697177E2],"tree_param":{"num_deleted":"0","num_feature":"108","num_nodes":"5","size_leaf_vector":"1"}},{"base_weights":[-0E0,-1.3138612E-1,1.9879792E-2],"categories":[],"categories_nodes":[],"categories_segments":[],"categories_sizes":[],"default_left":[0,0,0],"id":67,"left_children":[1,-1,-1],"loss_changes":[1.8840498E1,0E0,0E0],"parents":[2147483647,0,0],"right_children":[2,-1,-1],"split_conditions":[4.7895373E-6,-1.3138612E-1,1.9879792E-2],"split_indices":[14,0,0],"split_type":[0,0,0],"sum_hessian":[5.271664E2,6.1855034E1,4.6531137E2],"tree_param":{"num_deleted":"0","num_feature":"108","num_nodes":"3","size_leaf_vector":"1"}},{"base_weights":[1.2038615E-2,3.434672E-2,-1.1788069E-1],"categories":[],"categories_nodes":[],"categories_segments":[],"categories_sizes":[],"default_left":[0,0,0],"id":68,"left_children":[1,-1,-1],"loss_changes":[2.5758062E1,0E0,0E0],"parents":[2147483647,0,0],"right_children":[2,-1,-1],"split_conditions":[3.3959724E1,3.434672E-2,-1.1788069E-1],"split_indices":[1,0,0],"split_type":[0,0,0],"sum_hessian":[5.397184E2,4.405963E2,9.912207E1],"tree_param":{"num_deleted":"0","num_feature":"108","num_nodes":"3","size_leaf_vector":"1"}},{"base_weights":[-0E0,-1.3078238E-1,3.7217725E-2],"categories":[],"categories_nodes":[],"categories_segments":[],"categories_sizes":[],"default_left":[0,0,0],"id":69,"left_children":[1,-1,-1],"loss_changes":[3.0225897E1,0E0,0E0],"parents":[2147483647,0,0],"right_children":[2,-1,-1],"split_conditions":[1.78254E1,-1.3078238E-1,3.7217725E-2],"split_indices":[55,0,0],"split_type":[0,0,0],"sum_hessian":[4.677961E2,1.00637276E2,3.6715884E2],"tree_param":{"num_deleted":"0","num_feature":"108","num_nodes":"3","size_leaf_vector":"1"}},{"base_weights":[-4.996283E-2,-1.3907605E-1,1.7849016E-1,2.8946808E-1,-1.04289085E-1,1.4049837E-1,-0E0],"categories":[],"categories_nodes":[],"categories_segments":[],"categories_sizes":[],"default_left":[0,0,0,0,0,0,0],"id":70,"left_children":[1,-1,3,5,-1,-1,-1],"loss_changes":[3.217875E1,0E0,1.2988934E1,9.290726E0,0E0,0E0,0E0],"parents":[2147483647,0,0,2,2,3,3],"right_children":[2,-1,4,6,-1,-1,-1],"split_conditions":[3.6906853E-2,-1.3907605E-1,8.6058397E-11,8.396804E-2,-1.04289085E-1,1.4049837E-1,-0E0],"split_indices":[81,0,96,61,0,0,0],"split_type":[0,0,0,0,0,0,0],"sum_hessian":[2.6747986E2,1.0258051E2,1.6489937E2,1.439374E2,2.0961967E1,9.57727E1,4.8164696E1],"tree_param":{"num_deleted":"0","num_feature":"108","num_nodes":"7","size_leaf_vector":"1"}},{"base_weights":[-0E0,5.1203508E-2,-6.986012E-2],"categories":[],"categories_nodes":[],"categories_segments":[],"categories_sizes":[],"default_left":[0,0,0],"id":71,"left_children":[1,-1,-1],"loss_changes":[2.1464417E1,0E0,0E0],"parents":[2147483647,0,0],"right_children":[2,-1,-1],"split_conditions":[1.7328955E-4,5.1203508E-2,-6.986012E-2],"split_indices":[6,0,0],"split_type":[0,0,0],"sum_hessian":[4.4877222E2,2.6952603E2,1.7924617E2],"tree_param":{"num_deleted":"0","num_feature":"108","num_nodes":"3","size_leaf_vector":"1"}},{"base_weights":[-0E0,7.818299E-2,-1.2024391E-1,1.3856127E-2,2.2849244E-1],"categories":[],"categories_nodes":[],"categories_segments":[],"categories_sizes":[],"default_left":[0,0,0,0,0],"id":72,"left_children":[1,3,-1,-1,-1],"loss_changes":[1.941315E1,1.0761E1,0E0,0E0,0E0],"parents":[2147483647,0,0,1,1],"right_children":[2,4,-1,-1,-1],"split_conditions":[-1.1220819E0,1.3553227E0,-1.2024391E-1,1.3856127E-2,2.2849244E-1],"split_indices":[4,2,0,0,0],"split_type":[0,0,0,0,0],"sum_hessian":[4.4374997E2,3.6595605E2,7.779391E1,3.5684653E2,9.109529E0],"tree_param":{"num_deleted":"0","num_feature":"108","num_nodes":"5","size_leaf_vector":"1"}},{"base_weights":[-0E0,3.8565833E-2,-1.1530823E-1,3.9004352E-2,-3.9564837E-2],"categories":[],"categories_nodes":[],"categories_segments":[],"categories_sizes":[],"default_left":[0,0,0,0,0],"id":73,"left_children":[1,3,-1,-1,-1],"loss_changes":[1.0340306E1,9.247936E0,0E0,0E0,0E0],"parents":[2147483647,0,0,1,1],"right_children":[2,4,-1,-1,-1],"split_conditions":[2.1964679E2,3.7889773E-8,-1.1530823E-1,3.9004352E-2,-3.9564837E-2],"split_indices":[27,58,0,0,0],"split_type":[0,0,0,0,0],"sum_hessian":[5.0505374E2,4.6782855E2,3.7225193E1,3.2309308E2,1.4473547E2],"tree_param":{"num_deleted":"0","num_feature":"108","num_nodes":"5","size_leaf_vector":"1"}},{"base_weights":[-0E0,-9.08805E-2,2.227065E-2],"categories":[],"categories_nodes":[],"categories_segments":[],"categories_sizes":[],"default_left":[0,0,0],"id":74,"left_children":[1,-1,-1],"loss_changes":[1.4804224E1,0E0,0E0],"parents":[2147483647,0,0],"right_children":[2,-1,-1],"split_conditions":[1.4497658E-9,-9.08805E-2,2.227065E-2],"split_indices":[80,0,0],"split_type":[0,0,0],"sum_hessian":[5.2202155E2,9.582436E1,4.261972E2],"tree_param":{"num_deleted":"0","num_feature":"108","num_nodes":"3","size_leaf_vector":"1"}},{"base_weights":[8.685678E-3,2.8597536E-2,-1.1692234E-1],"categories":[],"categories_nodes":[],"categories_segments":[],"categories_sizes":[],"default_left":[0,0,0],"id":75,"left_children":[1,-1,-1],"loss_changes":[2.1566029E1,0E0,0E0],"parents":[2147483647,0,0],"right_children":[2,-1,-1],"split_conditions":[1.3671191E0,2.8597536E-2,-1.1692234E-1],"split_indices":[20,0,0],"split_type":[0,0,0],"sum_hessian":[5.3426306E2,4.491483E2,8.511477E1],"tree_param":{"num_deleted":"0","num_feature":"108","num_nodes":"3","size_leaf_vector":"1"}},{"base_weights":[-0E0,-1.3240248E-1,9.772015E-2,-2.3628773E-2,7.441006E-2],"categories":[],"categories_nodes":[],"categories_segments":[],"categories_sizes":[],"default_left":[0,0,0,0,0],"id":76,"left_children":[1,-1,3,-1,-1],"loss_changes":[2.4616007E1,0E0,1.258863E1,0E0,0E0],"parents":[2147483647,0,0,2,2],"right_children":[2,-1,4,-1,-1],"split_conditions":[1.6007633E1,-1.3240248E-1,3.6996596E-8,-2.3628773E-2,7.441006E-2],"split_indices":[48,0,58,0,0],"split_type":[0,0,0,0,0],"sum_hessian":[4.59153E2,8.076956E1,3.7838345E2,1.5923363E2,2.1914984E2],"tree_param":{"num_deleted":"0","num_feature":"108","num_nodes":"5","size_leaf_vector":"1"}},{"base_weights":[-5.0038353E-2,5.9253205E-2,-1.23311564E-1],"categories":[],"categories_nodes":[],"categories_segments":[],"categories_sizes":[],"default_left":[0,0,0],"id":77,"left_children":[1,-1,-1],"loss_changes":[2.798587E1,0E0,0E0],"parents":[2147483647,0,0],"right_children":[2,-1,-1],"split_conditions":[9.876378E-8,5.9253205E-2,-1.23311564E-1],"split_indices":[14,0,0],"split_type":[0,0,0],"sum_hessian":[2.4364346E2,1.367123E2,1.0693118E2],"tree_param":{"num_deleted":"0","num_feature":"108","num_nodes":"3","size_leaf_vector":"1"}},{"base_weights":[-0E0,2.5296818E-2,-1.19184546E-1],"categories":[],"categories_nodes":[],"categories_segments":[],"categories_sizes":[],"default_left":[0,0,0],"id":78,"left_children":[1,-1,-1],"loss_changes":[1.803803E1,0E0,0E0],"parents":[2147483647,0,0],"right_children":[2,-1,-1],"split_conditions":[1.115363E2,2.5296818E-2,-1.19184546E-1],"split_indices":[9,0,0],"split_type":[0,0,0],"sum_hessian":[4.363018E2,3.6838852E2,6.791325E1],"tree_param":{"num_deleted":"0","num_feature":"108","num_nodes":"3","size_leaf_vector":"1"}},{"base_weights":[-0E0,1.8998869E-2,-1.1182751E-1],"categories":[],"categories_nodes":[],"categories_segments":[],"categories_sizes":[],"default_left":[0,0,0],"id":79,"left_children":[1,-1,-1],"loss_changes":[1.4671942E1,0E0,0E0],"parents":[2147483647,0,0],"right_children":[2,-1,-1],"split_conditions":[1.7222043E0,1.8998869E-2,-1.1182751E-1],"split_indices":[7,0,0],"split_type":[0,0,0],"sum_hessian":[4.3531436E2,3.710635E2,6.4250854E1],"tree_param":{"num_deleted":"0","num_feature":"108","num_nodes":"3","size_leaf_vector":"1"}},{"base_weights":[-0E0,3.1249613E-2,-3.7692863E-2],"categories":[],"categories_nodes":[],"categories_segments":[],"categories_sizes":[],"default_left":[0,0,0],"id":80,"left_children":[1,-1,-1],"loss_changes":[8.731418E0,0E0,0E0],"parents":[2147483647,0,0],"right_children":[2,-1,-1],"split_conditions":[-7.2859216E-1,3.1249613E-2,-3.7692863E-2],"split_indices":[83,0,0],"split_type":[0,0,0],"sum_hessian":[4.993579E2,2.7669055E2,2.2266736E2],"tree_param":{"num_deleted":"0","num_feature":"108","num_nodes":"3","size_leaf_vector":"1"}},{"base_weights":[-0E0,-1.1632899E-1,1.38425315E-2],"categories":[],"categories_nodes":[],"categories_segments":[],"categories_sizes":[],"default_left":[0,0,0],"id":81,"left_children":[1,-1,-1],"loss_changes":[1.2441742E1,0E0,0E0],"parents":[2147483647,0,0],"right_children":[2,-1,-1],"split_conditions":[1.2619466E-6,-1.1632899E-1,1.38425315E-2],"split_indices":[12,0,0],"split_type":[0,0,0],"sum_hessian":[5.170512E2,4.7865974E1,4.6918524E2],"tree_param":{"num_deleted":"0","num_feature":"108","num_nodes":"3","size_leaf_vector":"1"}},{"base_weights":[8.91131E-3,3.2217447E-2,-9.548881E-2],"categories":[],"categories_nodes":[],"categories_segments":[],"categories_sizes":[],"default_left":[0,0,0],"id":82,"left_children":[1,-1,-1],"loss_changes":[1.995001E1,0E0,0E0],"parents":[2147483647,0,0],"right_children":[2,-1,-1],"split_conditions":[1.1122062E1,3.2217447E-2,-9.548881E-2],"split_indices":[51,0,0],"split_type":[0,0,0],"sum_hessian":[5.2751984E2,4.1712613E2,1.1039367E2],"tree_param":{"num_deleted":"0","num_feature":"108","num_nodes":"3","size_leaf_vector":"1"}},{"base_weights":[-0E0,-1.22135386E-1,3.013972E-2],"categories":[],"categories_nodes":[],"categories_segments":[],"categories_sizes":[],"default_left":[0,0,0],"id":83,"left_children":[1,-1,-1],"loss_changes":[2.3044966E1,0E0,0E0],"parents":[2147483647,0,0],"right_children":[2,-1,-1],"split_conditions":[2.5272733E-1,-1.22135386E-1,3.013972E-2],"split_indices":[5,0,0],"split_type":[0,0,0],"sum_hessian":[4.498547E2,8.711737E1,3.6273734E2],"tree_param":{"num_deleted":"0","num_feature":"108","num_nodes":"3","size_leaf_vector":"1"}},{"base_weights":[-4.3609224E-2,-1.3576561E-1,5.9447363E-2],"categories":[],"categories_nodes":[],"categories_segments":[],"categories_sizes":[],"default_left":[0,0,0],"id":84,"left_children":[1,-1,-1],"loss_changes":[2.9516651E1,0E0,0E0],"parents":[2147483647,0,0],"right_children":[2,-1,-1],"split_conditions":[-1.31E0,-1.3576561E-1,5.9447363E-2],"split_indices":[16,0,0],"split_type":[0,0,0],"sum_hessian":[2.2857964E2,9.2197685E1,1.3638194E2],"tree_param":{"num_deleted":"0","num_feature":"108","num_nodes":"3","size_leaf_vector":"1"}},{"base_weights":[-0E0,2.1266116E-2,-1.1446738E-1],"categories":[],"categories_nodes":[],"categories_segments":[],"categories_sizes":[],"default_left":[0,0,0],"id":85,"left_children":[1,-1,-1],"loss_changes":[1.5112006E1,0E0,0E0],"parents":[2147483647,0,0],"right_children":[2,-1,-1],"split_conditions":[1.115155E2,2.1266116E-2,-1.1446738E-1],"split_indices":[8,0,0],"split_type":[0,0,0],"sum_hessian":[4.298244E2,3.6910483E2,6.0719566E1],"tree_param":{"num_deleted":"0","num_feature":"108","num_nodes":"3","size_leaf_vector":"1"}},{"base_weights":[-0E0,-1.1811127E-1,1.5085237E-1,9.930971E-2,-0E0],"categories":[],"categories_nodes":[],"categories_segments":[],"categories_sizes":[],"default_left":[0,0,0,0,0],"id":86,"left_children":[1,-1,3,-1,-1],"loss_changes":[3.0963825E1,0E0,9.209224E0,0E0,0E0],"parents":[2147483647,0,0,2,2],"right_children":[2,-1,4,-1,-1],"split_conditions":[-1.5793843E1,-1.1811127E-1,3.0715094E-7,9.930971E-2,-0E0],"split_indices":[73,0,96,0,0],"split_type":[0,0,0,0,0],"sum_hessian":[4.2984772E2,1.2007491E2,3.0977283E2,1.390886E2,1.7068422E2],"tree_param":{"num_deleted":"0","num_feature":"108","num_nodes":"5","size_leaf_vector":"1"}},{"base_weights":[-0E0,1.0182818E-2,-1.1534005E-1],"categories":[],"categories_nodes":[],"categories_segments":[],"categories_sizes":[],"default_left":[0,0,0],"id":87,"left_children":[1,-1,-1],"loss_changes":[1.01795225E1,0E0,0E0],"parents":[2147483647,0,0],"right_children":[2,-1,-1],"split_conditions":[-1.582E1,1.0182818E-2,-1.1534005E-1],"split_indices":[16,0,0],"split_type":[0,0,0],"sum_hessian":[4.9417682E2,4.566032E2,3.7573593E1],"tree_param":{"num_deleted":"0","num_feature":"108","num_nodes":"3","size_leaf_vector":"1"}},{"base_weights":[-0E0,-1.1717322E-1,1.144002E-2],"categories":[],"categories_nodes":[],"categories_segments":[],"categories_sizes":[],"default_left":[0,0,0],"id":88,"left_children":[1,-1,-1],"loss_changes":[1.1089502E1,0E0,0E0],"parents":[2147483647,0,0],"right_children":[2,-1,-1],"split_conditions":[4.3655033E0,-1.1717322E-1,1.144002E-2],"split_indices":[3,0,0],"split_type":[0,0,0],"sum_hessian":[5.1336536E2,4.0658737E1,4.7270663E2],"tree_param":{"num_deleted":"0","num_feature":"108","num_nodes":"3","size_leaf_vector":"1"}},{"base_weights":[6.4277826E-3,-1.2388788E-1,2.115622E-2],"categories":[],"categories_nodes":[],"categories_segments":[],"categories_sizes":[],"default_left":[0,0,0],"id":89,"left_children":[1,-1,-1],"loss_changes":[1.701411E1,0E0,0E0],"parents":[2147483647,0,0],"right_children":[2,-1,-1],"split_conditions":[-1.4748893E0,-1.2388788E-1,2.115622E-2],"split_indices":[4,0,0],"split_type":[0,0,0],"sum_hessian":[5.2464026E2,5.9155716E1,4.6548453E2],"tree_param":{"num_deleted":"0","num_feature":"108","num_nodes":"3","size_leaf_vector":"1"}},{"base_weights":[-0E0,-1.3086188E-1,2.3785358E-2],"categories":[],"categories_nodes":[],"categories_segments":[],"categories_sizes":[],"default_left":[0,0,0],"id":90,"left_children":[1,-1,-1],"loss_changes":[1.9923668E1,0E0,0E0],"parents":[2147483647,0,0],"right_children":[2,-1,-1],"split_conditions":[1.4296324E0,-1.3086188E-1,2.3785358E-2],"split_indices":[7,0,0],"split_type":[0,0,0],"sum_hessian":[4.4322668E2,6.5752625E1,3.7747406E2],"tree_param":{"num_deleted":"0","num_feature":"108","num_nodes":"3","size_leaf_vector":"1"}},{"base_weights":[-4.6479918E-2,-1.323175E-1,4.7907855E-2],"categories":[],"categories_nodes":[],"categories_segments":[],"categories_sizes":[],"default_left":[0,0,0],"id":91,"left_children":[1,-1,-1],"loss_changes":[2.3623528E1,0E0,0E0],"parents":[2147483647,0,0],"right_children":[2,-1,-1],"split_conditions":[-1.31E0,-1.323175E-1,4.7907855E-2],"split_indices":[16,0,0],"split_type":[0,0,0],"sum_hessian":[2.1026962E2,8.00157E1,1.3025392E2],"tree_param":{"num_deleted":"0","num_feature":"108","num_nodes":"3","size_leaf_vector":"1"}},{"base_weights":[-0E0,2.6456786E-2,-9.110282E-2],"categories":[],"categories_nodes":[],"categories_segments":[],"categories_sizes":[],"default_left":[0,0,0],"id":92,"left_children":[1,-1,-1],"loss_changes":[1.4251645E1,0E0,0E0],"parents":[2147483647,0,0],"right_children":[2,-1,-1],"split_conditions":[1.3542762E0,2.6456786E-2,-9.110282E-2],"split_indices":[7,0,0],"split_type":[0,0,0],"sum_hessian":[4.226406E2,3.3787155E2,8.476904E1],"tree_param":{"num_deleted":"0","num_feature":"108","num_nodes":"3","size_leaf_vector":"1"}},{"base_weights":[-0E0,1.3965801E-2,-1.0082409E-1],"categories":[],"categories_nodes":[],"categories_segments":[],"categories_sizes":[],"default_left":[0,0,0],"id":93,"left_children":[1,-1,-1],"loss_changes":[1.0529895E1,0E0,0E0],"parents":[2147483647,0,0],"right_children":[2,-1,-1],"split_conditions":[1.7222043E0,1.3965801E-2,-1.0082409E-1],"split_indices":[7,0,0],"split_type":[0,0,0],"sum_hessian":[4.1926395E2,3.6612686E2,5.3137085E1],"tree_param":{"num_deleted":"0","num_feature":"108","num_nodes":"3","size_leaf_vector":"1"}},{"base_weights":[-0E0],"categories":[],"categories_nodes":[],"categories_segments":[],"categories_sizes":[],"default_left":[0],"id":94,"left_children":[-1],"loss_changes":[0E0],"parents":[2147483647],"right_children":[-1],"split_conditions":[-0E0],"split_indices":[0],"split_type":[0],"sum_hessian":[4.8955817E2],"tree_param":{"num_deleted":"0","num_feature":"108","num_nodes":"1","size_leaf_vector":"1"}},{"base_weights":[-0E0,1.4148088E-2,-1.1679615E-1],"categories":[],"categories_nodes":[],"categories_segments":[],"categories_sizes":[],"default_left":[0,0,0],"id":95,"left_children":[1,-1,-1],"loss_changes":[1.2810426E1,0E0,0E0],"parents":[2147483647,0,0],"right_children":[2,-1,-1],"split_conditions":[-1.0289243E1,1.4148088E-2,-1.1679615E-1],"split_indices":[73,0,0],"split_type":[0,0,0],"sum_hessian":[5.0858698E2,4.5897806E2,4.9608925E1],"tree_param":{"num_deleted":"0","num_feature":"108","num_nodes":"3","size_leaf_vector":"1"}},{"base_weights":[5.69805E-3,-1.1100471E-1,1.971416E-2],"categories":[],"categories_nodes":[],"categories_segments":[],"categories_sizes":[],"default_left":[0,0,0],"id":96,"left_children":[1,-1,-1],"loss_changes":[1.43688965E1,0E0,0E0],"parents":[2147483647,0,0],"right_children":[2,-1,-1],"split_conditions":[1.1008812E0,-1.1100471E-1,1.971416E-2],"split_indices":[2,0,0],"split_type":[0,0,0],"sum_hessian":[5.1984076E2,6.011767E1,4.5972308E2],"tree_param":{"num_deleted":"0","num_feature":"108","num_nodes":"3","size_leaf_vector":"1"}},{"base_weights":[-0E0,-1.1744745E-1,7.4071065E-2,-1.2752437E-2,7.02745E-2],"categories":[],"categories_nodes":[],"categories_segments":[],"categories_sizes":[],"default_left":[0,0,0,0,0],"id":97,"left_children":[1,-1,3,-1,-1],"loss_changes":[1.6646856E1,0E0,9.451251E0,0E0,0E0],"parents":[2147483647,0,0,2,2],"right_children":[2,-1,4,-1,-1],"split_conditions":[1.3553227E0,-1.1744745E-1,-9.055991E-1,-1.2752437E-2,7.02745E-2],"split_indices":[2,0,67,0,0],"split_type":[0,0,0,0,0],"sum_hessian":[4.3681445E2,6.563623E1,3.7117822E2,1.9747206E2,1.7370616E2],"tree_param":{"num_deleted":"0","num_feature":"108","num_nodes":"5","size_leaf_vector":"1"}},{"base_weights":[-4.1349325E-2,1.2610415E-1,-1.992336E-1,-0E0,-1.3841164E-1],"categories":[],"categories_nodes":[],"categories_segments":[],"categories_sizes":[],"default_left":[0,0,0,0,0],"id":98,"left_children":[1,-1,3,-1,-1],"loss_changes":[1.8806644E1,0E0,1.1763651E1,0E0,0E0],"parents":[2147483647,0,0,2,2],"right_children":[2,-1,4,-1,-1],"split_conditions":[1.3050879E0,1.2610415E-1,2.256493E-9,-0E0,-1.3841164E-1],"split_indices":[52,0,47,0,0],"split_type":[0,0,0,0,0],"sum_hessian":[1.9789685E2,4.2445538E1,1.5545131E2,7.879558E1,7.665574E1],"tree_param":{"num_deleted":"0","num_feature":"108","num_nodes":"5","size_leaf_vector":"1"}},{"base_weights":[-0E0,3.7474975E-2,-5.613547E-2],"categories":[],"categories_nodes":[],"categories_segments":[],"categories_sizes":[],"default_left":[0,0,0],"id":99,"left_children":[1,-1,-1],"loss_changes":[1.2533516E1,0E0,0E0],"parents":[2147483647,0,0],"right_children":[2,-1,-1],"split_conditions":[2.6097202E1,3.7474975E-2,-5.613547E-2],"split_indices":[8,0,0],"split_type":[0,0,0],"sum_hessian":[4.1751224E2,2.6263315E2,1.5487909E2],"tree_param":{"num_deleted":"0","num_feature":"108","num_nodes":"3","size_leaf_vector":"1"}},{"base_weights":[-0E0],"categories":[],"categories_nodes":[],"categories_segments":[],"categories_sizes":[],"default_left":[0],"id":100,"left_children":[-1],"loss_changes":[0E0],"parents":[2147483647],"right_children":[-1],"split_conditions":[-0E0],"split_indices":[0],"split_type":[0],"sum_hessian":[4.1475577E2],"tree_param":{"num_deleted":"0","num_feature":"108","num_nodes":"1","size_leaf_vector":"1"}},{"base_weights":[-0E0],"categories":[],"categories_nodes":[],"categories_segments":[],"categories_sizes":[],"default_left":[0],"id":101,"left_children":[-1],"loss_changes":[0E0],"parents":[2147483647],"right_children":[-1],"split_conditions":[-0E0],"split_indices":[0],"split_type":[0],"sum_hessian":[4.8751855E2],"tree_param":{"num_deleted":"0","num_feature":"108","num_nodes":"1","size_leaf_vector":"1"}},{"base_weights":[-0E0,-1.0781207E-1,8.567613E-3],"categories":[],"categories_nodes":[],"categories_segments":[],"categories_sizes":[],"default_left":[0,0,0],"id":102,"left_children":[1,-1,-1],"loss_changes":[8.401776E0,0E0,0E0],"parents":[2147483647,0,0],"right_children":[2,-1,-1],"split_conditions":[4.3655033E0,-1.0781207E-1,8.567613E-3],"split_indices":[3,0,0],"split_type":[0,0,0],"sum_hessian":[5.051913E2,3.2654594E1,4.725367E2],"tree_param":{"num_deleted":"0","num_feature":"108","num_nodes":"3","size_leaf_vector":"1"}},{"base_weights":[5.39302E-3,-1.2605913E-1,1.5456746E-2],"categories":[],"categories_nodes":[],"categories_segments":[],"categories_sizes":[],"default_left":[0,0,0],"id":103,"left_children":[1,-1,-1],"loss_changes":[1.2811128E1,0E0,0E0],"parents":[2147483647,0,0],"right_children":[2,-1,-1],"split_conditions":[1.0226784E1,-1.2605913E-1,1.5456746E-2],"split_indices":[48,0,0],"split_type":[0,0,0],"sum_hessian":[5.1558844E2,3.973932E1,4.7584915E2],"tree_param":{"num_deleted":"0","num_feature":"108","num_nodes":"3","size_leaf_vector":"1"}},{"base_weights":[-0E0,-1.22518316E-1,1.8120395E-2],"categories":[],"categories_nodes":[],"categories_segments":[],"categories_sizes":[],"default_left":[0,0,0],"id":104,"left_children":[1,-1,-1],"loss_changes":[1.4718842E1,0E0,0E0],"parents":[2147483647,0,0],"right_children":[2,-1,-1],"split_conditions":[1.64358E1,-1.22518316E-1,1.8120395E-2],"split_indices":[55,0,0],"split_type":[0,0,0],"sum_hessian":[4.2910666E2,5.250969E1,3.7659695E2],"tree_param":{"num_deleted":"0","num_feature":"108","num_nodes":"3","size_leaf_vector":"1"}},{"base_weights":[-2.686213E-2,6.3652806E-2,-9.4377935E-2],"categories":[],"categories_nodes":[],"categories_segments":[],"categories_sizes":[],"default_left":[0,0,0],"id":105,"left_children":[1,-1,-1],"loss_changes":[1.786923E1,0E0,0E0],"parents":[2147483647,0,0],"right_children":[2,-1,-1],"split_conditions":[2.7837964E-6,6.3652806E-2,-9.4377935E-2],"split_indices":[15,0,0],"split_type":[0,0,0],"sum_hessian":[1.8382355E2,9.129983E1,9.252372E1],"tree_param":{"num_deleted":"0","num_feature":"108","num_nodes":"3","size_leaf_vector":"1"}},{"base_weights":[-0E0,2.033471E-2,-8.171409E-2],"categories":[],"categories_nodes":[],"categories_segments":[],"categories_sizes":[],"default_left":[0,0,0],"id":106,"left_children":[1,-1,-1],"loss_changes":[1.0456001E1,0E0,0E0],"parents":[2147483647,0,0],"right_children":[2,-1,-1],"split_conditions":[1.3542762E0,2.033471E-2,-8.171409E-2],"split_indices":[7,0,0],"split_type":[0,0,0],"sum_hessian":[4.105183E2,3.3486502E2,7.565327E1],"tree_param":{"num_deleted":"0","num_feature":"108","num_nodes":"3","size_leaf_vector":"1"}},{"base_weights":[-0E0,-1.3107808E-1,3.0228863E-2],"categories":[],"categories_nodes":[],"categories_segments":[],"categories_sizes":[],"default_left":[0,0,0],"id":107,"left_children":[1,-1,-1],"loss_changes":[2.3641418E1,0E0,0E0],"parents":[2147483647,0,0],"right_children":[2,-1,-1],"split_conditions":[-1.957905E1,-1.3107808E-1,3.0228863E-2],"split_indices":[73,0,0],"split_type":[0,0,0],"sum_hessian":[4.1289377E2,7.8569786E1,3.3432397E2],"tree_param":{"num_deleted":"0","num_feature":"108","num_nodes":"3","size_leaf_vector":"1"}},{"base_weights":[-0E0],"categories":[],"categories_nodes":[],"categories_segments":[],"categories_sizes":[],"default_left":[0],"id":108,"left_children":[-1],"loss_changes":[0E0],"parents":[2147483647],"right_children":[-1],"split_conditions":[-0E0],"split_indices":[0],"split_type":[0],"sum_hessian":[4.8522382E2],"tree_param":{"num_deleted":"0","num_feature":"108","num_nodes":"1","size_leaf_vector":"1"}},{"base_weights":[-0E0,-1.0821138E-1,8.196109E-3],"categories":[],"categories_nodes":[],"categories_segments":[],"categories_sizes":[],"default_left":[0,0,0],"id":109,"left_children":[1,-1,-1],"loss_changes":[8.355204E0,0E0,0E0],"parents":[2147483647,0,0],"right_children":[2,-1,-1],"split_conditions":[4.7895373E-6,-1.0821138E-1,8.196109E-3],"split_indices":[14,0,0],"split_type":[0,0,0],"sum_hessian":[5.0246484E2,3.2309616E1,4.701552E2],"tree_param":{"num_deleted":"0","num_feature":"108","num_nodes":"3","size_leaf_vector":"1"}},{"base_weights":[5.3584166E-3,1.6872274E-2,-1.1746882E-1],"categories":[],"categories_nodes":[],"categories_segments":[],"categories_sizes":[],"default_left":[0,0,0],"id":110,"left_children":[1,-1,-1],"loss_changes":[1.2976606E1,0E0,0E0],"parents":[2147483647,0,0],"right_children":[2,-1,-1],"split_conditions":[1.8113877E0,1.6872274E-2,-1.1746882E-1],"split_indices":[10,0,0],"split_type":[0,0,0],"sum_hessian":[5.1280975E2,4.6575095E2,4.7058815E1],"tree_param":{"num_deleted":"0","num_feature":"108","num_nodes":"3","size_leaf_vector":"1"}},{"base_weights":[-0E0,-1.0395681E-1,1.8822862E-2],"categories":[],"categories_nodes":[],"categories_segments":[],"categories_sizes":[],"default_left":[0,0,0],"id":111,"left_children":[1,-1,-1],"loss_changes":[1.269285E1,0E0,0E0],"parents":[2147483647,0,0],"right_children":[2,-1,-1],"split_conditions":[2.5272733E-1,-1.0395681E-1,1.8822862E-2],"split_indices":[5,0,0],"split_type":[0,0,0],"sum_hessian":[4.2463034E2,6.052703E1,3.6410333E2],"tree_param":{"num_deleted":"0","num_feature":"108","num_nodes":"3","size_leaf_vector":"1"}},{"base_weights":[-2.8511724E-2,-2.0645468E-1,1.0218614E-1,-1.355875E-1,6.410201E-2,9.22073E-2,-7.207354E-2],"categories":[],"categories_nodes":[],"categories_segments":[],"categories_sizes":[],"default_left":[0,0,0,0,0,0,0],"id":112,"left_children":[1,3,-1,-1,5,-1,-1],"loss_changes":[1.5795498E1,1.234086E1,0E0,0E0,8.54247E0,0E0,0E0],"parents":[2147483647,0,0,1,1,4,4],"right_children":[2,4,-1,-1,6,-1,-1],"split_conditions":[7.459152E-4,2.5208406E2,1.0218614E-1,-1.355875E-1,-5.8499655E-8,9.22073E-2,-7.207354E-2],"split_indices":[82,0,0,0,96,0,0],"split_type":[0,0,0,0,0,0,0],"sum_hessian":[1.753297E2,1.27247856E2,4.8081844E1,7.595747E1,5.1290382E1,3.7335583E1,1.39548E1],"tree_param":{"num_deleted":"0","num_feature":"108","num_nodes":"7","size_leaf_vector":"1"}},{"base_weights":[-0E0,-9.835522E-2,1.4181438E-2],"categories":[],"categories_nodes":[],"categories_segments":[],"categories_sizes":[],"default_left":[0,0,0],"id":113,"left_children":[1,-1,-1],"loss_changes":[9.186402E0,0E0,0E0],"parents":[2147483647,0,0],"right_children":[2,-1,-1],"split_conditions":[1.3529439E5,-9.835522E-2,1.4181438E-2],"split_indices":[13,0,0],"split_type":[0,0,0],"sum_hessian":[4.061564E2,4.386084E1,3.6229556E2],"tree_param":{"num_deleted":"0","num_feature":"108","num_nodes":"3","size_leaf_vector":"1"}},{"base_weights":[-0E0],"categories":[],"categories_nodes":[],"categories_segments":[],"categories_sizes":[],"default_left":[0],"id":114,"left_children":[-1],"loss_changes":[0E0],"parents":[2147483647],"right_children":[-1],"split_conditions":[-0E0],"split_indices":[0],"split_type":[0],"sum_hessian":[4.0634448E2],"tree_param":{"num_deleted":"0","num_feature":"108","num_nodes":"1","size_leaf_vector":"1"}},{"base_weights":[-0E0],"categories":[],"categories_nodes":[],"categories_segments":[],"categories_sizes":[],"default_left":[0],"id":115,"left_children":[-1],"loss_changes":[0E0],"parents":[2147483647],"right_children":[-1],"split_conditions":[-0E0],"split_indices":[0],"split_type":[0],"sum_hessian":[4.8426697E2],"tree_param":{"num_deleted":"0","num_feature":"108","num_nodes":"1","size_leaf_vector":"1"}},{"base_weights":[-0E0,9.995138E-3,-1.0662879E-1],"categories":[],"categories_nodes":[],"categories_segments":[],"categories_sizes":[],"default_left":[0,0,0],"id":116,"left_children":[1,-1,-1],"loss_changes":[9.493374E0,0E0,0E0],"parents":[2147483647,0,0],"right_children":[2,-1,-1],"split_conditions":[-1.0289243E1,9.995138E-3,-1.0662879E-1],"split_indices":[73,0,0],"split_type":[0,0,0],"sum_hessian":[4.9983688E2,4.5882385E2,4.1013035E1],"tree_param":{"num_deleted":"0","num_feature":"108","num_nodes":"3","size_leaf_vector":"1"}},{"base_weights":[3.6501996E-3,2.1009129E-2,-7.8357406E-2],"categories":[],"categories_nodes":[],"categories_segments":[],"categories_sizes":[],"default_left":[0,0,0],"id":117,"left_children":[1,-1,-1],"loss_changes":[1.1187727E1,0E0,0E0],"parents":[2147483647,0,0],"right_children":[2,-1,-1],"split_conditions":[1.1122062E1,2.1009129E-2,-7.8357406E-2],"split_indices":[51,0,0],"split_type":[0,0,0],"sum_hessian":[5.1032614E2,4.2296622E2,8.735991E1],"tree_param":{"num_deleted":"0","num_feature":"108","num_nodes":"3","size_leaf_vector":"1"}},{"base_weights":[-0E0,-1.1490737E-1,1.4932904E-2],"categories":[],"categories_nodes":[],"categories_segments":[],"categories_sizes":[],"default_left":[0,0,0],"id":118,"left_children":[1,-1,-1],"loss_changes":[1.1544815E1,0E0,0E0],"parents":[2147483647,0,0],"right_children":[2,-1,-1],"split_conditions":[1.5732981E1,-1.1490737E-1,1.4932904E-2],"split_indices":[48,0,0],"split_type":[0,0,0],"sum_hessian":[4.2051773E2,4.3454838E1,3.770629E2],"tree_param":{"num_deleted":"0","num_feature":"108","num_nodes":"3","size_leaf_vector":"1"}},{"base_weights":[-2.1278637E-2,1.014128E-1,-5.0941564E-2],"categories":[],"categories_nodes":[],"categories_segments":[],"categories_sizes":[],"default_left":[0,0,0],"id":119,"left_children":[1,-1,-1],"loss_changes":[1.2504014E1,0E0,0E0],"parents":[2147483647,0,0],"right_children":[2,-1,-1],"split_conditions":[4.292607E0,1.014128E-1,-5.0941564E-2],"split_indices":[48,0,0],"split_type":[0,0,0],"sum_hessian":[1.628133E2,3.7891136E1,1.2492215E2],"tree_param":{"num_deleted":"0","num_feature":"108","num_nodes":"3","size_leaf_vector":"1"}},{"base_weights":[-0E0],"categories":[],"categories_nodes":[],"categories_segments":[],"categories_sizes":[],"default_left":[0],"id":120,"left_children":[-1],"loss_changes":[0E0],"parents":[2147483647],"right_children":[-1],"split_conditions":[-0E0],"split_indices":[0],"split_type":[0],"sum_hessian":[4.006047E2],"tree_param":{"num_deleted":"0","num_feature":"108","num_nodes":"1","size_leaf_vector":"1"}},{"base_weights":[-0E0,1.1544058E-2,-9.8049946E-2],"categories":[],"categories_nodes":[],"categories_segments":[],"categories_sizes":[],"default_left":[0,0,0],"id":121,"left_children":[1,-1,-1],"loss_changes":[8.915397E0,0E0,0E0],"parents":[2147483647,0,0],"right_children":[2,-1,-1],"split_conditions":[-9.7640806E-1,1.1544058E-2,-9.8049946E-2],"split_indices":[4,0,0],"split_type":[0,0,0],"sum_hessian":[4.03993E2,3.5890332E2,4.5089695E1],"tree_param":{"num_deleted":"0","num_feature":"108","num_nodes":"3","size_leaf_vector":"1"}},{"base_weights":[-0E0],"categories":[],"categories_nodes":[],"categories_segments":[],"categories_sizes":[],"default_left":[0],"id":122,"left_children":[-1],"loss_changes":[0E0],"parents":[2147483647],"right_children":[-1],"split_conditions":[-0E0],"split_indices":[0],"split_type":[0],"sum_hessian":[4.8195532E2],"tree_param":{"num_deleted":"0","num_feature":"108","num_nodes":"1","size_leaf_vector":"1"}},{"base_weights":[-0E0],"categories":[],"categories_nodes":[],"categories_segments":[],"categories_sizes":[],"default_left":[0],"id":123,"left_children":[-1],"loss_changes":[0E0],"parents":[2147483647],"right_children":[-1],"split_conditions":[-0E0],"split_indices":[0],"split_type":[0],"sum_hessian":[4.967522E2],"tree_param":{"num_deleted":"0","num_feature":"108","num_nodes":"1","size_leaf_vector":"1"}},{"base_weights":[3.292227E-3,1.3720067E-2,-1.0953833E-1],"categories":[],"categories_nodes":[],"categories_segments":[],"categories_sizes":[],"default_left":[0,0,0],"id":124,"left_children":[1,-1,-1],"loss_changes":[1.0315778E1,0E0,0E0],"parents":[2147483647,0,0],"right_children":[2,-1,-1],"split_conditions":[1.8113877E0,1.3720067E-2,-1.0953833E-1],"split_indices":[10,0,0],"split_type":[0,0,0],"sum_hessian":[5.0808084E2,4.677881E2,4.029274E1],"tree_param":{"num_deleted":"0","num_feature":"108","num_nodes":"3","size_leaf_vector":"1"}},{"base_weights":[-0E0,-1.1789186E-1,1.439348E-2],"categories":[],"categories_nodes":[],"categories_segments":[],"categories_sizes":[],"default_left":[0,0,0],"id":125,"left_children":[1,-1,-1],"loss_changes":[1.1198394E1,0E0,0E0],"parents":[2147483647,0,0],"right_children":[2,-1,-1],"split_conditions":[1.3922799E0,-1.1789186E-1,1.439348E-2],"split_indices":[7,0,0],"split_type":[0,0,0],"sum_hessian":[4.1673294E2,3.891521E1,3.7781775E2],"tree_param":{"num_deleted":"0","num_feature":"108","num_nodes":"3","size_leaf_vector":"1"}},{"base_weights":[-1.4808392E-2,4.0764395E-2,-1.0485961E-1],"categories":[],"categories_nodes":[],"categories_segments":[],"categories_sizes":[],"default_left":[0,0,0],"id":126,"left_children":[1,-1,-1],"loss_changes":[1.350566E1,0E0,0E0],"parents":[2147483647,0,0],"right_children":[2,-1,-1],"split_conditions":[2.256493E-9,4.0764395E-2,-1.0485961E-1],"split_indices":[47,0,0],"split_type":[0,0,0],"sum_hessian":[1.5813365E2,9.930311E1,5.883055E1],"tree_param":{"num_deleted":"0","num_feature":"108","num_nodes":"3","size_leaf_vector":"1"}},{"base_weights":[-0E0],"categories":[],"categories_nodes":[],"categories_segments":[],"categories_sizes":[],"default_left":[0],"id":127,"left_children":[-1],"loss_changes":[0E0],"parents":[2147483647],"right_children":[-1],"split_conditions":[-0E0],"split_indices":[0],"split_type":[0],"sum_hessian":[4.000371E2],"tree_param":{"num_deleted":"0","num_feature":"108","num_nodes":"1","size_leaf_vector":"1"}},{"base_weights":[-0E0,-1.2511078E-1,2.2684798E-2],"categories":[],"categories_nodes":[],"categories_segments":[],"categories_sizes":[],"default_left":[0,0,0],"id":128,"left_children":[1,-1,-1],"loss_changes":[1.8174826E1,0E0,0E0],"parents":[2147483647,0,0],"right_children":[2,-1,-1],"split_conditions":[-1.957905E1,-1.2511078E-1,2.2684798E-2],"split_indices":[73,0,0],"split_type":[0,0,0],"sum_hessian":[4.016551E2,6.5779274E1,3.3587582E2],"tree_param":{"num_deleted":"0","num_feature":"108","num_nodes":"3","size_leaf_vector":"1"}},{"base_weights":[-0E0],"categories":[],"categories_nodes":[],"categories_segments":[],"categories_sizes":[],"default_left":[0],"id":129,"left_children":[-1],"loss_changes":[0E0],"parents":[2147483647],"right_children":[-1],"split_conditions":[-0E0],"split_indices":[0],"split_type":[0],"sum_hessian":[4.8215878E2],"tree_param":{"num_deleted":"0","num_feature":"108","num_nodes":"1","size_leaf_vector":"1"}},{"base_weights":[-0E0],"categories":[],"categories_nodes":[],"categories_segments":[],"categories_sizes":[],"default_left":[0],"id":130,"left_children":[-1],"loss_changes":[0E0],"parents":[2147483647],"right_children":[-1],"split_conditions":[-0E0],"split_indices":[0],"split_type":[0],"sum_hessian":[4.955996E2],"tree_param":{"num_deleted":"0","num_feature":"108","num_nodes":"1","size_leaf_vector":"1"}},{"base_weights":[2.2634096E-3,-1.0787041E-1,1.1561176E-2],"categories":[],"categories_nodes":[],"categories_segments":[],"categories_sizes":[],"default_left":[0,0,0],"id":131,"left_children":[1,-1,-1],"loss_changes":[8.895568E0,0E0,0E0],"parents":[2147483647,0,0],"right_children":[2,-1,-1],"split_conditions":[5.5775E0,-1.0787041E-1,1.1561176E-2],"split_indices":[22,0,0],"split_type":[0,0,0],"sum_hessian":[5.0588367E2,3.351316E1,4.723705E2],"tree_param":{"num_deleted":"0","num_feature":"108","num_nodes":"3","size_leaf_vector":"1"}},{"base_weights":[-0E0,-1.07328184E-1,1.274786E-2],"categories":[],"categories_nodes":[],"categories_segments":[],"categories_sizes":[],"default_left":[0,0,0],"id":132,"left_children":[1,-1,-1],"loss_changes":[9.321679E0,0E0,0E0],"parents":[2147483647,0,0],"right_children":[2,-1,-1],"split_conditions":[1.64888E1,-1.07328184E-1,1.274786E-2],"split_indices":[56,0,0],"split_type":[0,0,0],"sum_hessian":[4.1340945E2,3.692463E1,3.7648483E2],"tree_param":{"num_deleted":"0","num_feature":"108","num_nodes":"3","size_leaf_vector":"1"}},{"base_weights":[-1.6058907E-2,-1.1728202E-1,2.6233543E-2],"categories":[],"categories_nodes":[],"categories_segments":[],"categories_sizes":[],"default_left":[0,0,0],"id":133,"left_children":[1,-1,-1],"loss_changes":[1.1726954E1,0E0,0E0],"parents":[2147483647,0,0],"right_children":[2,-1,-1],"split_conditions":[-2.86E0,-1.1728202E-1,2.6233543E-2],"split_indices":[16,0,0],"split_type":[0,0,0],"sum_hessian":[1.5097812E2,4.2449303E1,1.0852882E2],"tree_param":{"num_deleted":"0","num_feature":"108","num_nodes":"3","size_leaf_vector":"1"}},{"base_weights":[-0E0,-3.4512367E-2,3.9294515E-2],"categories":[],"categories_nodes":[],"categories_segments":[],"categories_sizes":[],"default_left":[0,0,0],"id":134,"left_children":[1,-1,-1],"loss_changes":[8.41107E0,0E0,0E0],"parents":[2147483647,0,0],"right_children":[2,-1,-1],"split_conditions":[9.742984E-5,-3.4512367E-2,3.9294515E-2],"split_indices":[82,0,0],"split_type":[0,0,0],"sum_hessian":[3.9762662E2,2.0000769E2,1.9761894E2],"tree_param":{"num_deleted":"0","num_feature":"108","num_nodes":"3","size_leaf_vector":"1"}},{"base_weights":[-0E0],"categories":[],"categories_nodes":[],"categories_segments":[],"categories_sizes":[],"default_left":[0],"id":135,"left_children":[-1],"loss_changes":[0E0],"parents":[2147483647],"right_children":[-1],"split_conditions":[-0E0],"split_indices":[0],"split_type":[0],"sum_hessian":[3.9551807E2],"tree_param":{"num_deleted":"0","num_feature":"108","num_nodes":"1","size_leaf_vector":"1"}},{"base_weights":[-0E0],"categories":[],"categories_nodes":[],"categories_segments":[],"categories_sizes":[],"default_left":[0],"id":136,"left_children":[-1],"loss_changes":[0E0],"parents":[2147483647],"right_children":[-1],"split_conditions":[-0E0],"split_indices":[0],"split_type":[0],"sum_hessian":[4.8118784E2],"tree_param":{"num_deleted":"0","num_feature":"108","num_nodes":"1","size_leaf_vector":"1"}},{"base_weights":[-0E0],"categories":[],"categories_nodes":[],"categories_segments":[],"categories_sizes":[],"default_left":[0],"id":137,"left_children":[-1],"loss_changes":[0E0],"parents":[2147483647],"right_children":[-1],"split_conditions":[-0E0],"split_indices":[0],"split_type":[0],"sum_hessian":[4.9449756E2],"tree_param":{"num_deleted":"0","num_feature":"108","num_nodes":"1","size_leaf_vector":"1"}},{"base_weights":[6.1741605E-4],"categories":[],"categories_nodes":[],"categories_segments":[],"categories_sizes":[],"default_left":[0],"id":138,"left_children":[-1],"loss_changes":[0E0],"parents":[2147483647],"right_children":[-1],"split_conditions":[1.8545122E-4],"split_indices":[0],"split_type":[0],"sum_hessian":[5.0463235E2],"tree_param":{"num_deleted":"0","num_feature":"108","num_nodes":"1","size_leaf_vector":"1"}},{"base_weights":[-0E0,-9.069792E-2,1.3824744E-2],"categories":[],"categories_nodes":[],"categories_segments":[],"categories_sizes":[],"default_left":[0,0,0],"id":139,"left_children":[1,-1,-1],"loss_changes":[8.417258E0,0E0,0E0],"parents":[2147483647,0,0],"right_children":[2,-1,-1],"split_conditions":[1.5917578E-5,-9.069792E-2,1.3824744E-2],"split_indices":[14,0,0],"split_type":[0,0,0],"sum_hessian":[4.1080347E2,4.6456646E1,3.643468E2],"tree_param":{"num_deleted":"0","num_feature":"108","num_nodes":"3","size_leaf_vector":"1"}},{"base_weights":[-1.3580142E-3,-1.1257883E-1,2.5747363E-2],"categories":[],"categories_nodes":[],"categories_segments":[],"categories_sizes":[],"default_left":[0,0,0],"id":140,"left_children":[1,-1,-1],"loss_changes":[1.0597512E1,0E0,0E0],"parents":[2147483647,0,0],"right_children":[2,-1,-1],"split_conditions":[-2.86E0,-1.1257883E-1,2.5747363E-2],"split_indices":[16,0,0],"split_type":[0,0,0],"sum_hessian":[1.4580325E2,3.7712364E1,1.080909E2],"tree_param":{"num_deleted":"0","num_feature":"108","num_nodes":"3","size_leaf_vector":"1"}},{"base_weights":[-0E0],"categories":[],"categories_nodes":[],"categories_segments":[],"categories_sizes":[],"default_left":[0],"id":141,"left_children":[-1],"loss_changes":[0E0],"parents":[2147483647],"right_children":[-1],"split_conditions":[-0E0],"split_indices":[0],"split_type":[0],"sum_hessian":[3.9448203E2],"tree_param":{"num_deleted":"0","num_feature":"108","num_nodes":"1","size_leaf_vector":"1"}},{"base_weights":[-0E0],"categories":[],"categories_nodes":[],"categories_segments":[],"categories_sizes":[],"default_left":[0],"id":142,"left_children":[-1],"loss_changes":[0E0],"parents":[2147483647],"right_children":[-1],"split_conditions":[-0E0],"split_indices":[0],"split_type":[0],"sum_hessian":[3.9400287E2],"tree_param":{"num_deleted":"0","num_feature":"108","num_nodes":"1","size_leaf_vector":"1"}},{"base_weights":[-0E0],"categories":[],"categories_nodes":[],"categories_segments":[],"categories_sizes":[],"default_left":[0],"id":143,"left_children":[-1],"loss_changes":[0E0],"parents":[2147483647],"right_children":[-1],"split_conditions":[-0E0],"split_indices":[0],"split_type":[0],"sum_hessian":[4.8027786E2],"tree_param":{"num_deleted":"0","num_feature":"108","num_nodes":"1","size_leaf_vector":"1"}},{"base_weights":[-0E0],"categories":[],"categories_nodes":[],"categories_segments":[],"categories_sizes":[],"default_left":[0],"id":144,"left_children":[-1],"loss_changes":[0E0],"parents":[2147483647],"right_children":[-1],"split_conditions":[-0E0],"split_indices":[0],"split_type":[0],"sum_hessian":[4.9415482E2],"tree_param":{"num_deleted":"0","num_feature":"108","num_nodes":"1","size_leaf_vector":"1"}},{"base_weights":[1.8693805E-3],"categories":[],"categories_nodes":[],"categories_segments":[],"categories_sizes":[],"default_left":[0],"id":145,"left_children":[-1],"loss_changes":[0E0],"parents":[2147483647],"right_children":[-1],"split_conditions":[5.614996E-4],"split_indices":[0],"split_type":[0],"sum_hessian":[5.0401062E2],"tree_param":{"num_deleted":"0","num_feature":"108","num_nodes":"1","size_leaf_vector":"1"}},{"base_weights":[-0E0],"categories":[],"categories_nodes":[],"categories_segments":[],"categories_sizes":[],"default_left":[0],"id":146,"left_children":[-1],"loss_changes":[0E0],"parents":[2147483647],"right_children":[-1],"split_conditions":[-0E0],"split_indices":[0],"split_type":[0],"sum_hessian":[4.0797488E2],"tree_param":{"num_deleted":"0","num_feature":"108","num_nodes":"1","size_leaf_vector":"1"}},{"base_weights":[-0E0,4.5944355E-2,-7.425352E-2],"categories":[],"categories_nodes":[],"categories_segments":[],"categories_sizes":[],"default_left":[0,0,0],"id":147,"left_children":[1,-1,-1],"loss_changes":[9.66789E0,0E0,0E0],"parents":[2147483647,0,0],"right_children":[2,-1,-1],"split_conditions":[2.7837964E-6,4.5944355E-2,-7.425352E-2],"split_indices":[15,0,0],"split_type":[0,0,0],"sum_hessian":[1.4115517E2,7.6018555E1,6.5136604E1],"tree_param":{"num_deleted":"0","num_feature":"108","num_nodes":"3","size_leaf_vector":"1"}},{"base_weights":[-0E0],"categories":[],"categories_nodes":[],"categories_segments":[],"categories_sizes":[],"default_left":[0],"id":148,"left_children":[-1],"loss_changes":[0E0],"parents":[2147483647],"right_children":[-1],"split_conditions":[-0E0],"split_indices":[0],"split_type":[0],"sum_hessian":[3.935005E2],"tree_param":{"num_deleted":"0","num_feature":"108","num_nodes":"1","size_leaf_vector":"1"}},{"base_weights":[-0E0],"categories":[],"categories_nodes":[],"categories_segments":[],"categories_sizes":[],"default_left":[0],"id":149,"left_children":[-1],"loss_changes":[0E0],"parents":[2147483647],"right_children":[-1],"split_conditions":[-0E0],"split_indices":[0],"split_type":[0],"sum_hessian":[3.9432602E2],"tree_param":{"num_deleted":"0","num_feature":"108","num_nodes":"1","size_leaf_vector":"1"}},{"base_weights":[-0E0],"categories":[],"categories_nodes":[],"categories_segments":[],"categories_sizes":[],"default_left":[0],"id":150,"left_children":[-1],"loss_changes":[0E0],"parents":[2147483647],"right_children":[-1],"split_conditions":[-0E0],"split_indices":[0],"split_type":[0],"sum_hessian":[4.8051978E2],"tree_param":{"num_deleted":"0","num_feature":"108","num_nodes":"1","size_leaf_vector":"1"}},{"base_weights":[-0E0],"categories":[],"categories_nodes":[],"categories_segments":[],"categories_sizes":[],"default_left":[0],"id":151,"left_children":[-1],"loss_changes":[0E0],"parents":[2147483647],"right_children":[-1],"split_conditions":[-0E0],"split_indices":[0],"split_type":[0],"sum_hessian":[4.943284E2],"tree_param":{"num_deleted":"0","num_feature":"108","num_nodes":"1","size_leaf_vector":"1"}},{"base_weights":[8.3470746E-4],"categories":[],"categories_nodes":[],"categories_segments":[],"categories_sizes":[],"default_left":[0],"id":152,"left_children":[-1],"loss_changes":[0E0],"parents":[2147483647],"right_children":[-1],"split_conditions":[2.5071832E-4],"split_indices":[0],"split_type":[0],"sum_hessian":[5.0440393E2],"tree_param":{"num_deleted":"0","num_feature":"108","num_nodes":"1","size_leaf_vector":"1"}},{"base_weights":[-0E0],"categories":[],"categories_nodes":[],"categories_segments":[],"categories_sizes":[],"default_left":[0],"id":153,"left_children":[-1],"loss_changes":[0E0],"parents":[2147483647],"right_children":[-1],"split_conditions":[-0E0],"split_indices":[0],"split_type":[0],"sum_hessian":[4.0799136E2],