{"learner":{"attributes":{"best_iteration":"0","best_score":"0.9035363161030777"},"feature_names":["Relative_time_mean","Relative_time_std","Relative_time_min","Relative_time_max","Relative_time_median","Relative_time_skew","Relative_time_kurtosis","Relative_time_range","Relative_time_num_outliers","Relative_time_entropy","Relative_time_signal_to_noise","Relative_time_rolling_mean","Relative_time_rolling_std","Relative_time_lag_diff_mean","Relative_time_trend","Relative_time_mean_diff","Relative_time_std_diff","Relative_time_fft_peak_freq","Relative_time_fft_energy","Relative_time_fft_entropy","Relative_time_autocorr_max_lag","Relative_time_zero_crossings","Relative_time_num_peaks","Relative_time_peak_mean","Relative_time_peak_max","Resonance_Frequency_mean","Resonance_Frequency_std","Resonance_Frequency_min","Resonance_Frequency_max","Resonance_Frequency_median","Resonance_Frequency_skew","Resonance_Frequency_kurtosis","Resonance_Frequency_range","Resonance_Frequency_num_outliers","Resonance_Frequency_entropy","Resonance_Frequency_signal_to_noise","Resonance_Frequency_rolling_mean","Resonance_Frequency_rolling_std","Resonance_Frequency_lag_diff_mean","Resonance_Frequency_trend","Resonance_Frequency_mean_diff","Resonance_Frequency_std_diff","Resonance_Frequency_fft_peak_freq","Resonance_Frequency_fft_energy","Resonance_Frequency_fft_entropy","Resonance_Frequency_autocorr_max_lag","Resonance_Frequency_zero_crossings","Resonance_Frequency_num_peaks","Resonance_Frequency_peak_mean","Resonance_Frequency_peak_max","Dissipation_mean","Dissipation_std","Dissipation_min","Dissipation_max","Dissipation_median","Dissipation_skew","Dissipation_kurtosis","Dissipation_range","Dissipation_num_outliers","Dissipation_entropy","Dissipation_signal_to_noise","Dissipation_rolling_mean","Dissipation_rolling_std","Dissipation_lag_diff_mean","Dissipation_trend","Dissipation_mean_diff","Dissipation_std_diff","Dissipation_fft_peak_freq","Dissipation_fft_energy","Dissipation_fft_entropy","Dissipation_autocorr_max_lag","Dissipation_zero_crossings","Dissipation_num_peaks","Dissipation_peak_mean","Dissipation_peak_max"],"feature_types":["float","float","float","float","float","float","float","float","int","float","float","float","float","float","float","float","float","float","float","float","int","int","int","float","float","float","float","float","float","float","float","float","float","int","float","float","float","float","float","float","float","float","float","float","float","int","int","int","float","float","float","float","float","float","float","float","float","float","int","float","float","float","float","float","float","float","float","float","float","float","int","int","int","float","float"],"gradient_booster":{"model":{"gbtree_model_param":{"num_parallel_tree":"1","num_trees":"204"},"iteration_indptr":[0,4,8,12,16,20,24,28,32,36,40,44,48,52,56,60,64,68,72,76,80,84,88,92,96,100,104,108,112,116,120,124,128,132,136,140,144,148,152,156,160,164,168,172,176,180,184,188,192,196,200,204],"tree_info":[0,1,2,3,0,1,2,3,0,1,2,3,0,1,2,3,0,1,2,3,0,1,2,3,0,1,2,3,0,1,2,3,0,1,2,3,0,1,2,3,0,1,2,3,0,1,2,3,0,1,2,3,0,1,2,3,0,1,2,3,0,1,2,3,0,1,2,3,0,1,2,3,0,1,2,3,0,1,2,3,0,1,2,3,0,1,2,3,0,1,2,3,0,1,2,3,0,1,2,3,0,1,2,3,0,1,2,3,0,1,2,3,0,1,2,3,0,1,2,3,0,1,2,3,0,1,2,3,0,1,2,3,0,1,2,3,0,1,2,3,0,1,2,3,0,1,2,3,0,1,2,3,0,1,2,3,0,1,2,3,0,1,2,3,0,1,2,3,0,1,2,3,0,1,2,3,0,1,2,3,0,1,2,3,0,1,2,3,0,1,2,3,0,1,2,3,0,1,2,3,0,1,2,3],"trees":[{"base_weights":[-0E0,-5.8569384E-1,7.367533E-1,-3.6494854E-1,-0E0,5.509877E-1,8.68051E-1,-1.052534E-1,4.8105118E-1,4.900111E-2,5.7619125E-1],"categories":[],"categories_nodes":[],"categories_segments":[],"categories_sizes":[],"default_left":[0,0,0,0,0,0,0,0,0,0,0],"id":0,"left_children":[1,3,5,-1,7,9,-1,-1,-1,-1,-1],"loss_changes":[7.077856E2,3.052301E1,1.0428238E2,0E0,2.9650276E1,1.2392932E2,0E0,0E0,0E0,0E0,0E0],"parents":[2147483647,0,0,1,1,2,2,4,4,5,5],"right_children":[2,4,6,-1,8,10,-1,-1,-1,-1,-1],"split_conditions":[2.15948E1,3.9945652E0,9.24199E1,-3.6494854E-1,-1.2659775E0,3.2221393E-5,8.68051E-1,-1.052534E-1,4.8105118E-1,4.900111E-2,5.7619125E-1],"split_indices":[7,59,3,0,56,57,0,0,0,0,0],"split_type":[0,0,0,0,0,0,0,0,0,0,0],"sum_hessian":[1.5934093E3,8.8423584E2,7.091735E2,8.046595E2,7.957637E1,5.842638E2,1.2490971E2,6.301734E1,1.6559027E1,3.0234717E2,2.8191663E2],"tree_param":{"num_deleted":"0","num_feature":"75","num_nodes":"11","size_leaf_vector":"1"}},{"base_weights":[-1.0889031E-2,-3.302113E-1,1.4617624E0,-1.7226513E-1,-5.539601E-1,1.6682761E0,-1.5092915E-1,-2.5237513E-1,3.3073384E-1,-0E0,-3.2017982E-1,1.0077139E0,-0E0],"categories":[],"categories_nodes":[],"categories_segments":[],"categories_sizes":[],"default_left":[0,0,0,0,0,0,0,0,0,0,0,0,0],"id":1,"left_children":[1,3,5,7,9,11,-1,-1,-1,-1,-1,-1,-1],"loss_changes":[7.609512E2,4.4119522E1,1.0593158E2,1.7404243E2,1.8020935E0,4.7869995E1,0E0,0E0,0E0,0E0,0E0,0E0,0E0],"parents":[2147483647,0,0,1,1,2,2,3,3,4,4,5,5],"right_children":[2,4,6,8,10,12,-1,-1,-1,-1,-1,-1,-1],"split_conditions":[2.0907676E0,2.3761472E-1,3.630247E0,5.922529E-1,1.0703001E-5,4.4746518E2,-1.5092915E-1,-2.5237513E-1,3.3073384E-1,-0E0,-3.2017982E-1,1.0077139E0,-0E0],"split_indices":[56,30,34,55,65,31,0,0,0,0,0,0,0],"split_type":[0,0,0,0,0,0,0,0,0,0,0,0,0],"sum_hessian":[1.5799478E3,1.302921E3,2.770267E2,7.8324207E2,5.1967896E2,2.5116261E2,2.5864077E1,5.8183795E2,2.0140411E2,7.947815E0,5.1173114E2,2.3691808E2,1.4244538E1],"tree_param":{"num_deleted":"0","num_feature":"75","num_nodes":"13","size_leaf_vector":"1"}},{"base_weights":[-5.9186397E-3,3.9118332E-1,-5.9759545E-1,6.181182E-1,-1.3126713E-1,-3.5255978E-1,-0E0,4.5184878E-1,1.4076366E-1,2.5653306E-1,-1.2541305E-1],"categories":[],"categories_nodes":[],"categories_segments":[],"categories_sizes":[],"default_left":[0,0,0,0,0,0,0,0,0,0,0],"id":2,"left_children":[1,3,5,7,9,-1,-1,-1,-1,-1,-1],"loss_changes":[3.8951694E2,1.1795923E2,7.4559784E0,3.929474E1,2.00859E1,0E0,0E0,0E0,0E0,0E0,0E0],"parents":[2147483647,0,0,1,1,2,2,3,3,4,4],"right_children":[2,4,6,8,10,-1,-1,-1,-1,-1,-1],"split_conditions":[1.1048604E1,6.7893256E-5,-1.8593663E0,5.2371204E-1,-9.1650707E-1,-3.5255978E-1,-0E0,4.5184878E-1,1.4076366E-1,2.5653306E-1,-1.2541305E-1],"split_indices":[60,53,30,55,55,0,0,0,0,0,0],"split_type":[0,0,0,0,0,0,0,0,0,0,0],"sum_hessian":[1.5907578E3,9.4490875E2,6.45849E2,6.6810596E2,2.768028E2,6.1881934E2,2.7029694E1,4.3270767E2,2.3539828E2,2.6315434E1,2.5048737E2],"tree_param":{"num_deleted":"0","num_feature":"75","num_nodes":"11","size_leaf_vector":"1"}},{"base_weights":[1.8499264E-3,1.8392645E0,-5.9043956E-1,1.0974084E0,-9.016349E-2,-3.7119633E-1,1.4363462E0,9.2374766E-1,-0E0],"categories":[],"categories_nodes":[],"categories_segments":[],"categories_sizes":[],"default_left":[0,0,0,0,0,0,0,0,0],"id":3,"left_children":[1,3,5,-1,-1,-1,7,-1,-1],"loss_changes":[1.7591886E3,8.646118E1,1.7603204E2,0E0,0E0,0E0,1.6865463E0,0E0,0E0],"parents":[2147483647,0,0,1,1,2,2,6,6],"right_children":[2,4,6,-1,-1,-1,8,-1,-1],"split_conditions":[3.1310883E-6,8.116093E-8,-1.24E0,1.0974084E0,-9.016349E-2,-3.7119633E-1,8.2881477E-13,9.2374766E-1,-0E0],"split_indices":[57,66,40,0,0,0,64,0,0],"split_type":[0,0,0,0,0,0,0,0,0],"sum_hessian":[1.5749999E3,3.8640335E2,1.1885966E3,3.7017258E2,1.6230774E1,1.154049E3,3.4547573E1,2.9709515E1,4.8380575E0],"tree_param":{"num_deleted":"0","num_feature":"75","num_nodes":"9","size_leaf_vector":"1"}},{"base_weights":[1.6536111E-2,-4.9353188E-1,4.0083975E-1,-5.2133375E-1,3.189187E-1,-1.6908597E-2,5.827805E-1,-3.186781E-1,-0E0,-7.706685E-2,1.328403E-1,1.4019997E-1,5.061225E-1],"categories":[],"categories_nodes":[],"categories_segments":[],"categories_sizes":[],"default_left":[0,0,0,0,0,0,0,0,0,0,0,0,0],"id":4,"left_children":[1,3,5,7,-1,9,11,-1,-1,-1,-1,-1,-1],"loss_changes":[2.9349088E2,2.2814835E1,6.691687E1,1.2774368E1,0E0,1.1506548E1,5.7443893E1,0E0,0E0,0E0,0E0,0E0,0E0],"parents":[2147483647,0,0,1,1,2,2,3,3,5,5,6,6],"right_children":[2,4,6,8,-1,10,12,-1,-1,-1,-1,-1,-1],"split_conditions":[6.3761067E-6,1.9027795E-1,-1.3202683E0,3.116564E-1,3.189187E-1,3.9685328E-2,-4.6073073E-1,-3.186781E-1,-0E0,-7.706685E-2,1.328403E-1,1.4019997E-1,5.061225E-1],"split_indices":[51,12,56,30,0,16,55,0,0,0,0,0,0],"split_type":[0,0,0,0,0,0,0,0,0,0,0,0,0],"sum_hessian":[1.4359702E3,6.08995E2,8.269752E2,6.003704E2,8.624577E0,2.3932495E2,5.8765027E2,5.603587E2,4.001175E1,1.8163326E2,5.7691696E1,2.9674463E2,2.9090564E2],"tree_param":{"num_deleted":"0","num_feature":"75","num_nodes":"13","size_leaf_vector":"1"}},{"base_weights":[-7.219038E-3,-2.8874078E-1,4.003666E-1,1.4413445E-1,-3.8596964E-1,-2.3155078E-1,5.67366E-1,3.36841E-1,-1.2350784E-1,-2.4971007E-1,-7.2224505E-2,-1.891885E-1,4.023786E-1],"categories":[],"categories_nodes":[],"categories_segments":[],"categories_sizes":[],"default_left":[0,0,0,0,0,0,0,0,0,0,0,0,0],"id":5,"left_children":[1,3,5,7,9,-1,11,-1,-1,-1,-1,-1,-1],"loss_changes":[1.698053E2,3.849443E1,8.290006E1,3.456767E1,6.052994E0,0E0,6.8326706E1,0E0,0E0,0E0,0E0,0E0,0E0],"parents":[2147483647,0,0,1,1,2,2,3,3,4,4,6,6],"right_children":[2,4,6,8,10,-1,12,-1,-1,-1,-1,-1,-1],"split_conditions":[3.7E1,-1.8915077E-1,1.7384163E0,8.7500565E-2,1.9124338E-1,-2.3155078E-1,-1.9828167E1,3.36841E-1,-1.2350784E-1,-2.4971007E-1,-7.2224505E-2,-1.891885E-1,4.023786E-1],"split_indices":[58,39,10,12,55,0,30,0,0,0,0,0,0],"split_type":[0,0,0,0,0,0,0,0,0,0,0,0,0],"sum_hessian":[1.4012288E3,8.3921594E2,5.620128E2,1.4048186E2,6.987341E2,8.850352E1,4.7350934E2,7.091829E1,6.9563576E1,5.494513E2,1.4928278E2,5.9087414E1,4.144219E2],"tree_param":{"num_deleted":"0","num_feature":"75","num_nodes":"13","size_leaf_vector":"1"}},{"base_weights":[3.165908E-2,2.2711936E-1,-3.0787396E-1,3.191888E-1,-1.835322E-1,1.1876342E-2,2.3458387E-1,-0E0,-1.8547055E-1],"categories":[],"categories_nodes":[],"categories_segments":[],"categories_sizes":[],"default_left":[0,0,0,0,0,0,0,0,0],"id":6,"left_children":[1,3,-1,5,7,-1,-1,-1,-1],"loss_changes":[1.6969115E2,4.4100674E1,0E0,2.2162743E1,6.2892275E0,0E0,0E0,0E0,0E0],"parents":[2147483647,0,0,1,1,3,3,4,4],"right_children":[2,4,-1,6,8,-1,-1,-1,-1],"split_conditions":[1.6184223E1,1.8433366E-7,-3.0787396E-1,3.8365262E0,2.1353662E-5,1.1876342E-2,2.3458387E-1,-0E0,-1.8547055E-1],"split_indices":[60,66,0,60,65,0,0,0,0],"split_type":[0,0,0,0,0,0,0,0,0],"sum_hessian":[1.4300114E3,1.0780354E3,3.5197598E2,8.948543E2,1.8318109E2,2.3759013E2,6.5726416E2,7.564413E1,1.0753696E2],"tree_param":{"num_deleted":"0","num_feature":"75","num_nodes":"9","size_leaf_vector":"1"}},{"base_weights":[-2.1132149E-2,-3.296259E-1,4.6391106E-1],"categories":[],"categories_nodes":[],"categories_segments":[],"categories_sizes":[],"default_left":[0,0,0],"id":7,"left_children":[1,-1,-1],"loss_changes":[6.4954535E2,0E0,0E0],"parents":[2147483647,0,0],"right_children":[2,-1,-1],"split_conditions":[-4.42E0,-3.296259E-1,4.6391106E-1],"split_indices":[40,0,0],"split_type":[0,0,0],"sum_hessian":[1.3269344E3,8.008632E2,5.260712E2],"tree_param":{"num_deleted":"0","num_feature":"75","num_nodes":"3","size_leaf_vector":"1"}},{"base_weights":[1.975718E-2,-2.9783046E-1,2.6954165E-1,1.4304649E-2,4.6689394E-1,-6.737034E-2,2.7494913E-1,1.8732762E-1,3.632462E-1],"categories":[],"categories_nodes":[],"categories_segments":[],"categories_sizes":[],"default_left":[0,0,0,0,0,0,0,0,0],"id":8,"left_children":[1,-1,3,5,7,-1,-1,-1,-1],"loss_changes":[1.8227005E2,0E0,4.1908142E1,3.6251926E1,8.257271E0,0E0,0E0,0E0,0E0],"parents":[2147483647,0,0,2,2,3,3,4,4],"right_children":[2,-1,4,6,8,-1,-1,-1,-1],"split_conditions":[3.7225974E0,-2.9783046E-1,1.773526E-2,7.530887E-8,4.7047614E-8,-6.737034E-2,2.7494913E-1,1.8732762E-1,3.632462E-1],"split_indices":[34,0,16,66,66,0,0,0,0],"split_type":[0,0,0,0,0,0,0,0,0],"sum_hessian":[1.2638076E3,3.8653677E2,8.772708E2,3.9859998E2,4.7867084E2,2.996026E2,9.899738E1,2.9617493E2,1.824959E2],"tree_param":{"num_deleted":"0","num_feature":"75","num_nodes":"9","size_leaf_vector":"1"}},{"base_weights":[-4.3105455E-3,-2.2269744E-1,2.708027E-1,-3.809259E-1,3.2696877E-2,3.788727E-1,-2.1522489E-1,-0E0,-2.3908238E-1,2.1129131E-1,-1.5727697E-1,2.9791367E-1,-2.0618187E-1],"categories":[],"categories_nodes":[],"categories_segments":[],"categories_sizes":[],"default_left":[0,0,0,0,0,0,0,0,0,0,0,0,0],"id":9,"left_children":[1,3,5,7,9,11,-1,-1,-1,-1,-1,-1,-1],"loss_changes":[7.896265E1,3.1333221E1,4.1720192E1,5.5369797E0,3.5572456E1,5.6561462E1,0E0,0E0,0E0,0E0,0E0,0E0,0E0],"parents":[2147483647,0,0,1,1,2,2,3,3,4,4,5,5],"right_children":[2,4,6,8,10,12,-1,-1,-1,-1,-1,-1,-1],"split_conditions":[2.7E1,1.3533726E-1,3.6350558E0,-1.5971816E0,3.734848E-8,1.32E0,-2.1522489E-1,-0E0,-2.3908238E-1,2.1129131E-1,-1.5727697E-1,2.9791367E-1,-2.0618187E-1],"split_indices":[58,55,59,56,63,40,0,0,0,0,0,0,0],"split_type":[0,0,0,0,0,0,0,0,0,0,0,0,0],"sum_hessian":[1.2033171E3,6.852669E2,5.180502E2,4.3998514E2,2.4528178E2,4.5407025E2,6.3979904E1,4.2603874E1,3.973813E2,1.2769185E2,1.17589935E2,3.8629474E2,6.777551E1],"tree_param":{"num_deleted":"0","num_feature":"75","num_nodes":"13","size_leaf_vector":"1"}},{"base_weights":[3.2678124E-2,1.7560473E-1,-4.1887575E-1,3.3628094E-1,9.490543E-3,-2.61403E-1,-0E0,3.0422825E-1,1.478755E-1,1.844118E-1,-5.6540675E-2],"categories":[],"categories_nodes":[],"categories_segments":[],"categories_sizes":[],"default_left":[0,0,0,0,0,0,0,0,0,0,0],"id":10,"left_children":[1,3,5,7,9,-1,-1,-1,-1,-1,-1],"loss_changes":[9.248897E1,2.6195797E1,4.9023094E0,5.95747E0,2.5921005E1,0E0,0E0,0E0,0E0,0E0,0E0],"parents":[2147483647,0,0,1,1,2,2,3,3,4,4],"right_children":[2,4,6,8,10,-1,-1,-1,-1,-1,-1],"split_conditions":[2.2686186E0,-1.0588114E0,1.4855839E10,-3.6159423E-1,-6.278668E-1,-2.61403E-1,-0E0,3.0422825E-1,1.478755E-1,1.844118E-1,-5.6540675E-2],"split_indices":[31,56,18,55,55,0,0,0,0,0,0],"split_type":[0,0,0,0,0,0,0,0,0,0,0],"sum_hessian":[1.3381385E3,1.0287449E3,3.0939365E2,5.0079465E2,5.2795026E2,2.861086E2,2.3285028E1,1.06684685E2,3.9410995E2,1.5174518E2,3.762051E2],"tree_param":{"num_deleted":"0","num_feature":"75","num_nodes":"11","size_leaf_vector":"1"}},{"base_weights":[-5.8329027E-2,5.808909E-1,-5.31717E-1,3.5064578E-1,-8.3899416E-2,-3.0685616E-1,-0E0],"categories":[],"categories_nodes":[],"categories_segments":[],"categories_sizes":[],"default_left":[0,0,0,0,0,0,0],"id":11,"left_children":[1,3,5,-1,-1,-1,-1],"loss_changes":[3.2103976E2,1.4711716E1,2.4897308E0,0E0,0E0,0E0,0E0],"parents":[2147483647,0,0,1,1,2,2],"right_children":[2,4,6,-1,-1,-1,-1],"split_conditions":[3.1225326E-7,1.9228423E-8,1.7432791E2,3.5064578E-1,-8.3899416E-2,-3.0685616E-1,-0E0],"split_indices":[65,66,60,0,0,0,0],"split_type":[0,0,0,0,0,0,0],"sum_hessian":[1.0123158E3,4.242635E2,5.880523E2,4.110312E2,1.3232315E1,5.818949E2,6.1574006E0],"tree_param":{"num_deleted":"0","num_feature":"75","num_nodes":"7","size_leaf_vector":"1"}},{"base_weights":[1.977196E-2,-2.8239778E-1,1.871295E-1,1.3156791E-1,5.417782E-1,-0E0,2.1285266E-1,5.308816E-1,9.978576E-2],"categories":[],"categories_nodes":[],"categories_segments":[],"categories_sizes":[],"default_left":[0,0,0,0,0,0,0,0,0],"id":12,"left_children":[1,-1,3,5,7,-1,-1,-1,-1],"loss_changes":[1.0460729E2,0E0,1.7619427E1,2.5366947E1,1.0631092E1,0E0,0E0,0E0,0E0],"parents":[2147483647,0,0,2,2,3,3,4,4],"right_children":[2,-1,4,6,8,-1,-1,-1,-1],"split_conditions":[3.6543121E0,-2.8239778E-1,-3.8254E2,5.6841024E-8,9.02516E4,-0E0,2.1285266E-1,5.308816E-1,9.978576E-2],"split_indices":[34,0,40,66,35,0,0,0,0],"split_type":[0,0,0,0,0,0,0,0,0],"sum_hessian":[1.1172935E3,2.6108194E2,8.562115E2,7.5855255E2,9.765898E1,5.0706244E2,2.5149007E2,3.6671585E1,6.0987396E1],"tree_param":{"num_deleted":"0","num_feature":"75","num_nodes":"9","size_leaf_vector":"1"}},{"base_weights":[-8.840379E-3,1.147579E-1,-2.86594E-1,-1.7525636E-1,2.6150748E-1,-0E0,-2.4415945E-1,-1.8980738E-2,-1.88991E-1,-0E0,2.5837234E-1,6.8670906E-2,-1.88782E-1],"categories":[],"categories_nodes":[],"categories_segments":[],"categories_sizes":[],"default_left":[0,0,0,0,0,0,0,0,0,0,0,0,0],"id":13,"left_children":[1,3,5,7,9,11,-1,-1,-1,-1,-1,-1,-1],"loss_changes":[4.0548965E1,3.2677906E1,1.1067165E1,3.5773525E0,2.661522E1,1.2707557E1,0E0,0E0,0E0,0E0,0E0,0E0,0E0],"parents":[2147483647,0,0,1,1,2,2,3,3,4,4,5,5],"right_children":[2,4,6,8,10,12,-1,-1,-1,-1,-1,-1,-1],"split_conditions":[1.0282046E0,-7.6827696E-8,-5.41377E-1,3.7334866E2,1.7468734E0,-4.42E0,-2.4415945E-1,-1.8980738E-2,-1.88991E-1,-0E0,2.5837234E-1,6.8670906E-2,-1.88782E-1],"split_indices":[38,66,30,31,10,40,0,0,0,0,0,0,0],"split_type":[0,0,0,0,0,0,0,0,0,0,0,0,0],"sum_hessian":[9.837904E2,6.6353156E2,3.202589E2,2.0666344E2,4.568681E2,1.21659904E2,1.98599E2,1.3366985E2,7.299359E1,1.8633292E2,2.705352E2,7.721791E1,4.4441986E1],"tree_param":{"num_deleted":"0","num_feature":"75","num_nodes":"13","size_leaf_vector":"1"}},{"base_weights":[5.0444257E-2,1.3263406E-1,-4.168414E-1,2.5842223E-1,3.0907188E-2,-2.6423767E-1,-0E0,-7.751761E-2,2.0756662E-1,1.1676316E-1,-5.879233E-2],"categories":[],"categories_nodes":[],"categories_segments":[],"categories_sizes":[],"default_left":[0,0,0,0,0,0,0,0,0,0,0],"id":14,"left_children":[1,3,5,7,9,-1,-1,-1,-1,-1,-1],"loss_changes":[5.146827E1,1.2634844E1,1.8338737E0,2.2341068E1,1.9065456E1,0E0,0E0,0E0,0E0,0E0,0E0],"parents":[2147483647,0,0,1,1,2,2,3,3,4,4],"right_children":[2,4,6,8,10,-1,-1,-1,-1,-1,-1],"split_conditions":[4.3557134E0,2.301346E-5,3.0884917E-3,1.03303E1,6.019341E4,-2.6423767E-1,-0E0,-7.751761E-2,2.0756662E-1,1.1676316E-1,-5.879233E-2],"split_indices":[31,57,16,7,35,0,0,0,0,0,0],"split_type":[0,0,0,0,0,0,0,0,0,0,0],"sum_hessian":[1.2155839E3,1.047187E3,1.6839682E2,4.3647507E2,6.10712E2,1.5152213E2,1.6874697E1,8.063076E1,3.558443E2,2.8770355E2,3.230084E2],"tree_param":{"num_deleted":"0","num_feature":"75","num_nodes":"11","size_leaf_vector":"1"}},{"base_weights":[-9.040806E-2,-4.944332E-1,4.572594E-1,5.9143794E-3,-2.9626384E-1,-0E0,5.134166E-1,-0E0,-4.756316E-2,3.1194383E-1,-0E0],"categories":[],"categories_nodes":[],"categories_segments":[],"categories_sizes":[],"default_left":[0,0,0,0,0,0,0,0,0,0,0],"id":15,"left_children":[1,3,5,-1,-1,7,9,-1,-1,-1,-1],"loss_changes":[1.7507526E2,7.491989E0,7.5638504E0,0E0,0E0,1.3333796E0,3.9200134E0,0E0,0E0,0E0,0E0],"parents":[2147483647,0,0,1,1,2,2,5,5,6,6],"right_children":[2,4,6,-1,-1,8,10,-1,-1,-1,-1],"split_conditions":[6.2298317E1,1.6337687E-1,0E0,5.9143794E-3,-2.9626384E-1,9.194726E0,-2.1244738E1,-0E0,-4.756316E-2,3.1194383E-1,-0E0],"split_indices":[31,1,40,0,0,26,41,0,0,0,0],"split_type":[0,0,0,0,0,0,0,0,0,0,0],"sum_hessian":[7.359989E2,4.3103647E2,3.0496243E2,1.1724984E1,4.193115E2,2.5280258E1,2.796822E2,6.739422E0,1.8540836E1,2.636204E2,1.6061785E1],"tree_param":{"num_deleted":"0","num_feature":"75","num_nodes":"11","size_leaf_vector":"1"}},{"base_weights":[2.647496E-2,-2.5134528E-1,1.4122194E-1,-3.0615294E-1,2.2195494E-1,-2.2092135E-1,-0E0,6.5035105E-2,2.2453432E-1],"categories":[],"categories_nodes":[],"categories_segments":[],"categories_sizes":[],"default_left":[0,0,0,0,0,0,0,0,0],"id":16,"left_children":[1,-1,3,5,7,-1,-1,-1,-1],"loss_changes":[6.039475E1,0E0,3.3760403E1,2.5735283E0,1.2282791E1,0E0,0E0,0E0,0E0],"parents":[2147483647,0,0,2,2,3,3,4,4],"right_children":[2,-1,4,6,8,-1,-1,-1,-1],"split_conditions":[3.480278E0,-2.5134528E-1,-1.5671637E0,9.614376E-2,4.7047614E-8,-2.2092135E-1,-0E0,6.5035105E-2,2.2453432E-1],"split_indices":[59,0,56,12,66,0,0,0,0],"split_type":[0,0,0,0,0,0,0,0,0],"sum_hessian":[1.0093962E3,1.847628E2,8.2463336E2,1.1227323E2,7.1236017E2,9.120519E1,2.1068039E1,4.6980212E2,2.4255803E2],"tree_param":{"num_deleted":"0","num_feature":"75","num_nodes":"9","size_leaf_vector":"1"}},{"base_weights":[-1.5097096E-2,7.577395E-2,-3.0578312E-1,1.6894329E-1,-2.4683492E-1,-0E0,-2.2985756E-1,1.3304879E-1,-1.8075402E-1,-1.6823393E-1,-0E0,4.988697E-2,-1.2965432E-3],"categories":[],"categories_nodes":[],"categories_segments":[],"categories_sizes":[],"default_left":[0,0,0,0,0,0,0,0,0,0,0,0,0],"id":17,"left_children":[1,3,5,7,9,11,-1,-1,-1,-1,-1,-1,-1],"loss_changes":[2.9330364E1,2.2815922E1,6.6603127E0,2.04688E1,1.9306278E0,1.3934605E0,0E0,0E0,0E0,0E0,0E0,0E0,0E0],"parents":[2147483647,0,0,1,1,2,2,3,3,4,4,5,5],"right_children":[2,4,6,8,10,12,-1,-1,-1,-1,-1,-1,-1],"split_conditions":[1.8278638E-2,1.3052208E0,-2.1990654E-1,3.4650516E2,5.9368693E-5,2.6329733E-5,-2.2985756E-1,1.3304879E-1,-1.8075402E-1,-1.6823393E-1,-0E0,4.988697E-2,-1.2965432E-3],"split_indices":[16,38,39,60,50,73,0,0,0,0,0,0,0],"split_type":[0,0,0,0,0,0,0,0,0,0,0,0,0],"sum_hessian":[8.545012E2,6.329209E2,2.2158032E2,5.0845776E2,1.24463165E2,5.284727E1,1.6873305E2,4.6036417E2,4.809359E1,1.1804848E2,6.414685E0,1.2799095E1,4.0048176E1],"tree_param":{"num_deleted":"0","num_feature":"75","num_nodes":"13","size_leaf_vector":"1"}},{"base_weights":[3.6078177E-2,9.105568E-2,-2.5045675E-1,1.3714112E-1,-8.722951E-2,1.2976497E-1,1.2778754E-2,-0E0,-1.0525163E-1],"categories":[],"categories_nodes":[],"categories_segments":[],"categories_sizes":[],"default_left":[0,0,0,0,0,0,0,0,0],"id":18,"left_children":[1,3,-1,5,7,-1,-1,-1,-1],"loss_changes":[3.5244205E1,1.0349029E1,0E0,8.210188E0,3.3686736E0,0E0,0E0,0E0,0E0],"parents":[2147483647,0,0,1,1,3,3,4,4],"right_children":[2,4,-1,6,8,-1,-1,-1,-1],"split_conditions":[1.9438492E1,-1.1634388E0,-2.5045675E-1,1.13763804E-7,6.095227E-2,1.2976497E-1,1.2778754E-2,-0E0,-1.0525163E-1],"split_indices":[60,6,0,62,69,0,0,0,0],"split_type":[0,0,0,0,0,0,0,0,0],"sum_hessian":[1.1691982E3,1.0629756E3,1.0622265E2,8.763792E2,1.8659637E2,4.4893936E2,4.2743982E2,7.2543106E1,1.14053276E2],"tree_param":{"num_deleted":"0","num_feature":"75","num_nodes":"9","size_leaf_vector":"1"}},{"base_weights":[-1.05477005E-1,3.5180372E-1,-4.724462E-1,2.797259E-1,-2.8700554E-1,-2.8454098E-1,-0E0,-2.7475038E-1,-0E0],"categories":[],"categories_nodes":[],"categories_segments":[],"categories_sizes":[],"default_left":[0,0,0,0,0,0,0,0,0],"id":19,"left_children":[1,3,5,-1,7,-1,-1,-1,-1],"loss_changes":[9.871188E1,2.6063717E1,4.1432266E0,0E0,4.3277416E0,0E0,0E0,0E0,0E0],"parents":[2147483647,0,0,1,1,2,2,4,4],"right_children":[2,4,6,-1,8,-1,-1,-1,-1],"split_conditions":[-6.1454473E0,-1.9615229E1,-1.146E1,2.797259E-1,3.7922387E-8,-2.8454098E-1,-0E0,-2.7475038E-1,-0E0],"split_indices":[30,41,40,0,63,0,0,0,0],"split_type":[0,0,0,0,0,0,0,0,0],"sum_hessian":[5.251622E2,2.2523125E2,2.9993094E2,1.9294267E2,3.2288567E1,2.9042587E2,9.505073E0,2.547114E1,6.8174267E0],"tree_param":{"num_deleted":"0","num_feature":"75","num_nodes":"9","size_leaf_vector":"1"}},{"base_weights":[1.0686426E-2,-2.654066E-1,9.261668E-2,-1.1212742E-1,1.9223768E-1,-1.9038482E-1,2.5842186E-2,-0E0,2.1335736E-1],"categories":[],"categories_nodes":[],"categories_segments":[],"categories_sizes":[],"default_left":[0,0,0,0,0,0,0,0,0],"id":20,"left_children":[1,-1,3,5,7,-1,-1,-1,-1],"loss_changes":[4.1960003E1,0E0,1.9486382E1,1.3785215E1,2.2046265E1,0E0,0E0,0E0,0E0],"parents":[2147483647,0,0,2,2,3,3,4,4],"right_children":[2,-1,4,6,8,-1,-1,-1,-1],"split_conditions":[7.549957E0,-2.654066E-1,3.2453464E-8,3.9685328E-2,1.3447154E-2,-1.9038482E-1,2.5842186E-2,-0E0,2.1335736E-1],"split_indices":[0,0,63,16,16,0,0,0,0],"split_type":[0,0,0,0,0,0,0,0,0],"sum_hessian":[9.33374E2,1.225733E2,8.108007E2,2.4206772E2,5.68733E2,1.1777688E2,1.2429083E2,2.7750137E2,2.9123163E2],"tree_param":{"num_deleted":"0","num_feature":"75","num_nodes":"9","size_leaf_vector":"1"}},{"base_weights":[-0E0,1.5002003E-1,-1.4358999E-1,-1.448146E-1,2.3095514E-1,2.851653E-2,-2.9821616E-1,2.898507E-1,8.7010056E-2,1.3648626E-1,-1.4302012E-2,2.3342317E-2,-2.07652E-1],"categories":[],"categories_nodes":[],"categories_segments":[],"categories_sizes":[],"default_left":[0,0,0,0,0,0,0,0,0,0,0,0,0],"id":21,"left_children":[1,3,5,-1,7,9,11,-1,-1,-1,-1,-1,-1],"loss_changes":[2.0430916E1,1.5203145E1,1.4253166E1,0E0,6.4634E0,6.6842875E0,7.377802E0,0E0,0E0,0E0,0E0,0E0,0E0],"parents":[2147483647,0,0,1,1,2,2,4,4,5,5,6,6],"right_children":[2,4,6,-1,8,10,12,-1,-1,-1,-1,-1,-1],"split_conditions":[8.4022E0,2.0701584E-6,4.7278013E-3,-1.448146E-1,7.6575475E-8,6.184939E-1,-1.5971816E0,2.898507E-1,8.7010056E-2,1.3648626E-1,-1.4302012E-2,2.3342317E-2,-2.07652E-1],"split_indices":[4,57,13,0,62,38,56,0,0,0,0,0,0],"split_type":[0,0,0,0,0,0,0,0,0,0,0,0,0],"sum_hessian":[7.5509503E2,3.5175323E2,4.033418E2,4.3524025E1,3.0822922E2,1.6953645E2,2.3380534E2,4.4913002E1,2.6331622E2,6.003535E1,1.0950111E2,2.274229E1,2.1106306E2],"tree_param":{"num_deleted":"0","num_feature":"75","num_nodes":"13","size_leaf_vector":"1"}},{"base_weights":[4.0450856E-2,7.481068E-2,-2.1832666E-1,4.113263E-2,3.500651E-1,5.4276407E-2,-4.930207E-2,2.4822357E-1,-0E0],"categories":[],"categories_nodes":[],"categories_segments":[],"categories_sizes":[],"default_left":[0,0,0,0,0,0,0,0,0],"id":22,"left_children":[1,3,-1,5,7,-1,-1,-1,-1],"loss_changes":[1.9864746E1,1.08749695E1,0E0,8.579506E0,3.1820507E0,0E0,0E0,0E0,0E0],"parents":[2147483647,0,0,1,1,3,3,4,4],"right_children":[2,4,-1,6,8,-1,-1,-1,-1],"split_conditions":[1.9438492E1,6.47E2,-2.1832666E-1,-1.0477832E-1,2.871253E-5,5.4276407E-2,-4.930207E-2,2.4822357E-1,-0E0],"split_indices":[60,58,0,31,42,0,0,0,0],"split_type":[0,0,0,0,0,0,0,0,0],"sum_hessian":[1.112928E3,1.046163E3,6.676496E1,9.559488E2,9.0214195E1,7.078037E2,2.4814507E2,7.9354774E1,1.0859419E1],"tree_param":{"num_deleted":"0","num_feature":"75","num_nodes":"9","size_leaf_vector":"1"}},{"base_weights":[-1.2822826E-1,-2.6372334E-1,2.8656808E-1,2.5037748E-1,-1.7683242E-1,-2.3646036E-1,-0E0],"categories":[],"categories_nodes":[],"categories_segments":[],"categories_sizes":[],"default_left":[0,0,0,0,0,0,0],"id":23,"left_children":[1,-1,3,-1,5,-1,-1],"loss_changes":[6.530396E1,0E0,1.7069506E1,0E0,5.324515E0,0E0,0E0],"parents":[2147483647,0,0,2,2,4,4],"right_children":[2,-1,4,-1,6,-1,-1],"split_conditions":[3.3770233E1,-2.6372334E-1,-1.9615229E1,2.5037748E-1,3.7922387E-8,-2.3646036E-1,-0E0],"split_indices":[31,0,41,0,63,0,0],"split_type":[0,0,0,0,0,0,0],"sum_hessian":[3.9639923E2,2.2732503E2,1.690742E2,1.3763283E2,3.1441381E1,2.2730383E1,8.710999E0],"tree_param":{"num_deleted":"0","num_feature":"75","num_nodes":"7","size_leaf_vector":"1"}},{"base_weights":[2.1371976E-3,-2.396031E-1,6.828441E-2,-6.609759E-2,1.8013887E-1,-1.4362328E-1,1.0114716E-2,-1.1628602E-1,1.7106172E-1],"categories":[],"categories_nodes":[],"categories_segments":[],"categories_sizes":[],"default_left":[0,0,0,0,0,0,0,0,0],"id":24,"left_children":[1,-1,3,5,7,-1,-1,-1,-1],"loss_changes":[2.893367E1,0E0,1.4367758E1,9.208051E0,2.5415628E1,0E0,0E0,0E0,0E0],"parents":[2147483647,0,0,2,2,3,3,4,4],"right_children":[2,-1,4,6,8,-1,-1,-1,-1],"split_conditions":[3.602944E0,-2.396031E-1,-4.125473E-1,-8.8836414E-1,-1.5671637E0,-1.4362328E-1,1.0114716E-2,-1.1628602E-1,1.7106172E-1],"split_indices":[34,0,55,56,56,0,0,0,0],"split_type":[0,0,0,0,0,0,0,0,0],"sum_hessian":[8.6612665E2,1.0115864E2,7.64968E2,3.1888223E2,4.4608575E2,1.2372276E2,1.9515948E2,9.3825325E1,3.522604E2],"tree_param":{"num_deleted":"0","num_feature":"75","num_nodes":"9","size_leaf_vector":"1"}},{"base_weights":[-4.1100117E-3,1.7245844E-1,-1.8579872E-1,8.2122035E-2,6.030805E-1,-9.0560075E-3,-3.518117E-1,9.626467E-2,-1.306475E-1,-0E0,4.3272385E-1,8.995402E-3,-1.2351219E-1,-0E0,-2.5339675E-1],"categories":[],"categories_nodes":[],"categories_segments":[],"categories_sizes":[],"default_left":[0,0,0,0,0,0,0,0,0,0,0,0,0,0,0],"id":25,"left_children":[1,3,5,7,9,11,13,-1,-1,-1,-1,-1,-1,-1,-1],"loss_changes":[2.7505207E1,1.4165219E1,9.291958E0,1.1657593E1,2.7069283E0,5.6189365E0,3.6067734E0,0E0,0E0,0E0,0E0,0E0,0E0,0E0,0E0],"parents":[2147483647,0,0,1,1,2,2,3,3,4,4,5,5,6,6],"right_children":[2,4,6,8,10,12,14,-1,-1,-1,-1,-1,-1,-1,-1],"split_conditions":[3.134026E-8,6.3691252E-9,6.858793E-2,2.6008233E-2,4.74E2,6.5497964E-8,1.919E3,9.626467E-2,-1.306475E-1,-0E0,4.3272385E-1,8.995402E-3,-1.2351219E-1,-0E0,-2.5339675E-1],"split_indices":[63,64,12,16,32,63,20,0,0,0,0,0,0,0,0],"split_type":[0,0,0,0,0,0,0,0,0,0,0,0,0,0,0],"sum_hessian":[6.9716406E2,3.3381082E2,3.6335324E2,2.903904E2,4.3420403E1,1.9710805E2,1.662452E2,2.443748E2,4.601561E1,9.042541E0,3.437786E1,1.4670723E2,5.040082E1,4.1337612E1,1.24907585E2],"tree_param":{"num_deleted":"0","num_feature":"75","num_nodes":"15","size_leaf_vector":"1"}},{"base_weights":[4.0441606E-2,6.3071355E-2,-1.8391125E-1,2.0934992E-1,1.444275E-2,1.6739336E-1,-0E0,-1.3570817E-1,3.2164376E-2],"categories":[],"categories_nodes":[],"categories_segments":[],"categories_sizes":[],"default_left":[0,0,0,0,0,0,0,0,0],"id":26,"left_children":[1,3,-1,5,7,-1,-1,-1,-1],"loss_changes":[1.1652192E1,7.51806E0,0E0,3.964179E0,1.1370163E1,0E0,0E0,0E0,0E0],"parents":[2147483647,0,0,1,1,3,3,4,4],"right_children":[2,4,-1,6,8,-1,-1,-1,-1],"split_conditions":[2.989223E5,4.1951276E-5,-1.8391125E-1,5.41E-2,1.1192669E-2,1.6739336E-1,-0E0,-1.3570817E-1,3.2164376E-2],"split_indices":[35,74,0,2,68,0,0,0,0],"split_type":[0,0,0,0,0,0,0,0,0],"sum_hessian":[1.0649851E3,1.0219536E3,4.303152E1,2.178998E2,8.040538E2,1.5566708E2,6.2232716E1,9.0668175E1,7.133856E2],"tree_param":{"num_deleted":"0","num_feature":"75","num_nodes":"9","size_leaf_vector":"1"}},{"base_weights":[-1.3853988E-1,-2.5946453E-1,2.9699638E-1,2.2513445E-1,-0E0,1.7633319E-2,-6.1161324E-2],"categories":[],"categories_nodes":[],"categories_segments":[],"categories_sizes":[],"default_left":[0,0,0,0,0,0,0],"id":27,"left_children":[1,-1,3,-1,5,-1,-1],"loss_changes":[4.9560886E1,0E0,3.2459793E0,0E0,2.1605177E0,0E0,0E0],"parents":[2147483647,0,0,2,2,4,4],"right_children":[2,-1,4,-1,6,-1,-1],"split_conditions":[-4.42E0,-2.5946453E-1,-2.190351E1,2.2513445E-1,2.4662E0,1.7633319E-2,-6.1161324E-2],"split_indices":[40,0,41,0,4,0,0],"split_type":[0,0,0,0,0,0,0],"sum_hessian":[2.8827078E2,1.751532E2,1.1311759E2,8.667144E1,2.644615E1,1.3148898E1,1.3297253E1],"tree_param":{"num_deleted":"0","num_feature":"75","num_nodes":"7","size_leaf_vector":"1"}},{"base_weights":[-0E0,-2.0963529E-1,5.6599986E-2,-1.204877E-2,3.599774E-1,-1.0722649E-1,4.2713962E-2,8.451777E-2,3.3426756E-1],"categories":[],"categories_nodes":[],"categories_segments":[],"categories_sizes":[],"default_left":[0,0,0,0,0,0,0,0,0],"id":28,"left_children":[1,-1,3,5,7,-1,-1,-1,-1],"loss_changes":[2.2080954E1,0E0,2.1559813E1,1.3248974E1,4.9762077E0,0E0,0E0,0E0,0E0],"parents":[2147483647,0,0,2,2,3,3,4,4],"right_children":[2,-1,4,6,8,-1,-1,-1,-1],"split_conditions":[1.6957201E-5,-2.0963529E-1,-4.7046E2,-1.0600536E-1,6.13769E-3,-1.0722649E-1,4.2713962E-2,8.451777E-2,3.3426756E-1],"split_indices":[57,0,40,39,14,0,0,0,0],"split_type":[0,0,0,0,0,0,0,0,0],"sum_hessian":[8.186833E2,9.8243355E1,7.2043994E2,5.6914325E2,1.512967E2,2.1422784E2,3.549154E2,9.628598E1,5.501072E1],"tree_param":{"num_deleted":"0","num_feature":"75","num_nodes":"9","size_leaf_vector":"1"}},{"base_weights":[-0E0,2.1165346E-1,-1.1929838E-1,2.9617807E-1,-5.0039813E-2,-2.0523033E-1,1.7307058E-2,2.1004792E-1,-0E0,-1.1998344E-1,-0E0,-0E0,-1.6038467E-1,-1.08186185E-1,1.2641129E-1],"categories":[],"categories_nodes":[],"categories_segments":[],"categories_sizes":[],"default_left":[0,0,0,0,0,0,0,0,0,0,0,0,0,0,0],"id":29,"left_children":[1,3,5,7,9,11,13,-1,-1,-1,-1,-1,-1,-1,-1],"loss_changes":[2.0752165E1,7.1048145E0,6.947652E0,4.6792564E0,3.1410375E0,5.9220753E0,1.1562202E1,0E0,0E0,0E0,0E0,0E0,0E0,0E0,0E0],"parents":[2147483647,0,0,1,1,2,2,3,3,4,4,5,5,6,6],"right_children":[2,4,6,8,10,12,14,-1,-1,-1,-1,-1,-1,-1,-1],"split_conditions":[2.6841953E-8,1.84E0,5.9541594E-9,4.23755E1,-2.3750786E1,-1.8593663E0,5.38E-2,2.1004792E-1,-0E0,-1.1998344E-1,-0E0,-0E0,-1.6038467E-1,-1.08186185E-1,1.2641129E-1],"split_indices":[63,40,64,7,41,30,2,0,0,0,0,0,0,0,0],"split_type":[0,0,0,0,0,0,0,0,0,0,0,0,0,0,0],"sum_hessian":[6.4716364E2,2.2248795E2,4.246757E2,1.8854642E2,3.3941525E1,2.922546E2,1.3242107E2,1.599207E2,2.8625729E1,2.7320385E1,6.6211386E0,6.3218735E1,2.2903589E2,4.884827E1,8.357279E1],"tree_param":{"num_deleted":"0","num_feature":"75","num_nodes":"15","size_leaf_vector":"1"}},{"base_weights":[1.9969542E-2,-1.493185E-1,4.5396246E-2,8.2088165E-2,-9.664488E-2,1.7740425E-1,1.7298484E-2,-1.4681078E-1,-0E0],"categories":[],"categories_nodes":[],"categories_segments":[],"categories_sizes":[],"default_left":[0,0,0,0,0,0,0,0,0],"id":30,"left_children":[1,-1,3,5,7,-1,-1,-1,-1],"loss_changes":[1.0119977E1,0E0,6.677681E0,1.0662632E1,5.029649E0,0E0,0E0,0E0,0E0],"parents":[2147483647,0,0,2,2,3,3,4,4],"right_children":[2,-1,4,6,8,-1,-1,-1,-1],"split_conditions":[4.2540402E0,-1.493185E-1,5.2774844E0,-7.8792E2,9.417761E0,1.7740425E-1,1.7298484E-2,-1.4681078E-1,-0E0],"split_indices":[0,0,59,40,9,0,0,0,0],"split_type":[0,0,0,0,0,0,0,0,0],"sum_hessian":[1.0615375E3,6.3495075E1,9.980424E2,8.33089E2,1.6495341E2,1.2507495E2,7.0801404E2,7.204838E1,9.290504E1],"tree_param":{"num_deleted":"0","num_feature":"75","num_nodes":"9","size_leaf_vector":"1"}},{"base_weights":[-1.1689352E-1,-4.0324768E-1,2.160931E-1,-0E0,-2.5992125E-1,1.9885954E-1,-0E0,1.1038968E-1,-1.4908218E-1],"categories":[],"categories_nodes":[],"categories_segments":[],"categories_sizes":[],"default_left":[0,0,0,0,0,0,0,0,0],"id":31,"left_children":[1,3,5,-1,-1,-1,7,-1,-1],"loss_changes":[2.9549416E1,3.1376476E0,3.3172255E0,0E0,0E0,0E0,8.493987E0,0E0,0E0],"parents":[2147483647,0,0,1,1,2,2,6,6],"right_children":[2,4,6,-1,-1,-1,8,-1,-1],"split_conditions":[4.803591E1,2.6006E0,2.0701584E-6,-0E0,-2.5992125E-1,1.9885954E-1,-2.3750786E1,1.1038968E-1,-1.4908218E-1],"split_indices":[60,4,57,0,0,0,41,0,0],"split_type":[0,0,0,0,0,0,0,0,0],"sum_hessian":[2.2833148E2,1.341014E2,9.4230095E1,7.3161592E0,1.2678523E2,5.8252487E1,3.5977604E1,2.0147972E1,1.5829632E1],"tree_param":{"num_deleted":"0","num_feature":"75","num_nodes":"9","size_leaf_vector":"1"}},{"base_weights":[-0E0,-2.0560999E-1,3.9452553E-2,-8.306887E-2,1.243816E-1,-1.3706188E-1,6.488097E-3,1.0282812E-2,1.7880945E-1],"categories":[],"categories_nodes":[],"categories_segments":[],"categories_sizes":[],"default_left":[0,0,0,0,0,0,0,0,0],"id":32,"left_children":[1,-1,3,5,7,-1,-1,-1,-1],"loss_changes":[1.579869E1,0E0,9.925599E0,7.454682E0,9.167796E0,0E0,0E0,0E0,0E0],"parents":[2147483647,0,0,2,2,3,3,4,4],"right_children":[2,-1,4,6,8,-1,-1,-1,-1],"split_conditions":[1.692E1,-2.0560999E-1,3.6100637E-8,6.27E-3,-5.1245E2,-1.3706188E-1,6.488097E-3,1.0282812E-2,1.7880945E-1],"split_indices":[3,0,63,13,40,0,0,0,0],"split_type":[0,0,0,0,0,0,0,0,0],"sum_hessian":[7.885016E2,6.641741E1,7.2208417E2,2.6147314E2,4.6061102E2,1.2445466E2,1.370185E2,3.213478E2,1.392632E2],"tree_param":{"num_deleted":"0","num_feature":"75","num_nodes":"9","size_leaf_vector":"1"}},{"base_weights":[-0E0,6.618101E-2,-1.2994716E-1,2.0190112E-1,-1.24421E-1,1.4916895E-1,-2.2149165E-1,6.158766E-2,2.99848E-1,-0E0,-2.0642313E-1,-0E0,2.8578264E-1,-0E0,-1.7775522E-1],"categories":[],"categories_nodes":[],"categories_segments":[],"categories_sizes":[],"default_left":[0,0,0,0,0,0,0,0,0,0,0,0,0,0,0],"id":33,"left_children":[1,3,5,7,9,11,13,-1,-1,-1,-1,-1,-1,-1,-1],"loss_changes":[8.173759E0,1.3714731E1,8.651415E0,7.7249556E0,4.525122E0,8.70363E0,4.661227E0,0E0,0E0,0E0,0E0,0E0,0E0,0E0,0E0],"parents":[2147483647,0,0,1,1,2,2,3,3,4,4,5,5,6,6],"right_children":[2,4,6,8,10,12,14,-1,-1,-1,-1,-1,-1,-1,-1],"split_conditions":[7.195258E-2,4.0752518E-8,1.313033E-6,7.14E2,1.5151459E7,-2.3792784E1,1.98E2,6.158766E-2,2.99848E-1,-0E0,-2.0642313E-1,-0E0,2.8578264E-1,-0E0,-1.7775522E-1],"split_indices":[12,63,51,32,49,41,47,0,0,0,0,0,0,0,0],"split_type":[0,0,0,0,0,0,0,0,0,0,0,0,0,0,0],"sum_hessian":[6.019145E2,3.828513E2,2.1906319E2,2.4530096E2,1.3755032E2,3.485293E1,1.8421027E2,2.091767E2,3.612426E1,1.07645134E2,2.9905188E1,1.4366503E1,2.0486427E1,4.43861E1,1.3982416E2],"tree_param":{"num_deleted":"0","num_feature":"75","num_nodes":"15","size_leaf_vector":"1"}},{"base_weights":[1.978637E-2,-1.15352295E-1,3.7883453E-2,-3.9214987E-2,8.8490576E-2,-6.2963024E-2,5.462062E-2,1.4790589E-1,3.2704033E-2],"categories":[],"categories_nodes":[],"categories_segments":[],"categories_sizes":[],"default_left":[0,0,0,0,0,0,0,0,0],"id":34,"left_children":[1,-1,3,5,7,-1,-1,-1,-1],"loss_changes":[6.013073E0,0E0,5.1835785E0,5.526637E0,3.8089552E0,0E0,0E0,0E0,0E0],"parents":[2147483647,0,0,2,2,3,3,4,4],"right_children":[2,-1,4,6,8,-1,-1,-1,-1],"split_conditions":[8.2845E0,-1.15352295E-1,4.0531774E0,5.006992E-1,5.3723984E4,-6.2963024E-2,5.462062E-2,1.4790589E-1,3.2704033E-2],"split_indices":[7,0,60,68,35,0,0,0,0],"split_type":[0,0,0,0,0,0,0,0,0],"sum_hessian":[1.0267269E3,4.6739677E1,9.799873E2,3.3294955E2,6.470377E2,2.5135542E2,8.159415E1,6.089526E1,5.8614246E2],"tree_param":{"num_deleted":"0","num_feature":"75","num_nodes":"9","size_leaf_vector":"1"}},{"base_weights":[-9.9580176E-2,2.3809886E-1,-2.15848E-1,2.0510738E-1,-0E0],"categories":[],"categories_nodes":[],"categories_segments":[],"categories_sizes":[],"default_left":[0,0,0,0,0],"id":35,"left_children":[1,3,-1,-1,-1],"loss_changes":[2.536219E1,2.9174156E0,0E0,0E0,0E0],"parents":[2147483647,0,0,1,1],"right_children":[2,4,-1,-1,-1],"split_conditions":[7.40623E-8,8.334527E-2,-2.15848E-1,2.0510738E-1,-0E0],"split_indices":[65,12,0,0,0],"split_type":[0,0,0,0,0],"sum_hessian":[1.8290112E2,7.2081375E1,1.10819756E2,5.1726112E1,2.0355259E1],"tree_param":{"num_deleted":"0","num_feature":"75","num_nodes":"5","size_leaf_vector":"1"}},{"base_weights":[-0E0,-1.1640128E-1,1.01397894E-1,-2.072452E-1,5.732681E-2,-1.8261832E-1,1.6460662E-1,-1.6966443E-1,-0E0,-5.3575333E-2,1.1942168E-1,-0E0,-1.5990677E-1,1.1460029E-1,-0E0],"categories":[],"categories_nodes":[],"categories_segments":[],"categories_sizes":[],"default_left":[0,0,0,0,0,0,0,0,0,0,0,0,0,0,0],"id":36,"left_children":[1,3,5,7,9,11,13,-1,-1,-1,-1,-1,-1,-1,-1],"loss_changes":[1.207486E1,7.7008796E0,1.0333618E1,5.5950165E0,6.100483E0,2.1872354E0,2.3004007E0,0E0,0E0,0E0,0E0,0E0,0E0,0E0,0E0],"parents":[2147483647,0,0,1,1,2,2,3,3,4,4,5,5,6,6],"right_children":[2,4,6,8,10,12,14,-1,-1,-1,-1,-1,-1,-1,-1],"split_conditions":[3.80162E1,1.5130672E7,-8.981615E-1,3.751577E-2,3.9241743E0,5.453349E-5,3.570394E2,-1.6966443E-1,-0E0,-5.3575333E-2,1.1942168E-1,-0E0,-1.5990677E-1,1.1460029E-1,-0E0],"split_indices":[7,29,55,16,34,53,26,0,0,0,0,0,0,0,0],"split_type":[0,0,0,0,0,0,0,0,0,0,0,0,0,0,0],"sum_hessian":[7.646934E2,3.383318E2,4.2636166E2,2.4882878E2,8.9503E1,5.690865E1,3.69453E2,1.8094737E2,6.788141E1,2.2138294E1,6.736471E1,8.327175E0,4.8581474E1,3.1272705E2,5.672596E1],"tree_param":{"num_deleted":"0","num_feature":"75","num_nodes":"15","size_leaf_vector":"1"}},{"base_weights":[-2.2019916E-3,1.5225184E-1,-9.9761814E-2,2.0606902E-1,-1.3687398E-3,-2.0020546E-2,-2.3829503E-1,3.3334917E-1,4.4550437E-2,-0E0,-1.0783906E-1,-1.838389E-1,-0E0],"categories":[],"categories_nodes":[],"categories_segments":[],"categories_sizes":[],"default_left":[0,0,0,0,0,0,0,0,0,0,0,0,0],"id":37,"left_children":[1,3,5,7,-1,9,11,-1,-1,-1,-1,-1,-1],"loss_changes":[1.1908407E1,2.8001022E0,3.9501605E0,9.136241E0,0E0,4.031681E0,2.8536062E0,0E0,0E0,0E0,0E0,0E0,0E0],"parents":[2147483647,0,0,1,1,2,2,3,3,5,5,6,6],"right_children":[2,4,6,8,-1,10,12,-1,-1,-1,-1,-1,-1],"split_conditions":[2.6841953E-8,5.9744015E1,1.1386782E-2,-5.3303E2,-1.3687398E-3,6.777358E-8,1.0821459E-8,3.3334917E-1,4.4550437E-2,-0E0,-1.0783906E-1,-1.838389E-1,-0E0],"split_indices":[63,15,16,40,0,63,64,0,0,0,0,0,0],"split_type":[0,0,0,0,0,0,0,0,0,0,0,0,0],"sum_hessian":[5.7932684E2,1.9596626E2,3.833606E2,1.7914752E2,1.6818748E1,2.7640527E2,1.0695531E2,2.9815348E1,1.4933217E2,2.26471E2,4.9934288E1,8.7763466E1,1.919184E1],"tree_param":{"num_deleted":"0","num_feature":"75","num_nodes":"13","size_leaf_vector":"1"}},{"base_weights":[1.9386511E-2,1.7324282E-1,-5.098861E-3,3.240881E-1,-0E0,5.7250433E-2,-1.2448456E-1,2.3199338E-1,-0E0,-2.3086004E-2,2.1674326E-1,-3.9924268E-2,7.1988426E-2,-6.3054045E-3,-1.5766364E-1],"categories":[],"categories_nodes":[],"categories_segments":[],"categories_sizes":[],"default_left":[0,0,0,0,0,0,0,0,0,0,0,0,0,0,0],"id":38,"left_children":[1,3,5,7,9,11,13,-1,-1,-1,-1,-1,-1,-1,-1],"loss_changes":[7.102667E0,4.6748924E0,9.130051E0,2.2083426E0,8.433878E0,6.5786514E0,5.1084213E0,0E0,0E0,0E0,0E0,0E0,0E0,0E0,0E0],"parents":[2147483647,0,0,1,1,2,2,3,3,4,4,5,5,6,6],"right_children":[2,4,6,8,10,12,14,-1,-1,-1,-1,-1,-1,-1,-1],"split_conditions":[-6.278668E-1,3.8663697E-1,2.7037466E-5,-4.6362773E-2,1.486E3,2.6841953E-8,0E0,2.3199338E-1,-0E0,-2.3086004E-2,2.1674326E-1,-3.9924268E-2,7.1988426E-2,-6.3054045E-3,-1.5766364E-1],"split_indices":[55,31,57,39,58,63,55,0,0,0,0,0,0,0,0],"split_type":[0,0,0,0,0,0,0,0,0,0,0,0,0,0,0],"sum_hessian":[1.0066612E3,1.7720302E2,8.294582E2,8.585292E1,9.13501E1,5.062051E2,3.232531E2,7.2238495E1,1.3614427E1,7.6817E1,1.4533098E1,1.4390102E2,3.6230408E2,2.1374567E2,1.0950744E2],"tree_param":{"num_deleted":"0","num_feature":"75","num_nodes":"15","size_leaf_vector":"1"}},{"base_weights":[-7.26456E-2,1.5376379E-1,-2.2935694E-1,1.7257196E-1,-0E0,-2.1835173E-2,4.5069013E-2],"categories":[],"categories_nodes":[],"categories_segments":[],"categories_sizes":[],"default_left":[0,0,0,0,0,0,0],"id":39,"left_children":[1,3,-1,-1,5,-1,-1],"loss_changes":[1.97981E1,2.3663259E0,0E0,0E0,1.9010353E0,0E0,0E0],"parents":[2147483647,0,0,1,1,4,4],"right_children":[2,4,-1,-1,6,-1,-1],"split_conditions":[2.163945E-6,2.466083E0,-2.2935694E-1,1.7257196E-1,1.6902176E6,-2.1835173E-2,4.5069013E-2],"split_indices":[65,0,0,0,35,0,0],"split_type":[0,0,0,0,0,0,0],"sum_hessian":[1.5184398E2,7.815203E1,7.3691956E1,3.292863E1,4.52234E1,1.55513735E1,2.9672026E1],"tree_param":{"num_deleted":"0","num_feature":"75","num_nodes":"7","size_leaf_vector":"1"}},{"base_weights":[-0E0,-1.928144E-1,2.4507236E-2,-0E0,3.0778113E-1,-2.9579302E-2,6.8354845E-2,-0E0,2.719942E-1],"categories":[],"categories_nodes":[],"categories_segments":[],"categories_sizes":[],"default_left":[0,0,0,0,0,0,0,0,0],"id":40,"left_children":[1,-1,3,5,7,-1,-1,-1,-1],"loss_changes":[1.0425208E1,0E0,9.7358465E0,6.2103534E0,3.505993E0,0E0,0E0,0E0,0E0],"parents":[2147483647,0,0,2,2,3,3,4,4],"right_children":[2,-1,4,6,8,-1,-1,-1,-1],"split_conditions":[3.185473E0,-1.928144E-1,-3.6422E2,5.2774844E0,1.8528484E-5,-2.9579302E-2,6.8354845E-2,-0E0,2.719942E-1],"split_indices":[59,0,40,59,57,0,0,0,0],"split_type":[0,0,0,0,0,0,0,0,0],"sum_hessian":[7.3211224E2,4.0316334E1,6.9179596E2,6.2604614E2,6.574982E1,4.5763953E2,1.6840659E2,2.5693739E1,4.005608E1],"tree_param":{"num_deleted":"0","num_feature":"75","num_nodes":"9","size_leaf_vector":"1"}},{"base_weights":[-0E0,5.666058E-2,-1.5460287E-1,-0E0,2.0963134E-1,-2.2570941E-1,-0E0,-4.9991038E-2,1.5209891E-1,2.1714704E-1,-0E0,-1.8105242E-1,-0E0],"categories":[],"categories_nodes":[],"categories_segments":[],"categories_sizes":[],"default_left":[0,0,0,0,0,0,0,0,0,0,0,0,0],"id":41,"left_children":[1,3,5,7,9,11,-1,-1,-1,-1,-1,-1,-1],"loss_changes":[8.122067E0,5.497951E0,1.4931302E0,1.1773399E1,3.6438255E0,2.8900318E0,0E0,0E0,0E0,0E0,0E0,0E0,0E0],"parents":[2147483647,0,0,1,1,2,2,3,3,4,4,5,5],"right_children":[2,4,6,8,10,12,-1,-1,-1,-1,-1,-1,-1],"split_conditions":[4.214652E-8,1.18333205E-7,1.7521094E0,-2.1777172E1,5.1964973E-3,3.1861782E-5,-0E0,-4.9991038E-2,1.5209891E-1,2.1714704E-1,-0E0,-1.8105242E-1,-0E0],"split_indices":[63,62,10,41,13,52,0,0,0,0,0,0,0],"split_type":[0,0,0,0,0,0,0,0,0,0,0,0,0],"sum_hessian":[5.6042267E2,4.006702E2,1.5975249E2,2.8729306E2,1.1337713E2,1.05517815E2,5.423468E1,2.2001585E2,6.72772E1,5.079925E1,6.2577877E1,8.213231E1,2.3385504E1],"tree_param":{"num_deleted":"0","num_feature":"75","num_nodes":"13","size_leaf_vector":"1"}},{"base_weights":[3.8784684E-3,-0E0,2.3970929E-1,1.4451767E-2,-1.1334387E-1,2.89277E-1,-0E0,7.822324E-2,-8.053711E-3,-0E0,-1.0004683E-1],"categories":[],"categories_nodes":[],"categories_segments":[],"categories_sizes":[],"default_left":[0,0,0,0,0,0,0,0,0,0,0],"id":42,"left_children":[1,3,5,7,9,-1,-1,-1,-1,-1,-1],"loss_changes":[5.148896E0,3.7758799E0,5.518713E0,5.70076E0,1.4237275E0,0E0,0E0,0E0,0E0,0E0,0E0],"parents":[2147483647,0,0,1,1,2,2,3,3,4,4],"right_children":[2,4,6,8,10,-1,-1,-1,-1,-1,-1],"split_conditions":[1.933E3,5.2774844E0,7.815099E-3,-3.6159423E-1,6.4505795E-5,2.89277E-1,-0E0,7.822324E-2,-8.053711E-3,-0E0,-1.0004683E-1],"split_indices":[58,59,14,55,53,0,0,0,0,0,0],"split_type":[0,0,0,0,0,0,0,0,0,0,0],"sum_hessian":[9.969955E2,9.6568195E2,3.1313503E1,8.2705927E2,1.3862267E2,1.8857609E1,1.2455894E1,2.0099367E2,6.260656E2,4.0681477E1,9.794119E1],"tree_param":{"num_deleted":"0","num_feature":"75","num_nodes":"11","size_leaf_vector":"1"}},{"base_weights":[-3.2388456E-2,-2.1020442E-1,1.3156877E-1,1.7535464E-1,-0E0,-8.961164E-2,-0E0],"categories":[],"categories_nodes":[],"categories_segments":[],"categories_sizes":[],"default_left":[0,0,0,0,0,0,0],"id":43,"left_children":[1,-1,3,-1,5,-1,-1],"loss_changes":[1.5348303E1,0E0,5.05098E0,0E0,2.639177E0,0E0,0E0],"parents":[2147483647,0,0,2,2,4,4],"right_children":[2,-1,4,-1,6,-1,-1],"split_conditions":[-1.8347431E-2,-2.1020442E-1,-2.190351E1,1.7535464E-1,3.160899E-8,-8.961164E-2,-0E0],"split_indices":[39,0,41,0,63,0,0],"split_type":[0,0,0,0,0,0,0],"sum_hessian":[1.2702203E2,5.4976635E1,7.20454E1,4.775498E1,2.429042E1,1.4458087E1,9.832333E0],"tree_param":{"num_deleted":"0","num_feature":"75","num_nodes":"7","size_leaf_vector":"1"}},{"base_weights":[-0E0,-2.1591072E-1,2.6395567E-2,-0E0,-1.8001802E-1,-1.7307417E-2,1.4796439E-1,3.2869251E-3,-1.19967006E-1,-0E0,2.2630416E-1],"categories":[],"categories_nodes":[],"categories_segments":[],"categories_sizes":[],"default_left":[0,0,0,0,0,0,0,0,0,0,0],"id":44,"left_children":[1,3,5,-1,-1,7,9,-1,-1,-1,-1],"loss_changes":[7.317323E0,2.3463974E0,6.1004105E0,0E0,0E0,6.129601E0,1.1501807E1,0E0,0E0,0E0,0E0],"parents":[2147483647,0,0,1,1,2,2,5,5,6,6],"right_children":[2,4,6,-1,-1,8,10,-1,-1,-1,-1],"split_conditions":[1.8205452E-5,1.7072078E0,-3.480412E-2,-0E0,-1.8001802E-1,5.9053638E-9,1.3442841E-1,3.2869251E-3,-1.19967006E-1,-0E0,2.2630416E-1],"split_indices":[57,10,55,0,0,64,30,0,0,0,0],"split_type":[0,0,0,0,0,0,0,0,0,0,0],"sum_hessian":[7.1039746E2,7.289588E1,6.375016E2,1.6367298E1,5.6528584E1,4.266126E2,2.1088898E2,3.4980576E2,7.6806854E1,1.2735558E2,8.3533394E1],"tree_param":{"num_deleted":"0","num_feature":"75","num_nodes":"11","size_leaf_vector":"1"}},{"base_weights":[-0E0,3.2900356E-2,-1.9711362E-1,-5.824564E-4,4.1950795E-1,-1.6428326E-1,-0E0,5.7088666E-2,-4.4074837E-2,4.4403285E-1,-0E0],"categories":[],"categories_nodes":[],"categories_segments":[],"categories_sizes":[],"default_left":[0,0,0,0,0,0,0,0,0,0,0],"id":45,"left_children":[1,3,5,7,9,-1,-1,-1,-1,-1,-1],"loss_changes":[6.577883E0,1.4162747E1,8.690858E-1,5.5836873E0,1.5427525E1,0E0,0E0,0E0,0E0,0E0,0E0],"parents":[2147483647,0,0,1,1,2,2,3,3,4,4],"right_children":[2,4,6,8,10,-1,-1,-1,-1,-1,-1],"split_conditions":[7E2,4.8726473E0,1.4291836E0,2.635348E-8,5.9744015E1,-1.6428326E-1,-0E0,5.7088666E-2,-4.4074837E-2,4.4403285E-1,-0E0],"split_indices":[33,34,55,63,15,0,0,0,0,0,0],"split_type":[0,0,0,0,0,0,0,0,0,0,0],"sum_hessian":[5.298438E2,4.5809424E2,7.174958E1,4.0552423E2,5.257001E1,4.3326736E1,2.8422842E1,1.3575592E2,2.697683E2,3.5554756E1,1.7015255E1],"tree_param":{"num_deleted":"0","num_feature":"75","num_nodes":"11","size_leaf_vector":"1"}},{"base_weights":[3.0354932E-3,9.875062E-2,-1.5862789E-2,2.146092E-1,-0E0,7.634893E-3,-1.429472E-1,-0E0,1.8428016E-1,2.3061804E-2,-3.2283533E-2,-7.317665E-2,1.9091824E-2,1.7519688E-2,-1.2631823E-1],"categories":[],"categories_nodes":[],"categories_segments":[],"categories_sizes":[],"default_left":[0,0,0,0,0,0,0,0,0,0,0,0,0,0,0],"id":46,"left_children":[1,3,5,7,9,11,13,-1,-1,-1,-1,-1,-1,-1,-1],"loss_changes":[3.899581E0,3.186061E0,4.988492E0,1.7973537E0,1.6676142E0,3.5874462E0,4.2594185E0,0E0,0E0,0E0,0E0,0E0,0E0,0E0,0E0],"parents":[2147483647,0,0,1,1,2,2,3,3,4,4,5,5,6,6],"right_children":[2,4,6,8,10,12,14,-1,-1,-1,-1,-1,-1,-1,-1],"split_conditions":[-5.369303E-1,-6.817465E-1,4.89421E0,4.4182576E-5,3.132793E0,1.2710919E-9,2.3824003E-9,-0E0,1.8428016E-1,2.3061804E-2,-3.2283533E-2,-7.317665E-2,1.9091824E-2,1.7519688E-2,-1.2631823E-1],"split_indices":[55,56,59,61,37,64,64,0,0,0,0,0,0,0,0],"split_type":[0,0,0,0,0,0,0,0,0,0,0,0,0,0,0],"sum_hessian":[9.673857E2,2.2071274E2,7.46673E2,9.476189E1,1.2595084E2,5.838048E2,1.6286815E2,3.82183E1,5.654359E1,8.744051E1,3.851033E1,4.9706066E1,5.3409875E2,2.4159756E1,1.3870839E2],"tree_param":{"num_deleted":"0","num_feature":"75","num_nodes":"15","size_leaf_vector":"1"}},{"base_weights":[-2.0839337E-2,9.6371666E-2,-1.915421E-1,1.5179317E-1,-0E0,-4.3079473E-2,-0E0],"categories":[],"categories_nodes":[],"categories_segments":[],"categories_sizes":[],"default_left":[0,0,0,0,0,0,0],"id":47,"left_children":[1,3,-1,-1,5,-1,-1],"loss_changes":[1.1532894E1,4.0391273E0,0E0,0E0,1.184291E0,0E0,0E0],"parents":[2147483647,0,0,1,1,4,4],"right_children":[2,4,-1,-1,6,-1,-1],"split_conditions":[2.163945E-6,-2.190351E1,-1.915421E-1,1.5179317E-1,1.8035519E0,-4.3079473E-2,-0E0],"split_indices":[65,41,0,0,10,0,0],"split_type":[0,0,0,0,0,0,0],"sum_hessian":[1.0734063E2,6.268853E1,4.4652103E1,3.863574E1,2.4052792E1,1.6553997E1,7.498795E0],"tree_param":{"num_deleted":"0","num_feature":"75","num_nodes":"7","size_leaf_vector":"1"}},{"base_weights":[-0E0,-1.510392E-1,1.3102281E-2,-1.5893121E-1,4.8831444E-2,-1.5463863E-1,-0E0,1.506687E-1,1.4243277E-2],"categories":[],"categories_nodes":[],"categories_segments":[],"categories_sizes":[],"default_left":[0,0,0,0,0,0,0,0,0],"id":48,"left_children":[1,-1,3,5,7,-1,-1,-1,-1],"loss_changes":[6.359955E0,0E0,5.9427776E0,1.7288265E0,4.0159526E0,0E0,0E0,0E0,0E0],"parents":[2147483647,0,0,2,2,3,3,4,4],"right_children":[2,-1,4,6,8,-1,-1,-1,-1],"split_conditions":[3.185473E0,-1.510392E-1,-1.580163E0,1.5078945E7,-1.874206E0,-1.5463863E-1,-0E0,1.506687E-1,1.4243277E-2],"split_indices":[59,0,56,25,31,0,0,0,0],"split_type":[0,0,0,0,0,0,0,0,0],"sum_hessian":[6.888129E2,3.0700521E1,6.581124E2,7.855504E1,5.795574E2,4.203352E1,3.6521515E1,2.629766E1,5.532597E2],"tree_param":{"num_deleted":"0","num_feature":"75","num_nodes":"9","size_leaf_vector":"1"}},{"base_weights":[-0E0,-4.9244404E-2,1.19655825E-1,7.884279E-3,-1.7692463E-1,2.830013E-1,-0E0,7.914407E-2,-3.97867E-3,-1.363324E-1,-0E0,2.5421354E-1,-0E0,1.9138655E-2,-6.724791E-2],"categories":[],"categories_nodes":[],"categories_segments":[],"categories_sizes":[],"default_left":[0,0,0,0,0,0,0,0,0,0,0,0,0,0,0],"id":49,"left_children":[1,3,5,7,9,11,13,-1,-1,-1,-1,-1,-1,-1,-1],"loss_changes":[5.3609195E0,5.574827E0,5.415584E0,3.317919E0,2.700944E0,2.476697E0,2.8036923E0,0E0,0E0,0E0,0E0,0E0,0E0,0E0,0E0],"parents":[2147483647,0,0,1,1,2,2,3,3,4,4,5,5,6,6],"right_children":[2,4,6,8,10,12,14,-1,-1,-1,-1,-1,-1,-1,-1],"split_conditions":[5.9053638E-9,2.826683E-3,3.734848E-8,6.36146E-1,3.115626E-5,6.1036614E-3,1.0090376E-2,7.914407E-2,-3.97867E-3,-1.363324E-1,-0E0,2.5421354E-1,-0E0,1.9138655E-2,-6.724791E-2],"split_indices":[64,16,63,38,52,13,5,0,0,0,0,0,0,0,0],"split_type":[0,0,0,0,0,0,0,0,0,0,0,0,0,0,0],"sum_hessian":[5.2482025E2,3.8353244E2,1.412878E2,2.2720695E2,1.5632549E2,7.384112E1,6.744668E1,7.0341286E1,1.5686566E2,1.3522957E2,2.1095915E1,3.891467E1,3.4926453E1,2.6004717E1,4.144196E1],"tree_param":{"num_deleted":"0","num_feature":"75","num_nodes":"15","size_leaf_vector":"1"}},{"base_weights":[4.6449923E-3,3.2034297E-2,-1.0698857E-1,-8.894442E-3,9.354471E-2,-1.5106325E-1,2.9963838E-2,4.92309E-2,-4.0429927E-2,1.14573926E-1,-0E0,1.01079375E-1,-0E0],"categories":[],"categories_nodes":[],"categories_segments":[],"categories_sizes":[],"default_left":[0,0,0,0,0,0,0,0,0,0,0,0,0],"id":50,"left_children":[1,3,5,7,9,-1,11,-1,-1,-1,-1,-1,-1],"loss_changes":[4.2615714E0,3.430674E0,6.6649213E0,4.513921E0,3.9237962E0,0E0,3.1268651E0,0E0,0E0,0E0,0E0,0E0,0E0],"parents":[2147483647,0,0,1,1,2,2,3,3,4,4,6,6],"right_children":[2,4,6,8,10,-1,12,-1,-1,-1,-1,-1,-1],"split_conditions":[1.7543857E0,1.7226065E0,9.49867E-8,-6.278668E-1,3.8779054E0,-1.5106325E-1,1.7759708E0,4.92309E-2,-4.0429927E-2,1.14573926E-1,-0E0,1.01079375E-1,-0E0],"split_indices":[10,10,66,55,59,0,10,0,0,0,0,0,0],"split_type":[0,0,0,0,0,0,0,0,0,0,0,0,0],"sum_hessian":[9.536137E2,8.172038E2,1.3640993E2,4.2198624E2,3.9521753E2,8.6117874E1,5.029205E1,1.2198592E2,3.000003E2,1.5653557E2,2.3868198E2,3.863374E1,1.165831E1],"tree_param":{"num_deleted":"0","num_feature":"75","num_nodes":"13","size_leaf_vector":"1"}},{"base_weights":[-1.9179689E-2,-1.8074062E-1,7.5910084E-2,1.344488E-1,-0E0],"categories":[],"categories_nodes":[],"categories_segments":[],"categories_sizes":[],"default_left":[0,0,0,0,0],"id":51,"left_children":[1,-1,3,-1,-1],"loss_changes":[9.697432E0,0E0,3.0341325E0,0E0,0E0],"parents":[2147483647,0,0,2,2],"right_children":[2,-1,4,-1,-1],"split_conditions":[-2.414E1,-1.8074062E-1,-2.3675316E1,1.344488E-1,-0E0],"split_indices":[40,0,41,0,0],"split_type":[0,0,0,0,0],"sum_hessian":[9.450189E1,4.0038704E1,5.446319E1,2.7052242E1,2.7410946E1],"tree_param":{"num_deleted":"0","num_feature":"75","num_nodes":"5","size_leaf_vector":"1"}},{"base_weights":[-0E0,-2.1243545E-1,1.9085431E-2,-1.9793119E-1,-0E0,-1.4782515E-1,7.81944E-2,-1.20845154E-1,-0E0,-0E0,1.0848532E-1],"categories":[],"categories_nodes":[],"categories_segments":[],"categories_sizes":[],"default_left":[0,0,0,0,0,0,0,0,0,0,0],"id":52,"left_children":[1,3,5,-1,-1,7,9,-1,-1,-1,-1],"loss_changes":[6.730956E0,3.8963609E0,8.299572E0,0E0,0E0,1.7084222E0,6.3666897E0,0E0,0E0,0E0,0E0],"parents":[2147483647,0,0,1,1,2,2,5,5,6,6],"right_children":[2,4,6,-1,-1,8,10,-1,-1,-1,-1],"split_conditions":[-3.8494426E-1,7.0776136E-5,-8.8816E2,-1.9793119E-1,-0E0,2.6487997E0,1.3984065E-2,-1.20845154E-1,-0E0,-0E0,1.0848532E-1],"split_indices":[30,74,40,0,0,16,16,0,0,0,0],"split_type":[0,0,0,0,0,0,0,0,0,0,0],"sum_hessian":[6.765161E2,7.068128E1,6.058348E2,5.323216E1,1.7449125E1,1.267481E2,4.790867E2,9.933175E1,2.7416351E1,2.574253E2,2.2166139E2],"tree_param":{"num_deleted":"0","num_feature":"75","num_nodes":"11","size_leaf_vector":"1"}},{"base_weights":[-0E0,1.0485983E-1,-3.9823446E-2,-0E0,2.58712E-1,3.4679344E-3,-1.4444946E-1,-5.329775E-2,6.737778E-2,2.5584176E-1,-0E0,8.6525835E-2,-0E0,-1.3992E-1,-0E0],"categories":[],"categories_nodes":[],"categories_segments":[],"categories_sizes":[],"default_left":[0,0,0,0,0,0,0,0,0,0,0,0,0,0,0],"id":53,"left_children":[1,3,5,7,9,11,13,-1,-1,-1,-1,-1,-1,-1,-1],"loss_changes":[4.4465065E0,4.065232E0,3.79322E0,4.2108474E0,4.569461E0,2.6795025E0,4.184012E0,0E0,0E0,0E0,0E0,0E0,0E0,0E0,0E0],"parents":[2147483647,0,0,1,1,2,2,3,3,4,4,5,5,6,6],"right_children":[2,4,6,8,10,12,14,-1,-1,-1,-1,-1,-1,-1,-1],"split_conditions":[2.6438718E-8,-2.3843996E1,6.858793E-2,3.737633E-9,1.6E2,5.4389E4,6.7438645E0,-5.329775E-2,6.737778E-2,2.5584176E-1,-0E0,8.6525835E-2,-0E0,-1.3992E-1,-0E0],"split_indices":[63,41,12,64,33,35,37,0,0,0,0,0,0,0,0],"split_type":[0,0,0,0,0,0,0,0,0,0,0,0,0,0,0],"sum_hessian":[5.0798608E2,1.6788345E2,3.4010263E2,1.01771835E2,6.611161E1,1.9326718E2,1.4683545E2,5.5218777E1,4.6553062E1,3.858028E1,2.753133E1,2.3806837E1,1.6946034E2,1.0988928E2,3.6946167E1],"tree_param":{"num_deleted":"0","num_feature":"75","num_nodes":"15","size_leaf_vector":"1"}},{"base_weights":[5.506867E-4,-0E0,1.9480054E-1,5.2927017E-2,-8.307035E-2,1.8207785E-1,-0E0,5.2898932E-2,-3.7022304E-2,4.7275326E-3,-1.06966116E-1],"categories":[],"categories_nodes":[],"categories_segments":[],"categories_sizes":[],"default_left":[0,0,0,0,0,0,0,0,0,0,0],"id":54,"left_children":[1,3,5,7,9,-1,-1,-1,-1,-1,-1],"loss_changes":[3.8863208E0,6.1208234E0,1.9605093E0,3.866692E0,6.190171E0,0E0,0E0,0E0,0E0,0E0,0E0],"parents":[2147483647,0,0,1,1,2,2,3,3,4,4],"right_children":[2,4,6,8,10,-1,-1,-1,-1,-1,-1],"split_conditions":[1.933E3,-8.4806085E-1,2.5436723E0,-3.887E2,1.0122413E-7,1.8207785E-1,-0E0,5.2898932E-2,-3.7022304E-2,4.7275326E-3,-1.06966116E-1],"split_indices":[58,56,5,40,62,0,0,0,0,0,0],"split_type":[0,0,0,0,0,0,0,0,0,0,0],"sum_hessian":[9.447294E2,9.1561694E2,2.9112427E1,5.2034576E2,3.9527115E2,2.466712E1,4.445308E0,4.3149973E2,8.884606E1,1.7744278E2,2.1782835E2],"tree_param":{"num_deleted":"0","num_feature":"75","num_nodes":"11","size_leaf_vector":"1"}},{"base_weights":[-5.1123723E-3,8.073679E-2,-1.8277553E-1,-0E0,-1.8010084E-1],"categories":[],"categories_nodes":[],"categories_segments":[],"categories_sizes":[],"default_left":[0,0,0,0,0],"id":55,"left_children":[1,-1,3,-1,-1],"loss_changes":[7.060412E0,0E0,3.0683022E0,0E0,0E0],"parents":[2147483647,0,0,2,2],"right_children":[2,-1,4,-1,-1],"split_conditions":[2.0701584E-6,8.073679E-2,-8.255061E-12,-0E0,-1.8010084E-1],"split_indices":[57,0,64,0,0],"split_type":[0,0,0,0,0],"sum_hessian":[8.440416E1,2.4361967E1,6.004219E1,1.717659E1,4.28656E1],"tree_param":{"num_deleted":"0","num_feature":"75","num_nodes":"5","size_leaf_vector":"1"}},{"base_weights":[-0E0,-4.657008E-2,1.1750631E-1,-1.7720917E-1,1.8856861E-3,-0E0,2.3250443E-1,-8.572463E-3,-1.6852757E-1,-2.885126E-2,7.330792E-2,-4.343991E-2,3.5466842E-2,-0E0,1.9356383E-1],"categories":[],"categories_nodes":[],"categories_segments":[],"categories_sizes":[],"default_left":[0,0,0,0,0,0,0,0,0,0,0,0,0,0,0],"id":56,"left_children":[1,3,5,7,9,11,13,-1,-1,-1,-1,-1,-1,-1,-1],"loss_changes":[5.726E0,5.934226E0,3.244502E0,1.8831501E0,5.2909303E0,2.3897433E0,1.9866924E0,0E0,0E0,0E0,0E0,0E0,0E0,0E0,0E0],"parents":[2147483647,0,0,1,1,2,2,3,3,4,4,5,5,6,6],"right_children":[2,4,6,8,10,12,14,-1,-1,-1,-1,-1,-1,-1,-1],"split_conditions":[7.166537E-8,1.1386782E-2,1.5045318E7,4.336473E-9,3.8110155E-8,6.9811836E-2,-7.4983E2,-8.572463E-3,-1.6852757E-1,-2.885126E-2,7.330792E-2,-4.343991E-2,3.5466842E-2,-0E0,1.9356383E-1],"split_indices":[63,16,25,64,63,12,40,0,0,0,0,0,0,0,0],"split_type":[0,0,0,0,0,0,0,0,0,0,0,0,0,0,0],"sum_hessian":[6.6320416E2,4.9577277E2,1.6743143E2,1.7306374E2,3.22709E2,8.004362E1,8.73878E1,9.962487E1,7.343886E1,1.8948006E2,1.3322897E2,4.121138E1,3.8832237E1,3.0254282E1,5.7133522E1],"tree_param":{"num_deleted":"0","num_feature":"75","num_nodes":"15","size_leaf_vector":"1"}},{"base_weights":[-0E0,9.664045E-2,-2.9467003E-2,2.6833034E-1,-0E0,-0E0,-1.0371525E-1,-0E0,2.4247979E-1,-0E0,5.8702346E-2,-0E0,-9.983131E-2],"categories":[],"categories_nodes":[],"categories_segments":[],"categories_sizes":[],"default_left":[0,0,0,0,0,0,0,0,0,0,0,0,0],"id":57,"left_children":[1,3,5,7,-1,9,11,-1,-1,-1,-1,-1,-1],"loss_changes":[3.1613414E0,3.6271863E0,2.3898702E0,1.9797306E0,0E0,1.9899161E0,2.7307706E0,0E0,0E0,0E0,0E0,0E0,0E0],"parents":[2147483647,0,0,1,1,2,2,3,3,5,5,6,6],"right_children":[2,4,6,8,-1,10,12,-1,-1,-1,-1,-1,-1],"split_conditions":[1.5006354E7,3.122452E-8,4.7118943E-3,-6.29634E-8,-0E0,4.302132E0,2.0889889E-8,-0E0,2.4247979E-1,-0E0,5.8702346E-2,-0E0,-9.983131E-2],"split_indices":[49,63,14,66,0,59,63,0,0,0,0,0,0],"split_type":[0,0,0,0,0,0,0,0,0,0,0,0,0],"sum_hessian":[4.939779E2,1.1055939E2,3.8341852E2,3.967458E1,7.08848E1,2.0950069E2,1.7391783E2,1.6166285E1,2.3508293E1,1.6287991E2,4.6620773E1,3.739588E1,1.3652194E2],"tree_param":{"num_deleted":"0","num_feature":"75","num_nodes":"13","size_leaf_vector":"1"}},{"base_weights":[-0E0,9.5842175E-2,-1.1453028E-2,-0E0,1.7341067E-1,7.4029975E-2,-4.7653686E-2,-0E0,1.3147546E-1,9.5190965E-2,-0E0,8.099763E-3,-4.8560105E-2],"categories":[],"categories_nodes":[],"categories_segments":[],"categories_sizes":[],"default_left":[0,0,0,0,0,0,0,0,0,0,0,0,0],"id":58,"left_children":[1,3,5,-1,7,9,11,-1,-1,-1,-1,-1,-1],"loss_changes":[2.9858813E0,2.3309627E0,3.7325642E0,0E0,1.1272063E0,2.7289162E0,2.37952E0,0E0,0E0,0E0,0E0,0E0,0E0],"parents":[2147483647,0,0,1,1,2,2,4,4,5,5,6,6],"right_children":[2,4,6,-1,8,10,12,-1,-1,-1,-1,-1,-1],"split_conditions":[1.9707142E0,-6.871555E-8,-1.4706464E0,-0E0,3.8746477E-3,1.5083689E7,4.1951276E-5,-0E0,1.3147546E-1,9.5190965E-2,-0E0,8.099763E-3,-4.8560105E-2],"split_indices":[37,66,56,0,14,36,74,0,0,0,0,0,0],"split_type":[0,0,0,0,0,0,0,0,0,0,0,0,0],"sum_hessian":[9.335986E2,1.4742897E2,7.861696E2,3.945969E1,1.07969284E2,1.753877E2,6.107819E2,2.0881416E1,8.708787E1,1.00051254E2,7.533643E1,1.635091E2,4.4727283E2],"tree_param":{"num_deleted":"0","num_feature":"75","num_nodes":"13","size_leaf_vector":"1"}},{"base_weights":[-0E0,7.6489516E-2,-1.19752586E-1,-0E0,9.545174E-2],"categories":[],"categories_nodes":[],"categories_segments":[],"categories_sizes":[],"default_left":[0,0,0,0,0],"id":59,"left_children":[1,3,-1,-1,-1],"loss_changes":[6.020199E0,1.421758E0,0E0,0E0,0E0],"parents":[2147483647,0,0,1,1],"right_children":[2,4,-1,-1,-1],"split_conditions":[5.33644E-6,5.29E-2,-1.19752586E-1,-0E0,9.545174E-2],"split_indices":[57,2,0,0,0],"split_type":[0,0,0,0,0],"sum_hessian":[7.724102E1,4.07981E1,3.6442917E1,1.052173E1,3.0276371E1],"tree_param":{"num_deleted":"0","num_feature":"75","num_nodes":"5","size_leaf_vector":"1"}},{"base_weights":[-0E0,-1.3818963E-1,1.2709366E-2,-1.3992281E-1,-0E0,9.6172474E-2,-6.0811695E-2,6.010155E-3,1.2890244E-1,-1.408785E-1,-0E0],"categories":[],"categories_nodes":[],"categories_segments":[],"categories_sizes":[],"default_left":[0,0,0,0,0,0,0,0,0,0,0],"id":60,"left_children":[1,3,5,-1,-1,7,9,-1,-1,-1,-1],"loss_changes":[4.0635695E0,2.4741096E0,5.6141458E0,0E0,0E0,3.10607E0,4.446101E0,0E0,0E0,0E0,0E0],"parents":[2147483647,0,0,1,1,2,2,5,5,6,6],"right_children":[2,4,6,-1,-1,8,10,-1,-1,-1,-1],"split_conditions":[6.529789E0,2.2658369E-5,2.5091681E2,-1.3992281E-1,-0E0,3.2546468E0,3.85219E1,6.010155E-3,1.2890244E-1,-1.408785E-1,-0E0],"split_indices":[1,57,26,0,0,37,7,0,0,0,0],"split_type":[0,0,0,0,0,0,0,0,0,0,0],"sum_hessian":[6.491415E2,9.525396E1,5.538875E2,5.9712616E1,3.5541344E1,3.0440863E2,2.4947888E2,2.1805217E2,8.635646E1,4.9175423E1,2.0030345E2],"tree_param":{"num_deleted":"0","num_feature":"75","num_nodes":"11","size_leaf_vector":"1"}},{"base_weights":[-0E0,7.927671E-2,-4.8100096E-3,-0E0,-1.15065634E-1,1.2687401E-1,-4.7931694E-3],"categories":[],"categories_nodes":[],"categories_segments":[],"categories_sizes":[],"default_left":[0,0,0,0,0,0,0],"id":61,"left_children":[1,-1,3,5,-1,-1,-1],"loss_changes":[2.9537947E0,0E0,3.8133667E0,4.749224E0,0E0,0E0,0E0],"parents":[2147483647,0,0,2,2,3,3],"right_children":[2,-1,4,6,-1,-1,-1],"split_conditions":[-2.9753125E-1,7.927671E-2,7.535699E-2,-8.2361E2,-1.15065634E-1,1.2687401E-1,-4.7931694E-3],"split_indices":[39,0,16,40,0,0,0],"split_type":[0,0,0,0,0,0,0],"sum_hessian":[4.8740808E2,4.380483E1,4.4360324E2,4.196405E2,2.3962734E1,2.7015013E1,3.926255E2],"tree_param":{"num_deleted":"0","num_feature":"75","num_nodes":"7","size_leaf_vector":"1"}},{"base_weights":[-0E0,6.434087E-2,-2.1885337E-2,1.2507498E-1,-0E0,-8.8954605E-2,6.526543E-2,-0E0,9.365299E-2,-0E0,-3.5902616E-2,-8.957817E-2,-0E0,1.3059992E-1,-0E0],"categories":[],"categories_nodes":[],"categories_segments":[],"categories_sizes":[],"default_left":[0,0,0,0,0,0,0,0,0,0,0,0,0,0,0],"id":62,"left_children":[1,3,5,7,9,11,13,-1,-1,-1,-1,-1,-1,-1,-1],"loss_changes":[2.7957718E0,2.3810182E0,5.4456606E0,1.8587289E0,1.1708922E0,2.4271832E0,4.5630727E0,0E0,0E0,0E0,0E0,0E0,0E0,0E0,0E0],"parents":[2147483647,0,0,1,1,2,2,3,3,4,4,5,5,6,6],"right_children":[2,4,6,8,10,12,14,-1,-1,-1,-1,-1,-1,-1,-1],"split_conditions":[-3.6159423E-1,1.2651484E0,3.2855176E-8,4.328249E0,9.2908055E-1,7.195258E-2,-1.5159869E0,-0E0,9.365299E-2,-0E0,-3.5902616E-2,-8.957817E-2,-0E0,1.3059992E-1,-0E0],"split_indices":[55,30,66,59,38,12,31,0,0,0,0,0,0,0,0],"split_type":[0,0,0,0,0,0,0,0,0,0,0,0,0,0,0],"sum_hessian":[9.15928E2,3.0901086E2,6.069171E2,2.0745703E2,1.0155383E2,3.8890237E2,2.1801477E2,1.1748564E1,1.9570848E2,3.6152866E1,6.540097E1,2.03234E2,1.8566837E2,6.624649E1,1.5176826E2],"tree_param":{"num_deleted":"0","num_feature":"75","num_nodes":"15","size_leaf_vector":"1"}},{"base_weights":[-0E0,3.5283264E-2,-1.2616797E-1,6.646813E-2,-0E0],"categories":[],"categories_nodes":[],"categories_segments":[],"categories_sizes":[],"default_left":[0,0,0,0,0],"id":63,"left_children":[1,3,-1,-1,-1],"loss_changes":[4.9938345E0,1.1831274E0,0E0,0E0,0E0],"parents":[2147483647,0,0,1,1],"right_children":[2,4,-1,-1,-1],"split_conditions":[3.65E2,4.7075693E-3,-1.2616797E-1,6.646813E-2,-0E0],"split_indices":[32,14,0,0,0],"split_type":[0,0,0,0,0],"sum_hessian":[7.158809E1,4.722832E1,2.4359768E1,2.2343609E1,2.488471E1],"tree_param":{"num_deleted":"0","num_feature":"75","num_nodes":"5","size_leaf_vector":"1"}},{"base_weights":[-0E0,-1.5444027E-1,1.6753884E-2,-1.6160402E-1,-0E0,-1.7244965E-2,1.5848504E-1,-5.673334E-2,1.7467193E-2,-0E0,2.1430813E-1],"categories":[],"categories_nodes":[],"categories_segments":[],"categories_sizes":[],"default_left":[0,0,0,0,0,0,0,0,0,0,0],"id":64,"left_children":[1,3,5,-1,-1,7,9,-1,-1,-1,-1],"loss_changes":[4.0987506E0,3.0798826E0,5.936517E0,0E0,0E0,3.7189786E0,5.8505883E0,0E0,0E0,0E0,0E0],"parents":[2147483647,0,0,1,1,2,2,5,5,6,6],"right_children":[2,4,6,-1,-1,8,10,-1,-1,-1,-1],"split_conditions":[-3.8494426E-1,7.0776136E-5,-3.4948278E-3,-1.6160402E-1,-0E0,4.9336336E-8,-1.2109652E0,-5.673334E-2,1.7467193E-2,-0E0,2.1430813E-1],"split_indices":[30,74,55,0,0,63,56,0,0,0,0],"split_type":[0,0,0,0,0,0,0,0,0,0,0],"sum_hessian":[6.4251794E2,6.242599E1,5.800919E2,4.552516E1,1.690083E1,4.281658E2,1.5192613E2,2.1039444E2,2.1777138E2,9.969264E1,5.2233486E1],"tree_param":{"num_deleted":"0","num_feature":"75","num_nodes":"11","size_leaf_vector":"1"}},{"base_weights":[-0E0,2.3884682E-2,-9.3782656E-2,1.4062327E-1,-0E0,-2.1758538E-1,3.3447202E-2,-0E0,1.4511847E-1,-5.5244457E-2,9.552308E-3,-1.681504E-1,-0E0],"categories":[],"categories_nodes":[],"categories_segments":[],"categories_sizes":[],"default_left":[0,0,0,0,0,0,0,0,0,0,0,0,0],"id":65,"left_children":[1,3,5,7,9,11,-1,-1,-1,-1,-1,-1,-1],"loss_changes":[2.7406251E0,2.9344935E0,4.900047E0,2.3666925E0,2.3468058E0,1.4422188E0,0E0,0E0,0E0,0E0,0E0,0E0,0E0],"parents":[2147483647,0,0,1,1,2,2,3,3,4,4,5,5],"right_children":[2,4,6,8,10,12,-1,-1,-1,-1,-1,-1,-1],"split_conditions":[1.205282E-7,1.5005771E7,1.8412212E1,2.552013E-1,1.2159676E2,4.0425625E0,3.3447202E-2,-0E0,1.4511847E-1,-5.5244457E-2,9.552308E-3,-1.681504E-1,-0E0],"split_indices":[66,27,60,55,26,31,0,0,0,0,0,0,0],"split_type":[0,0,0,0,0,0,0,0,0,0,0,0,0],"sum_hessian":[4.8231003E2,3.862642E2,9.604584E1,8.359382E1,3.0267038E2,7.848535E1,1.7560488E1,3.3450714E1,5.0143105E1,6.690412E1,2.3576625E2,6.2081898E1,1.640345E1],"tree_param":{"num_deleted":"0","num_feature":"75","num_nodes":"13","size_leaf_vector":"1"}},{"base_weights":[-0E0,4.487432E-2,-1.9341378E-2,-3.7359245E-2,8.931006E-2,-0E0,-1.3111904E-1,-0E0,-6.266406E-2,9.093118E-2,-0E0,4.050184E-2,-1.6480634E-2,-0E0,-1.2199884E-1],"categories":[],"categories_nodes":[],"categories_segments":[],"categories_sizes":[],"default_left":[0,0,0,0,0,0,0,0,0,0,0,0,0,0,0],"id":66,"left_children":[1,3,5,7,9,11,13,-1,-1,-1,-1,-1,-1,-1,-1],"loss_changes":[1.7841735E0,2.4001672E0,3.047134E0,1.184962E0,1.9288974E0,2.553066E0,2.010244E0,0E0,0E0,0E0,0E0,0E0,0E0,0E0,0E0],"parents":[2147483647,0,0,1,1,2,2,3,3,4,4,5,5,6,6],"right_children":[2,4,6,8,10,12,14,-1,-1,-1,-1,-1,-1,-1,-1],"split_conditions":[-1.2659775E0,-2.6698927E1,5.787213E-9,8.174985E0,1.5084245E7,-5.761786E-1,-4.300619E-1,-0E0,-6.266406E-2,9.093118E-2,-0E0,4.050184E-2,-1.6480634E-2,-0E0,-1.2199884E-1],"split_indices":[56,41,64,9,25,55,55,0,0,0,0,0,0,0,0],"split_type":[0,0,0,0,0,0,0,0,0,0,0,0,0,0,0],"sum_hessian":[9.1020795E2,3.2426138E2,5.8594653E2,5.7868645E1,2.6639273E2,4.8097208E2,1.04974464E2,1.9368603E1,3.8500042E1,1.4040048E2,1.2599226E2,1.637668E2,3.172053E2,2.9988367E1,7.49861E1],"tree_param":{"num_deleted":"0","num_feature":"75","num_nodes":"15","size_leaf_vector":"1"}},{"base_weights":[-0E0,-9.8747976E-2,1.3269417E-2,8.2562484E-2,-0E0],"categories":[],"categories_nodes":[],"categories_segments":[],"categories_sizes":[],"default_left":[0,0,0,0,0],"id":67,"left_children":[1,-1,3,-1,-1],"loss_changes":[3.3817296E0,0E0,2.291118E0,0E0,0E0],"parents":[2147483647,0,0,2,2],"right_children":[2,-1,4,-1,-1],"split_conditions":[-2.414E1,-9.8747976E-2,6.732729E-2,8.2562484E-2,-0E0],"split_indices":[40,0,12,0,0],"split_type":[0,0,0,0,0],"sum_hessian":[6.6850746E1,2.2084871E1,4.4765877E1,2.2746433E1,2.2019444E1],"tree_param":{"num_deleted":"0","num_feature":"75","num_nodes":"5","size_leaf_vector":"1"}},{"base_weights":[-0E0,-1.6469324E-1,2.6224947E-2,-2.0310105E-1,-0E0,-3.5344392E-2,1.0573288E-1,-9.613247E-2,-0E0,1.1752147E-1,-0E0],"categories":[],"categories_nodes":[],"categories_segments":[],"categories_sizes":[],"default_left":[0,0,0,0,0,0,0,0,0,0,0],"id":68,"left_children":[1,3,5,-1,-1,7,9,-1,-1,-1,-1],"loss_changes":[4.66669E0,4.445507E0,4.736576E0,0E0,0E0,2.5161316E0,3.026782E0,0E0,0E0,0E0,0E0],"parents":[2147483647,0,0,1,1,2,2,5,5,6,6],"right_children":[2,4,6,-1,-1,8,10,-1,-1,-1,-1],"split_conditions":[4.37E2,3.8110155E-8,1.3447154E-2,-2.0310105E-1,-0E0,1.49858E7,2.467439E2,-9.613247E-2,-0E0,1.1752147E-1,-0E0],"split_indices":[72,63,16,0,0,28,26,0,0,0,0],"split_type":[0,0,0,0,0,0,0,0,0,0,0],"sum_hessian":[6.266416E2,5.696958E1,5.6967206E2,3.312442E1,2.3845161E1,2.711096E2,2.9856247E2,4.0113323E1,2.3099625E2,1.2961836E2,1.689441E2],"tree_param":{"num_deleted":"0","num_feature":"75","num_nodes":"11","size_leaf_vector":"1"}},{"base_weights":[-0E0,-4.0428005E-2,6.3928396E-2,-0E0,-9.359537E-2,1.4227764E-1,-0E0,5.744189E-2,-2.7500834E-2,-0E0,1.36056E-1],"categories":[],"categories_nodes":[],"categories_segments":[],"categories_sizes":[],"default_left":[0,0,0,0,0,0,0,0,0,0,0],"id":69,"left_children":[1,3,5,7,-1,9,-1,-1,-1,-1,-1],"loss_changes":[2.649854E0,2.5772E0,1.4871118E0,3.267439E0,0E0,1.0343013E0,0E0,0E0,0E0,0E0,0E0],"parents":[2147483647,0,0,1,1,2,2,3,3,5,5],"right_children":[2,4,6,8,-1,10,-1,-1,-1,-1,-1],"split_conditions":[-2.1777172E1,1.2531606E5,1.6517358E-4,3.37E2,-9.359537E-2,4.018521E-3,-0E0,5.744189E-2,-2.7500834E-2,-0E0,1.36056E-1],"split_indices":[41,35,5,72,0,14,0,0,0,0,0],"split_type":[0,0,0,0,0,0,0,0,0,0,0],"sum_hessian":[4.7622867E2,3.181081E2,1.5812057E2,2.606992E2,5.740891E1,7.2216805E1,8.590377E1,6.2710594E1,1.9798859E2,3.669733E1,3.551947E1],"tree_param":{"num_deleted":"0","num_feature":"75","num_nodes":"11","size_leaf_vector":"1"}},{"base_weights":[-0E0,3.788547E-2,-2.9245513E-2,-7.3066466E-2,8.154742E-2,1.3084984E-2,-8.624904E-2,-0E0,-9.3577616E-2,-1.834731E-2,6.484946E-2,4.69829E-2,-0E0,-8.598907E-3,-1.1856035E-1],"categories":[],"categories_nodes":[],"categories_segments":[],"categories_sizes":[],"default_left":[0,0,0,0,0,0,0,0,0,0,0,0,0,0,0],"id":70,"left_children":[1,3,5,7,9,11,13,-1,-1,-1,-1,-1,-1,-1,-1],"loss_changes":[1.9600726E0,3.4754372E0,2.4591973E0,1.7738773E0,2.2662272E0,1.6786791E0,2.1849704E0,0E0,0E0,0E0,0E0,0E0,0E0,0E0,0E0],"parents":[2147483647,0,0,1,1,2,2,3,3,4,4,5,5,6,6],"right_children":[2,4,6,8,10,12,14,-1,-1,-1,-1,-1,-1,-1,-1],"split_conditions":[1.9351545E-1,-2.6367548E1,1.5046731E7,2.2410577E-5,8.3373E0,6.5383545E-5,3.272742E0,-0E0,-9.3577616E-2,-1.834731E-2,6.484946E-2,4.69829E-2,-0E0,-8.598907E-3,-1.1856035E-1],"split_indices":[69,41,49,52,3,74,37,0,0,0,0,0,0,0,0],"split_type":[0,0,0,0,0,0,0,0,0,0,0,0,0,0,0],"sum_hessian":[8.9436993E2,4.1703528E2,4.7733466E2,7.177834E1,3.4525693E2,2.029868E2,2.7434787E2,2.315717E1,4.862117E1,3.028216E1,3.1497476E2,1.1594921E2,8.703758E1,2.1142061E2,6.292726E1],"tree_param":{"num_deleted":"0","num_feature":"75","num_nodes":"15","size_leaf_vector":"1"}},{"base_weights":[-0E0,-0E0,-8.560449E-2,-0E0,3.273169E-2],"categories":[],"categories_nodes":[],"categories_segments":[],"categories_sizes":[],"default_left":[0,0,0,0,0],"id":71,"left_children":[1,3,-1,-1,-1],"loss_changes":[2.6188877E0,9.254828E-1,0E0,0E0,0E0],"parents":[2147483647,0,0,1,1],"right_children":[2,4,-1,-1,-1],"split_conditions":[3.67E2,2.3449642E-5,-8.560449E-2,-0E0,3.273169E-2],"split_indices":[32,61,0,0,0],"split_type":[0,0,0,0,0],"sum_hessian":[6.2817818E1,4.340165E1,1.9416168E1,1.3721018E1,2.9680632E1],"tree_param":{"num_deleted":"0","num_feature":"75","num_nodes":"5","size_leaf_vector":"1"}},{"base_weights":[-0E0,-1.2125744E-2,1.2326325E-1,-2.0943142E-1,-0E0,-0E0,1.9510122E-1,-1.7791839E-1,-0E0,-8.64515E-3,2.0830783E-1,-3.549842E-2,-0E0],"categories":[],"categories_nodes":[],"categories_segments":[],"categories_sizes":[],"default_left":[0,0,0,0,0,0,0,0,0,0,0,0,0],"id":72,"left_children":[1,3,5,7,9,11,-1,-1,-1,-1,-1,-1,-1],"loss_changes":[3.3050373E0,5.38912E0,5.5364394E0,1.2996268E0,1.0500342E1,9.5624745E-1,0E0,0E0,0E0,0E0,0E0,0E0,0E0],"parents":[2147483647,0,0,1,1,2,2,3,3,4,4,5,5],"right_children":[2,4,6,8,10,12,-1,-1,-1,-1,-1,-1,-1],"split_conditions":[-4.0036E2,5.72E2,4.63E2,4.3029238E-2,-4.9848E2,-3.3615E2,1.9510122E-1,-1.7791839E-1,-0E0,-8.64515E-3,2.0830783E-1,-3.549842E-2,-0E0],"split_indices":[40,32,32,16,40,40,0,0,0,0,0,0,0],"split_type":[0,0,0,0,0,0,0,0,0,0,0,0,0],"sum_hessian":[6.1855414E2,5.333397E2,8.5214424E1,6.1997654E1,4.7134207E2,4.7988007E1,3.7226418E1,3.9680405E1,2.2317251E1,4.3597934E2,3.5362713E1,1.5322764E1,3.266524E1],"tree_param":{"num_deleted":"0","num_feature":"75","num_nodes":"13","size_leaf_vector":"1"}},{"base_weights":[-0E0,1.1744008E-1,-2.3845447E-2,-0E0,2.4131073E-1,-0E0,-1.5828489E-1,1.8809795E-1,-0E0,-0E0,1.10806875E-1,-1.6034023E-1,-0E0],"categories":[],"categories_nodes":[],"categories_segments":[],"categories_sizes":[],"default_left":[0,0,0,0,0,0,0,0,0,0,0,0,0],"id":73,"left_children":[1,3,5,-1,7,9,11,-1,-1,-1,-1,-1,-1],"loss_changes":[3.7237759E0,2.366942E0,3.5310895E0,0E0,9.5267963E-1,3.3994403E0,2.9489665E0,0E0,0E0,0E0,0E0,0E0,0E0],"parents":[2147483647,0,0,1,1,2,2,4,4,5,5,6,6],"right_children":[2,4,6,-1,8,10,12,-1,-1,-1,-1,-1,-1],"split_conditions":[2.3479739E-8,-2.4369398E1,8.0905914E-2,-0E0,2.2488022E0,5.525082E0,-3.0272825E22,1.8809795E-1,-0E0,-0E0,1.10806875E-1,-1.6034023E-1,-0E0],"split_indices":[63,41,12,0,55,34,44,0,0,0,0,0,0],"split_type":[0,0,0,0,0,0,0,0,0,0,0,0,0],"sum_hessian":[4.6974063E2,1.09055466E2,3.6068515E2,5.910134E1,4.995413E1,2.8170975E2,7.897541E1,3.7898643E1,1.2055484E1,2.6666235E2,1.5047391E1,5.211306E1,2.686235E1],"tree_param":{"num_deleted":"0","num_feature":"75","num_nodes":"13","size_leaf_vector":"1"}},{"base_weights":[-0E0,6.1890297E-2,-1.8054431E-2,2.3029716E-1,-0E0,2.0755563E-2,-6.1831567E-2,1.7691462E-1,-0E0,-1.5061441E-2,4.0882345E-2,-8.228946E-2,-0E0],"categories":[],"categories_nodes":[],"categories_segments":[],"categories_sizes":[],"default_left":[0,0,0,0,0,0,0,0,0,0,0,0,0],"id":74,"left_children":[1,3,5,7,-1,9,11,-1,-1,-1,-1,-1,-1],"loss_changes":[1.8987261E0,3.6054673E0,2.3748755E0,7.126603E-1,0E0,2.0750299E0,3.4240906E0,0E0,0E0,0E0,0E0,0E0,0E0],"parents":[2147483647,0,0,1,1,2,2,3,3,5,5,6,6],"right_children":[2,4,6,8,-1,10,12,-1,-1,-1,-1,-1,-1],"split_conditions":[-6.8373924E-1,8.551207E-1,-1.2659775E0,2.381E3,-0E0,2.9302843E-8,6.1183745E-1,1.7691462E-1,-0E0,-1.5061441E-2,4.0882345E-2,-8.228946E-2,-0E0],"split_indices":[55,38,56,72,0,63,55,0,0,0,0,0,0],"split_type":[0,0,0,0,0,0,0,0,0,0,0,0,0],"sum_hessian":[8.962269E2,1.3415848E2,7.620685E2,4.012986E1,9.402861E1,3.1840994E2,4.4365854E2,3.3019142E1,7.1107163E0,9.488524E1,2.235247E2,2.043125E2,2.3934602E2],"tree_param":{"num_deleted":"0","num_feature":"75","num_nodes":"13","size_leaf_vector":"1"}},{"base_weights":[-0E0,8.221613E-3,-9.529416E-2,-1.6655329E-1,-0E0],"categories":[],"categories_nodes":[],"categories_segments":[],"categories_sizes":[],"default_left":[0,0,0,0,0],"id":75,"left_children":[1,-1,3,-1,-1],"loss_changes":[1.9744121E0,0E0,4.226371E0,0E0,0E0],"parents":[2147483647,0,0,2,2],"right_children":[2,-1,4,-1,-1],"split_conditions":[1.3701358E0,8.221613E-3,1.6902176E6,-1.6655329E-1,-0E0],"split_indices":[1,0,35,0,0],"split_type":[0,0,0,0,0],"sum_hessian":[5.871814E1,1.396559E1,4.4752552E1,2.755755E1,1.7195E1],"tree_param":{"num_deleted":"0","num_feature":"75","num_nodes":"5","size_leaf_vector":"1"}},{"base_weights":[-0E0,-7.772908E-2,1.0967886E-2,-4.761639E-2,7.531584E-2,-0E0,-9.796784E-2,1.5871128E-1,-0E0],"categories":[],"categories_nodes":[],"categories_segments":[],"categories_sizes":[],"default_left":[0,0,0,0,0,0,0,0,0],"id":76,"left_children":[1,-1,3,5,7,-1,-1,-1,-1],"loss_changes":[3.0315456E0,0E0,3.8289278E0,4.050694E0,7.854417E0,0E0,0E0,0E0,0E0],"parents":[2147483647,0,0,2,2,3,3,4,4],"right_children":[2,-1,4,6,8,-1,-1,-1,-1],"split_conditions":[6.3666995E-8,-7.772908E-2,1.0936222E1,4.552988E0,4.339779E-5,-0E0,-9.796784E-2,1.5871128E-1,-0E0],"split_indices":[62,0,1,34,50,0,0,0,0],"split_type":[0,0,0,0,0,0,0,0,0],"sum_hessian":[6.0581445E2,4.4128136E1,5.6168634E2,2.3649803E2,3.251883E2,1.3338164E2,1.03116394E2,9.147678E1,2.3371152E2],"tree_param":{"num_deleted":"0","num_feature":"75","num_nodes":"9","size_leaf_vector":"1"}},{"base_weights":[-0E0,1.0876517E-1,-1.6063457E-2,3.007745E-1,-0E0,8.865886E-3,-9.991761E-2,-0E0,3.0265096E-1,-0E0,-4.775441E-2,3.66502E-2,-2.9492216E-2,-0E0,-8.904201E-2],"categories":[],"categories_nodes":[],"categories_segments":[],"categories_sizes":[],"default_left":[0,0,0,0,0,0,0,0,0,0,0,0,0,0,0],"id":77,"left_children":[1,3,5,7,9,11,13,-1,-1,-1,-1,-1,-1,-1,-1],"loss_changes":[2.8831377E0,5.458878E0,2.6370788E0,3.7750988E0,1.3619007E0,2.3474565E0,1.4134912E0,0E0,0E0,0E0,0E0,0E0,0E0,0E0,0E0],"parents":[2147483647,0,0,1,1,2,2,3,3,4,4,5,5,6,6],"right_children":[2,4,6,8,10,12,14,-1,-1,-1,-1,-1,-1,-1,-1],"split_conditions":[3.8365262E0,4.10441E1,6.7763864E-3,4.610879E0,4.6072905E-3,1.5151073E7,1.21684E1,-0E0,3.0265096E-1,-0E0,-4.775441E-2,3.66502E-2,-2.9492216E-2,-0E0,-8.904201E-2],"split_indices":[60,7,5,34,14,27,7,0,0,0,0,0,0,0,0],"split_type":[0,0,0,0,0,0,0,0,0,0,0,0,0,0,0],"sum_hessian":[4.626793E2,8.506506E1,3.7761423E2,4.914609E1,3.5918972E1,2.2655588E2,1.5105836E2,2.5419895E1,2.3726198E1,1.4226853E1,2.169212E1,1.7851358E2,4.8042294E1,3.898551E1,1.1207285E2],"tree_param":{"num_deleted":"0","num_feature":"75","num_nodes":"15","size_leaf_vector":"1"}},{"base_weights":[-0E0,-9.786722E-3,1.01694085E-1,1.0093849E-2,-6.080185E-2,-0E0,2.0950088E-1,6.43925E-2,-7.479206E-4,-0E0,-7.225001E-2,2.0988677E-1,-0E0],"categories":[],"categories_nodes":[],"categories_segments":[],"categories_sizes":[],"default_left":[0,0,0,0,0,0,0,0,0,0,0,0,0],"id":78,"left_children":[1,3,5,7,9,-1,11,-1,-1,-1,-1,-1,-1],"loss_changes":[2.3435817E0,1.982465E0,1.7182925E0,2.8010857E0,2.6915083E0,0E0,2.5615897E0,0E0,0E0,0E0,0E0,0E0,0E0],"parents":[2147483647,0,0,1,1,2,2,3,3,4,4,6,6],"right_children":[2,4,6,8,10,-1,12,-1,-1,-1,-1,-1,-1],"split_conditions":[3.541E3,1.204E3,5.7858128E-5,-1.3664031E-1,-1.2000394E0,-0E0,4.187E3,6.43925E-2,-7.479206E-4,-0E0,-7.225001E-2,2.0988677E-1,-0E0],"split_indices":[47,47,54,55,6,0,72,0,0,0,0,0,0],"split_type":[0,0,0,0,0,0,0,0,0,0,0,0,0],"sum_hessian":[8.7910846E2,8.136607E2,6.5447784E1,4.860677E2,3.2759302E2,2.9937347E1,3.551044E1,1.0859871E2,3.77469E2,1.2243743E2,2.0515558E2,2.3209452E1,1.2300988E1],"tree_param":{"num_deleted":"0","num_feature":"75","num_nodes":"13","size_leaf_vector":"1"}},{"base_weights":[-0E0],"categories":[],"categories_nodes":[],"categories_segments":[],"categories_sizes":[],"default_left":[0],"id":79,"left_children":[-1],"loss_changes":[0E0],"parents":[2147483647],"right_children":[-1],"split_conditions":[-0E0],"split_indices":[0],"split_type":[0],"sum_hessian":[5.5684383E1],"tree_param":{"num_deleted":"0","num_feature":"75","num_nodes":"1","size_leaf_vector":"1"}},{"base_weights":[-0E0,-4.4009633E-2,2.8026946E-2,-2.4513274E-2,1.2226491E-1,3.9888592E-3,-8.348922E-2,-0E0,1.2014134E-1],"categories":[],"categories_nodes":[],"categories_segments":[],"categories_sizes":[],"default_left":[0,0,0,0,0,0,0,0,0],"id":80,"left_children":[1,-1,3,5,7,-1,-1,-1,-1],"loss_changes":[2.8617284E0,0E0,4.3257036E0,3.577715E0,1.8325748E0,0E0,0E0,0E0,0E0],"parents":[2147483647,0,0,2,2,3,3,4,4],"right_children":[2,-1,4,6,8,-1,-1,-1,-1],"split_conditions":[3.2453464E-8,-4.4009633E-2,1.3447154E-2,4.5071745E-5,-8.0992E2,3.9888592E-3,-8.348922E-2,-0E0,1.2014134E-1],"split_indices":[63,0,16,61,40,0,0,0,0],"split_type":[0,0,0,0,0,0,0,0,0],"sum_hessian":[5.98894E2,1.6626402E2,4.3262997E2,2.2991539E2,2.0271458E2,1.3809358E2,9.182181E1,1.0544138E2,9.72732E1],"tree_param":{"num_deleted":"0","num_feature":"75","num_nodes":"9","size_leaf_vector":"1"}},{"base_weights":[-0E0,1.9667432E-2,-1.2174829E-1,-0E0,1.5597986E-1,-0E0,-1.1111031E-1,3.0044322E-3,-3.553967E-2,-0E0,1.7977536E-1],"categories":[],"categories_nodes":[],"categories_segments":[],"categories_sizes":[],"default_left":[0,0,0,0,0,0,0,0,0,0,0],"id":81,"left_children":[1,3,5,7,9,-1,-1,-1,-1,-1,-1],"loss_changes":[2.8562646E0,3.8434527E0,9.765885E-1,1.4281921E0,2.7163305E0,0E0,0E0,0E0,0E0,0E0,0E0],"parents":[2147483647,0,0,1,1,2,2,3,3,4,4],"right_children":[2,4,6,8,10,-1,-1,-1,-1,-1,-1],"split_conditions":[6.777358E-8,6.3691252E-9,3.0538504E-5,6.7763864E-3,2.4526482E2,-0E0,-1.1111031E-1,3.0044322E-3,-3.553967E-2,-0E0,1.7977536E-1],"split_indices":[63,64,73,5,26,0,0,0,0,0,0],"split_type":[0,0,0,0,0,0,0,0,0,0,0],"sum_hessian":[4.5558307E2,4.0966434E2,4.5918724E1,3.197031E2,8.996125E1,9.044096E0,3.6874626E1,2.0636111E2,1.1334199E2,5.420133E1,3.575992E1],"tree_param":{"num_deleted":"0","num_feature":"75","num_nodes":"11","size_leaf_vector":"1"}},{"base_weights":[-0E0,-3.723882E-2,3.3193657E-3,7.2905906E-2,-1.8822068E-3,1.0044098E-1,-0E0,3.361032E-2,-1.3814298E-2],"categories":[],"categories_nodes":[],"categories_segments":[],"categories_sizes":[],"default_left":[0,0,0,0,0,0,0,0,0],"id":82,"left_children":[1,-1,3,5,7,-1,-1,-1,-1],"loss_changes":[1.1578574E0,0E0,1.7945434E0,1.7090693E0,1.8535434E0,0E0,0E0,0E0,0E0],"parents":[2147483647,0,0,2,2,3,3,4,4],"right_children":[2,-1,4,6,8,-1,-1,-1,-1],"split_conditions":[4.2540402E0,-3.723882E-2,4.987608E-2,9.797608E-6,1.6402253E0,1.0044098E-1,-0E0,3.361032E-2,-1.3814298E-2],"split_indices":[0,0,69,65,10,0,0,0,0],"split_type":[0,0,0,0,0,0,0,0,0],"sum_hessian":[8.7079126E2,3.7149807E1,8.336414E2,1.5191753E2,6.8172394E2,4.7873055E1,1.0404447E2,9.8698135E1,5.8302576E2],"tree_param":{"num_deleted":"0","num_feature":"75","num_nodes":"9","size_leaf_vector":"1"}},{"base_weights":[-0E0,1.8065432E-2,-3.6664367E-2,-0E0,-1.1300175E-1],"categories":[],"categories_nodes":[],"categories_segments":[],"categories_sizes":[],"default_left":[0,0,0,0,0],"id":83,"left_children":[1,-1,3,-1,-1],"loss_changes":[1.0460987E0,0E0,3.2929103E0,0E0,0E0],"parents":[2147483647,0,0,2,2],"right_children":[2,-1,4,-1,-1],"split_conditions":[3.24E2,1.8065432E-2,1.3701358E0,-0E0,-1.1300175E-1],"split_indices":[32,0,1,0,0],"split_type":[0,0,0,0,0],"sum_hessian":[5.616561E1,1.5644421E1,4.052119E1,9.3225975E0,3.1198593E1],"tree_param":{"num_deleted":"0","num_feature":"75","num_nodes":"5","size_leaf_vector":"1"}},{"base_weights":[-0E0,-1.3557531E-2,9.218289E-2,-6.011765E-2,4.4853978E-2,1.3855767E-1,-0E0,-0E0,-8.981407E-2,-1.7137004E-2,1.048778E-1],"categories":[],"categories_nodes":[],"categories_segments":[],"categories_sizes":[],"default_left":[0,0,0,0,0,0,0,0,0,0,0],"id":84,"left_children":[1,3,5,7,9,-1,-1,-1,-1,-1,-1],"loss_changes":[2.144061E0,2.7556276E0,2.4952989E0,2.8764853E0,5.013014E0,0E0,0E0,0E0,0E0,0E0,0E0],"parents":[2147483647,0,0,1,1,2,2,3,3,4,4],"right_children":[2,4,6,8,10,-1,-1,-1,-1,-1,-1],"split_conditions":[-3.79E2,6.5497964E-8,9.616058E4,2.8305314E-5,4.7175908E-3,1.3855767E-1,-0E0,-0E0,-8.981407E-2,-1.7137004E-2,1.048778E-1],"split_indices":[40,63,35,52,14,0,0,0,0,0,0],"split_type":[0,0,0,0,0,0,0,0,0,0,0],"sum_hessian":[5.943739E2,5.3075934E2,6.3614544E1,3.6281976E2,1.6793959E2,2.4309435E1,3.930511E1,2.3710077E2,1.2571901E2,7.724846E1,9.069113E1],"tree_param":{"num_deleted":"0","num_feature":"75","num_nodes":"11","size_leaf_vector":"1"}},{"base_weights":[-0E0,5.5676635E-2,-4.592714E-2,1.057411E-1,-2.6998786E-2,-1.1159754E-1,-0E0,1.586209E-2,2.0588046E-1,-0E0,-5.8808766E-2,-1.1237079E-1,-0E0,9.698483E-2,-7.004337E-2],"categories":[],"categories_nodes":[],"categories_segments":[],"categories_sizes":[],"default_left":[0,0,0,0,0,0,0,0,0,0,0,0,0,0,0],"id":85,"left_children":[1,3,5,7,9,11,13,-1,-1,-1,-1,-1,-1,-1,-1],"loss_changes":[2.6291418E0,2.1945305E0,1.732552E0,4.444852E0,1.1598554E0,2.089121E0,6.5901384E0,0E0,0E0,0E0,0E0,0E0,0E0,0E0,0E0],"parents":[2147483647,0,0,1,1,2,2,3,3,4,4,5,5,6,6],"right_children":[2,4,6,8,10,12,14,-1,-1,-1,-1,-1,-1,-1,-1],"split_conditions":[3.134026E-8,4.43376E1,-2.1519327E1,4.6514072E0,6.420564E-2,8.8742304E-1,9.49867E-8,1.586209E-2,2.0588046E-1,-0E0,-5.8808766E-2,-1.1237079E-1,-0E0,9.698483E-2,-7.004337E-2],"split_indices":[63,3,41,34,12,55,66,0,0,0,0,0,0,0,0],"split_type":[0,0,0,0,0,0,0,0,0,0,0,0,0,0,0],"sum_hessian":[4.5587823E2,2.2541466E2,2.3046358E2,1.9361797E2,3.1796698E1,1.2882962E2,1.0163395E2,1.7079935E2,2.281861E1,6.9591703E0,2.4837528E1,8.102556E1,4.780406E1,5.5476646E1,4.6157303E1],"tree_param":{"num_deleted":"0","num_feature":"75","num_nodes":"15","size_leaf_vector":"1"}},{"base_weights":[-0E0,9.9425595E-3,-5.498131E-2,8.959541E-2,-1.5039863E-2,-1.1307787E-1,-0E0,-0E0,7.0720084E-2,-0E0,-9.4411135E-2,4.9986288E-2,-2.6295008E-2],"categories":[],"categories_nodes":[],"categories_segments":[],"categories_sizes":[],"default_left":[0,0,0,0,0,0,0,0,0,0,0,0,0],"id":86,"left_children":[1,3,5,7,9,-1,11,-1,-1,-1,-1,-1,-1],"loss_changes":[1.4808778E0,3.2141914E0,3.8780217E0,1.3742523E0,3.209147E0,0E0,2.5078833E0,0E0,0E0,0E0,0E0,0E0,0E0],"parents":[2147483647,0,0,1,1,2,2,3,3,4,4,6,6],"right_children":[2,4,6,8,10,-1,12,-1,-1,-1,-1,-1,-1],"split_conditions":[-3.6422E2,6.08E2,6.3482684E-1,3.8107927E0,6.593102E-1,-1.1307787E-1,3.338869E0,-0E0,7.0720084E-2,-0E0,-9.4411135E-2,4.9986288E-2,-2.6295008E-2],"split_indices":[40,32,55,60,55,0,34,0,0,0,0,0,0],"split_type":[0,0,0,0,0,0,0,0,0,0,0,0,0],"sum_hessian":[8.708892E2,7.0943835E2,1.6145087E2,2.3655103E2,4.7288733E2,6.6156715E1,9.529414E1,2.0808474E1,2.1574255E2,4.2869376E2,4.4193573E1,6.597263E1,2.9321514E1],"tree_param":{"num_deleted":"0","num_feature":"75","num_nodes":"13","size_leaf_vector":"1"}},{"base_weights":[-0E0],"categories":[],"categories_nodes":[],"categories_segments":[],"categories_sizes":[],"default_left":[0],"id":87,"left_children":[-1],"loss_changes":[0E0],"parents":[2147483647],"right_children":[-1],"split_conditions":[-0E0],"split_indices":[0],"split_type":[0],"sum_hessian":[5.4969E1],"tree_param":{"num_deleted":"0","num_feature":"75","num_nodes":"1","size_leaf_vector":"1"}},{"base_weights":[-0E0,-7.625687E-2,1.5638538E-2,-1.6585998E-1,-0E0,-4.4056375E-2,6.703557E-2,-0E0,-1.629573E-1,-0E0,2.7495231E-2,-8.804403E-2,-0E0,-0E0,1.5257908E-1],"categories":[],"categories_nodes":[],"categories_segments":[],"categories_sizes":[],"default_left":[0,0,0,0,0,0,0,0,0,0,0,0,0,0,0],"id":88,"left_children":[1,3,5,7,9,11,13,-1,-1,-1,-1,-1,-1,-1,-1],"loss_changes":[2.0663576E0,2.4749808E0,2.8756125E0,1.2743654E0,7.3838645E-1,1.72079E0,5.88747E0,0E0,0E0,0E0,0E0,0E0,0E0,0E0,0E0],"parents":[2147483647,0,0,1,1,2,2,3,3,4,4,5,5,6,6],"right_children":[2,4,6,8,10,12,14,-1,-1,-1,-1,-1,-1,-1,-1],"split_conditions":[1.25653E1,1.5149755E7,8.909399E-8,2.5145826E-5,-3.1666145E-1,7.4667685E-2,-5.3303E2,-0E0,-1.629573E-1,-0E0,2.7495231E-2,-8.804403E-2,-0E0,-0E0,1.5257908E-1],"split_indices":[4,25,62,52,30,30,40,0,0,0,0,0,0,0,0],"split_type":[0,0,0,0,0,0,0,0,0,0,0,0,0,0,0],"sum_hessian":[5.881554E2,1.10414536E2,4.7774088E2,8.610203E1,2.4312508E1,1.5731189E2,3.20429E2,4.9892696E1,3.6209335E1,5.2301188E0,1.908239E1,2.9957518E1,1.2735437E2,2.5408382E2,6.634517E1],"tree_param":{"num_deleted":"0","num_feature":"75","num_nodes":"15","size_leaf_vector":"1"}},{"base_weights":[-0E0,6.127141E-2,-1.8821644E-2,-0E0,1.1762261E-1,-0E0,-1.4110619E-1,-0E0,-3.990926E-2,3.207909E-2,-8.598405E-3,-0E0,-1.2494866E-1],"categories":[],"categories_nodes":[],"categories_segments":[],"categories_sizes":[],"default_left":[0,0,0,0,0,0,0,0,0,0,0,0,0],"id":89,"left_children":[1,3,5,7,-1,9,11,-1,-1,-1,-1,-1,-1],"loss_changes":[1.8265961E0,4.3180995E0,2.7758064E0,1.2400962E0,0E0,1.3711362E0,1.0334473E0,0E0,0E0,0E0,0E0,0E0,0E0],"parents":[2147483647,0,0,1,1,2,2,3,3,5,5,6,6],"right_children":[2,4,6,8,-1,10,12,-1,-1,-1,-1,-1,-1],"split_conditions":[3.14E2,9.797608E-6,7.186157E-2,2.462341E-8,1.1762261E-1,3.2004028E-8,-2.6349213E1,-0E0,-3.990926E-2,3.207909E-2,-8.598405E-3,-0E0,-1.2494866E-1],"split_indices":[47,65,12,63,0,63,41,0,0,0,0,0,0],"split_type":[0,0,0,0,0,0,0,0,0,0,0,0,0],"sum_hessian":[4.523837E2,1.5524995E2,2.9713373E2,8.141867E1,7.383128E1,2.3362526E2,6.3508472E1,3.494178E1,4.647689E1,9.706527E1,1.3656E2,2.0095701E1,4.341277E1],"tree_param":{"num_deleted":"0","num_feature":"75","num_nodes":"13","size_leaf_vector":"1"}},{"base_weights":[-0E0,1.20236715E-2,-5.2580867E-2,4.279416E-2,-3.5296228E-2,-0E0,-1.3053596E-1,4.1950144E-2,-5.7253544E-3,8.568907E-3,-5.7113327E-2,-0E0,-1.0220967E-1],"categories":[],"categories_nodes":[],"categories_segments":[],"categories_sizes":[],"default_left":[0,0,0,0,0,0,0,0,0,0,0,0,0],"id":90,"left_children":[1,3,5,7,9,-1,11,-1,-1,-1,-1,-1,-1],"loss_changes":[1.5676558E0,1.8593657E0,2.321096E0,1.5610406E0,2.0711155E0,0E0,9.0488243E-1,0E0,0E0,0E0,0E0,0E0,0E0],"parents":[2147483647,0,0,1,1,2,2,3,3,4,4,6,6],"right_children":[2,4,6,8,10,-1,12,-1,-1,-1,-1,-1,-1],"split_conditions":[-3.8221754E-2,1.5134373E7,8.958614E-8,7.004416E-5,3.9241743E0,-0E0,1.0298676E-2,4.1950144E-2,-5.7253544E-3,8.568907E-3,-5.7113327E-2,-0E0,-1.0220967E-1],"split_indices":[56,28,62,53,34,0,69,0,0,0,0,0,0],"split_type":[0,0,0,0,0,0,0,0,0,0,0,0,0],"sum_hessian":[8.5506287E2,6.5428955E2,2.0077332E2,4.872522E2,1.6703732E2,7.567797E1,1.25095345E2,3.8870572E2,9.8546486E1,3.419103E1,1.328463E2,2.6829834E1,9.826551E1],"tree_param":{"num_deleted":"0","num_feature":"75","num_nodes":"13","size_leaf_vector":"1"}},{"base_weights":[-0E0],"categories":[],"categories_nodes":[],"categories_segments":[],"categories_sizes":[],"default_left":[0],"id":91,"left_children":[-1],"loss_changes":[0E0],"parents":[2147483647],"right_children":[-1],"split_conditions":[-0E0],"split_indices":[0],"split_type":[0],"sum_hessian":[5.4575638E1],"tree_param":{"num_deleted":"0","num_feature":"75","num_nodes":"1","size_leaf_vector":"1"}},{"base_weights":[-0E0,-1.038351E-1,6.0222032E-3,-1.3169709E-1,-0E0,6.157561E-2,-2.9512228E-2,-0E0,1.045317E-1,-9.6018724E-2,-0E0],"categories":[],"categories_nodes":[],"categories_segments":[],"categories_sizes":[],"default_left":[0,0,0,0,0,0,0,0,0,0,0],"id":92,"left_children":[1,3,5,-1,-1,7,9,-1,-1,-1,-1],"loss_changes":[2.1003535E0,2.4463851E0,2.4438372E0,0E0,0E0,3.1814992E0,3.1332567E0,0E0,0E0,0E0,0E0],"parents":[2147483647,0,0,1,1,2,2,5,5,6,6],"right_children":[2,4,6,-1,-1,8,10,-1,-1,-1,-1],"split_conditions":[4.37E2,4.832644E-8,4.520159E-5,-1.3169709E-1,-0E0,3.0672294E-5,4.115495E1,-0E0,1.045317E-1,-9.6018724E-2,-0E0],"split_indices":[72,63,50,0,0,57,15,0,0,0,0],"split_type":[0,0,0,0,0,0,0,0,0,0,0],"sum_hessian":[5.799915E2,4.7757874E1,5.3223364E2,3.3372242E1,1.438563E1,2.851597E2,2.4707394E2,2.0025485E2,8.490484E1,5.3046898E1,1.9402704E2],"tree_param":{"num_deleted":"0","num_feature":"75","num_nodes":"11","size_leaf_vector":"1"}},{"base_weights":[-0E0,3.909642E-2,-4.0060956E-2,-4.370588E-2,9.4124824E-2,5.7859693E-2,-9.349639E-2,-0E0,-7.720295E-2,9.4339214E-2,-0E0,-0E0,7.514479E-2,-0E0,-1.0056735E-1],"categories":[],"categories_nodes":[],"categories_segments":[],"categories_sizes":[],"default_left":[0,0,0,0,0,0,0,0,0,0,0,0,0,0,0],"id":93,"left_children":[1,3,5,7,9,11,13,-1,-1,-1,-1,-1,-1,-1,-1],"loss_changes":[1.8195201E0,2.5528212E0,2.6555233E0,1.5382497E0,2.1691835E0,9.1878855E-1,2.5773337E0,0E0,0E0,0E0,0E0,0E0,0E0,0E0,0E0],"parents":[2147483647,0,0,1,1,2,2,3,3,4,4,5,5,6,6],"right_children":[2,4,6,8,10,12,14,-1,-1,-1,-1,-1,-1,-1,-1],"split_conditions":[-1.0574302E-8,9.562808E-6,1.1066286E-9,2.3533104E-5,1.773526E-2,2.0447558E-8,1.2044231E1,-0E0,-7.720295E-2,9.4339214E-2,-0E0,-0E0,7.514479E-2,-0E0,-1.0056735E-1],"split_indices":[66,57,64,73,16,63,15,0,0,0,0,0,0,0,0],"split_type":[0,0,0,0,0,0,0,0,0,0,0,0,0,0,0],"sum_hessian":[4.4426874E2,2.3394379E2,2.1032495E2,4.2070953E1,1.9187283E2,2.7419407E1,1.8290555E2,1.0450531E1,3.162042E1,1.2440494E2,6.74679E1,8.308912E0,1.9110495E1,6.9225266E1,1.13680275E2],"tree_param":{"num_deleted":"0","num_feature":"75","num_nodes":"15","size_leaf_vector":"1"}},{"base_weights":[-0E0,-5.3000923E-2,2.7596163E-2,-1.3224052E-1,1.4500917E-2,1.0746958E-1,-0E0,-0E0,-1.0838262E-1,7.827127E-2,-0E0,4.1593418E-2,-1.4863875E-2],"categories":[],"categories_nodes":[],"categories_segments":[],"categories_sizes":[],"default_left":[0,0,0,0,0,0,0,0,0,0,0,0,0],"id":94,"left_children":[1,3,5,7,-1,9,11,-1,-1,-1,-1,-1,-1],"loss_changes":[2.3611422E0,3.6143453E0,2.420547E0,1.294384E0,0E0,7.2349167E-1,2.1039457E0,0E0,0E0,0E0,0E0,0E0,0E0],"parents":[2147483647,0,0,1,1,2,2,3,3,5,5,6,6],"right_children":[2,4,6,8,-1,10,12,-1,-1,-1,-1,-1,-1],"split_conditions":[-5.312063E-8,1.2210383E-1,9.0077755E-8,2.8635242E-5,1.4500917E-2,5.890528E-7,5E2,-0E0,-1.0838262E-1,7.827127E-2,-0E0,4.1593418E-2,-1.4863875E-2],"split_indices":[66,5,62,61,0,66,32,0,0,0,0,0,0],"split_type":[0,0,0,0,0,0,0,0,0,0,0,0,0],"sum_hessian":[8.469127E2,2.7887445E2,5.680383E2,1.835316E2,9.534284E1,1.6514687E2,4.0289145E2,5.972536E1,1.2380624E2,1.5265953E2,1.2487326E1,8.425535E1,3.186361E2],"tree_param":{"num_deleted":"0","num_feature":"75","num_nodes":"13","size_leaf_vector":"1"}},{"base_weights":[-0E0],"categories":[],"categories_nodes":[],"categories_segments":[],"categories_sizes":[],"default_left":[0],"id":95,"left_children":[-1],"loss_changes":[0E0],"parents":[2147483647],"right_children":[-1],"split_conditions":[-0E0],"split_indices":[0],"split_type":[0],"sum_hessian":[5.3969933E1],"tree_param":{"num_deleted":"0","num_feature":"75","num_nodes":"1","size_leaf_vector":"1"}},{"base_weights":[-0E0,-5.1395353E-2,7.680836E-5,-3.5142027E-2,7.72853E-2,-9.501386E-2,1.5420337E-2,-0E0,1.3046452E-1],"categories":[],"categories_nodes":[],"categories_segments":[],"categories_sizes":[],"default_left":[0,0,0,0,0,0,0,0,0],"id":96,"left_children":[1,-1,3,5,7,-1,-1,-1,-1],"loss_changes":[1.6579374E0,0E0,3.3435671E0,5.5663805E0,4.083857E0,0E0,0E0,0E0,0E0],"parents":[2147483647,0,0,2,2,3,3,4,4],"right_children":[2,-1,4,6,8,-1,-1,-1,-1],"split_conditions":[6.3666995E-8,-5.1395353E-2,-6.0894E2,-5.712084E-1,6.27E2,-9.501386E-2,1.5420337E-2,-0E0,1.3046452E-1],"split_indices":[62,0,40,31,32,0,0,0,0],"split_type":[0,0,0,0,0,0,0,0,0],"sum_hessian":[5.758998E2,4.3097187E1,5.328026E2,3.0320917E2,2.2959343E2,1.3244438E2,1.707648E2,1.5902536E2,7.056808E1],"tree_param":{"num_deleted":"0","num_feature":"75","num_nodes":"9","size_leaf_vector":"1"}},{"base_weights":[-0E0,-2.044732E-2,4.0117368E-2,-9.164483E-2,1.0546025E-2,1.3563125E-1,-0E0,-0E0,-1.0197178E-1,4.9397312E-2,-0E0,1.3056718E-1,-0E0,-6.1427176E-2,4.4129238E-2],"categories":[],"categories_nodes":[],"categories_segments":[],"categories_sizes":[],"default_left":[0,0,0,0,0,0,0,0,0,0,0,0,0,0,0],"id":97,"left_children":[1,3,5,7,9,11,13,-1,-1,-1,-1,-1,-1,-1,-1],"loss_changes":[1.2678802E0,2.1556857E0,2.2228503E0,2.143541E0,1.4723566E0,1.8895779E0,3.6922433E0,0E0,0E0,0E0,0E0,0E0,0E0,0E0,0E0],"parents":[2147483647,0,0,1,1,2,2,3,3,4,4,5,5,6,6],"right_children":[2,4,6,8,10,12,14,-1,-1,-1,-1,-1,-1,-1,-1],"split_conditions":[4.3663038E-9,-2.2218927E1,-4.2648977E-1,2.936199E-5,1.8013542E-4,8.7500565E-2,4.730236E0,-0E0,-1.0197178E-1,4.9397312E-2,-0E0,1.3056718E-1,-0E0,-6.1427176E-2,4.4129238E-2],"split_indices":[64,41,30,73,5,12,34,0,0,0,0,0,0,0,0],"split_type":[0,0,0,0,0,0,0,0,0,0,0,0,0,0,0],"sum_hessian":[4.42961E2,2.5600674E2,1.8695425E2,1.4645221E2,1.0955455E2,7.8268875E1,1.0868537E2,6.274106E1,8.371114E1,6.0037487E1,4.9517067E1,5.409179E1,2.4177088E1,6.2384785E1,4.6300587E1],"tree_param":{"num_deleted":"0","num_feature":"75","num_nodes":"15","size_leaf_vector":"1"}},{"base_weights":[-0E0,2.4822278E-2,-3.6399294E-2,5.2356537E-2,-9.256458E-2,-9.552961E-2,1.9311987E-2,6.104883E-2,-1.1130198E-2,-0E0,-1.6367586E-1,-1.5195818E-1,-0E0,4.5199193E-2,-0E0],"categories":[],"categories_nodes":[],"categories_segments":[],"categories_sizes":[],"default_left":[0,0,0,0,0,0,0,0,0,0,0,0,0,0,0],"id":98,"left_children":[1,3,5,7,9,11,13,-1,-1,-1,-1,-1,-1,-1,-1],"loss_changes":[1.6344001E0,2.9026794E0,2.516492E0,3.203603E0,3.8057663E0,5.0398436E0,1.0571842E0,0E0,0E0,0E0,0E0,0E0,0E0,0E0,0E0],"parents":[2147483647,0,0,1,1,2,2,3,3,4,4,5,5,6,6],"right_children":[2,4,6,8,10,12,14,-1,-1,-1,-1,-1,-1,-1,-1],"split_conditions":[-6.817465E-1,1.523474E7,1.131E3,-4.6453E2,4.302132E0,-4.7742E2,-7.7870685E-1,6.104883E-2,-1.1130198E-2,-0E0,-1.6367586E-1,-1.5195818E-1,-0E0,4.5199193E-2,-0E0],"split_indices":[56,48,33,40,59,40,55,0,0,0,0,0,0,0,0],"split_type":[0,0,0,0,0,0,0,0,0,0,0,0,0,0,0],"sum_hessian":[8.5139905E2,5.1190396E2,3.394951E2,4.6392633E2,4.797762E1,2.2608159E2,1.1341352E2,3.1639343E2,1.475329E2,2.418359E1,2.3794027E1,7.241634E1,1.5366524E2,5.740177E1,5.6011745E1],"tree_param":{"num_deleted":"0","num_feature":"75","num_nodes":"15","size_leaf_vector":"1"}},{"base_weights":[-0E0],"categories":[],"categories_nodes":[],"categories_segments":[],"categories_sizes":[],"default_left":[0],"id":99,"left_children":[-1],"loss_changes":[0E0],"parents":[2147483647],"right_children":[-1],"split_conditions":[-0E0],"split_indices":[0],"split_type":[0],"sum_hessian":[5.3182304E1],"tree_param":{"num_deleted":"0","num_feature":"75","num_nodes":"1","size_leaf_vector":"1"}},{"base_weights":[-0E0,-8.907884E-2,9.31567E-3,-1.1959957E-1,-0E0,-4.962541E-3,1.1002575E-1,-5.4963384E-2,-0E0,-0E0,1.0653634E-1],"categories":[],"categories_nodes":[],"categories_segments":[],"categories_sizes":[],"default_left":[0,0,0,0,0,0,0,0,0,0,0],"id":100,"left_children":[1,3,5,-1,-1,7,9,-1,-1,-1,-1],"loss_changes":[1.8454041E0,2.302795E0,2.9266734E0,0E0,0E0,1.8522487E0,1.2924867E0,0E0,0E0,0E0,0E0],"parents":[2147483647,0,0,1,1,2,2,5,5,6,6],"right_children":[2,4,6,-1,-1,8,10,-1,-1,-1,-1],"split_conditions":[3.8393888E0,-1.1583517E0,-3.4948278E-3,-1.1959957E-1,-0E0,5.721912E-1,4.3545046E0,-5.4963384E-2,-0E0,-0E0,1.0653634E-1],"split_indices":[59,6,55,0,0,30,59,0,0,0,0],"split_type":[0,0,0,0,0,0,0,0,0,0,0],"sum_hessian":[5.7131305E2,5.027421E1,5.210388E2,3.4611786E1,1.5662426E1,3.954586E2,1.2558024E2,6.0831005E1,3.346276E2,5.685132E1,6.872892E1],"tree_param":{"num_deleted":"0","num_feature":"75","num_nodes":"11","size_leaf_vector":"1"}},{"base_weights":[-0E0,-2.1117248E-3,1.3896097E-1,-0E0,-5.5342708E-2,2.8354365E-1,-0E0,5.0535847E-2,-3.7985484E-3],"categories":[],"categories_nodes":[],"categories_segments":[],"categories_sizes":[],"default_left":[0,0,0,0,0,0,0,0,0],"id":101,"left_children":[1,3,5,7,-1,-1,-1,-1,-1],"loss_changes":[2.4485023E0,2.0306575E0,6.769339E0,2.0800211E0,0E0,0E0,0E0,0E0,0E0],"parents":[2147483647,0,0,1,1,2,2,3,3],"right_children":[2,4,6,8,-1,-1,-1,-1,-1],"split_conditions":[5.525082E0,3.935141E-5,1.69906E1,2.2804613E-8,-5.5342708E-2,2.8354365E-1,-0E0,5.0535847E-2,-3.7985484E-3],"split_indices":[34,54,1,63,0,0,0,0,0],"split_type":[0,0,0,0,0,0,0,0,0],"sum_hessian":[4.336677E2,4.1136038E2,2.2307325E1,3.4095364E2,7.0406746E1,1.1166103E1,1.1141223E1,8.665434E1,2.5429929E2],"tree_param":{"num_deleted":"0","num_feature":"75","num_nodes":"9","size_leaf_vector":"1"}},{"base_weights":[-0E0,3.1266153E-2,-2.3289138E-2,-0E0,1.602735E-1,-0E0,-8.352594E-2,-0E0,-4.087999E-2,1.2876593E-1,-0E0,-5.2716393E-2,2.210863E-2,-0E0,-8.032471E-2],"categories":[],"categories_nodes":[],"categories_segments":[],"categories_sizes":[],"default_left":[0,0,0,0,0,0,0,0,0,0,0,0,0,0,0],"id":102,"left_children":[1,3,5,7,9,11,13,-1,-1,-1,-1,-1,-1,-1,-1],"loss_changes":[1.3710089E0,3.5991406E0,1.5299504E0,1.1638906E0,1.0670905E0,3.1073637E0,1.7784698E0,0E0,0E0,0E0,0E0,0E0,0E0,0E0,0E0],"parents":[2147483647,0,0,1,1,2,2,3,3,4,4,5,5,6,6],"right_children":[2,4,6,8,10,12,14,-1,-1,-1,-1,-1,-1,-1,-1],"split_conditions":[5.4E-2,4.0442093E-5,3.515945E-5,2.9489725E-5,5.467214E0,-4.7914188E-8,1.6402253E0,-0E0,-4.087999E-2,1.2876593E-1,-0E0,-5.2716393E-2,2.210863E-2,-0E0,-8.032471E-2],"split_indices":[2,50,65,57,59,66,10,0,0,0,0,0,0,0,0],"split_type":[0,0,0,0,0,0,0,0,0,0,0,0,0,0,0],"sum_hessian":[8.391057E2,3.2520917E2,5.1389655E2,2.3610448E2,8.910468E1,3.5414856E2,1.5974802E2,2.1098978E2,2.5114708E1,6.718464E1,2.192005E1,9.3521774E1,2.606268E2,2.9743038E1,1.3000497E2],"tree_param":{"num_deleted":"0","num_feature":"75","num_nodes":"15","size_leaf_vector":"1"}},{"base_weights":[-0E0],"categories":[],"categories_nodes":[],"categories_segments":[],"categories_sizes":[],"default_left":[0],