{"learner":{"attributes":{"best_iteration":"0","best_score":"0.07705575579763663"},"feature_names":["Relative_time","Dissipation","Cumulative","Difference","Resonance_Frequency_gradient","Difference_gradient","Dissipation_gradient","Difference_detrend","Resonance_Frequency_detrend","Cumulative_detrend","Dissipation_detrend","Difference_super","Resonance_Frequency_super","Cumulative_super","Dissipation_super"],"feature_types":["float","float","float","float","int","int","int","float","float","float","float","float","float","float","float"],"gradient_booster":{"model":{"gbtree_model_param":{"num_parallel_tree":"1","num_trees":"51"},"iteration_indptr":[0,1,2,3,4,5,6,7,8,9,10,11,12,13,14,15,16,17,18,19,20,21,22,23,24,25,26,27,28,29,30,31,32,33,34,35,36,37,38,39,40,41,42,43,44,45,46,47,48,49,50,51],"tree_info":[0,0,0,0,0,0,0,0,0,0,0,0,0,0,0,0,0,0,0,0,0,0,0,0,0,0,0,0,0,0,0,0,0,0,0,0,0,0,0,0,0,0,0,0,0,0,0,0,0,0,0],"trees":[{"base_weights":[-1.1288509E0,-5.512939E-1,-8.756665E-1,-8.3383334E-1,-5.134622E-1,-4.9895287E-1,-7.2224927E-1,-5.7547456E-1,-9.4953525E-1,-4.375092E-1,-6.9005924E-1,-3.2119882E-1,-5.1960325E-1,-2.9233932E-1,-2.8296474E-1,-5.1161486E-1,-4.7433522E-1,-2.5029215E-1,-4.7100563E-2,-2.937958E-1,-3.0793842E-2,2.629172E-1,-1.829226E-1,-1.5144882E-2,-2.8952527E-1],"categories":[],"categories_nodes":[],"categories_segments":[],"categories_sizes":[],"default_left":[0,0,0,0,0,0,0,0,0,0,0,0,0,0,0,0,0,0,0,0,0,0,0,0,0],"id":0,"left_children":[1,-1,3,5,-1,-1,7,9,11,13,15,-1,-1,-1,17,19,-1,-1,21,-1,-1,-1,23,-1,-1],"loss_changes":[1.2946875E2,0E0,1.2619995E1,3.3452393E1,0E0,0E0,3.4009094E1,8.615356E0,1.0323608E1,6.62278E0,1.5783859E1,0E0,0E0,0E0,8.655226E0,6.7168427E0,0E0,0E0,1.0308478E1,0E0,0E0,0E0,5.252252E0,0E0,0E0],"parents":[2147483647,0,0,2,2,3,3,6,6,7,7,8,8,9,9,10,10,14,14,15,15,18,18,22,22],"right_children":[2,-1,4,6,-1,-1,8,10,12,14,16,-1,-1,-1,18,20,-1,-1,22,-1,-1,-1,24,-1,-1],"split_conditions":[1.7169564E0,-5.512939E-1,4.930643E1,7.319024E-1,-5.134622E-1,-4.9895287E-1,9.627056E-1,3.3295563E-1,4.2874485E-1,8.654796E-1,9.1130745E-1,-3.2119882E-1,-5.1960325E-1,-2.9233932E-1,-4.6063866E1,-3.689208E1,-4.7433522E-1,-2.5029215E-1,-7.992994E1,-2.937958E-1,-3.0793842E-2,2.629172E-1,-5.8578472E1,-1.5144882E-2,-2.8952527E-1],"split_indices":[2,0,1,11,0,0,11,13,13,11,11,0,0,0,10,10,0,0,7,0,0,0,8,0,0],"split_type":[0,0,0,0,0,0,0,0,0,0,0,0,0,0,0,0,0,0,0,0,0,0,0,0,0],"sum_hessian":[1.7802748E5,1.7594056E5,2.0869248E3,1.7081744E3,3.7875043E2,6.184382E2,1.0897362E3,6.7191754E2,4.178187E2,3.184015E2,3.5351608E2,1.2916858E2,2.8865012E2,1.4465042E2,1.7375105E2,2.2493243E2,1.2858365E2,8.102244E1,9.2728615E1,1.8114534E2,4.3787094E1,1.288607E1,7.9842545E1,6.421292E1,1.5629622E1],"tree_param":{"num_deleted":"0","num_feature":"15","num_nodes":"25","size_leaf_vector":"1"}},{"base_weights":[-1.0676563E0,-5.2222973E-1,-7.310441E-1,-7.934743E-1,-6.016875E-1,-4.768958E-1,-6.263021E-1,-4.2787436E-1,-5.153836E-1,-2.3466311E-1,-7.8853405E-1,-1.5223558E-1,-7.741265E-1,-4.793555E-1,-4.945245E-1,-1.914415E-1,-4.387307E-1,4.8556253E-2,-6.019244E-1,-4.2563674E-1,-1.4590566E-1],"categories":[],"categories_nodes":[],"categories_segments":[],"categories_sizes":[],"default_left":[0,0,0,0,0,0,0,0,0,0,0,0,0,0,0,0,0,0,0,0,0],"id":1,"left_children":[1,-1,3,5,7,-1,9,-1,11,-1,13,-1,15,17,-1,-1,-1,-1,19,-1,-1],"loss_changes":[1.6809375E2,0E0,9.487854E0,2.8366333E1,1.0631714E1,0E0,1.0531555E1,0E0,1.9496758E1,0E0,1.40750885E1,0E0,4.85511E0,9.230843E0,0E0,0E0,0E0,0E0,5.7448616E0,0E0,0E0],"parents":[2147483647,0,0,2,2,3,3,4,4,6,6,8,8,10,10,12,12,13,13,18,18],"right_children":[2,-1,4,6,8,-1,10,-1,12,-1,14,-1,16,18,-1,-1,-1,-1,20,-1,-1],"split_conditions":[1.4386097E0,-5.2222973E-1,2.9903011E0,6.969693E-1,7.319024E-1,-4.768958E-1,9.1130745E-1,-4.2787436E-1,9.627056E-1,-2.3466311E-1,4.2874485E-1,-1.5223558E-1,4.0492168E-1,8.431313E1,-4.945245E-1,-1.914415E-1,-4.387307E-1,4.8556253E-2,-4.6063866E1,-4.2563674E-1,-1.4590566E-1],"split_indices":[9,0,9,11,11,0,11,0,11,0,13,0,13,3,0,0,0,0,10,0,0],"split_type":[0,0,0,0,0,0,0,0,0,0,0,0,0,0,0,0,0,0,0,0,0],"sum_hessian":[1.13976766E5,1.1246055E5,1.5162156E3,1.0042737E3,5.1194183E2,4.654976E2,5.3877606E2,1.11651024E2,4.0029083E2,2.9636847E2,2.4240762E2,2.3183713E2,1.6845369E2,1.09214516E2,1.331931E2,4.8686695E1,1.19767E2,1.4973034E1,9.4241486E1,4.3630478E1,5.0611008E1],"tree_param":{"num_deleted":"0","num_feature":"15","num_nodes":"21","size_leaf_vector":"1"}},{"base_weights":[-1.0297443E0,-1.0367275E0,-5.859263E-1,-5.0524145E-1,-3.6177164E-1,-4.3908048E-1,-4.334525E-1,-3.1253657E-1,-5.838197E-1,-2.7109694E-1,-2.9964706E-1,-3.495434E-1,-1.933754E-1,-2.4678653E-1,-9.450725E-2],"categories":[],"categories_nodes":[],"categories_segments":[],"categories_sizes":[],"default_left":[0,0,0,0,0,0,0,0,0,0,0,0,0,0,0],"id":2,"left_children":[1,3,5,-1,-1,-1,7,9,11,13,-1,-1,-1,-1,-1],"loss_changes":[2.181875E2,7.0078125E0,5.2445984E1,0E0,0E0,0E0,1.2570999E1,5.1742783E0,6.1166153E0,6.741537E0,0E0,0E0,0E0,0E0,0E0],"parents":[2147483647,0,0,1,1,2,2,6,6,7,7,8,8,9,9],"right_children":[2,4,6,-1,-1,-1,8,10,12,14,-1,-1,-1,-1,-1],"split_conditions":[1.7169564E0,7.9522705E-1,6.824059E-1,-5.0524145E-1,-3.6177164E-1,-4.3908048E-1,9.34678E-1,2.4816692E2,-1.4748283E2,-2.5955347E2,-2.9964706E-1,-3.495434E-1,-1.933754E-1,-2.4678653E-1,-9.450725E-2],"split_indices":[2,12,12,0,0,0,12,3,8,8,0,0,0,0,0],"split_type":[0,0,0,0,0,0,0,0,0,0,0,0,0,0,0],"sum_hessian":[7.1956445E4,7.083411E4,1.1223336E3,7.0687875E4,1.4623657E2,3.5794983E2,7.6438385E2,4.3598495E2,3.283989E2,3.9347937E2,4.2505585E1,1.8073572E2,1.4766316E2,8.642377E1,3.070556E2],"tree_param":{"num_deleted":"0","num_feature":"15","num_nodes":"15","size_leaf_vector":"1"}},{"base_weights":[-1.0014933E0,-1.0125571E0,-4.3815804E-1,-4.9385154E-1,-8.3843464E-1,-2.6816145E-1,-5.6237483E-1,-6.526513E-1,-4.8532012E-1,5.2544963E-2,-4.9798843E-1,-4.2452124E-1,-4.3736705E-1,-4.3495306E-1,-1.3611357E-1,-2.5410056E-1,1.6358554E-1,-3.8637078E-1,-1.8431E-1,-3.3287334E-1,-2.900075E-1,2.705076E-2,2.451141E-1,-7.426039E-1,-6.3708365E-2,-0E0,-4.436259E-1],"categories":[],"categories_nodes":[],"categories_segments":[],"categories_sizes":[],"default_left":[0,0,0,0,0,0,0,0,0,0,0,0,0,0,0,0,0,0,0,0,0,0,0,0,0,0,0],"id":3,"left_children":[1,3,5,-1,7,9,11,13,-1,15,17,-1,19,-1,-1,-1,21,-1,-1,23,-1,-1,-1,25,-1,-1,-1],"loss_changes":[2.7686328E2,6.1367188E0,1.6984802E1,0E0,7.482666E0,3.034669E1,1.7728195E1,1.3385483E1,0E0,1.2451849E1,6.8327217E0,0E0,4.6778107E0,0E0,0E0,0E0,5.1229663E0,0E0,0E0,1.867993E1,0E0,0E0,0E0,8.589542E0,0E0,0E0,0E0],"parents":[2147483647,0,0,1,1,2,2,4,4,5,5,6,6,7,7,9,9,10,10,12,12,16,16,19,19,23,23],"right_children":[2,4,6,-1,8,10,12,14,-1,16,18,-1,20,-1,-1,-1,22,-1,-1,24,-1,-1,-1,26,-1,-1,-1],"split_conditions":[1.7169564E0,9.735063E-1,3.1870815E-1,-4.9385154E-1,-2.825167E1,-3.28792E1,6.824059E-1,6.16685E-1,-4.8532012E-1,7.124679E-1,5.4357505E-1,-4.2452124E-1,9.378112E1,-4.3495306E-1,-1.3611357E-1,-2.5410056E-1,-4.1038074E1,-3.8637078E-1,-1.8431E-1,7.634274E-1,-2.900075E-1,2.705076E-2,2.451141E-1,4.2874485E-1,-6.3708365E-2,-0E0,-4.436259E-1],"split_indices":[2,2,13,0,8,7,12,12,0,12,12,0,3,0,0,0,7,0,0,13,0,0,0,13,0,0,0],"split_type":[0,0,0,0,0,0,0,0,0,0,0,0,0,0,0,0,0,0,0,0,0,0,0,0,0,0,0],"sum_hessian":[4.521112E4,4.4334496E4,8.76625E2,4.397395E4,3.6054385E2,3.8122815E2,4.9539682E2,1.7633324E2,1.8421062E2,1.5417857E2,2.2704959E2,1.3432898E2,3.6106784E2,1.0173506E2,7.459817E1,2.0184906E1,1.3399367E2,5.6933117E1,1.7011647E2,2.3016302E2,1.3090483E2,1.0896687E2,2.502679E1,7.044808E1,1.5971495E2,1.2153676E1,5.8294403E1],"tree_param":{"num_deleted":"0","num_feature":"15","num_nodes":"27","size_leaf_vector":"1"}},{"base_weights":[-9.749576E-1,-4.829271E-1,-3.016944E-1,-1.7057681E-1,-4.47679E-1,-3.7776906E-2,-2.5675356E-1],"categories":[],"categories_nodes":[],"categories_segments":[],"categories_sizes":[],"default_left":[0,0,0,0,0,0,0],"id":4,"left_children":[1,-1,3,5,-1,-1,-1],"loss_changes":[3.1079297E2,0E0,5.5889824E1,1.9153622E1,0E0,0E0,0E0],"parents":[2147483647,0,0,2,2,3,3],"right_children":[2,-1,4,6,-1,-1,-1],"split_conditions":[7.436833E-1,-4.829271E-1,-3.24646E1,9.769936E-1,-4.47679E-1,-3.7776906E-2,-2.5675356E-1],"split_indices":[12,0,8,11,0,0,0],"split_type":[0,0,0,0,0,0,0],"sum_hessian":[2.8402156E4,2.7717502E4,6.8465424E2,5.695915E2,1.15062775E2,4.591019E2,1.1048959E2],"tree_param":{"num_deleted":"0","num_feature":"15","num_nodes":"7","size_leaf_vector":"1"}},{"base_weights":[-9.4369453E-1,-9.7316784E-1,-2.203317E-1,-4.7748598E-1,-8.84061E-1,-3.780315E-1,-8.958604E-2,-4.410749E-1,-3.8285747E-1,-8.278339E-2,8.019411E-2,-3.804318E-1,-4.964586E-2],"categories":[],"categories_nodes":[],"categories_segments":[],"categories_sizes":[],"default_left":[0,0,0,0,0,0,0,0,0,0,0,0,0],"id":5,"left_children":[1,3,5,-1,7,-1,9,-1,11,-1,-1,-1,-1],"loss_changes":[3.7714453E2,7.0683594E0,5.188359E1,0E0,9.887207E0,0E0,1.3002296E1,0E0,6.008545E0,0E0,0E0,0E0,0E0],"parents":[2147483647,0,0,1,1,2,2,4,4,6,6,8,8],"right_children":[2,4,6,-1,8,-1,10,-1,12,-1,-1,-1,-1],"split_conditions":[1.2881579E0,1.8510413E-1,5.1783067E-1,-4.7748598E-1,6.824059E-1,-3.780315E-1,-3.0121082E1,-4.410749E-1,1.7539815E0,-8.278339E-2,8.019411E-2,-3.804318E-1,-4.964586E-2],"split_indices":[2,2,11,0,12,0,10,0,3,0,0,0,0],"split_type":[0,0,0,0,0,0,0,0,0,0,0,0,0],"sum_hessian":[1.7921246E4,1.7215467E4,7.05779E2,1.5900536E4,1.3149309E3,1.2930101E2,5.76478E2,1.2545969E3,6.033396E1,4.46917E2,1.29561E2,1.9993101E1,4.0340862E1],"tree_param":{"num_deleted":"0","num_feature":"15","num_nodes":"13","size_leaf_vector":"1"}},{"base_weights":[-9.0207547E-1,-9.471015E-1,-1.3877939E-1,-4.6716473E-1,-7.314081E-1,-9.0439335E-2,-2.746755E-1,-4.4184792E-1,-3.3658594E-1,-1.776401E-1,5.2790754E-2,-3.381932E-1,-1.4551024E-1,-1.3170663E-1,-3.0194828E-1,2.2214101E-1,-1.3255814E-1,3.8579237E-1,-3.7774193E-1,-3.411616E-1,-0E0,-0E0,2.5219527E-1,-2.5951657E-1,5.8845796E-2,-0E0,-3.874138E-1,-3.6818922E-1,-9.633253E-2,3.1790155E-1,-2.1623556E-1,-1.830152E-1,7.385185E-1,3.5572205E-2,6.610402E-1],"categories":[],"categories_nodes":[],"categories_segments":[],"categories_sizes":[],"default_left":[0,0,0,0,0,0,0,0,0,0,0,0,0,0,0,0,0,0,0,0,0,0,0,0,0,0,0,0,0,0,0,0,0,0,0],"id":6,"left_children":[1,3,5,-1,7,9,-1,-1,11,13,15,-1,17,19,-1,21,23,-1,25,27,-1,-1,-1,-1,-1,29,-1,-1,-1,31,-1,-1,33,-1,-1],"loss_changes":[3.8913672E2,2.4032227E1,1.3862E1,0E0,3.7711548E1,8.225307E0,0E0,0E0,1.2229221E1,8.202855E0,8.460769E0,0E0,3.26245E1,1.0594085E1,0E0,8.844407E0,1.3266121E1,0E0,1.8635447E1,7.7288E0,0E0,0E0,0E0,0E0,0E0,1.2355465E1,0E0,0E0,0E0,1.4934947E1,0E0,0E0,7.5450897E0,0E0,0E0],"parents":[2147483647,0,0,1,1,2,2,4,4,5,5,8,8,9,9,10,10,12,12,13,13,15,15,16,16,18,18,19,19,25,25,29,29,32,32],"right_children":[2,4,6,-1,8,10,-1,-1,12,14,16,-1,18,20,-1,22,24,-1,26,28,-1,-1,-1,-1,-1,30,-1,-1,-1,32,-1,-1,34,-1,-1],"split_conditions":[1.2881579E0,4.8656148E-1,5.971863E1,-4.6716473E-1,1.1535354E-1,3.303962E0,-2.746755E-1,-4.4184792E-1,4.5611824E1,3.61542E1,4.0492168E-1,-3.381932E-1,-2.7031078E1,-1.4748283E2,-3.0194828E-1,1.985699E-1,7.634274E-1,3.8579237E-1,1.9482387E2,7.634274E-1,-0E0,-0E0,2.5219527E-1,-2.5951657E-1,5.8845796E-2,4.1144904E-1,-3.874138E-1,-3.6818922E-1,-9.633253E-2,1.097176E-1,-2.1623556E-1,-1.830152E-1,2.5522963E1,3.5572205E-2,6.610402E-1],"split_indices":[2,13,1,0,2,2,0,0,1,1,13,0,10,8,0,13,13,0,1,13,0,0,0,0,0,14,0,0,0,14,0,0,8,0,0],"split_type":[0,0,0,0,0,0,0,0,0,0,0,0,0,0,0,0,0,0,0,0,0,0,0,0,0,0,0,0,0,0,0,0,0,0,0],"sum_hessian":[1.1462106E4,1.0819828E4,6.4227814E2,1.0233329E4,5.864997E2,5.838574E2,5.8420723E1,3.9992984E2,1.8656984E2,3.753671E2,2.0849033E2,5.880646E1,1.27763374E2,3.4709937E2,2.8267708E1,1.1703276E2,9.1457565E1,2.2433561E1,1.0532981E2,1.3479099E2,2.123084E2,6.726173E1,4.9771038E1,3.9492622E1,5.1964943E1,5.4941788E1,5.0388027E1,2.8397438E1,1.0639355E2,3.3066494E1,2.1875292E1,9.915078E0,2.3151417E1,1.3919316E1,9.2321005E0],"tree_param":{"num_deleted":"0","num_feature":"15","num_nodes":"35","size_leaf_vector":"1"}},{"base_weights":[-8.4432274E-1,-9.1450375E-1,-1.0269192E-1,-9.330329E-1,-6.6784525E-1,-3.0374822E-1,-4.462231E-3,-3.1892973E-1,-4.5837864E-1,-5.51398E-1,-4.1242972E-1,7.735716E-2,-1.3607359E-1,-3.7423903E-1,-1.1697141E-1,1.14586785E-1,-3.7824944E-2,9.728071E-2,-2.96903E-1,-2.770078E-1,4.4853157E-1,-2.3769364E-2,2.638023E-1,9.163435E-2,5.064486E-1,2.236693E-1,-0E0,5.160834E-1,-1.4136486E-1],"categories":[],"categories_nodes":[],"categories_segments":[],"categories_sizes":[],"default_left":[0,0,0,0,0,0,0,0,0,0,0,0,0,0,0,0,0,0,0,0,0,0,0,0,0,0,0,0,0],"id":7,"left_children":[1,3,5,7,9,-1,11,-1,-1,13,-1,15,17,-1,19,-1,-1,21,-1,-1,23,-1,25,27,-1,-1,-1,-1,-1],"loss_changes":[3.850454E2,2.7330078E1,3.426976E1,1.0120117E1,8.047546E0,0E0,7.344797E0,0E0,0E0,2.6932266E1,0E0,9.658907E0,2.9461414E1,0E0,3.330119E1,0E0,0E0,5.210554E0,0E0,0E0,9.0045E0,0E0,5.0648503E0,2.1683418E1,0E0,0E0,0E0,0E0,0E0],"parents":[2147483647,0,0,1,1,2,2,3,3,4,4,6,6,9,9,11,11,12,12,14,14,17,17,20,20,22,22,23,23],"right_children":[2,4,6,8,10,-1,12,-1,-1,14,-1,16,18,-1,20,-1,-1,22,-1,-1,24,-1,26,28,-1,-1,-1,-1,-1],"split_conditions":[7.5863844E-1,4.8099455E-1,5.1783067E-1,-2.7123925E-1,1.9588365E-1,-3.0374822E-1,4.5791426E-1,-3.1892973E-1,-4.5837864E-1,3.3298522E-2,-4.1242972E-1,1.6214767E2,9.1130745E-1,-3.7423903E-1,5.047206E-1,1.14586785E-1,-3.7824944E-2,4.4895725E1,-2.96903E-1,-2.770078E-1,1.9305775E-1,-2.3769364E-2,8.654796E-1,7.268729E-2,5.064486E-1,2.236693E-1,-0E0,5.160834E-1,-1.4136486E-1],"split_indices":[9,13,11,9,12,0,13,0,0,9,0,3,11,0,13,0,0,3,0,0,11,0,11,11,0,0,0,0,0],"split_type":[0,0,0,0,0,0,0,0,0,0,0,0,0,0,0,0,0,0,0,0,0,0,0,0,0,0,0,0,0],"sum_hessian":[7.483121E3,6.832431E3,6.5069006E2,6.341661E3,4.907696E2,9.774944E1,5.529407E2,1.904133E2,6.151248E3,3.0941718E2,1.8135243E2,3.2760834E2,2.253323E2,2.0142961E2,1.0798755E2,1.7133095E2,1.562774E2,1.473347E2,7.79976E1,6.2882572E1,4.510498E1,6.9553055E1,7.778165E1,3.1863937E1,1.324104E1,4.7311775E1,3.0469873E1,1.0693601E1,2.1170338E1],"tree_param":{"num_deleted":"0","num_feature":"15","num_nodes":"29","size_leaf_vector":"1"}},{"base_weights":[-7.654063E-1,-8.619671E-1,-8.130755E-2,-8.9453363E-1,-7.258931E-1,-2.827784E-1,-8.243083E-3,-4.5246914E-1,-8.21004E-1,-3.5951677E-1,-0E0,-1.0471402E-1,1.8608652E-2,-2.852324E-1,-4.1459006E-1,1.23088E-1,-1.18344E-1,9.544284E-2,-8.5129336E-2,-1.8400128E-1,1.6219468E-1,-2.574768E-1,-5.4805767E-2,2.5381744E-1,-7.098866E-3,-1.0577203E-1,4.1039612E-2],"categories":[],"categories_nodes":[],"categories_segments":[],"categories_sizes":[],"default_left":[0,0,0,0,0,0,0,0,0,0,0,0,0,0,0,0,0,0,0,0,0,0,0,0,0,0,0],"id":8,"left_children":[1,3,5,7,9,-1,11,-1,13,-1,-1,-1,15,-1,-1,17,19,-1,-1,21,23,-1,25,-1,-1,-1,-1],"loss_changes":[3.2810962E2,1.6094727E1,2.3853752E1,5.5061035E0,6.7588806E0,0E0,4.9258475E0,0E0,4.7946777E0,0E0,0E0,0E0,8.100087E0,0E0,0E0,7.3237996E0,4.664434E0,0E0,0E0,7.4963264E0,5.022044E0,0E0,4.578521E0,0E0,0E0,0E0,0E0],"parents":[2147483647,0,0,1,1,2,2,3,3,4,4,6,6,8,8,12,12,15,15,16,16,19,19,20,20,22,22],"right_children":[2,4,6,8,10,-1,12,-1,14,-1,-1,-1,16,-1,-1,18,20,-1,-1,22,24,-1,26,-1,-1,-1,-1],"split_conditions":[9.735063E-1,2.3739225E-1,5.4357505E-1,2.926521E1,7.436833E-1,-2.827784E-1,-2.5955347E2,-4.5246914E-1,1.16387E1,-3.5951677E-1,-0E0,-1.0471402E-1,9.1130745E-1,-2.852324E-1,-4.1459006E-1,2.1902196E2,-8.3261345E1,9.544284E-2,-8.5129336E-2,8.770266E1,8.5748E0,-2.574768E-1,9.5257E0,2.5381744E-1,-7.098866E-3,-1.0577203E-1,4.1039612E-2],"split_indices":[2,14,12,8,12,0,8,0,0,0,0,0,11,0,0,3,8,0,0,3,0,0,0,0,0,0,0],"split_type":[0,0,0,0,0,0,0,0,0,0,0,0,0,0,0,0,0,0,0,0,0,0,0,0,0,0,0],"sum_hessian":[5.026561E3,4.400887E3,6.2567395E2,3.5295896E3,8.7129755E2,7.3972534E1,5.517014E2,2.370124E3,1.1594655E3,8.5881714E2,1.2480433E1,7.508844E1,4.7661298E2,1.4481989E2,1.0146456E3,2.824354E2,1.9417758E2,2.350139E2,4.7421482E1,1.6599695E2,2.8180645E1,3.834594E1,1.27651E2,1.4114376E1,1.406627E1,6.828079E1,5.937021E1],"tree_param":{"num_deleted":"0","num_feature":"15","num_nodes":"27","size_leaf_vector":"1"}},{"base_weights":[-6.630792E-1,-7.8542185E-1,-7.20168E-2,-8.2424235E-1,-4.3212757E-1,-3.9773646E-1,-1.6629718E-3,-5.526787E-1,-8.5671777E-1,-2.903575E-1,-3.1104484E-1,-6.649376E-1,-7.2796725E-2,-3.6512628E-1,-4.3353873E-1,-3.877647E-1,-1.3978225E-1,-4.229519E-1,-2.1842222E-1,1.1428742E-1,-1.6809638E-1,-2.528199E-1,-3.3997856E-2,-3.259468E-1,4.3053545E-2,1.2391783E-1,-1.7559937E-1],"categories":[],"categories_nodes":[],"categories_segments":[],"categories_sizes":[],"default_left":[0,0,0,0,0,0,0,0,0,0,0,0,0,0,0,0,0,0,0,0,0,0,0,0,0,0,0],"id":9,"left_children":[1,3,5,7,9,-1,-1,11,13,15,-1,17,19,-1,-1,-1,21,-1,-1,-1,-1,-1,23,-1,25,-1,-1],"loss_changes":[2.5096191E2,3.6376343E1,3.2815453E1,1.9513184E1,7.4649544E0,0E0,0E0,1.2975578E1,4.970581E0,1.4277855E1,0E0,7.8414383E0,8.250098E0,0E0,0E0,0E0,6.357158E0,0E0,0E0,0E0,0E0,0E0,1.173425E1,0E0,1.2105887E1,0E0,0E0],"parents":[2147483647,0,0,1,1,2,2,3,3,4,4,7,7,8,8,9,9,11,11,12,12,16,16,22,22,24,24],"right_children":[2,4,6,8,10,-1,-1,12,14,16,-1,18,20,-1,-1,-1,22,-1,-1,-1,-1,-1,24,-1,26,-1,-1],"split_conditions":[5.734171E-1,8.8871844E-2,3.9331418E-1,-1.7610659E-1,4.8546237E-1,-3.9773646E-1,-1.6629718E-3,1.9293603E-1,1.99551E1,5.9823006E-2,-3.1104484E-1,1.9332327E2,-2.7123925E-1,-3.6512628E-1,-4.3353873E-1,-3.877647E-1,8.3259E0,-4.229519E-1,-2.1842222E-1,1.1428742E-1,-1.6809638E-1,-2.528199E-1,3.735471E1,-3.259468E-1,4.32647E1,1.2391783E-1,-1.7559937E-1],"split_indices":[12,9,2,9,14,0,0,14,0,2,0,3,9,0,0,0,0,0,0,0,0,0,3,0,0,0,0],"split_type":[0,0,0,0,0,0,0,0,0,0,0,0,0,0,0,0,0,0,0,0,0,0,0,0,0,0,0],"sum_hessian":[3.5157588E3,2.908513E3,6.07246E2,2.6120322E3,2.9648074E2,4.679771E1,5.604483E2,2.903532E2,2.321679E3,1.8545395E2,1.11026794E2,2.3011252E2,6.024071E1,5.7730176E2,1.7443771E3,3.720184E1,1.482521E2,1.10276955E2,1.19835556E2,2.3350166E1,3.6890545E1,2.554821E1,1.227039E2,1.656903E1,1.0613487E2,7.460303E1,3.1531841E1],"tree_param":{"num_deleted":"0","num_feature":"15","num_nodes":"27","size_leaf_vector":"1"}},{"base_weights":[-5.431251E-1,-7.319024E-1,-8.1014216E-2,-8.157619E-1,-4.6974355E-1,-4.6074327E-2,-3.7243694E-1,-4.1576633E-1,-4.534839E-1,-1.5393865E-1,-5.567904E-1,-3.0528829E-1,-3.146311E-2,-3.1579465E-1,4.594773E-1,4.1201994E-2,-2.7081537E-1,-3.069011E-1,2.7170777E-1,-1.2595371E-2,-1.8561016E-1,-0E0,4.8984206E-1,4.9900454E-1,-1.3374849E-1,-5.2010708E-2,3.4096462E-1,-1.5231617E-2,-2.3373179E-1,8.4880136E-2,6.4890325E-1,-2.3338193E-1,-0E0,-1.02471694E-1,5.89046E-1,-2.292527E-2,2.2933318E-1,6.075247E-1,-0E0,5.064221E-1,4.679239E-2],"categories":[],"categories_nodes":[],"categories_segments":[],"categories_sizes":[],"default_left":[0,0,0,0,0,0,0,0,0,0,0,0,0,0,0,0,0,0,0,0,0,0,0,0,0,0,0,0,0,0,0,0,0,0,0,0,0,0,0,0,0],"id":10,"left_children":[1,3,5,7,9,11,-1,-1,13,15,17,-1,19,-1,21,-1,-1,-1,23,25,-1,-1,-1,-1,-1,27,29,31,-1,33,-1,-1,35,-1,37,-1,39,-1,-1,-1,-1],"loss_changes":[2.2435468E2,3.747339E1,1.9755175E1,1.5309509E1,1.0449356E1,7.6642084E0,0E0,0E0,2.8254265E1,1.4071867E1,2.2872574E1,0E0,5.5843754E0,0E0,1.0175736E1,0E0,0E0,0E0,1.8277851E1,1.0934513E1,0E0,0E0,0E0,0E0,0E0,1.0844006E1,1.6706715E1,6.3914695E0,0E0,1.2914608E1,0E0,0E0,7.604903E0,0E0,1.2027087E1,0E0,1.1364002E1,0E0,0E0,0E0,0E0],"parents":[2147483647,0,0,1,1,2,2,3,3,4,4,5,5,8,8,9,9,10,10,12,12,14,14,18,18,19,19,25,25,26,26,27,27,29,29,32,32,34,34,36,36],"right_children":[2,4,6,8,10,12,-1,-1,14,16,18,-1,20,-1,22,-1,-1,-1,24,26,-1,-1,-1,-1,-1,28,30,32,-1,34,-1,-1,36,-1,38,-1,40,-1,-1,-1,-1],"split_conditions":[1.21857576E-1,2.4250565E1,4.5680546E1,4.7556004E-1,2.1652773E-2,6.3515425E-2,-3.7243694E-1,-4.1576633E-1,1.0207168E-1,1.6297285E2,4.8222366E-1,-3.0528829E-1,2.8665582E2,-3.1579465E-1,-3.497125E-1,4.1201994E-2,-2.7081537E-1,-3.069011E-1,1.4318271E2,1.15740166E2,-1.8561016E-1,-0E0,4.8984206E-1,4.9900454E-1,-1.3374849E-1,-1.5263283E1,2.9403538E1,3.4704077E-1,-2.3373179E-1,4.7677946E-1,6.4890325E-1,-2.3338193E-1,-1.3236938E1,-1.02471694E-1,1.448402E-1,-2.292527E-2,1.28033695E1,6.075247E-1,-0E0,5.064221E-1,4.679239E-2],"split_indices":[9,7,8,13,2,2,0,0,2,1,13,0,1,0,7,0,0,0,1,1,0,0,0,0,0,8,7,12,0,13,0,0,7,0,12,0,1,0,0,0,0],"split_type":[0,0,0,0,0,0,0,0,0,0,0,0,0,0,0,0,0,0,0,0,0,0,0,0,0,0,0,0,0,0,0,0,0,0,0,0,0,0,0,0,0],"sum_hessian":[2.598676E3,1.8401329E3,7.585433E2,1.3842758E3,4.5585715E2,7.266518E2,3.1891476E1,1.2449978E3,1.3927791E2,1.0626661E2,3.4959055E2,1.1993822E1,7.1465796E2,1.1762418E2,2.1653732E1,6.2631527E1,4.3635086E1,3.2460306E2,2.4987492E1,6.8686365E2,2.779434E1,9.631513E0,1.202222E1,1.2396718E1,1.2590774E1,6.2607776E2,6.0785843E1,5.836612E2,4.2416603E1,5.1443268E1,9.342573E0,1.595415E1,5.6770703E2,2.9157509E1,2.2285759E1,4.745856E2,9.3121414E1,1.0614856E1,1.1670904E1,9.173396E0,8.394801E1],"tree_param":{"num_deleted":"0","num_feature":"15","num_nodes":"41","size_leaf_vector":"1"}},{"base_weights":[-4.201151E-1,-1.17032446E-1,-6.261193E-1,-4.161134E-1,-6.4205505E-2,-4.3991366E-1,-3.3550438E-1,2.9108596E-1,-8.18925E-2,-0E0,-5.014107E-1,-0E0,-3.2554048E-1,-2.770196E-1,1.8282915E-2,-2.0862226E-1,-0E0],"categories":[],"categories_nodes":[],"categories_segments":[],"categories_sizes":[],"default_left":[0,0,0,0,0,0,0,0,0,0,0,0,0,0,0,0,0],"id":11,"left_children":[1,3,5,-1,7,9,-1,-1,11,-1,13,-1,15,-1,-1,-1,-1],"loss_changes":[1.26434845E2,3.417374E1,1.1717865E1,0E0,1.1126071E1,8.91246E0,0E0,0E0,1.6504253E1,0E0,1.1076805E1,0E0,5.320837E0,0E0,0E0,0E0,0E0],"parents":[2147483647,0,0,1,1,2,2,4,4,5,5,8,8,10,10,12,12],"right_children":[2,4,6,-1,8,10,-1,-1,12,-1,14,-1,16,-1,-1,-1,-1],"split_conditions":[9.399375E1,9.4210386E-1,2.13709E1,-4.161134E-1,-2.832623E-1,-2.5177038E-1,-3.3550438E-1,2.9108596E-1,-1.5263283E1,-0E0,1.1375318E-1,-0E0,4.075047E1,-2.770196E-1,1.8282915E-2,-2.0862226E-1,-0E0],"split_indices":[1,1,0,0,9,9,0,0,8,0,9,0,8,0,0,0,0],"split_type":[0,0,0,0,0,0,0,0,0,0,0,0,0,0,0,0,0],"sum_hessian":[2.049228E3,8.3552606E2,1.2137019E3,5.123851E1,7.842876E2,3.1924582E2,8.9445605E2,1.5341594E1,7.68946E2,3.4615368E1,2.8463043E2,5.765336E2,1.9241237E2,2.5776477E2,2.6865664E1,1.4165988E2,5.0752483E1],"tree_param":{"num_deleted":"0","num_feature":"15","num_nodes":"17","size_leaf_vector":"1"}},{"base_weights":[-2.9798934E-1,-6.179961E-1,-1.271156E-1,-3.8238725E-1,-7.361084E-1,-3.911189E-1,-0E0,-3.177236E-1,-8.165211E-2,-3.9822033E-1,-3.9462703E-1,5.0859246E-2,-5.423764E-1,6.399478E-1,-3.4488257E-2,1.2862413E-1,-1.1268358E-1,-2.7864063E-1,-0E0,2.7128577E-1,-1.8540555E-1,-3.042435E-1,-1.2948336E-2,-0E0,1.0943414E0,2.3209233E-2,-4.116645E-1,2.767578E-1,-1.2631102E-1,-1.1924487E-1,1.3492426E-1,3.7726018E-1,7.3160574E-2,2.475402E-1,-1.6555631E-1,3.3709386E-1,-1.9740394E-1,-2.1031452E-2,5.881182E-1,-0E0,-5.667634E-1,-8.8747546E-2,3.4002304E-1,-2.4233331E-1,7.111057E-4,-0E0,1.0271153E0,-3.709032E-1,-0E0,-2.1461716E-1,3.6749747E-2,2.2253367E-1,7.701711E-1],"categories":[],"categories_nodes":[],"categories_segments":[],"categories_sizes":[],"default_left":[0,0,0,0,0,0,0,0,0,0,0,0,0,0,0,0,0,0,0,0,0,0,0,0,0,0,0,0,0,0,0,0,0,0,0,0,0,0,0,0,0,0,0,0,0,0,0,0,0,0,0,0,0],"id":12,"left_children":[1,3,5,7,9,11,13,-1,15,-1,17,19,21,23,25,27,-1,-1,29,31,-1,-1,33,35,-1,37,39,-1,-1,-1,-1,-1,41,-1,-1,-1,-1,43,45,-1,47,49,-1,-1,-1,-1,51,-1,-1,-1,-1,-1,-1],"loss_changes":[9.216742E1,1.3847107E1,3.809983E1,1.5399044E1,7.365921E0,2.5484432E1,1.9989233E1,0E0,4.952186E0,0E0,4.5719795E0,1.1441494E1,8.980667E0,4.6616486E1,1.8980368E1,1.0762793E1,0E0,0E0,5.034017E0,6.316502E0,0E0,0E0,1.1696579E1,1.41812525E1,0E0,2.0405054E1,6.6537037E0,0E0,0E0,0E0,0E0,0E0,1.0847351E1,0E0,0E0,0E0,0E0,1.0242112E1,1.6375021E1,0E0,8.695179E0,5.457589E0,0E0,0E0,0E0,0E0,6.0829697E0,0E0,0E0,0E0,0E0,0E0,0E0],"parents":[2147483647,0,0,1,1,2,2,3,3,4,4,5,5,6,6,8,8,10,10,11,11,12,12,13,13,14,14,15,15,18,18,19,19,22,22,23,23,25,25,26,26,32,32,37,37,38,38,40,40,41,41,46,46],"right_children":[2,4,6,8,10,12,14,-1,16,-1,18,20,22,24,26,28,-1,-1,30,32,-1,-1,34,36,-1,38,40,-1,-1,-1,-1,-1,42,-1,-1,-1,-1,44,46,-1,48,50,-1,-1,-1,-1,52,-1,-1,-1,-1,-1,-1],"split_conditions":[1.2445346E-1,-9.41156E-2,3.0984808E-2,2.1794284E2,4.6948093E-1,-1.320061E-1,7.521568E-2,-3.177236E-1,2.8829265E-2,-3.9822033E-1,8.061618E-2,4.6311045E-1,4.736594E-1,4.7615793E-1,-8.349524E0,4.6819046E-1,-1.1268358E-1,-2.7864063E-1,4.8656148E-1,-3.1594002E-1,-1.8540555E-1,-3.042435E-1,2.0232552E-1,-7.081166E0,1.0943414E0,1.1482159E2,3.61542E1,2.767578E-1,-1.2631102E-1,-1.1924487E-1,1.3492426E-1,3.7726018E-1,2.83844E-1,2.475402E-1,-1.6555631E-1,3.3709386E-1,-1.9740394E-1,4.0563786E-1,4.6495876E-1,-0E0,4.7677946E-1,4.4021544E-1,3.4002304E-1,-2.4233331E-1,7.111057E-4,-0E0,1.9305775E-1,-3.709032E-1,-0E0,-2.1461716E-1,3.6749747E-2,2.2253367E-1,7.701711E-1],"split_indices":[14,9,9,3,13,9,12,0,11,0,14,13,13,13,10,13,0,0,13,9,0,0,14,10,0,1,1,0,0,0,0,0,14,0,0,0,0,12,13,0,13,13,0,0,0,0,11,0,0,0,0,0,0],"split_type":[0,0,0,0,0,0,0,0,0,0,0,0,0,0,0,0,0,0,0,0,0,0,0,0,0,0,0,0,0,0,0,0,0,0,0,0,0,0,0,0,0,0,0,0,0,0,0,0,0,0,0,0,0],"sum_hessian":[1.6938662E3,5.828607E2,1.1110055E3,2.041593E2,3.7870145E2,3.5796823E2,7.5303723E2,1.019282E2,1.022311E2,2.9784482E2,8.085661E1,8.653749E1,2.7143076E2,3.6226376E1,7.1681085E2,3.4504406E1,6.772669E1,5.230827E1,2.854834E1,6.1960976E1,2.4576513E1,2.3004118E2,4.138957E1,2.6394863E1,9.831514E0,6.157968E2,1.0101409E2,1.947888E1,1.5025528E1,1.869662E1,9.851719E0,1.2592953E1,4.9368023E1,1.2332746E1,2.9056824E1,9.125336E0,1.7269527E1,5.671467E2,4.865005E1,2.6534605E1,7.447949E1,3.6160355E1,1.3207668E1,3.0486969E1,5.366598E2,1.8606281E1,3.0043768E1,5.6723526E1,1.7755962E1,1.6626474E1,1.953388E1,1.8231718E1,1.1812051E1],"tree_param":{"num_deleted":"0","num_feature":"15","num_nodes":"53","size_leaf_vector":"1"}},{"base_weights":[-2.1200415E-1,-4.0365386E-1,-1.794727E-2,-6.0572034E-1,-1.4560652E-1,-1.3028531E-3,-2.7089387E-1,-0E0,-3.12149E-1,-0E0,-3.1597915E-1,-5.0487585E-2,2.518188E-1,-1.8494712E-1,2.0285736E-1,-1.0438621E-1,2.1415015E-1,-2.7882046E-1,-1.3554393E-1,-3.978145E-1,-5.7514813E-3,4.9199313E-1,1.08651616E-1,-0E0,-2.2013204E-1,5.727721E-1,-7.9482764E-2,1.9446784E-1,-1.8909883E-1,-0E0,-3.0022603E-1,3.117006E-1,-1.1212522E-1,4.228434E-1,-0E0,-1.7625703E-1,5.576079E-1,-0E0,2.3248903E-1,4.5865065E-1,-0E0],"categories":[],"categories_nodes":[],"categories_segments":[],"categories_sizes":[],"default_left":[0,0,0,0,0,0,0,0,0,0,0,0,0,0,0,0,0,0,0,0,0,0,0,0,0,0,0,0,0,0,0,0,0,0,0,0,0,0,0,0,0],"id":13,"left_children":[1,3,5,7,9,11,-1,13,-1,15,17,19,21,-1,-1,23,25,-1,27,29,-1,-1,31,-1,-1,33,-1,35,-1,-1,-1,37,-1,-1,-1,-1,39,-1,-1,-1,-1],"loss_changes":[5.5487984E1,3.777281E1,8.253597E0,5.8585052E0,8.54151E0,1.0404728E1,0E0,8.980753E0,0E0,5.9110146E0,6.244177E0,9.227223E0,1.3025778E1,0E0,0E0,6.9318724E0,1.1479544E1,0E0,1.0911318E1,4.8722324E0,0E0,0E0,9.234685E0,0E0,0E0,5.139286E0,0E0,1.200619E1,0E0,0E0,0E0,4.8213654E0,0E0,0E0,0E0,0E0,7.0361195E0,0E0,0E0,0E0,0E0],"parents":[2147483647,0,0,1,1,2,2,3,3,4,4,5,5,7,7,9,9,10,10,11,11,12,12,15,15,16,16,18,18,19,19,22,22,25,25,27,27,31,31,36,36],"right_children":[2,4,6,8,10,12,-1,14,-1,16,18,20,22,-1,-1,24,26,-1,28,30,-1,-1,32,-1,-1,34,-1,36,-1,-1,-1,38,-1,-1,-1,-1,40,-1,-1,-1,-1],"split_conditions":[6.973051E-2,1.6640562E1,4.8327423E1,1.090649E-2,-9.6565016E-2,1.0746955E1,-2.7089387E-1,3.4331899E0,-3.12149E-1,1.8113449E-1,2.5875177E1,2.1204208E-1,7.521568E-2,-1.8494712E-1,2.0285736E-1,1.1534342E-1,2.8107178E2,-2.7882046E-1,2.0482932E2,5.565769E-2,-5.7514813E-3,4.9199313E-1,2.2361734E2,-0E0,-2.2013204E-1,1.5365453E-1,-7.9482764E-2,1.1725954E-1,-1.8909883E-1,-0E0,-3.0022603E-1,3.174269E-1,-1.1212522E-1,4.228434E-1,-0E0,-1.7625703E-1,1.1785802E-1,-0E0,2.3248903E-1,4.5865065E-1,-0E0],"split_indices":[9,7,8,12,9,7,0,7,0,14,8,9,12,0,0,11,3,0,3,11,0,0,3,0,0,12,0,14,0,0,0,14,0,0,0,0,12,0,0,0,0],"split_type":[0,0,0,0,0,0,0,0,0,0,0,0,0,0,0,0,0,0,0,0,0,0,0,0,0,0,0,0,0,0,0,0,0,0,0,0,0,0,0,0,0],"sum_hessian":[1.507953E3,7.5064667E2,7.5730634E2,4.139703E2,3.3667636E2,7.4073285E2,1.657348E1,2.6200602E1,3.8776968E2,1.860472E2,1.5062917E2,6.3044745E2,1.1028543E2,1.6527437E1,9.673165E0,1.293784E2,5.66688E1,5.472405E1,9.590513E1,5.4780727E1,5.756667E2,1.339292E1,9.689251E1,9.7821556E1,3.155684E1,3.27493E1,2.39195E1,3.6701653E1,5.9203472E1,1.9985687E1,3.479504E1,6.599021E1,3.0902296E1,2.0476572E1,1.2272725E1,1.1339688E1,2.5361965E1,1.7473095E1,4.851712E1,1.5530557E1,9.831409E0],"tree_param":{"num_deleted":"0","num_feature":"15","num_nodes":"41","size_leaf_vector":"1"}},{"base_weights":[-1.4623193E-1,-6.788612E-2,-3.9682344E-1,-1.747467E-1,4.021223E-3,-5.9886396E-1,-1.3992575E-1,-2.6746437E-1,-9.194225E-2,-3.830023E-1,-1.7968622E-1,-1.8322735E-1,7.949005E-2,3.0246672E-1,-1.211426E-1,-1.08163446E-1,3.995096E-1,4.438989E-1,-5.607364E-3,1.3215247E-2,-2.4337836E-1,5.599337E-1,-8.2173E-3,-1.1553755E-1,-2.2947906E-1,-1.8564467E-1,2.8452529E-2],"categories":[],"categories_nodes":[],"categories_segments":[],"categories_sizes":[],"default_left":[0,0,0,0,0,0,0,0,0,0,0,0,0,0,0,0,0,0,0,0,0,0,0,0,0,0,0],"id":14,"left_children":[1,3,5,7,-1,9,11,-1,13,-1,-1,-1,15,17,19,-1,21,-1,-1,-1,23,-1,-1,25,-1,-1,-1],"loss_changes":[2.7383469E1,9.666679E0,1.5353439E1,1.4593013E1,0E0,5.3650513E0,1.0068666E1,0E0,5.603549E0,0E0,0E0,0E0,1.045765E1,9.163506E0,7.7869034E0,0E0,1.906279E1,0E0,0E0,0E0,5.69234E0,0E0,0E0,9.198183E0,0E0,0E0,0E0],"parents":[2147483647,0,0,1,1,2,2,3,3,5,5,6,6,8,8,12,12,13,13,14,14,16,16,20,20,23,23],"right_children":[2,4,6,8,-1,10,12,-1,14,-1,-1,-1,16,18,20,-1,22,-1,-1,-1,24,-1,-1,26,-1,-1,-1],"split_conditions":[2.97276E1,2.1204208E-1,2.4731394E-2,2.374671E0,4.021223E-3,6.969872E0,1.9173254E2,-2.6746437E-1,9.480644E0,-3.830023E-1,-1.7968622E-1,-1.8322735E-1,-3.810965E0,1.7172179E2,-1.3006186E-1,-1.08163446E-1,7.268729E-2,4.438989E-1,-5.607364E-3,1.3215247E-2,2.3567638E2,5.599337E-1,-8.2173E-3,1.7588934E1,-2.2947906E-1,-1.8564467E-1,2.8452529E-2],"split_indices":[0,9,9,8,0,8,3,0,8,0,0,0,7,3,9,0,11,0,0,0,3,0,0,7,0,0,0],"split_type":[0,0,0,0,0,0,0,0,0,0,0,0,0,0,0,0,0,0,0,0,0,0,0,0,0,0,0],"sum_hessian":[1.3912854E3,1.0696439E3,3.2164148E2,4.6040164E2,6.0924225E2,1.7301976E2,1.486217E2,7.6082466E1,3.8431918E2,8.711343E1,8.590633E1,7.761256E1,7.1009155E1,1.9034481E1,3.652847E2,3.2037632E1,3.8971523E1,9.01341E0,1.00210705E1,1.546621E2,2.106226E2,1.5809729E1,2.3161795E1,1.4396974E2,6.665285E1,6.3136616E1,8.083313E1],"tree_param":{"num_deleted":"0","num_feature":"15","num_nodes":"27","size_leaf_vector":"1"}},{"base_weights":[-9.603095E-2,-3.1766388E-1,-2.184207E-2,-1.255864E-1,-5.2841204E-1,-2.6995474E-1,-3.0727251E-3,-3.481125E-1,1.6324164E-2,-3.9181046E-2,-3.1165922E-1,3.9344137E-3,-2.3320036E-1,-2.6703945E-1,-0E0,-2.0564947E-1,1.1996642E-1],"categories":[],"categories_nodes":[],"categories_segments":[],"categories_sizes":[],"default_left":[0,0,0,0,0,0,0,0,0,0,0,0,0,0,0,0,0],"id":15,"left_children":[1,3,5,7,9,-1,11,13,-1,15,-1,-1,-1,-1,-1,-1,-1],"loss_changes":[2.176488E1,1.201968E1,1.1378718E1,8.27006E0,5.2537994E0,0E0,9.305392E0,5.5184097E0,0E0,7.72783E0,0E0,0E0,0E0,0E0,0E0,0E0,0E0],"parents":[2147483647,0,0,1,1,2,2,3,3,4,4,6,6,7,7,9,9],"right_children":[2,4,6,8,10,-1,12,14,-1,16,-1,-1,-1,-1,-1,-1,-1],"split_conditions":[1.2200144E-1,8.467716E-2,2.2791898E-2,2.9348583E0,1.32495E1,-2.6995474E-1,2.9432646E1,3.8121086E-2,1.6324164E-2,8.061618E-2,-3.1165922E-1,3.9344137E-3,-2.3320036E-1,-2.6703945E-1,-0E0,-2.0564947E-1,1.1996642E-1],"split_indices":[14,11,11,10,0,0,10,2,0,14,0,0,0,0,0,0,0],"split_type":[0,0,0,0,0,0,0,0,0,0,0,0,0,0,0,0,0],"sum_hessian":[1.314062E3,3.18968E2,9.95094E2,1.7486525E2,1.4410275E2,2.770902E1,9.6738495E2,8.004218E1,9.482306E1,3.180219E1,1.1230055E2,9.40169E2,2.7215996E1,4.9566475E1,3.0475708E1,1.7730553E1,1.4071638E1],"tree_param":{"num_deleted":"0","num_feature":"15","num_nodes":"17","size_leaf_vector":"1"}},{"base_weights":[-6.0074862E-2,-1.8023131E-2,-1.7848209E-1,-2.761905E-1,-6.4903744E-3,-5.0498124E-2,9.11952E-2,3.197886E-1,-7.961301E-2,-3.590641E-2,3.8967085E-1,-0E0,4.001131E-1,6.512861E-2,-1.7993112E-1,2.3507147E-1,-9.000826E-2,1.4137666E-1,-1.0337441E-1,3.3499047E-1,-2.2299781E-2,1.5887056E-1,-2.0537303E-1,4.0941745E-1,1.8740752E-1,-0E0,-1.4253053E-1,-1.295364E-1,4.4589874E-1,-7.224493E-2,1.5521403E-1,5.594911E-1,8.6671375E-2,1.7544436E-1,-1.22656845E-1],"categories":[],"categories_nodes":[],"categories_segments":[],"categories_sizes":[],"default_left":[0,0,0,0,0,0,0,0,0,0,0,0,0,0,0,0,0,0,0,0,0,0,0,0,0,0,0,0,0,0,0,0,0,0,0],"id":16,"left_children":[1,3,-1,-1,5,7,9,11,13,-1,15,17,-1,19,21,-1,-1,-1,-1,23,-1,-1,25,-1,27,29,-1,-1,31,-1,33,-1,-1,-1,-1],"loss_changes":[1.6876886E1,8.603196E0,0E0,0E0,5.3993154E0,9.640312E0,1.8729616E1,7.620968E0,1.172216E1,0E0,7.9056664E0,5.3545218E0,0E0,1.1148777E1,6.964202E0,0E0,0E0,0E0,0E0,6.77808E0,0E0,0E0,6.924803E0,0E0,1.2135374E1,4.9259596E0,0E0,0E0,9.821741E0,0E0,7.5846477E0,0E0,0E0,0E0,0E0],"parents":[2147483647,0,0,1,1,4,4,5,5,6,6,7,7,8,8,10,10,11,11,13,13,14,14,19,19,22,22,24,24,25,25,28,28,30,30],"right_children":[2,4,-1,-1,6,8,10,12,14,-1,16,18,-1,20,22,-1,-1,-1,-1,24,-1,-1,26,-1,28,30,-1,-1,32,-1,34,-1,-1,-1,-1],"split_conditions":[2.3654103E2,9.4210386E-1,-1.7848209E-1,-2.761905E-1,4.7502396E-1,-2.5177038E-1,-5.261081E1,4.324218E1,2.7734518E-1,-3.590641E-2,3.5756012E2,2.6041864E2,4.001131E-1,1.389519E2,-1.7418443E2,2.3507147E-1,-9.000826E-2,1.4137666E-1,-1.0337441E-1,-1.2396231E2,-2.2299781E-2,1.5887056E-1,-9.6565016E-2,4.0941745E-1,-8.3261345E1,1.76613E1,-1.4253053E-1,-1.295364E-1,1.4386097E0,-7.224493E-2,4.6311045E-1,5.594911E-1,8.6671375E-2,1.7544436E-1,-1.22656845E-1],"split_indices":[1,1,0,0,13,9,7,7,13,0,3,3,0,3,8,0,0,0,0,8,0,0,9,0,8,0,0,0,9,0,13,0,0,0,0],"split_type":[0,0,0,0,0,0,0,0,0,0,0,0,0,0,0,0,0,0,0,0,0,0,0,0,0,0,0,0,0,0,0,0,0,0,0],"sum_hessian":[1.2635557E3,1.1202539E3,1.4330177E2,1.693998E1,1.103314E3,7.814389E2,3.2187506E2,4.901354E1,7.3242535E2,2.015164E2,1.20358665E2,3.4028202E1,1.49853325E1,2.8811774E2,4.4430762E2,1.0807579E2,1.2282871E1,1.9984457E1,1.4043747E1,9.099278E1,1.9712494E2,1.5274787E1,4.2903284E2,1.5120463E1,7.587232E1,1.3626045E2,2.9277237E2,2.3464182E1,5.240814E1,7.746759E1,5.8792866E1,1.0624906E1,4.1783234E1,4.391585E1,1.4877014E1],"tree_param":{"num_deleted":"0","num_feature":"15","num_nodes":"35","size_leaf_vector":"1"}},{"base_weights":[-4.4129595E-2,-2.9772487E-2,-2.1221954E-1,-3.0511948E-1,-5.2700997E-3,-2.534439E-1,1.663202E-1,4.051799E-2,-8.914291E-2,2.4373104E-1,-1.7866714E-2,-1.9899125E-1,2.5116013E-2,-0E0,4.8322177E-1,-1.92846E-2,2.0650484E-1,1.6837263E-1,-3.197678E-1,-1.6745308E-1,2.6320362E-1,1.5289618E-2,3.7380534E-1,-1.6022101E-1,3.36713E-1,-3.6778975E-2,-2.677006E-1,-5.4097675E-2,4.7503853E-1,2.699463E-1,-8.2799375E-2],"categories":[],"categories_nodes":[],"categories_segments":[],"categories_sizes":[],"default_left":[0,0,0,0,0,0,0,0,0,0,0,0,0,0,0,0,0,0,0,0,0,0,0,0,0,0,0,0,0,0,0],"id":17,"left_children":[1,3,-1,5,7,-1,-1,9,11,13,15,17,-1,19,21,-1,-1,23,25,-1,27,-1,-1,-1,29,-1,-1,-1,-1,-1,-1],"loss_changes":[7.9392567E0,8.78098E0,0E0,1.5403345E1,5.1474686E0,0E0,0E0,1.0153052E1,7.5723724E0,1.0364199E1,6.5711484E0,1.2521847E1,0E0,1.1244383E1,8.895254E0,0E0,0E0,7.181379E0,9.751686E0,0E0,1.963908E1,0E0,0E0,0E0,7.5874043E0,0E0,0E0,0E0,0E0,0E0,0E0],"parents":[2147483647,0,0,1,1,3,3,4,4,7,7,8,8,9,9,10,10,11,11,13,13,14,14,17,17,18,18,20,20,24,24],"right_children":[2,4,-1,6,8,-1,-1,10,12,14,16,18,-1,20,22,-1,-1,24,26,-1,28,-1,-1,-1,30,-1,-1,-1,-1,-1,-1],"split_conditions":[2.864539E1,4.847083E-2,-2.1221954E-1,1.3938114E1,-8.793194E0,-2.534439E-1,1.663202E-1,4.1144904E-1,2.4250565E1,4.6948093E-1,-2.3378906E0,-9.6565016E-2,2.5116013E-2,-1.4828897E1,-5.261081E1,-1.92846E-2,2.0650484E-1,2.1204693E0,1.7068152E2,-1.6745308E-1,5.4203894E-2,1.5289618E-2,3.7380534E-1,-1.6022101E-1,4.6518686E-1,-3.6778975E-2,-2.677006E-1,-5.4097675E-2,4.7503853E-1,2.699463E-1,-8.2799375E-2],"split_indices":[10,14,0,10,10,0,0,14,7,13,8,9,0,7,7,0,0,10,3,0,9,0,0,0,13,0,0,0,0,0,0],"split_type":[0,0,0,0,0,0,0,0,0,0,0,0,0,0,0,0,0,0,0,0,0,0,0,0,0,0,0,0,0,0,0],"sum_hessian":[1.241492E3,1.2057065E3,3.5785336E1,8.796655E1,1.11774E3,6.9504524E1,1.846203E1,7.0095294E2,4.1678705E2,1.6687233E2,5.340806E2,2.4542563E2,1.7136143E2,8.365744E1,8.321489E1,5.161259E2,1.7954678E1,5.4686024E1,1.907396E2,3.576222E1,4.7895226E1,3.647855E1,4.673634E1,9.24289E0,4.5443134E1,9.9195076E1,9.1544525E1,2.9241856E1,1.865337E1,3.57415E1,9.701632E0],"tree_param":{"num_deleted":"0","num_feature":"15","num_nodes":"31","size_leaf_vector":"1"}},{"base_weights":[-3.604197E-2,-1.39390435E-2,-1.2073142E-1,-3.0180223E-2,3.1516337E-1,-8.979168E-3,-2.3368979E-1,7.1814E-1,-0E0,-2.2730434E-1,-1.1710429E-3,-2.5496846E-1,-0E0,-0E0,6.694981E-1,2.0232467E-1,-4.6166293E-3,1.4966951E-1,-1.8527101E-1,5.048503E-1,-2.2079635E-1,-0E0,4.9955162E-1],"categories":[],"categories_nodes":[],"categories_segments":[],"categories_sizes":[],"default_left":[0,0,0,0,0,0,0,0,0,0,0,0,0,0,0,0,0,0,0,0,0,0,0],"id":18,"left_children":[1,3,-1,5,7,9,11,13,-1,-1,15,-1,17,-1,-1,-1,-1,19,-1,21,-1,-1,-1],"loss_changes":[6.2124443E0,7.1011143E0,0E0,5.122797E0,8.38686E0,4.841859E0,5.798506E0,1.3412504E1,0E0,0E0,4.698331E0,0E0,6.8218803E0,0E0,0E0,0E0,0E0,1.2256056E1,0E0,1.000622E1,0E0,0E0,0E0],"parents":[2147483647,0,0,1,1,3,3,4,4,5,5,6,6,7,7,10,10,12,12,17,17,19,19],"right_children":[2,4,-1,6,8,10,12,14,-1,-1,16,-1,18,-1,-1,-1,-1,20,-1,22,-1,-1,-1],"split_conditions":[1.7588104E1,1.3938114E1,-1.2073142E-1,4.20894E1,5.0834134E-2,-2.8691107E2,2.5738152E-2,1.96452E1,-0E0,-2.2730434E-1,-1.282772E2,-2.5496846E-1,1.6431643E-1,-0E0,6.694981E-1,2.0232467E-1,-4.6166293E-3,-7.7187495E0,-1.8527101E-1,5.2400284E-2,-2.2079635E-1,-0E0,4.9955162E-1],"split_indices":[10,10,0,0,2,7,9,0,0,0,10,0,2,0,0,0,0,10,0,2,0,0,0],"split_type":[0,0,0,0,0,0,0,0,0,0,0,0,0,0,0,0,0,0,0,0,0,0,0],"sum_hessian":[1.2313712E3,1.1283378E3,1.0303341E2,1.0844905E3,4.3847286E1,9.959752E2,8.8515335E1,2.1186985E1,2.2660301E1,9.545488E0,9.864297E2,3.438732E1,5.412801E1,9.900292E0,1.1286693E1,1.1556008E1,9.748737E2,3.470056E1,1.9427448E1,2.4962757E1,9.737806E0,1.1593457E1,1.33693E1],"tree_param":{"num_deleted":"0","num_feature":"15","num_nodes":"23","size_leaf_vector":"1"}},{"base_weights":[-2.8375527E-2,-1.2015278E-1,-9.8537E-3,-0E0,-2.9354635E-1,1.5377302E-1,-4.0221557E-2,-2.873851E-1,1.6859679E-1,3.8739276E-1,1.0257913E-1,-1.8784706E-1,1.1210161E-3,-3.3234027E-1,2.2992608E-1,1.6785635E-1,-4.8096E-3,1.4409155E-1,5.588342E-1,-2.1260372E-1,4.6007456E-3,1.1883119E-1,-9.685265E-2],"categories":[],"categories_nodes":[],"categories_segments":[],"categories_sizes":[],"default_left":[0,0,0,0,0,0,0,0,0,0,0,0,0,0,0,0,0,0,0,0,0,0,0],"id":19,"left_children":[1,-1,3,5,7,9,11,-1,-1,-1,13,-1,15,-1,17,-1,19,21,-1,-1,-1,-1,-1],"loss_changes":[5.439892E0,0E0,5.017421E0,8.021398E0,1.1502737E1,8.814142E0,1.54295225E1,0E0,0E0,0E0,2.5248993E1,0E0,4.575155E0,0E0,1.681746E1,0E0,8.4026575E0,7.684496E0,0E0,0E0,0E0,0E0,0E0],"parents":[2147483647,0,0,2,2,3,3,4,4,5,5,6,6,10,10,12,12,14,14,16,16,17,17],"right_children":[2,-1,4,6,8,10,12,-1,-1,-1,14,-1,16,-1,18,-1,20,22,-1,-1,-1,-1,-1],"split_conditions":[4.847083E-2,-1.2015278E-1,2.977097E2,6.620032E-2,4.732494E-1,4.0072125E-1,-4.0340904E-2,-2.873851E-1,1.6859679E-1,3.8739276E-1,-9.835057E0,-1.8784706E-1,4.7726233E-2,-3.3234027E-1,2.4731394E-2,1.6785635E-1,6.613288E-2,-4.0340904E-2,5.588342E-1,-2.1260372E-1,4.6007456E-3,1.1883119E-1,-9.685265E-2],"split_indices":[14,0,1,2,13,13,9,0,0,0,7,0,12,0,9,0,12,9,0,0,0,0,0],"split_type":[0,0,0,0,0,0,0,0,0,0,0,0,0,0,0,0,0,0,0,0,0,0,0],"sum_hessian":[1.221963E3,8.2407715E1,1.1395553E3,1.0997614E3,3.9793858E1,2.3117323E2,8.6858813E2,3.0341867E1,9.451989E0,1.188513E1,2.1928812E2,9.951113E1,7.69077E2,2.68594E1,1.9242871E2,2.0449596E1,7.4862744E2,1.798513E2,1.25774145E1,2.9551413E1,7.1907605E2,1.4605087E2,3.3800423E1],"tree_param":{"num_deleted":"0","num_feature":"15","num_nodes":"23","size_leaf_vector":"1"}},{"base_weights":[-2.2480937E-2],"categories":[],"categories_nodes":[],"categories_segments":[],"categories_sizes":[],"default_left":[0],"id":20,"left_children":[-1],"loss_changes":[0E0],"parents":[2147483647],"right_children":[-1],"split_conditions":[-1.095003E-2],"split_indices":[0],"split_type":[0],"sum_hessian":[1.214366E3],"tree_param":{"num_deleted":"0","num_feature":"15","num_nodes":"1","size_leaf_vector":"1"}},{"base_weights":[-1.1075045E-2],"categories":[],"categories_nodes":[],"categories_segments":[],"categories_sizes":[],"default_left":[0],"id":21,"left_children":[-1],"loss_changes":[0E0],"parents":[2147483647],"right_children":[-1],"split_conditions":[-5.3944406E-3],"split_indices":[0],"split_type":[0],"sum_hessian":[1.2010758E3],"tree_param":{"num_deleted":"0","num_feature":"15","num_nodes":"1","size_leaf_vector":"1"}},{"base_weights":[-5.8982894E-3],"categories":[],"categories_nodes":[],"categories_segments":[],"categories_sizes":[],"default_left":[0],"id":22,"left_children":[-1],"loss_changes":[0E0],"parents":[2147483647],"right_children":[-1],"split_conditions":[-2.872943E-3],"split_indices":[0],"split_type":[0],"sum_hessian":[1.1951674E3],"tree_param":{"num_deleted":"0","num_feature":"15","num_nodes":"1","size_leaf_vector":"1"}},{"base_weights":[-3.144465E-3],"categories":[],"categories_nodes":[],"categories_segments":[],"categories_sizes":[],"default_left":[0],"id":23,"left_children":[-1],"loss_changes":[0E0],"parents":[2147483647],"right_children":[-1],"split_conditions":[-1.5316082E-3],"split_indices":[0],"split_type":[0],"sum_hessian":[1.1920481E3],"tree_param":{"num_deleted":"0","num_feature":"15","num_nodes":"1","size_leaf_vector":"1"}},{"base_weights":[-1.7219968E-3],"categories":[],"categories_nodes":[],"categories_segments":[],"categories_sizes":[],"default_left":[0],"id":24,"left_children":[-1],"loss_changes":[0E0],"parents":[2147483647],"right_children":[-1],"split_conditions":[-8.387514E-4],"split_indices":[0],"split_type":[0],"sum_hessian":[1.1904463E3],"tree_param":{"num_deleted":"0","num_feature":"15","num_nodes":"1","size_leaf_vector":"1"}},{"base_weights":[-8.5391884E-4],"categories":[],"categories_nodes":[],"categories_segments":[],"categories_sizes":[],"default_left":[0],"id":25,"left_children":[-1],"loss_changes":[0E0],"parents":[2147483647],"right_children":[-1],"split_conditions":[-4.1592738E-4],"split_indices":[0],"split_type":[0],"sum_hessian":[1.1894647E3],"tree_param":{"num_deleted":"0","num_feature":"15","num_nodes":"1","size_leaf_vector":"1"}},{"base_weights":[-3.3521804E-4],"categories":[],"categories_nodes":[],"categories_segments":[],"categories_sizes":[],"default_left":[0],"id":26,"left_children":[-1],"loss_changes":[0E0],"parents":[2147483647],"right_children":[-1],"split_conditions":[-1.6327824E-4],"split_indices":[0],"split_type":[0],"sum_hessian":[1.1888737E3],"tree_param":{"num_deleted":"0","num_feature":"15","num_nodes":"1","size_leaf_vector":"1"}},{"base_weights":[-6.34399E-4],"categories":[],"categories_nodes":[],"categories_segments":[],"categories_sizes":[],"default_left":[0],"id":27,"left_children":[-1],"loss_changes":[0E0],"parents":[2147483647],"right_children":[-1],"split_conditions":[-3.0900352E-4],"split_indices":[0],"split_type":[0],"sum_hessian":[1.1892401E3],"tree_param":{"num_deleted":"0","num_feature":"15","num_nodes":"1","size_leaf_vector":"1"}},{"base_weights":[-0E0],"categories":[],"categories_nodes":[],"categories_segments":[],"categories_sizes":[],"default_left":[0],"id":28,"left_children":[-1],"loss_changes":[0E0],"parents":[2147483647],"right_children":[-1],"split_conditions":[-0E0],"split_indices":[0],"split_type":[0],"sum_hessian":[1.1880188E3],"tree_param":{"num_deleted":"0","num_feature":"15","num_nodes":"1","size_leaf_vector":"1"}},{"base_weights":[-0E0],"categories":[],"categories_nodes":[],"categories_segments":[],"categories_sizes":[],"default_left":[0],"id":29,"left_children":[-1],"loss_changes":[0E0],"parents":[2147483647],"right_children":[-1],"split_conditions":[-0E0],"split_indices":[0],"split_type":[0],"sum_hessian":[1.1884991E3],"tree_param":{"num_deleted":"0","num_feature":"15","num_nodes":"1","size_leaf_vector":"1"}},{"base_weights":[-0E0],"categories":[],"categories_nodes":[],"categories_segments":[],"categories_sizes":[],"default_left":[0],"id":30,"left_children":[-1],"loss_changes":[0E0],"parents":[2147483647],"right_children":[-1],"split_conditions":[-0E0],"split_indices":[0],"split_type":[0],"sum_hessian":[1.1883921E3],"tree_param":{"num_deleted":"0","num_feature":"15","num_nodes":"1","size_leaf_vector":"1"}},{"base_weights":[-0E0],"categories":[],"categories_nodes":[],"categories_segments":[],"categories_sizes":[],"default_left":[0],"id":31,"left_children":[-1],"loss_changes":[0E0],"parents":[2147483647],"right_children":[-1],"split_conditions":[-0E0],"split_indices":[0],"split_type":[0],"sum_hessian":[1.1884734E3],"tree_param":{"num_deleted":"0","num_feature":"15","num_nodes":"1","size_leaf_vector":"1"}},{"base_weights":[-7.086028E-5,-4.0209796E-2,4.03074E-2,-2.3325156E-1,-2.6567886E-2,-8.4682554E-2,9.662454E-2,6.3108414E-2,-1.7316726E-1,-8.8079765E-2,1.6476832E-1,1.9253659E-1,-1.6193634E-1,-8.592813E-3,-1.4382678E-1,6.822764E-1,2.2029297E-2,1.20049536E-1,3.4080407E-1,-1.6437249E-1,1.8846382E-1,5.280337E-1,-4.606281E-2,-7.778683E-2,6.692861E-2,-1.0026252E-1,1.8403897E-1,7.7543676E-2,-1.9316837E-1,1.9036177E-1,-5.6523032E-2],"categories":[],"categories_nodes":[],"categories_segments":[],"categories_sizes":[],"default_left":[0,0,0,0,0,0,0,0,0,0,0,0,0,0,0,0,0,0,0,0,0,0,0,0,0,0,0,0,0,0,0],"id":32,"left_children":[1,3,-1,-1,5,7,9,11,13,-1,15,17,19,-1,-1,21,23,25,-1,-1,-1,-1,-1,-1,-1,27,-1,29,-1,-1,-1],"loss_changes":[4.547368E0,6.0447793E0,0E0,0E0,6.578732E0,8.359175E0,5.748396E0,7.4570904E0,6.3516035E0,0E0,1.5687331E1,5.6128087E0,9.076164E0,0E0,0E0,1.6274406E1,4.959034E0,9.6637E0,0E0,0E0,0E0,0E0,0E0,0E0,0E0,6.10107E0,0E0,5.1338263E0,0E0,0E0,0E0],"parents":[2147483647,0,0,1,1,4,4,5,5,6,6,7,7,8,8,10,10,11,11,12,12,15,15,16,16,17,17,25,25,27,27],"right_children":[2,4,-1,-1,6,8,10,12,14,-1,16,18,20,-1,-1,22,24,26,-1,-1,-1,-1,-1,-1,-1,28,-1,30,-1,-1,-1],"split_conditions":[2.35827E0,-2.8265106E2,4.03074E-2,-2.3325156E-1,4.7502396E-1,4.1874707E-2,4.780952E-2,2.93731E1,-8.793194E0,-8.8079765E-2,5.4203894E-2,3.648766E-1,3.1815216E-2,-8.592813E-3,-1.4382678E-1,3.4005594E-1,-4.3952187E1,3.583134E1,3.4080407E-1,-1.6437249E-1,1.8846382E-1,5.280337E-1,-4.606281E-2,-7.778683E-2,6.692861E-2,4.4669902E-1,1.8403897E-1,1.85754E1,-1.9316837E-1,1.9036177E-1,-5.6523032E-2],"split_indices":[2,8,0,0,13,2,2,0,10,0,9,14,2,0,0,14,10,8,0,0,0,0,0,0,0,13,0,0,0,0,0],"split_type":[0,0,0,0,0,0,0,0,0,0,0,0,0,0,0,0,0,0,0,0,0,0,0,0,0,0,0,0,0,0,0],"sum_hessian":[1.1885891E3,8.2452637E2,3.6406277E2,1.7485432E1,8.0704095E2,5.6456696E2,2.4247397E2,1.9924547E2,3.653215E2,3.9105236E1,2.0336873E2,1.347696E2,6.447585E1,1.716072E2,1.9371431E2,3.8803036E1,1.6456569E2,1.2393924E2,1.0830369E1,5.313341E1,1.1342442E1,2.7792898E1,1.10101385E1,5.3997894E1,1.10567795E2,6.1065964E1,6.287328E1,3.2476574E1,2.858939E1,1.776488E1,1.4711694E1],"tree_param":{"num_deleted":"0","num_feature":"15","num_nodes":"31","size_leaf_vector":"1"}},{"base_weights":[-1.000571E-2],"categories":[],"categories_nodes":[],"categories_segments":[],"categories_sizes":[],"default_left":[0],"id":33,"left_children":[-1],"loss_changes":[0E0],"parents":[2147483647],"right_children":[-1],"split_conditions":[-4.873588E-3],"split_indices":[0],"split_type":[0],"sum_hessian":[1.1985381E3],"tree_param":{"num_deleted":"0","num_feature":"15","num_nodes":"1","size_leaf_vector":"1"}},{"base_weights":[-5.2807746E-3],"categories":[],"categories_nodes":[],"categories_segments":[],"categories_sizes":[],"default_left":[0],"id":34,"left_children":[-1],"loss_changes":[0E0],"parents":[2147483647],"right_children":[-1],"split_conditions":[-2.5721632E-3],"split_indices":[0],"split_type":[0],"sum_hessian":[1.1931681E3],"tree_param":{"num_deleted":"0","num_feature":"15","num_nodes":"1","size_leaf_vector":"1"}},{"base_weights":[-2.6620636E-3],"categories":[],"categories_nodes":[],"categories_segments":[],"categories_sizes":[],"default_left":[0],"id":35,"left_children":[-1],"loss_changes":[0E0],"parents":[2147483647],"right_children":[-1],"split_conditions":[-1.2966398E-3],"split_indices":[0],"split_type":[0],"sum_hessian":[1.1902041E3],"tree_param":{"num_deleted":"0","num_feature":"15","num_nodes":"1","size_leaf_vector":"1"}},{"base_weights":[-1.444917E-3],"categories":[],"categories_nodes":[],"categories_segments":[],"categories_sizes":[],"default_left":[0],"id":36,"left_children":[-1],"loss_changes":[0E0],"parents":[2147483647],"right_children":[-1],"split_conditions":[-7.037912E-4],"split_indices":[0],"split_type":[0],"sum_hessian":[1.1888381E3],"tree_param":{"num_deleted":"0","num_feature":"15","num_nodes":"1","size_leaf_vector":"1"}},{"base_weights":[-4.913078E-4],"categories":[],"categories_nodes":[],"categories_segments":[],"categories_sizes":[],"default_left":[0],"id":37,"left_children":[-1],"loss_changes":[0E0],"parents":[2147483647],"right_children":[-1],"split_conditions":[-2.3930655E-4],"split_indices":[0],"split_type":[0],"sum_hessian":[1.1877495E3],"tree_param":{"num_deleted":"0","num_feature":"15","num_nodes":"1","size_leaf_vector":"1"}},{"base_weights":[-5.1602925E-4],"categories":[],"categories_nodes":[],"categories_segments":[],"categories_sizes":[],"default_left":[0],"id":38,"left_children":[-1],"loss_changes":[0E0],"parents":[2147483647],"right_children":[-1],"split_conditions":[-2.513479E-4],"split_indices":[0],"split_type":[0],"sum_hessian":[1.1877947E3],"tree_param":{"num_deleted":"0","num_feature":"15","num_nodes":"1","size_leaf_vector":"1"}},{"base_weights":[-3.684254E-4],"categories":[],"categories_nodes":[],"categories_segments":[],"categories_sizes":[],"default_left":[0],"id":39,"left_children":[-1],"loss_changes":[0E0],"parents":[2147483647],"right_children":[-1],"split_conditions":[-1.794529E-4],"split_indices":[0],"split_type":[0],"sum_hessian":[1.1876357E3],"tree_param":{"num_deleted":"0","num_feature":"15","num_nodes":"1","size_leaf_vector":"1"}},{"base_weights":[-5.871617E-6],"categories":[],"categories_nodes":[],"categories_segments":[],"categories_sizes":[],"default_left":[0],"id":40,"left_children":[-1],"loss_changes":[0E0],"parents":[2147483647],"right_children":[-1],"split_conditions":[-2.859951E-6],"split_indices":[0],"split_type":[0],"sum_hessian":[1.1872167E3],"tree_param":{"num_deleted":"0","num_feature":"15","num_nodes":"1","size_leaf_vector":"1"}},{"base_weights":[-2.0451615E-4],"categories":[],"categories_nodes":[],"categories_segments":[],"categories_sizes":[],"default_left":[0],"id":41,"left_children":[-1],"loss_changes":[0E0],"parents":[2147483647],"right_children":[-1],"split_conditions":[-9.961587E-5],"split_indices":[0],"split_type":[0],"sum_hessian":[1.1874529E3],"tree_param":{"num_deleted":"0","num_feature":"15","num_nodes":"1","size_leaf_vector":"1"}},{"base_weights":[-0E0],"categories":[],"categories_nodes":[],"categories_segments":[],"categories_sizes":[],"default_left":[0],"id":42,"left_children":[-1],"loss_changes":[0E0],"parents":[2147483647],"right_children":[-1],"split_conditions":[-0E0],"split_indices":[0],"split_type":[0],"sum_hessian":[1.1871573E3],"tree_param":{"num_deleted":"0","num_feature":"15","num_nodes":"1","size_leaf_vector":"1"}},{"base_weights":[-3.3234406E-5],"categories":[],"categories_nodes":[],"categories_segments":[],"categories_sizes":[],"default_left":[0],"id":43,"left_children":[-1],"loss_changes":[0E0],"parents":[2147483647],"right_children":[-1],"split_conditions":[-1.6187838E-5],"split_indices":[0],"split_type":[0],"sum_hessian":[1.187256E3],"tree_param":{"num_deleted":"0","num_feature":"15","num_nodes":"1","size_leaf_vector":"1"}},{"base_weights":[-0E0],"categories":[],"categories_nodes":[],"categories_segments":[],"categories_sizes":[],"default_left":[0],"id":44,"left_children":[-1],"loss_changes":[0E0],"parents":[2147483647],"right_children":[-1],"split_conditions":[-0E0],"split_indices":[0],"split_type":[0],"sum_hessian":[1.186898E3],"tree_param":{"num_deleted":"0","num_feature":"15","num_nodes":"1","size_leaf_vector":"1"}},{"base_weights":[-0E0],"categories":[],"categories_nodes":[],"categories_segments":[],"categories_sizes":[],"default_left":[0],"id":45,"left_children":[-1],"loss_changes":[0E0],"parents":[2147483647],"right_children":[-1],"split_conditions":[-0E0],"split_indices":[0],"split_type":[0],"sum_hessian":[1.1870881E3],"tree_param":{"num_deleted":"0","num_feature":"15","num_nodes":"1","size_leaf_vector":"1"}},{"base_weights":[-0E0],"categories":[],"categories_nodes":[],"categories_segments":[],"categories_sizes":[],"default_left":[0],"id":46,"left_children":[-1],"loss_changes":[0E0],"parents":[2147483647],"right_children":[-1],"split_conditions":[-0E0],"split_indices":[0],"split_type":[0],"sum_hessian":[1.186788E3],"tree_param":{"num_deleted":"0","num_feature":"15","num_nodes":"1","size_leaf_vector":"1"}},{"base_weights":[-0E0],"categories":[],"categories_nodes":[],"categories_segments":[],"categories_sizes":[],"default_left":[0],"id":47,"left_children":[-1],"loss_changes":[0E0],"parents":[2147483647],"right_children":[-1],"split_conditions":[-0E0],"split_indices":[0],"split_type":[0],"sum_hessian":[1.1867261E3],"tree_param":{"num_deleted":"0","num_feature":"15","num_nodes":"1","size_leaf_vector":"1"}},{"base_weights":[-0E0],"categories":[],"categories_nodes":[],"categories_segments":[],"categories_sizes":[],"default_left":[0],"id":48,"left_children":[-1],"loss_changes":[0E0],"parents":[2147483647],"right_children":[-1],"split_conditions":[-0E0],"split_indices":[0],"split_type":[0],"sum_hessian":[1.1871508E3],"tree_param":{"num_deleted":"0","num_feature":"15","num_nodes":"1","size_leaf_vector":"1"}},{"base_weights":[-0E0],"categories":[],"categories_nodes":[],"categories_segments":[],"categories_sizes":[],"default_left":[0],"id":49,"left_children":[-1],"loss_changes":[0E0],"parents":[2147483647],"right_children":[-1],"split_conditions":[-0E0],"split_indices":[0],"split_type":[0],"sum_hessian":[1.1871771E3],"tree_param":{"num_deleted":"0","num_feature":"15","num_nodes":"1","size_leaf_vector":"1"}},{"base_weights":[-0E0],"categories":[],"categories_nodes":[],"categories_segments":[],"categories_sizes":[],"default_left":[0],"id":50,"left_children":[-1],"loss_changes":[0E0],"parents":[2147483647],"right_children":[-1],"split_conditions":[-0E0],"split_indices":[0],"split_type":[0],"sum_hessian":[1.1868284E3],"tree_param":{"num_deleted":"0","num_feature":"15","num_nodes":"1","size_leaf_vector":"1"}}]},"name":"gbtree"},"learner_model_param":{"base_score":"1.1950592E-1","boost_from_average":"1","num_class":"0","num_feature":"15","num_target":"1"},"objective":{"name":"binary:logistic","reg_loss_param":{"scale_pos_weight":"1"}}},"version":[2,0,3]}