{"learner":{"attributes":{"best_iteration":"0","best_score":"0.6821369126924521"},"feature_names":["Relative_time","Resonance_Frequency","Dissipation","Difference","Cumulative","Dissipation_super","Difference_super","Cumulative_super","Resonance_Frequency_super","Dissipation_gradient","Difference_gradient","Resonance_Frequency_gradient","Cumulative_detrend","Dissipation_detrend","Resonance_Frequency_detrend","Difference_detrend"],"feature_types":["float","float","float","float","float","float","float","float","float","int","int","int","float","float","float","float"],"gradient_booster":{"model":{"gbtree_model_param":{"num_parallel_tree":"1","num_trees":"51"},"iteration_indptr":[0,1,2,3,4,5,6,7,8,9,10,11,12,13,14,15,16,17,18,19,20,21,22,23,24,25,26,27,28,29,30,31,32,33,34,35,36,37,38,39,40,41,42,43,44,45,46,47,48,49,50,51],"tree_info":[0,0,0,0,0,0,0,0,0,0,0,0,0,0,0,0,0,0,0,0,0,0,0,0,0,0,0,0,0,0,0,0,0,0,0,0,0,0,0,0,0,0,0,0,0,0,0,0,0,0,0],"trees":[{"base_weights":[-7.179282E-4,1.3592677E0,-2.3207953E-2,-2.3194376E-2,1.8087989E0,-2.2466667E-2,1.8652854E0,1.8784673E0,-1.5378835E0,2.224421E-2,-2.2823682E-2,-2.2099296E-2,-0E0],"categories":[],"categories_nodes":[],"categories_segments":[],"categories_sizes":[],"default_left":[0,0,0,0,0,0,0,0,0,0,0,0,0],"id":0,"left_children":[1,3,-1,-1,5,-1,7,9,11,-1,-1,-1,-1],"loss_changes":[1.089008E5,3.5989258E4,0E0,0E0,4.4585312E3,0E0,9.394922E2,2.7460703E3,4.2816635E1,0E0,0E0,0E0,0E0],"parents":[2147483647,0,0,1,1,4,4,6,6,7,7,8,8],"right_children":[2,4,-1,-1,6,-1,8,10,12,-1,-1,-1,-1],"split_conditions":[1.0722495E2,-3.5573692E1,-2.3207953E-2,-2.3194376E-2,1.0581536E2,-2.2466667E-2,3.8176772E-1,1.1512804E2,1.058732E2,2.224421E-2,-2.2823682E-2,-2.2099296E-2,-0E0],"split_indices":[2,14,0,0,3,0,7,15,2,0,0,0,0],"split_type":[0,0,0,0,0,0,0,0,0,0,0,0,0],"sum_hessian":[4.0122562E4,2.385773E4,1.6264832E4,2.8182417E3,2.1039488E4,3.1135684E2,2.0728133E4,2.0649842E4,7.8291275E1,2.0467828E4,1.8201369E2,6.3731796E1,1.4559475E1],"tree_param":{"num_deleted":"0","num_feature":"16","num_nodes":"13","size_leaf_vector":"1"}},{"base_weights":[-2.7034432E-4,-2.2960331E-2,1.8849751E0,-2.2748558E-2,1.9446234E0,-1.9277826E-2,1.9479544E0,1.9516507E0,-1.9717768E-2,2.2800487E-2,-2.1440066E-2],"categories":[],"categories_nodes":[],"categories_segments":[],"categories_sizes":[],"default_left":[0,0,0,0,0,0,0,0,0,0,0],"id":1,"left_children":[1,-1,3,-1,5,-1,7,9,-1,-1,-1],"loss_changes":[1.49368E5,0E0,4.715211E3,0E0,2.5282812E2,0E0,2.825078E2,7.094922E2,0E0,0E0,0E0],"parents":[2147483647,0,0,2,2,4,4,6,6,7,7],"right_children":[2,-1,4,-1,6,-1,8,10,-1,-1,-1],"split_conditions":[5.51217E-1,-2.2960331E-2,2.3139618E1,-2.2748558E-2,1.376457E-1,-1.9277826E-2,9.0213954E-1,1.1512804E2,-1.9717768E-2,2.2800487E-2,-2.1440066E-2],"split_indices":[6,0,15,0,5,0,6,15,0,0,0],"split_type":[0,0,0,0,0,0,0,0,0,0,0],"sum_hessian":[4.012098E4,1.9598992E4,2.0521988E4,3.1222394E2,2.0209764E4,1.7035086E1,2.019273E4,2.0173893E4,1.8836737E1,2.0127158E4,4.6734764E1],"tree_param":{"num_deleted":"0","num_feature":"16","num_nodes":"11","size_leaf_vector":"1"}},{"base_weights":[-8.842534E-4,-1.9415492E0,1.7522053E0,-2.2702502E-2,-6.2708104E-1,1.8441659E0,-2.2599809E-2,-2.2054909E-2,1.3633498E0,-2.2510868E-2,1.9161474E0,-0E0,2.0708462E-2,1.924851E0,-2.1205148E-2,-2.1581795E-2,2.249487E-2],"categories":[],"categories_nodes":[],"categories_segments":[],"categories_sizes":[],"default_left":[0,0,0,0,0,0,0,0,0,0,0,0,0,0,0,0,0],"id":2,"left_children":[1,3,5,-1,7,9,-1,-1,11,-1,13,-1,-1,15,-1,-1,-1],"loss_changes":[1.3649802E5,2.5503125E2,7.17491E3,0E0,4.2804395E2,5.6078906E3,0E0,0E0,2.9920883E1,0E0,6.6821094E2,0E0,0E0,7.448906E2,0E0,0E0,0E0],"parents":[2147483647,0,0,1,1,2,2,4,4,5,5,8,8,10,10,13,13],"right_children":[2,4,6,-1,8,10,-1,-1,12,-1,14,-1,-1,16,-1,-1,-1],"split_conditions":[4.3282554E-1,4.0768275E-1,5.8002594E1,-2.2702502E-2,7.39838E-1,-3.5573692E1,-2.2599809E-2,-2.2054909E-2,-3.860542E1,-2.2510868E-2,2.2345572E0,-0E0,2.0708462E-2,5.51217E-1,-2.1205148E-2,-2.1581795E-2,2.249487E-2],"split_indices":[4,4,14,0,6,14,0,0,13,0,13,0,0,6,0,0,0],"split_type":[0,0,0,0,0,0,0,0,0,0,0,0,0,0,0,0,0],"sum_hessian":[4.0109555E4,1.9037459E4,2.1072098E4,1.8878775E4,1.5868204E2,2.0562098E4,5.099991E2,9.821556E1,6.0466476E1,3.8265298E2,2.0179445E4,1.530083E1,4.5165646E1,2.0134205E4,4.5239777E1,4.9559902E1,2.0084645E4],"tree_param":{"num_deleted":"0","num_feature":"16","num_nodes":"17","size_leaf_vector":"1"}},{"base_weights":[1.319031E-3,-1.927523E0,1.7826959E0,-2.2454537E-2,-7.694714E-2,1.8502645E0,-1.811591E0,1.878607E-2,-1.9307084E-2,-2.2216665E-2,1.8868213E0,-4.032851E-1,-2.229261E-2,1.9066483E0,-2.1773836E-2,-1.7165791E-2,1.2252182E-3,-2.1498501E-2,2.2307202E-2],"categories":[],"categories_nodes":[],"categories_segments":[],"categories_sizes":[],"default_left":[0,0,0,0,0,0,0,0,0,0,0,0,0,0,0,0,0,0,0],"id":3,"left_children":[1,3,5,-1,7,9,11,-1,-1,-1,13,15,-1,17,-1,-1,-1,-1,-1],"loss_changes":[1.377926E5,1.08234375E2,5.0742812E3,0E0,1.3577702E2,2.825336E3,4.3061157E1,0E0,0E0,0E0,1.5223438E3,3.1084614E1,0E0,8.9715625E2,0E0,0E0,0E0,0E0,0E0],"parents":[2147483647,0,0,1,1,2,2,4,4,5,5,6,6,10,10,11,11,13,13],"right_children":[2,4,6,-1,8,10,12,-1,-1,-1,14,16,-1,18,-1,-1,-1,-1,-1],"split_conditions":[3.878899E-1,9.61931E-1,3.8176772E-1,-2.2454537E-2,2.862666E-1,2.3139618E1,3.9058897E-1,1.878607E-2,-1.9307084E-2,-2.2216665E-2,1.1512804E2,4.3350197E1,-2.229261E-2,5.51217E-1,-2.1773836E-2,-1.7165791E-2,1.2252182E-3,-2.1498501E-2,2.2307202E-2],"split_indices":[12,8,7,0,7,15,7,0,0,0,15,15,0,6,0,0,0,0,0],"split_type":[0,0,0,0,0,0,0,0,0,0,0,0,0,0,0,0,0,0,0],"sum_hessian":[4.0091703E4,1.9247934E4,2.0843771E4,1.9209348E4,3.8586063E1,2.0460797E4,3.829749E2,1.7345474E1,2.1240591E1,1.9536215E2,2.0265434E4,2.982893E1,3.5314597E2,2.0160725E4,1.04708885E2,1.1664717E1,1.8164213E1,6.0982044E1,2.0099744E4],"tree_param":{"num_deleted":"0","num_feature":"16","num_nodes":"19","size_leaf_vector":"1"}},{"base_weights":[-4.4034707E-4,-2.221423E-2,1.8223331E0,-2.1960076E-2,1.8718297E0,1.8871312E0,-2.1655709E-2,1.895284E0,-2.1757912E-2,-2.0619838E-2,2.211632E-2],"categories":[],"categories_nodes":[],"categories_segments":[],"categories_sizes":[],"default_left":[0,0,0,0,0,0,0,0,0,0,0],"id":4,"left_children":[1,-1,3,-1,5,7,-1,9,-1,-1,-1],"loss_changes":[1.3934323E5,0E0,3.7727578E3,0E0,1.1661641E3,6.282344E2,0E0,5.0060156E2,0E0,0E0,0E0],"parents":[2147483647,0,0,2,2,4,4,5,5,7,7],"right_children":[2,-1,4,-1,6,8,-1,10,-1,-1,-1],"split_conditions":[5.51217E-1,-2.221423E-2,-3.5573692E1,-2.1960076E-2,5.8002594E1,9.0213954E-1,-2.1655709E-2,2.3139618E1,-2.1757912E-2,-2.0619838E-2,2.211632E-2],"split_indices":[6,0,14,0,14,6,0,15,0,0,0],"split_type":[0,0,0,0,0,0,0,0,0,0,0],"sum_hessian":[4.0014637E4,1.9541383E4,2.0473256E4,2.6786935E2,2.0205387E4,2.0124553E4,8.083411E1,2.0082611E4,4.194089E1,3.4678574E1,2.0047934E4],"tree_param":{"num_deleted":"0","num_feature":"16","num_nodes":"11","size_leaf_vector":"1"}},{"base_weights":[9.89185E-4,-2.1981655E-2,1.8034368E0,1.8317996E0,-2.1871094E-2,1.860595E0,-2.0908792E-2,-2.1313867E-2,1.8802724E0,-1.9000558E-2,2.1902515E-2],"categories":[],"categories_nodes":[],"categories_segments":[],"categories_sizes":[],"default_left":[0,0,0,0,0,0,0,0,0,0,0],"id":5,"left_children":[1,-1,3,5,-1,7,-1,-1,9,-1,-1],"loss_changes":[1.3645142E5,0E0,2.1530547E3,2.1369844E3,0E0,1.4779922E3,0E0,0E0,2.4075781E2,0E0,0E0],"parents":[2147483647,0,0,2,2,3,3,5,5,8,8],"right_children":[2,-1,4,6,-1,8,-1,-1,10,-1,-1],"split_conditions":[5.51217E-1,-2.1981655E-2,9.0213954E-1,1.0722495E2,-2.1871094E-2,-3.5573692E1,-2.0908792E-2,-2.1313867E-2,1.376457E-1,-1.9000558E-2,2.1902515E-2],"split_indices":[6,0,6,2,0,14,0,0,5,0,0],"split_type":[0,0,0,0,0,0,0,0,0,0,0],"sum_hessian":[4.0015293E4,1.9524992E4,2.0490299E4,2.0335404E4,1.5489462E2,2.0177E4,1.5840498E2,1.0529391E2,2.0071705E4,1.6993149E1,2.0054713E4],"tree_param":{"num_deleted":"0","num_feature":"16","num_nodes":"11","size_leaf_vector":"1"}},{"base_weights":[-0E0,1.2724547E0,-2.1741081E-2,-2.1768501E-2,1.7795013E0,-1.1717126E0,1.8173773E0,-2.1541089E-2,2.0122305E-2,-1.7749542E-2,1.8339243E0,-1.9998707E-2,2.1409845E-2],"categories":[],"categories_nodes":[],"categories_segments":[],"categories_sizes":[],"default_left":[0,0,0,0,0,0,0,0,0,0,0,0,0],"id":6,"left_children":[1,3,-1,-1,5,7,9,-1,-1,-1,11,-1,-1],"loss_changes":[9.498918E4,3.7889676E4,0E0,0E0,2.2942227E3,5.2972156E2,1.1270781E3,0E0,0E0,0E0,5.285156E2,0E0,0E0],"parents":[2147483647,0,0,1,1,4,4,5,5,6,6,10,10],"right_children":[2,4,-1,-1,6,8,10,-1,-1,-1,12,-1,-1],"split_conditions":[1.0722495E2,4.0290168E-1,-2.1741081E-2,-2.1768501E-2,2.7399076E1,3.1522412E2,-3.860542E1,-2.1541089E-2,2.0122305E-2,-1.7749542E-2,-3.5573692E1,-1.9998707E-2,2.1409845E-2],"split_indices":[2,8,0,0,2,3,13,0,0,0,14,0,0],"split_type":[0,0,0,0,0,0,0,0,0,0,0,0,0],"sum_hessian":[3.9915016E4,2.3752188E4,1.6162828E4,3.2966704E3,2.0455516E4,2.5740164E2,2.0198115E4,2.099728E2,4.742885E1,9.774801E1,2.0100367E4,3.9255013E1,2.0061111E4],"tree_param":{"num_deleted":"0","num_feature":"16","num_nodes":"13","size_leaf_vector":"1"}},{"base_weights":[-8.9847477E-4,-2.153152E-2,9.200098E-1,1.781194E0,-1.8249316E0,1.8213403E0,-2.1248264E-2,1.909293E-2,-2.1549385E-2,-2.158937E-2,1.8353999E0,3.7608966E-3,2.1363283E-2],"categories":[],"categories_nodes":[],"categories_segments":[],"categories_sizes":[],"default_left":[0,0,0,0,0,0,0,0,0,0,0,0,0],"id":7,"left_children":[1,-1,3,5,7,9,-1,-1,-1,-1,11,-1,-1],"loss_changes":[6.797454E4,0E0,6.294654E4,2.9471328E3,6.3274414E2,1.0478516E3,0E0,0E0,0E0,0E0,3.8671875E1,0E0,0E0],"parents":[2147483647,0,0,2,2,3,3,4,4,5,5,10,10],"right_children":[2,-1,4,6,8,10,-1,-1,-1,-1,12,-1,-1],"split_conditions":[2.3139618E1,-2.153152E-2,5.5751865E1,2.2345572E0,-3.325847E1,3.4160328E-1,-2.1248264E-2,1.909293E-2,-2.1549385E-2,-2.158937E-2,3.878899E-1,3.7608966E-3,2.1363283E-2],"split_indices":[15,0,14,13,13,12,0,0,0,0,12,0,0],"split_type":[0,0,0,0,0,0,0,0,0,0,0,0,0],"sum_hessian":[3.9864582E4,1.3246606E4,2.6617975E4,2.026274E4,6.355234E3,2.004144E4,2.2130188E2,4.9680134E1,6.3055537E3,7.467101E1,1.9966768E4,2.6378342E1,1.9940389E4],"tree_param":{"num_deleted":"0","num_feature":"16","num_nodes":"13","size_leaf_vector":"1"}},{"base_weights":[2.2460876E-3,1.1698953E0,-1.8244631E0,-2.1343987E-2,1.7736958E0,-2.1321759E-2,-1.5098737E0,1.7957052E0,-2.1313764E-2,-2.1167587E-2,-6.171468E-1,-1.9133821E-2,1.8143806E0,1.938546E-2,-2.0737434E-2,2.1125874E-2,-1.7052662E-2],"categories":[],"categories_nodes":[],"categories_segments":[],"categories_sizes":[],"default_left":[0,0,0,0,0,0,0,0,0,0,0,0,0,0,0,0,0],"id":8,"left_children":[1,3,5,-1,7,-1,9,11,-1,-1,13,-1,15,-1,-1,-1,-1],"loss_changes":[8.483918E4,4.4042434E4,3.2757812E1,0E0,1.6150508E3,0E0,1.1648816E2,1.3007812E3,0E0,0E0,3.5201117E2,0E0,1.6447656E2,0E0,0E0,0E0,0E0],"parents":[2147483647,0,0,1,1,2,2,4,4,6,6,7,7,10,10,12,12],"right_children":[2,4,6,-1,8,-1,10,12,-1,-1,14,-1,16,-1,-1,-1,-1],"split_conditions":[2.095168E1,4.0768275E-1,6.228642E-1,-2.1343987E-2,9.0213954E-1,-2.1321759E-2,6.345529E-1,1.0581536E2,-2.1313764E-2,-2.1167587E-2,6.308565E-1,-1.9133821E-2,3.1981448E2,1.938546E-2,-2.0737434E-2,2.1125874E-2,-1.7052662E-2],"split_indices":[0,4,4,0,6,0,6,3,0,0,4,0,3,0,0,0,0],"split_type":[0,0,0,0,0,0,0,0,0,0,0,0,0,0,0,0,0],"sum_hessian":[3.976281E4,2.4258947E4,1.5503859E4,4.0568716E3,2.0202076E4,1.504849E4,4.5536893E2,2.0081209E4,1.2086726E2,3.3356995E2,1.21798965E2,1.0669828E2,1.9974512E4,3.979164E1,8.2007324E1,1.9961809E4,1.2702726E1],"tree_param":{"num_deleted":"0","num_feature":"16","num_nodes":"17","size_leaf_vector":"1"}},{"base_weights":[2.5351772E-3,1.2334087E0,-1.8117024E0,-2.1109032E-2,1.6756018E0,1.6282627E-2,-2.1118278E-2,-2.131004E-2,1.8032063E0,1.80848E0,-2.0441355E-2,-0E0,2.1047648E-2],"categories":[],"categories_nodes":[],"categories_segments":[],"categories_sizes":[],"default_left":[0,0,0,0,0,0,0,0,0,0,0,0,0],"id":9,"left_children":[1,3,5,-1,7,-1,-1,-1,9,11,-1,-1,-1],"loss_changes":[8.866525E4,3.1900664E4,2.3521484E2,0E0,9.259953E3,0E0,0E0,0E0,3.850586E2,5.0933594E1,0E0,0E0,0E0],"parents":[2147483647,0,0,1,1,2,2,4,4,8,8,9,9],"right_children":[2,4,6,-1,8,-1,-1,-1,10,12,-1,-1,-1],"split_conditions":[3.5832867E2,2.3139618E1,2.8070353E1,-2.1109032E-2,5.51217E-1,1.6282627E-2,-2.1118278E-2,-2.131004E-2,9.0213954E-1,-3.860542E1,-2.0441355E-2,-0E0,2.1047648E-2],"split_indices":[1,15,2,0,6,0,0,0,6,13,0,0,0],"split_type":[0,0,0,0,0,0,0,0,0,0,0,0,0],"sum_hessian":[3.96926E4,2.3649918E4,1.6042682E4,2.9941248E3,2.0655793E4,2.0187593E1,1.6022494E4,7.233141E2,1.9932479E4,1.9904686E4,2.7794111E1,1.6134352E1,1.988855E4],"tree_param":{"num_deleted":"0","num_feature":"16","num_nodes":"13","size_leaf_vector":"1"}},{"base_weights":[4.527864E-4,-1.7963648E0,1.6596949E0,-2.0927507E-2,-1.0629991E-2,1.7289137E0,-2.0865757E-2,-1.1735937E-2,1.6483784E-2,-2.0530151E-2,1.7551638E0,1.7717012E0,-2.0176483E-2,-1.7680649E-3,2.0621674E-2],"categories":[],"categories_nodes":[],"categories_segments":[],"categories_sizes":[],"default_left":[0,0,0,0,0,0,0,0,0,0,0,0,0,0,0],"id":10,"left_children":[1,3,5,-1,7,9,-1,-1,-1,-1,11,13,-1,-1,-1],"loss_changes":[1.18256734E5,9.803125E1,4.9411914E3,0E0,7.552306E1,1.8652305E3,0E0,0E0,0E0,0E0,1.1688633E3,6.6015625E1,0E0,0E0,0E0],"parents":[2147483647,0,0,1,1,2,2,4,4,5,5,10,10,11,11],"right_children":[2,4,6,-1,8,10,-1,-1,-1,-1,12,14,-1,-1,-1],"split_conditions":[3.878899E-1,9.61931E-1,3.1981448E2,-2.0927507E-2,1.0581536E2,1.0581536E2,-2.0865757E-2,-1.1735937E-2,1.6483784E-2,-2.0530151E-2,3.7266943E2,1.5835297E2,-2.0176483E-2,-1.7680649E-3,2.0621674E-2],"split_indices":[12,8,3,0,3,3,0,0,0,0,1,1,0,0,0],"split_type":[0,0,0,0,0,0,0,0,0,0,0,0,0,0,0],"sum_hessian":[3.965378E4,1.9036375E4,2.0617408E4,1.8998553E4,3.7820766E1,2.0214053E4,4.0335587E2,2.4178663E1,1.3642102E1,1.4901611E2,2.0065037E4,1.9972113E4,9.2922676E1,1.5287481E1,1.9956826E4],"tree_param":{"num_deleted":"0","num_feature":"16","num_nodes":"15","size_leaf_vector":"1"}},{"base_weights":[6.4348156E-4,1.2112459E0,-1.7782444E0,-2.0767946E-2,1.7291586E0,-2.0726977E-2,-9.036967E-2,1.7471343E0,-2.0238914E-2,1.737907E-2,-1.8219253E-2,1.7673252E0,-2.0930741E-2,-1.907534E-2,2.0629E-2],"categories":[],"categories_nodes":[],"categories_segments":[],"categories_sizes":[],"default_left":[0,0,0,0,0,0,0,0,0,0,0,0,0,0,0],"id":11,"left_children":[1,3,5,-1,7,-1,9,11,-1,-1,-1,13,-1,-1,-1],"loss_changes":[8.521849E4,3.6561555E4,9.8875E1,0E0,1.2627266E3,0E0,1.2899046E2,1.4415391E3,0E0,0E0,0E0,4.634297E2,0E0,0E0,0E0],"parents":[2147483647,0,0,1,1,2,2,4,4,6,6,7,7,11,11],"right_children":[2,4,6,-1,8,-1,10,12,-1,-1,-1,14,-1,-1,-1],"split_conditions":[3.5832867E2,5.51217E-1,7.0567137E-1,-2.0767946E-2,3.9058897E-1,-2.0726977E-2,1.1462119E1,9.0213954E-1,-2.0238914E-2,1.737907E-2,-1.8219253E-2,-3.5573692E1,-2.0930741E-2,-1.907534E-2,2.0629E-2],"split_indices":[1,6,6,0,7,0,0,6,0,0,0,14,0,0,0],"split_type":[0,0,0,0,0,0,0,0,0,0,0,0,0,0,0],"sum_hessian":[3.9558957E4,2.3541057E4,1.6017901E4,3.466926E3,2.007413E4,1.5975519E4,4.238236E1,1.9972375E4,1.0175493E2,1.9048243E1,2.3334116E1,1.9861021E4,1.1135505E2,3.7250088E1,1.9823771E4],"tree_param":{"num_deleted":"0","num_feature":"16","num_nodes":"15","size_leaf_vector":"1"}},{"base_weights":[-1.5830855E-3,1.1253219E0,-1.7573848E0,-2.0470355E-2,1.5419282E0,1.7375566E-2,-2.0542346E-2,-1.7372931E0,1.7387906E0,1.5657984E-2,-2.0630531E-2,-2.0908926E-2,1.7514716E0,2.038471E-2,-1.37068285E-2],"categories":[],"categories_nodes":[],"categories_segments":[],"categories_sizes":[],"default_left":[0,0,0,0,0,0,0,0,0,0,0,0,0,0,0],"id":12,"left_children":[1,3,5,-1,7,-1,-1,9,11,-1,-1,-1,13,-1,-1],"loss_changes":[7.80768E4,2.8897967E4,4.6983984E2,0E0,1.3566715E4,0E0,0E0,1.4366162E2,8.9935547E2,0E0,0E0,0E0,9.646875E1,0E0,0E0],"parents":[2147483647,0,0,1,1,2,2,4,4,7,7,8,8,12,12],"right_children":[2,4,6,-1,8,-1,-1,10,12,-1,-1,-1,14,-1,-1],"split_conditions":[2.095168E1,1.0581536E2,2.283717E2,-2.0470355E-2,3.878899E-1,1.7375566E-2,-2.0542346E-2,3.5502575E1,1.376457E-1,1.5657984E-2,-2.0630531E-2,-2.0908926E-2,3.7266943E2,2.038471E-2,-1.37068285E-2],"split_indices":[0,3,1,0,12,0,0,2,5,0,0,0,1,0,0],"split_type":[0,0,0,0,0,0,0,0,0,0,0,0,0,0,0],"sum_hessian":[3.944449E4,2.4023633E4,1.5420855E4,3.0290347E3,2.0994598E4,4.169573E1,1.537916E4,1.1873315E3,1.9807268E4,1.2246309E1,1.1750852E3,6.9064255E1,1.9738203E4,1.9729648E4,8.554426E0],"tree_param":{"num_deleted":"0","num_feature":"16","num_nodes":"15","size_leaf_vector":"1"}},{"base_weights":[-2.224675E-4,-2.0368427E-2,1.6691862E0,1.6977425E0,-2.0147815E-2,-1.4424088E0,1.7252172E0,-1.9999586E-2,1.1040244E-2,-2.0176254E-2,2.0205807E-2],"categories":[],"categories_nodes":[],"categories_segments":[],"categories_sizes":[],"default_left":[0,0,0,0,0,0,0,0,0,0,0],"id":13,"left_children":[1,-1,3,5,-1,7,9,-1,-1,-1,-1],"loss_changes":[1.1505651E5,0E0,1.9672344E3,1.7323164E3,0E0,1.23657166E2,8.612617E2,0E0,0E0,0E0,0E0],"parents":[2147483647,0,0,2,2,3,3,5,5,6,6],"right_children":[2,-1,4,6,-1,8,10,-1,-1,-1,-1],"split_conditions":[5.51217E-1,-2.0368427E-2,3.7266943E2,1.5835297E2,-2.0147815E-2,2.3139618E1,2.3139618E1,-1.9999586E-2,1.1040244E-2,-2.0176254E-2,2.0205807E-2],"split_indices":[6,0,1,1,0,15,15,0,0,0,0],"split_type":[0,0,0,0,0,0,0,0,0,0,0],"sum_hessian":[3.9339754E4,1.919967E4,2.0140082E4,1.997416E4,1.6592227E2,1.714621E2,1.98027E4,1.5547903E2,1.598307E1,6.907447E1,1.9733625E4],"tree_param":{"num_deleted":"0","num_feature":"16","num_nodes":"11","size_leaf_vector":"1"}},{"base_weights":[1.1451977E-3,-1.7269275E0,1.5573517E0,-2.0153552E-2,1.741657E-2,1.6815138E0,-2.0144263E-2,-1.975738E-2,1.7049317E0,-1.3361269E-2,1.7063758E0,-1.9981068E-2,1.9985422E-2],"categories":[],"categories_nodes":[],"categories_segments":[],"categories_sizes":[],"default_left":[0,0,0,0,0,0,0,0,0,0,0,0,0],"id":14,"left_children":[1,3,5,-1,-1,7,-1,-1,9,-1,11,-1,-1],"loss_changes":[1.05475516E5,3.8109375E2,8.439441E3,0E0,0E0,1.5845664E3,0E0,0E0,8.825391E1,0E0,8.4220703E2,0E0,0E0],"parents":[2147483647,0,0,1,1,2,2,5,5,8,8,10,10],"right_children":[2,4,6,-1,-1,8,-1,-1,10,-1,12,-1,-1],"split_conditions":[4.3282554E-1,3.878899E-1,3.7266943E2,-2.0153552E-2,1.741657E-2,1.5835297E2,-2.0144263E-2,-1.975738E-2,3.878899E-1,-1.3361269E-2,2.3139618E1,-1.9981068E-2,1.9985422E-2],"split_indices":[4,12,1,0,0,1,0,0,12,0,15,0,0],"split_type":[0,0,0,0,0,0,0,0,0,0,0,0,0],"sum_hessian":[3.9209246E4,1.8577371E4,2.0631875E4,1.8543436E4,3.3934944E1,1.9883207E4,7.4866895E2,1.350484E2,1.9748158E4,8.099951E0,1.9740059E4,6.89341E1,1.9671125E4],"tree_param":{"num_deleted":"0","num_feature":"16","num_nodes":"13","size_leaf_vector":"1"}},{"base_weights":[3.2039435E-4,1.1709471E0,-2.000429E-2,-2.006219E-2,1.6688527E0,-1.9824402E-2,1.7041311E0,1.7113073E0,-2.080487E-2,-1.9291213E-2,1.9936666E-2],"categories":[],"categories_nodes":[],"categories_segments":[],"categories_sizes":[],"default_left":[0,0,0,0,0,0,0,0,0,0,0],"id":15,"left_children":[1,3,-1,-1,5,-1,7,9,-1,-1,-1],"loss_changes":[7.8688734E4,3.353571E4,0E0,0E0,2.3714336E3,0E0,5.0289844E2,2.1986719E2,0E0,0E0,0E0],"parents":[2147483647,0,0,1,1,4,4,6,6,7,7],"right_children":[2,4,-1,-1,6,-1,8,10,-1,-1,-1],"split_conditions":[1.0722495E2,5.51217E-1,-2.000429E-2,-2.006219E-2,-3.5573692E1,-1.9824402E-2,9.0213954E-1,1.376457E-1,-2.080487E-2,-1.9291213E-2,1.9936666E-2],"split_indices":[2,6,0,0,14,0,6,5,0,0,0],"split_type":[0,0,0,0,0,0,0,0,0,0,0],"sum_hessian":[3.9053848E4,2.3243145E4,1.5810705E4,3.4080635E3,1.983508E4,2.0353313E2,1.9631547E4,1.9593023E4,3.8524887E1,1.671658E1,1.9576307E4],"tree_param":{"num_deleted":"0","num_feature":"16","num_nodes":"11","size_leaf_vector":"1"}},{"base_weights":[-2.6157976E-3,-1.9817607E-2,1.573119E0,1.654519E0,-1.958034E-2,-1.9807374E-2,1.6890879E0,1.6907125E0,-1.373258E-2,-1.9569105E-2,1.9699926E-2],"categories":[],"categories_nodes":[],"categories_segments":[],"categories_sizes":[],"default_left":[0,0,0,0,0,0,0,0,0,0,0],"id":16,"left_children":[1,-1,3,5,-1,-1,7,9,-1,-1,-1],"loss_changes":[1.0442803E5,0E0,5.370164E3,2.300004E3,0E0,0E0,9.806641E1,2.348789E2,0E0,0E0,0E0],"parents":[2147483647,0,0,2,2,3,3,6,6,7,7],"right_children":[2,-1,4,6,-1,-1,8,10,-1,-1,-1],"split_conditions":[3.878899E-1,-1.9817607E-2,1.0722495E2,2.3139618E1,-1.958034E-2,-1.9807374E-2,1.1512804E2,1.376457E-1,-1.373258E-2,-1.9569105E-2,1.9699926E-2],"split_indices":[12,0,2,15,0,0,15,5,0,0,0],"split_type":[0,0,0,0,0,0,0,0,0,0,0],"sum_hessian":[3.893392E4,1.872041E4,2.0213512E4,1.9722393E4,4.9111884E2,1.9922762E2,1.9523164E4,1.9514008E4,9.156329E0,1.7981476E1,1.9496027E4],"tree_param":{"num_deleted":"0","num_feature":"16","num_nodes":"11","size_leaf_vector":"1"}},{"base_weights":[-2.1593934E-3,-1.969471E-2,1.6125891E0,-1.9547138E-2,1.6567259E0,1.6750484E0,-1.9309148E-2,-1.6193364E-2,1.6773838E0,1.954749E-2,7.7349236E-3],"categories":[],"categories_nodes":[],"categories_segments":[],"categories_sizes":[],"default_left":[0,0,0,0,0,0,0,0,0,0,0],"id":17,"left_children":[1,-1,3,-1,5,7,-1,-1,9,-1,-1],"loss_changes":[1.0610565E5,0E0,2.8986328E3,0E0,1.2017656E3,1.4797656E2,0E0,0E0,5.9179688E1,0E0,0E0],"parents":[2147483647,0,0,2,2,4,4,5,5,8,8],"right_children":[2,-1,4,-1,6,8,-1,-1,10,-1,-1],"split_conditions":[5.51217E-1,-1.969471E-2,-3.5573692E1,-1.9547138E-2,2.15045E1,8.8676E0,-1.9309148E-2,-1.6193364E-2,9.66223E-1,1.954749E-2,7.7349236E-3],"split_indices":[6,0,14,0,0,0,0,0,8,0,0],"split_type":[0,0,0,0,0,0,0,0,0,0,0],"sum_hessian":[3.8834527E4,1.8967656E4,1.9866871E4,2.6095166E2,1.960592E4,1.9499988E4,1.0593204E2,1.2998942E1,1.948699E4,1.9412424E4,7.45664E1],"tree_param":{"num_deleted":"0","num_feature":"16","num_nodes":"11","size_leaf_vector":"1"}},{"base_weights":[-6.591588E-5,1.0696303E0,-1.9427346E-2,1.2821755E0,-1.928149E-2,-1.9497214E-2,1.4930377E0,-1.9481007E-2,1.5332284E0,1.8925667E-2,-1.9495199E-2],"categories":[],"categories_nodes":[],"categories_segments":[],"categories_sizes":[],"default_left":[0,0,0,0,0,0,0,0,0,0,0],"id":18,"left_children":[1,3,-1,5,-1,-1,7,-1,9,-1,-1],"loss_changes":[6.915988E4,1.3684822E4,0E0,1.3663816E4,0E0,0E0,2.6112812E3,0E0,6.117922E3,0E0,0E0],"parents":[2147483647,0,0,1,1,3,3,6,6,8,8],"right_children":[2,4,-1,6,-1,-1,8,-1,10,-1,-1],"split_conditions":[2.095168E1,3.8176772E-1,-1.9427346E-2,-3.5573692E1,-1.928149E-2,-1.9497214E-2,1.376457E-1,-1.9481007E-2,2.2345572E0,1.8925667E-2,-1.9495199E-2],"split_indices":[0,7,0,14,0,0,5,0,13,0,0],"split_type":[0,0,0,0,0,0,0,0,0,0,0],"sum_hessian":[3.8684004E4,2.3582184E4,1.5101819E4,2.1879445E4,1.7027385E3,1.4536992E3,2.0425746E4,2.5402512E2,2.017172E4,1.9597676E4,5.740455E2],"tree_param":{"num_deleted":"0","num_feature":"16","num_nodes":"11","size_leaf_vector":"1"}},{"base_weights":[8.5472735E-4,1.4413985E0,-7.955639E-1,1.5973673E0,-1.9409833E-2,-1.9377956E-2,1.2293091E0,-1.9903911E-2,1.6303669E0,-1.9253181E-2,1.3857179E0,-1.9499233E-2,1.6485032E0,-1.922416E-2,1.5217569E0,-1.7508708E-2,1.9265162E-2,1.862491E-2,-1.7113999E-2],"categories":[],"categories_nodes":[],"categories_segments":[],"categories_sizes":[],"default_left":[0,0,0,0,0,0,0,0,0,0,0,0,0,0,0,0,0,0,0],"id":19,"left_children":[1,3,5,7,-1,-1,9,-1,11,-1,13,-1,15,-1,17,-1,-1,-1,-1],"loss_changes":[4.4281945E4,6.6762324E3,4.382442E4,1.4390742E3,0E0,0E0,3.3821162E3,0E0,7.871875E2,0E0,2.9414678E3,0E0,3.4376172E2,0E0,1.633166E3,0E0,0E0,0E0,0E0],"parents":[2147483647,0,0,1,1,2,2,3,3,6,6,8,8,10,10,12,12,14,14],"right_children":[2,4,6,8,-1,-1,10,-1,12,-1,14,-1,16,-1,18,-1,-1,-1,-1],"split_conditions":[2.730237E-1,-9.508228E0,4.0290168E-1,4.3756762E-1,-1.9409833E-2,-1.9377956E-2,4.0768275E-1,-1.9903911E-2,5.7365006E-1,-1.9253181E-2,5.51217E-1,-1.9499233E-2,-3.190341E1,-1.922416E-2,3.8176772E-1,-1.7508708E-2,1.9265162E-2,1.862491E-2,-1.7113999E-2],"split_indices":[7,13,8,4,0,0,4,0,6,0,6,0,14,0,7,0,0,0,0],"split_type":[0,0,0,0,0,0,0,0,0,0,0,0,0,0,0,0,0,0,0],"sum_hessian":[3.8576547E4,1.3735895E4,2.4840652E4,1.3081805E4,6.5408966E2,1.7371594E4,7.4690586E3,1.2739958E2,1.2954405E4,3.8221692E2,7.0868413E3,6.887761E1,1.2885527E4,3.0183817E2,6.7850034E3,3.1743715E1,1.2853783E4,6.610396E3,1.746075E2],"tree_param":{"num_deleted":"0","num_feature":"16","num_nodes":"19","size_leaf_vector":"1"}},{"base_weights":[-8.9292234E-4,-1.9201363E-2,1.5229654E0,1.581303E0,-1.812866E-2,-1.9363182E-2,1.6137502E0,1.9051153E-2,-1.918841E-2],"categories":[],"categories_nodes":[],"categories_segments":[],"categories_sizes":[],"default_left":[0,0,0,0,0,0,0,0,0],"id":20,"left_children":[1,-1,3,5,-1,-1,7,-1,-1],"loss_changes":[9.667493E4,0E0,3.6019922E3,2.0758516E3,0E0,0E0,1.5681641E3,0E0,0E0],"parents":[2147483647,0,0,2,2,3,3,6,6],"right_children":[2,-1,4,6,-1,-1,8,-1,-1],"split_conditions":[3.878899E-1,-1.9201363E-2,3.8176772E-1,2.3139618E1,-1.812866E-2,-1.9363182E-2,5.8002594E1,1.9051153E-2,-1.918841E-2],"split_indices":[12,0,7,15,0,0,14,0,0],"split_type":[0,0,0,0,0,0,0,0,0],"sum_hessian":[3.842771E4,1.8449424E4,1.9978285E4,1.9608977E4,3.6930872E2,1.9225235E2,1.9416725E4,1.9273346E4,1.4337859E2],"tree_param":{"num_deleted":"0","num_feature":"16","num_nodes":"9","size_leaf_vector":"1"}},{"base_weights":[-3.143778E-4,-1.9090574E-2,1.400503E0,-1.9137565E-2,1.5213568E0,1.6091292E0,-1.9015707E-2,-9.2246854E-1,1.6132145E0,6.662719E-3,-2.202305E-2,4.309864E-3,1.880933E-2],"categories":[],"categories_nodes":[],"categories_segments":[],"categories_sizes":[],"default_left":[0,0,0,0,0,0,0,0,0,0,0,0,0],"id":21,"left_children":[1,-1,3,-1,5,7,-1,9,11,-1,-1,-1,-1],"loss_changes":[8.799885E4,0E0,7.6102617E3,0E0,5.512035E3,2.0526953E2,0E0,5.9595123E1,9.097656E1,0E0,0E0,0E0,0E0],"parents":[2147483647,0,0,2,2,4,4,5,5,7,7,8,8],"right_children":[2,-1,4,-1,6,8,-1,10,12,-1,-1,-1,-1],"split_conditions":[4.0290168E-1,-1.9090574E-2,2.3139618E1,-1.9137565E-2,1.1727413E2,-3.860542E1,-1.9015707E-2,1.783878E1,2.7399076E1,6.662719E-3,-2.202305E-2,4.309864E-3,1.880933E-2],"split_indices":[8,0,15,0,2,13,0,0,2,0,0,0,0],"split_type":[0,0,0,0,0,0,0,0,0,0,0,0,0],"sum_hessian":[3.8258055E4,1.761753E4,2.0640525E4,7.8579724E2,1.9854729E4,1.9319375E4,5.3535223E2,2.9090752E1,1.9290285E4,9.897132E0,1.9193619E1,7.061274E1,1.9219672E4],"tree_param":{"num_deleted":"0","num_feature":"16","num_nodes":"13","size_leaf_vector":"1"}},{"base_weights":[-2.1864697E-3,-1.894943E-2,1.3881422E0,1.5460923E0,-1.8922757E-2,-1.8185744E-2,1.5869442E0,-1.3414137E-2,1.5883859E0,1.8509064E-2,-1.6644534E-2],"categories":[],"categories_nodes":[],"categories_segments":[],"categories_sizes":[],"default_left":[0,0,0,0,0,0,0,0,0,0,0],"id":22,"left_children":[1,-1,3,5,-1,-1,7,-1,9,-1,-1],"loss_changes":[8.618583E4,0E0,9.791551E3,2.4888672E3,0E0,0E0,8.284766E1,0E0,2.0210938E2,0E0,0E0],"parents":[2147483647,0,0,2,2,3,3,6,6,8,8],"right_children":[2,-1,4,6,-1,-1,8,-1,10,-1,-1],"split_conditions":[4.0290168E-1,-1.894943E-2,2.15045E1,1.0581536E2,-1.8922757E-2,-1.8185744E-2,8.8676E0,-1.3414137E-2,3.7266943E2,1.8509064E-2,-1.6644534E-2],"split_indices":[8,0,0,3,0,0,0,0,1,0,0],"split_type":[0,0,0,0,0,0,0,0,0,0,0],"sum_hessian":[3.807737E4,1.7544336E4,2.0533035E4,1.9512836E4,1.02019806E3,2.5116086E2,1.9261676E4,8.160108E0,1.9253516E4,1.9234172E4,1.9342886E1],"tree_param":{"num_deleted":"0","num_feature":"16","num_nodes":"11","size_leaf_vector":"1"}},{"base_weights":[-1.1933348E-3,-1.8781396E-2,1.48812E0,1.5656621E0,-1.8571928E-2,-1.8512012E-2,1.589799E0,1.5918715E0,-1.5794238E-2,-3.3644373E-3,1.8637173E-2],"categories":[],"categories_nodes":[],"categories_segments":[],"categories_sizes":[],"default_left":[0,0,0,0,0,0,0,0,0,0,0],"id":23,"left_children":[1,-1,3,5,-1,-1,7,9,-1,-1,-1],"loss_changes":[9.1217984E4,0E0,4.7303086E3,1.4765703E3,0E0,0E0,1.24671875E2,3.919922E2,0E0,0E0,0E0],"parents":[2147483647,0,0,2,2,3,3,6,6,7,7],"right_children":[2,-1,4,6,-1,-1,8,10,-1,-1,-1],"split_conditions":[3.878899E-1,-1.8781396E-2,1.0722495E2,1.0581536E2,-1.8571928E-2,-1.8512012E-2,3.1981448E2,2.7399076E1,-1.5794238E-2,-3.3644373E-3,1.8637173E-2],"split_indices":[12,0,2,3,0,0,3,2,0,0,0],"split_type":[0,0,0,0,0,0,0,0,0,0,0],"sum_hessian":[3.793632E4,1.8207703E4,1.972862E4,1.9246754E4,4.8186572E2,1.4417972E2,1.9102572E4,1.909105E4,1.1521867E1,1.0721893E2,1.8983832E4],"tree_param":{"num_deleted":"0","num_feature":"16","num_nodes":"11","size_leaf_vector":"1"}},{"base_weights":[1.4240129E-3,-1.8647296E-2,1.4788582E0,1.5350504E0,-1.5143672E0,1.568781E0,-1.8488742E-2,-4.5475537E-1,-1.868709E-2,1.8286487E-2,-2.1296914E-1,-1.5793912E-2,1.1802287E-2,-1.8351277E-2,1.4913085E-2],"categories":[],"categories_nodes":[],"categories_segments":[],"categories_sizes":[],"default_left":[0,0,0,0,0,0,0,0,0,0,0,0,0,0,0],"id":24,"left_children":[1,-1,3,5,7,9,-1,11,-1,-1,13,-1,-1,-1,-1],"loss_changes":[8.957515E4,0E0,3.3169883E3,2.0445039E3,2.4231934E1,1.3046094E2,0E0,6.25241E1,0E0,0E0,1.0467955E2,0E0,0E0,0E0,0E0],"parents":[2147483647,0,0,2,2,3,3,4,4,5,5,7,7,10,10],"right_children":[2,-1,4,6,8,10,-1,12,-1,-1,14,-1,-1,-1,-1],"split_conditions":[3.878899E-1,-1.8647296E-2,3.8176772E-1,2.15045E1,5.366008E-1,1.1471533E0,-1.8488742E-2,4.7198263E-1,-1.868709E-2,1.8286487E-2,3.0133396E1,-1.5793912E-2,1.1802287E-2,-1.8351277E-2,1.4913085E-2],"split_indices":[12,0,7,0,4,4,0,12,0,0,14,0,0,0,0],"split_type":[0,0,0,0,0,0,0,0,0,0,0,0,0,0,0],"sum_hessian":[3.7761508E4,1.809779E4,1.9663717E4,1.930324E4,3.6047784E2,1.9098945E4,2.0429323E2,3.3145153E1,3.273327E2,1.906084E4,3.8106236E1,2.2361753E1,1.0783401E1,2.1375156E1,1.673108E1],"tree_param":{"num_deleted":"0","num_feature":"16","num_nodes":"15","size_leaf_vector":"1"}},{"base_weights":[3.170741E-3,1.0830231E0,-1.853377E-2,-1.8632144E-2,1.5444473E0,1.5683966E0,-1.9676827E-2,-1.8496025E-2,1.586665E0,-3.576719E-4,1.8468434E-2],"categories":[],"categories_nodes":[],"categories_segments":[],"categories_sizes":[],"default_left":[0,0,0,0,0,0,0,0,0,0,0],"id":25,"left_children":[1,3,-1,-1,5,7,-1,-1,9,-1,-1],"loss_changes":[6.4849348E4,2.7806223E4,0E0,0E0,1.4938984E3,1.1061719E3,0E0,0E0,4.782422E1,0E0,0E0],"parents":[2147483647,0,0,1,1,4,4,5,5,8,8],"right_children":[2,4,-1,-1,6,8,-1,-1,10,-1,-1],"split_conditions":[1.0722495E2,5.51217E-1,-1.853377E-2,-1.8632144E-2,9.0213954E-1,2.3139618E1,-1.9676827E-2,-1.8496025E-2,-3.860542E1,-3.576719E-4,1.8468434E-2],"split_indices":[2,6,0,0,6,15,0,0,13,0,0],"split_type":[0,0,0,0,0,0,0,0,0,0,0],"sum_hessian":[3.7590004E4,2.2427904E4,1.5162099E4,3.2870098E3,1.9140895E4,1.9002113E4,1.387805E2,1.0742729E2,1.8894686E4,1.5548729E1,1.8879137E4],"tree_param":{"num_deleted":"0","num_feature":"16","num_nodes":"11","size_leaf_vector":"1"}},{"base_weights":[5.0953816E-4,1.0751692E0,-1.8406678E-2,-1.8351125E-2,1.4662114E0,-1.8624116E-2,1.5415516E0,-1.9539557E-2,1.5603528E0,-2.0010587E-2,1.8288199E-2],"categories":[],"categories_nodes":[],"categories_segments":[],"categories_sizes":[],"default_left":[0,0,0,0,0,0,0,0,0,0,0],"id":26,"left_children":[1,3,-1,-1,5,-1,7,-1,9,-1,-1],"loss_changes":[6.3772824E4,2.317189E4,0E0,0E0,4.5067812E3,0E0,1.1603359E3,0E0,7.766094E2,0E0,0E0],"parents":[2147483647,0,0,1,1,4,4,6,6,8,8],"right_children":[2,4,-1,-1,6,-1,8,-1,10,-1,-1],"split_conditions":[1.0722495E2,1.0581536E2,-1.8406678E-2,-1.8351125E-2,4.0290168E-1,-1.8624116E-2,5.51217E-1,-1.9539557E-2,1.376457E-1,-2.0010587E-2,1.8288199E-2],"split_indices":[2,3,0,0,8,0,6,0,5,0,0],"split_type":[0,0,0,0,0,0,0,0,0,0,0],"sum_hessian":[3.746329E4,2.2318707E4,1.514458E4,2.8650244E3,1.9453684E4,4.644598E2,1.8989225E4,1.0834681E2,1.8880877E4,6.911189E1,1.8811766E4],"tree_param":{"num_deleted":"0","num_feature":"16","num_nodes":"11","size_leaf_vector":"1"}},{"base_weights":[-8.3165115E-4,-1.8297566E-2,1.3398868E0,1.4263116E0,-1.8327605E-2,-1.8412815E-2,1.5219891E0,1.5467933E0,-1.8119294E-2,1.8005664E-2,-0E0],"categories":[],"categories_nodes":[],"categories_segments":[],"categories_sizes":[],"default_left":[0,0,0,0,0,0,0,0,0,0,0],"id":27,"left_children":[1,-1,3,5,-1,-1,7,9,-1,-1,-1],"loss_changes":[7.84825E4,0E0,5.0716055E3,5.628035E3,0E0,0E0,1.4540195E3,4.2871094E1,0E0,0E0,0E0],"parents":[2147483647,0,0,2,2,3,3,6,6,7,7],"right_children":[2,-1,4,6,-1,-1,8,10,-1,-1,-1],"split_conditions":[4.0290168E-1,-1.8297566E-2,3.1981448E2,2.3139618E1,-1.8327605E-2,-1.8412815E-2,5.8002594E1,3.8176772E-1,-1.8119294E-2,1.8005664E-2,-0E0],"split_indices":[8,0,3,15,0,0,14,7,0,0,0],"split_type":[0,0,0,0,0,0,0,0,0,0,0],"sum_hessian":[3.7206977E4,1.712357E4,2.0083406E4,1.9507213E4,5.7619196E2,5.991665E2,1.8908047E4,1.8758861E4,1.4918681E2,1.8739914E4,1.8945858E1],"tree_param":{"num_deleted":"0","num_feature":"16","num_nodes":"11","size_leaf_vector":"1"}},{"base_weights":[-4.7218511E-4,-1.8186757E-2,1.4867227E0,1.5129662E0,-1.816003E-2,1.536687E0,-1.9363493E-2,-1.5995549E-2,1.5516344E0,-0E0,1.8062029E-2],"categories":[],"categories_nodes":[],"categories_segments":[],"categories_sizes":[],"default_left":[0,0,0,0,0,0,0,0,0,0,0],"id":28,"left_children":[1,-1,3,5,-1,7,-1,-1,9,-1,-1],"loss_changes":[8.621305E4,0E0,1.5289375E3,1.4298516E3,0E0,8.220469E2,0E0,0E0,3.4714844E1,0E0,0E0],"parents":[2147483647,0,0,2,2,3,3,5,5,8,8],"right_children":[2,-1,4,6,-1,8,-1,-1,10,-1,-1],"split_conditions":[5.51217E-1,-1.8186757E-2,3.1981448E2,9.0213954E-1,-1.816003E-2,1.0581536E2,-1.9363493E-2,-1.5995549E-2,3.878899E-1,-0E0,1.8062029E-2],"split_indices":[6,0,3,6,0,3,0,0,12,0,0],"split_type":[0,0,0,0,0,0,0,0,0,0,0],"sum_hessian":[3.706329E4,1.8069324E4,1.8993967E4,1.8833725E4,1.602411E2,1.8696035E4,1.3769038E2,9.355495E1,1.860248E4,2.2143734E1,1.8580336E4],"tree_param":{"num_deleted":"0","num_feature":"16","num_nodes":"11","size_leaf_vector":"1"}},{"base_weights":[-8.07025E-4,-1.8028159E-2,1.4279468E0,1.5003915E0,-1.7996548E-2,-1.959019E-2,1.5137608E0,-1.7125722E-2,1.5216565E0,-6.203776E-3,1.7870987E-2],"categories":[],"categories_nodes":[],"categories_segments":[],"categories_sizes":[],"default_left":[0,0,0,0,0,0,0,0,0,0,0],"id":29,"left_children":[1,-1,3,5,-1,-1,7,-1,9,-1,-1],"loss_changes":[8.164553E4,0E0,4.1442344E3,8.0725E2,0E0,0E0,4.4833984E2,0E0,5.839258E2,0E0,0E0],"parents":[2147483647,0,0,2,2,3,3,6,6,8,8],"right_children":[2,-1,4,6,-1,-1,8,-1,10,-1,-1],"split_conditions":[3.878899E-1,-1.8028159E-2,2.15045E1,1.376457E-1,-1.7996548E-2,-1.959019E-2,8.8676E0,-1.7125722E-2,2.7399076E1,-6.203776E-3,1.7870987E-2],"split_indices":[12,0,0,5,0,0,0,0,2,0,0],"split_type":[0,0,0,0,0,0,0,0,0,0,0],"sum_hessian":[3.686443E4,1.7685986E4,1.9178443E4,1.8724492E4,4.5395087E2,7.641865E1,1.8648074E4,4.7265156E1,1.8600809E4,1.341606E2,1.8466648E4],"tree_param":{"num_deleted":"0","num_feature":"16","num_nodes":"11","size_leaf_vector":"1"}},{"base_weights":[-1.8593466E-3,-1.7944127E-2,1.3136909E0,1.4620181E0,-1.7910168E-2,-1.8508136E-2,1.4923936E0,1.5059758E0,-1.753662E-2,1.7642401E-2,-2.3202165E-3],"categories":[],"categories_nodes":[],"categories_segments":[],"categories_sizes":[],"default_left":[0,0,0,0,0,0,0,0,0,0,0],"id":30,"left_children":[1,-1,3,5,-1,-1,7,9,-1,-1,-1],"loss_changes":[7.44435E4,0E0,8.392078E3,1.7554883E3,0E0,0E0,7.6847266E2,3.5614062E2,0E0,0E0,0E0],"parents":[2147483647,0,0,2,2,3,3,6,6,7,7],"right_children":[2,-1,4,6,-1,-1,8,10,-1,-1,-1],"split_conditions":[4.0290168E-1,-1.7944127E-2,1.1727413E2,4.0768275E-1,-1.7910168E-2,-1.8508136E-2,3.9058897E-1,9.66223E-1,-1.753662E-2,1.7642401E-2,-2.3202165E-3],"split_indices":[8,0,2,4,0,0,7,8,0,0,0],"split_type":[0,0,0,0,0,0,0,0,0,0,0],"sum_hessian":[3.67002E4,1.6901615E4,1.9798584E4,1.8822299E4,9.762854E2,1.8350423E2,1.8638795E4,1.8556707E4,8.2088135E1,1.8438096E4,1.18610275E2],"tree_param":{"num_deleted":"0","num_feature":"16","num_nodes":"11","size_leaf_vector":"1"}},{"base_weights":[3.065846E-4,-1.5254018E0,1.3713478E0,-1.7835667E-2,-5.025998E-1,1.4808799E0,-1.7666081E-2,9.4532335E-1,-1.7464364E-2,-1.8038023E-2,1.5100358E0,-0E0,1.650817E-2,-2.3185542E-2,1.7607043E-2],"categories":[],"categories_nodes":[],"categories_segments":[],"categories_sizes":[],"default_left":[0,0,0,0,0,0,0,0,0,0,0,0,0,0,0],"id":31,"left_children":[1,3,5,-1,7,9,-1,11,-1,-1,13,-1,-1,-1,-1],"loss_changes":[7.633654E4,1.3688672E2,6.0941445E3,0E0,2.2988512E2,1.6462188E3,0E0,2.9149307E1,0E0,0E0,2.7575E2,0E0,0E0,0E0,0E0],"parents":[2147483647,0,0,1,1,2,2,4,4,5,5,7,7,10,10],"right_children":[2,4,6,-1,8,10,-1,12,-1,-1,14,-1,-1,-1,-1],"split_conditions":[4.3282554E-1,4.0768275E-1,1.0722495E2,-1.7835667E-2,-3.7881374E1,-3.5573692E1,-1.7666081E-2,-3.860542E1,-1.7464364E-2,-1.8038023E-2,-3.860542E1,-0E0,1.650817E-2,-2.3185542E-2,1.7607043E-2],"split_indices":[4,4,2,0,13,14,0,13,0,0,13,0,0,0,0],"split_type":[0,0,0,0,0,0,0,0,0,0,0,0,0,0,0],"sum_hessian":[3.6479637E4,1.7264416E4,1.9215223E4,1.7119076E4,1.4533939E2,1.8515568E4,6.9965326E2,5.763528E1,8.770411E1,1.7446237E2,1.8341107E4,1.8179628E1,3.945565E1,1.9717537E1,1.8321389E4],"tree_param":{"num_deleted":"0","num_feature":"16","num_nodes":"15","size_leaf_vector":"1"}},{"base_weights":[7.0059975E-4,-1.7690884E-2,1.4005919E0,-1.9497357E-2,1.4133153E0,1.4849142E0,-1.7656649E-2,-1.6904932E-2,1.4924055E0,-1.8549396E-2,1.7410165E-2],"categories":[],"categories_nodes":[],"categories_segments":[],"categories_sizes":[],"default_left":[0,0,0,0,0,0,0,0,0,0,0],"id":32,"left_children":[1,-1,3,-1,5,7,-1,-1,9,-1,-1],"loss_changes":[7.737207E4,0E0,7.5008203E2,0E0,3.963246E3,4.1323438E2,0E0,0E0,2.8165625E2,0E0,0E0],"parents":[2147483647,0,0,2,2,4,4,5,5,8,8],"right_children":[2,-1,4,-1,6,8,-1,-1,10,-1,-1],"split_conditions":[3.878899E-1,-1.7690884E-2,1.376457E-1,-1.9497357E-2,2.15045E1,8.8676E0,-1.7656649E-2,-1.6904932E-2,4.0290168E-1,-1.8549396E-2,1.7410165E-2],"split_indices":[12,0,5,0,0,0,0,0,8,0,0],"split_type":[0,0,0,0,0,0,0,0,0,0,0],"sum_hessian":[3.6299336E4,1.738934E4,1.8909996E4,7.5952126E1,1.8834043E4,1.8386938E4,4.4710672E2,4.4821808E1,1.8342115E4,2.6645947E1,1.8315469E4],"tree_param":{"num_deleted":"0","num_feature":"16","num_nodes":"11","size_leaf_vector":"1"}},{"base_weights":[8.657904E-4,-1.5065445E0,1.354044E0,-1.7620781E-2,6.1866415E-1,1.4236658E0,-1.6884703E-2,1.71777E-2,-1.4669038E-2,1.4729295E0,-1.7633457E-2,-1.8764554E-2,1.484568E0,1.7307509E-2,-3.1818717E-3],"categories":[],"categories_nodes":[],"categories_segments":[],"categories_sizes":[],"default_left":[0,0,0,0,0,0,0,0,0,0,0,0,0,0,0],"id":33,"left_children":[1,3,5,-1,7,9,-1,-1,-1,11,-1,-1,13,-1,-1],"loss_changes":[7.370135E4,3.2260156E2,3.7279219E3,0E0,1.2959787E2,2.6998945E3,0E0,0E0,0E0,6.657969E2,0E0,0E0,1.2388281E2,0E0,0E0],"parents":[2147483647,0,0,1,1,2,2,4,4,5,5,9,9,12,12],"right_children":[2,4,6,-1,8,10,-1,-1,-1,12,-1,-1,14,-1,-1],"split_conditions":[4.3282554E-1,9.540872E-1,3.8176772E-1,-1.7620781E-2,2.8793338E-1,3.1981448E2,-1.6884703E-2,1.71777E-2,-1.4669038E-2,1.376457E-1,-1.7633457E-2,-1.8764554E-2,1.1471533E0,1.7307509E-2,-3.1818717E-3],"split_indices":[4,8,7,0,7,3,0,0,0,5,0,0,4,0,0],"split_type":[0,0,0,0,0,0,0,0,0,0,0,0,0,0,0],"sum_hessian":[3.611817E4,1.7083871E4,1.90343E4,1.7015826E4,6.804489E1,1.8575428E4,4.58873E2,4.8409866E1,1.9635025E1,1.8271219E4,3.0420828E2,6.674892E1,1.820447E4,1.8167566E4,3.690394E1],"tree_param":{"num_deleted":"0","num_feature":"16","num_nodes":"15","size_leaf_vector":"1"}},{"base_weights":[-1.4873676E-3,-1.7522912E-2,1.4302922E0,-1.7762695E-2,1.4706682E0,1.4873981E0,-1.7225428E-2,-1.5261007E-2,1.4896755E0,-1.3938113E-2,1.7340966E-2],"categories":[],"categories_nodes":[],"categories_segments":[],"categories_sizes":[],"default_left":[0,0,0,0,0,0,0,0,0,0,0],"id":34,"left_children":[1,-1,3,-1,5,7,-1,-1,9,-1,-1],"loss_changes":[7.7428445E4,0E0,2.2071445E3,0E0,9.0547266E2,1.2269531E2,0E0,0E0,8.400391E1,0E0,0E0],"parents":[2147483647,0,0,2,2,4,4,5,5,8,8],"right_children":[2,-1,4,-1,6,8,-1,-1,10,-1,-1],"split_conditions":[5.51217E-1,-1.7522912E-2,-3.5573692E1,-1.7762695E-2,3.7266943E2,8.8676E0,-1.7225428E-2,-1.5261007E-2,2.3139618E1,-1.3938113E-2,1.7340966E-2],"split_indices":[6,0,14,0,1,0,0,0,15,0,0],"split_type":[0,0,0,0,0,0,0,0,0,0,0],"sum_hessian":[3.59087E4,1.7505598E4,1.8403104E4,2.459186E2,1.8157186E4,1.8056785E4,1.00400314E2,1.2694188E1,1.804409E4,8.640737E0,1.803545E4],"tree_param":{"num_deleted":"0","num_feature":"16","num_nodes":"11","size_leaf_vector":"1"}},{"base_weights":[5.319234E-4,-1.4889258E0,1.336489E0,-1.7412048E-2,-4.7044578E-1,1.4262564E0,-1.743741E-2,9.9047613E-1,-1.703768E-2,1.4375228E0,-9.671954E-1,-1.6993367E-3,1.6382605E-2,-1.7608343E-2,1.4696496E0,-1.7724698E-2,1.3553476E-2,1.7148038E-2,-1.6682727E-2],"categories":[],"categories_nodes":[],"categories_segments":[],"categories_sizes":[],"default_left":[0,0,0,0,0,0,0,0,0,0,0,0,0,0,0,0,0,0,0],"id":35,"left_children":[1,3,5,-1,7,9,-1,11,-1,13,15,-1,-1,-1,17,-1,-1,-1,-1],"loss_changes":[7.104361E4,1.3395312E2,4.800074E3,0E0,2.2827141E2,4.9751562E2,0E0,3.344323E1,0E0,1.7310078E3,1.1396333E2,0E0,0E0,0E0,2.7040234E2,0E0,0E0,0E0,0E0],"parents":[2147483647,0,0,1,1,2,2,4,4,5,5,7,7,9,9,10,10,14,14],"right_children":[2,4,6,-1,8,10,-1,12,-1,14,16,-1,-1,-1,18,-1,-1,-1,-1],"split_conditions":[4.3282554E-1,4.0768275E-1,3.1981448E2,-1.7412048E-2,1.07701416E2,1.1471533E0,-1.743741E-2,1.0581536E2,-1.703768E-2,-3.5573692E1,3.0133396E1,-1.6993367E-3,1.6382605E-2,-1.7608343E-2,5.8002594E1,-1.7724698E-2,1.3553476E-2,1.7148038E-2,-1.6682727E-2],"split_indices":[4,4,3,0,3,4,0,3,0,14,14,0,0,0,14,0,0,0,0],"split_type":[0,0,0,0,0,0,0,0,0,0,0,0,0,0,0,0,0,0,0],"sum_hessian":[3.568925E4,1.6873598E4,1.8815654E4,1.6730123E4,1.4347499E2,1.82403E4,5.753539E2,5.6392612E1,8.708238E1,1.8157004E4,8.329589E1,1.2618815E1,4.3773796E1,1.9357211E2,1.7963432E4,6.7848694E1,1.5447199E1,1.793436E4,2.9072477E1],"tree_param":{"num_deleted":"0","num_feature":"16","num_nodes":"19","size_leaf_vector":"1"}},{"base_weights":[8.5010106E-4,-1.7321404E-2,1.4131095E0,1.4376204E0,-1.708056E-2,-1.6461154E-2,1.4633754E0,-1.9260617E-2,1.4755439E0,1.7209573E-2,-2.0559119E-2],"categories":[],"categories_nodes":[],"categories_segments":[],"categories_sizes":[],"default_left":[0,0,0,0,0,0,0,0,0,0,0],"id":36,"left_children":[1,-1,3,5,-1,-1,7,-1,9,-1,-1],"loss_changes":[7.4716E4,0E0,1.2958477E3,1.3362773E3,0E0,0E0,6.8954297E2,0E0,2.6607422E2,0E0,0E0],"parents":[2147483647,0,0,2,2,3,3,6,6,8,8],"right_children":[2,-1,4,6,-1,-1,8,-1,10,-1,-1],"split_conditions":[5.51217E-1,-1.7321404E-2,2.15045E1,1.0581536E2,-1.708056E-2,-1.6461154E-2,1.376457E-1,-1.9260617E-2,9.0213954E-1,1.7209573E-2,-2.0559119E-2],"split_indices":[6,0,0,3,0,0,5,0,6,0,0],"split_type":[0,0,0,0,0,0,0,0,0,0,0],"sum_hessian":[3.548306E4,1.7262236E4,1.822082E4,1.8069117E4,1.5170255E2,1.596876E2,1.790943E4,6.7704636E1,1.7841727E4,1.7819285E4,2.244044E1],"tree_param":{"num_deleted":"0","num_feature":"16","num_nodes":"11","size_leaf_vector":"1"}},{"base_weights":[1.501638E-4,9.3842137E-1,-1.4723994E0,-1.727641E-2,1.4302593E0,-7.357255E-1,-1.720445E-2,-7.669329E-1,1.4398525E0,-1.7311446E-2,1.4217161E-2,-1.7010272E-2,-1.394544E-1,1.4592215E0,-1.908457E-2,-1.0051902E-2,1.4725017E-2,-1.5554599E-2,1.7049005E-2],"categories":[],"categories_nodes":[],"categories_segments":[],"categories_sizes":[],"default_left":[0,0,0,0,0,0,0,0,0,0,0,0,0,0,0,0,0,0,0],"id":37,"left_children":[1,3,5,-1,7,9,-1,11,13,-1,-1,-1,15,17,-1,-1,-1,-1,-1],"loss_changes":[4.8719793E4,2.5686955E4,6.157617E1,0E0,3.818203E2,2.2171732E2,0E0,3.025914E1,1.0734492E3,0E0,0E0,0E0,6.111489E1,3.5141406E2,0E0,0E0,0E0,0E0,0E0],"parents":[2147483647,0,0,1,1,2,2,4,4,5,5,7,7,8,8,12,12,13,13],"right_children":[2,4,6,-1,8,10,-1,12,14,-1,-1,-1,16,18,-1,-1,-1,-1,-1],"split_conditions":[2.095168E1,5.51217E-1,2.15045E1,-1.727641E-2,3.878899E-1,5.79681E-1,-1.720445E-2,8.828187E-1,9.0213954E-1,-1.7311446E-2,1.4217161E-2,-1.7010272E-2,-3.860542E1,-3.860542E1,-1.908457E-2,-1.0051902E-2,1.4725017E-2,-1.5554599E-2,1.7049005E-2],"split_indices":[0,6,0,0,12,12,0,6,6,0,0,0,13,13,0,0,0,0,0],"split_type":[0,0,0,0,0,0,0,0,0,0,0,0,0,0,0,0,0,0,0],"sum_hessian":[3.524685E4,2.1531055E4,1.3715797E4,3.6298533E3,1.7901201E4,1.3810173E2,1.3577695E4,7.555224E1,1.7825648E4,1.01486046E2,3.6615677E1,3.198587E1,4.356637E1,1.771618E4,1.09469086E2,3.098841E1,1.2577955E1,4.1837303E1,1.7674342E4],"tree_param":{"num_deleted":"0","num_feature":"16","num_nodes":"19","size_leaf_vector":"1"}},{"base_weights":[-1.1150254E-4,-1.7127981E-2,1.3971108E0,-1.759803E-2,1.4442397E0,1.4561911E0,-1.6469374E-2,-1.9285472E-2,1.459705E0,1.7015327E-2,-2.030383E-2],"categories":[],"categories_nodes":[],"categories_segments":[],"categories_sizes":[],"default_left":[0,0,0,0,0,0,0,0,0,0,0],"id":38,"left_children":[1,-1,3,-1,5,7,-1,-1,9,-1,-1],"loss_changes":[7.212831E4,0E0,2.4753438E3,0E0,6.1314844E2,2.023711E2,0E0,0E0,2.1071484E2,0E0,0E0],"parents":[2147483647,0,0,2,2,4,4,5,5,8,8],"right_children":[2,-1,4,-1,6,8,-1,-1,10,-1,-1],"split_conditions":[5.51217E-1,-1.7127981E-2,2.3139618E1,-1.759803E-2,2.15045E1,1.376457E-1,-1.6469374E-2,-1.9285472E-2,9.0213954E-1,1.7015327E-2,-2.030383E-2],"split_indices":[6,0,15,0,0,5,0,0,6,0,0],"split_type":[0,0,0,0,0,0,0,0,0,0,0],"sum_hessian":[3.5035793E4,1.7057818E4,1.7977977E4,2.8454498E2,1.769343E4,1.7621781E4,7.164922E1,1.7966608E1,1.7603814E4,1.7586174E4,1.7641897E1],"tree_param":{"num_deleted":"0","num_feature":"16","num_nodes":"11","size_leaf_vector":"1"}},{"base_weights":[-1.3052745E-3,9.8933196E-1,-1.70099E-2,-1.7041648E-2,1.3165002E0,-1.7364657E-2,1.4452016E0,1.1670273E-1,1.4500564E0,1.5964955E-2,-2.3196738E-2,1.6911615E-2,-1.8991318E-2],"categories":[],"categories_nodes":[],"categories_segments":[],"categories_sizes":[],"default_left":[0,0,0,0,0,0,0,0,0,0,0,0,0],"id":39,"left_children":[1,3,-1,-1,5,-1,7,9,11,-1,-1,-1,-1],"loss_changes":[5.0461277E4,1.6687293E4,0E0,0E0,6.6359766E3,0E0,1.0108594E2,2.0774846E2,2.4001172E2,0E0,0E0,0E0,0E0],"parents":[2147483647,0,0,1,1,4,4,6,6,7,7,8,8],"right_children":[2,4,-1,-1,6,-1,8,10,12,-1,-1,-1,-1],"split_conditions":[1.0722495E2,-3.5573692E1,-1.70099E-2,-1.7041648E-2,5.51217E-1,-1.7364657E-2,2.7399076E1,7.131704E-1,9.0213954E-1,1.5964955E-2,-2.3196738E-2,1.6911615E-2,-1.8991318E-2],"split_indices":[2,14,0,0,6,0,2,6,6,0,0,0,0],"split_type":[0,0,0,0,0,0,0,0,0,0,0,0,0],"sum_hessian":[3.4835875E4,2.0760953E4,1.407492E4,2.4395693E3,1.8321385E4,8.005371E2,1.7520848E4,6.706798E1,1.745378E4,4.3529793E1,2.3538185E1,1.7431453E4,2.2325947E1],"tree_param":{"num_deleted":"0","num_feature":"16","num_nodes":"13","size_leaf_vector":"1"}},{"base_weights":[-0E0,-1.6934948E-2,3.8844204E-1,1.3092345E0,-1.686366E-2,1.3915817E0,-1.7003099E-2,-1.7157407E-2,1.4329952E0,1.6685806E-2,-5.379032E-4],"categories":[],"categories_nodes":[],"categories_segments":[],"categories_sizes":[],"default_left":[0,0,0,0,0,0,0,0,0,0,0],"id":40,"left_children":[1,-1,3,5,-1,7,-1,-1,9,-1,-1],"loss_changes":[1.962533E4,0E0,4.6342742E4,4.170457E3,0E0,2.1115781E3,0E0,0E0,5.0085938E1,0E0,0E0],"parents":[2147483647,0,0,2,2,3,3,5,5,8,8],"right_children":[2,-1,4,6,-1,8,-1,-1,10,-1,-1],"split_conditions":[-3.5573692E1,-1.6934948E-2,3.5832867E2,5.8002594E1,-1.686366E-2,3.4160328E-1,-1.7003099E-2,-1.7157407E-2,3.8176772E-1,1.6685806E-2,-5.379032E-4],"split_indices":[14,0,1,14,0,12,0,0,7,0,0],"split_type":[0,0,0,0,0,0,0,0,0,0,0],"sum_hessian":[3.465827E4,7.2981943E3,2.7360074E4,1.8232113E4,9.127961E3,1.770799E4,5.241242E2,2.5019054E2,1.7457799E4,1.7437967E4,1.9832134E1],"tree_param":{"num_deleted":"0","num_feature":"16","num_nodes":"11","size_leaf_vector":"1"}},{"base_weights":[-1.4534162E-3,-1.6844567E-2,1.2294476E0,1.3693502E0,-1.6808892E-2,-9.7437876E-1,1.4006294E0,-1.8294347E-2,-4.2596456E-2,-2.4334288E-1,1.4113561E0,1.4917141E-2,-1.5899219E-2,1.1722034E-2,-1.8289356E-2,-1.8059952E-2,1.6622258E-2],"categories":[],"categories_nodes":[],"categories_segments":[],"categories_sizes":[],"default_left":[0,0,0,0,0,0,0,0,0,0,0,0,0,0,0,0,0],"id":41,"left_children":[1,-1,3,5,-1,7,9,-1,11,13,15,-1,-1,-1,-1,-1,-1],"loss_changes":[6.140908E4,0E0,6.978293E3,1.3032695E3,0E0,1.23777374E2,3.0951562E2,0E0,1.9001682E2,2.0831146E2,9.4041797E2,0E0,0E0,0E0,0E0,0E0,0E0],"parents":[2147483647,0,0,2,2,3,3,5,5,6,6,8,8,9,9,10,10],"right_children":[2,-1,4,6,-1,8,10,-1,12,14,16,-1,-1,-1,-1,-1,-1],"split_conditions":[4.0290168E-1,-1.6844567E-2,2.15045E1,2.7399076E1,-1.6808892E-2,1.137168E1,9.344067E0,-1.8294347E-2,3.755253E-1,6.387443E-1,5.51217E-1,1.4917141E-2,-1.5899219E-2,1.1722034E-2,-1.8289356E-2,-1.8059952E-2,1.6622258E-2],"split_indices":[8,0,0,2,0,0,0,0,5,6,6,0,0,0,0,0,0],"split_type":[0,0,0,0,0,0,0,0,0,0,0,0,0,0,0,0,0],"sum_hessian":[3.4459707E4,1.584023E4,1.8619477E4,1.7696033E4,9.2344385E2,2.3087634E2,1.7465158E4,1.3735422E2,9.352212E1,1.1051354E2,1.7354645E4,4.5162693E1,4.8359425E1,5.5408913E1,5.510463E1,1.0339662E2,1.7251248E4],"tree_param":{"num_deleted":"0","num_feature":"16","num_nodes":"17","size_leaf_vector":"1"}},{"base_weights":[3.163222E-4,-1.66661E-2,1.2848693E0,1.3710513E0,-1.6786234E-2,-1.6884075E-2,1.3928037E0,-1.9372093E-2,1.4028307E0,1.6395379E-2,-1.5828315E-2],"categories":[],"categories_nodes":[],"categories_segments":[],"categories_sizes":[],"default_left":[0,0,0,0,0,0,0,0,0,0,0],"id":42,"left_children":[1,-1,3,5,-1,-1,7,-1,9,-1,-1],"loss_changes":[6.308218E4,0E0,4.2563887E3,1.0837734E3,0E0,0E0,5.425625E2,0E0,3.4858203E2,0E0,0E0],"parents":[2147483647,0,0,2,2,3,3,6,6,8,8],"right_children":[2,-1,4,6,-1,-1,8,-1,10,-1,-1],"split_conditions":[4.3282554E-1,-1.66661E-2,3.1981448E2,1.0581536E2,-1.6786234E-2,-1.6884075E-2,-3.860542E1,-1.9372093E-2,2.2345572E0,1.6395379E-2,-1.5828315E-2],"split_indices":[4,0,3,3,0,0,13,0,13,0,0],"split_type":[0,0,0,0,0,0,0,0,0,0,0],"sum_hessian":[3.4242344E4,1.61810625E4,1.8061281E4,1.7510244E4,5.510375E2,1.3189626E2,1.7378348E4,5.4861122E1,1.7323486E4,1.7281016E4,4.2471863E1],"tree_param":{"num_deleted":"0","num_feature":"16","num_nodes":"11","size_leaf_vector":"1"}},{"base_weights":[-1.0989225E-4,9.686483E-1,-1.6658861E-2,-1.649134E-2,1.3215885E0,-1.4128028E0,1.4027157E0,-1.7036768E-2,1.1899452E-2,-1.896777E-2,1.4137067E0,-2.326819E-2,1.6489185E-2],"categories":[],"categories_nodes":[],"categories_segments":[],"categories_sizes":[],"default_left":[0,0,0,0,0,0,0,0,0,0,0,0,0],"id":43,"left_children":[1,3,-1,-1,5,7,9,-1,-1,-1,11,-1,-1],"loss_changes":[4.7190586E4,1.7092238E4,0E0,0E0,3.9277266E3,7.123279E1,5.815078E2,0E0,0E0,0E0,2.6290625E2,0E0,0E0],"parents":[2147483647,0,0,1,1,4,4,5,5,6,6,10,10],"right_children":[2,4,-1,-1,6,8,10,-1,-1,-1,12,-1,-1],"split_conditions":[1.0722495E2,1.5835297E2,-1.6658861E-2,-1.649134E-2,3.878899E-1,8.9129144E-1,1.376457E-1,-1.7036768E-2,1.1899452E-2,-1.896777E-2,-3.860542E1,-2.326819E-2,1.6489185E-2],"split_indices":[2,1,0,0,12,8,5,0,0,0,13,0,0],"split_type":[0,0,0,0,0,0,0,0,0,0,0,0,0],"sum_hessian":[3.3987184E4,2.0273877E4,1.3713308E4,2.6097488E3,1.7664129E4,5.069994E2,1.7157129E4,4.984384E2,8.561008E0,6.0005886E1,1.7097123E4,1.9718063E1,1.7077404E4],"tree_param":{"num_deleted":"0","num_feature":"16","num_nodes":"13","size_leaf_vector":"1"}},{"base_weights":[3.9618864E-4,-1.649346E-2,1.2709825E0,1.3738543E0,-1.6589398E-2,-1.6665353E-2,1.3939315E0,-2.2766322E-2,1.3983748E0,1.639246E-2,-1.806704E-2],"categories":[],"categories_nodes":[],"categories_segments":[],"categories_sizes":[],"default_left":[0,0,0,0,0,0,0,0,0,0,0],"id":44,"left_children":[1,-1,3,5,-1,-1,7,-1,9,-1,-1],"loss_changes":[6.085645E4,0E0,4.950256E3,9.750039E2,0E0,0E0,2.6476562E2,0E0,5.7753125E2,0E0,0E0],"parents":[2147483647,0,0,2,2,3,3,6,6,8,8],"right_children":[2,-1,4,6,-1,-1,8,-1,10,-1,-1],"split_conditions":[4.3282554E-1,-1.649346E-2,3.7266943E2,1.5835297E2,-1.6589398E-2,-1.6665353E-2,-3.860542E1,-2.2766322E-2,9.0213954E-1,1.639246E-2,-1.806704E-2],"split_indices":[4,0,1,1,0,0,13,0,6,0,0],"split_type":[0,0,0,0,0,0,0,0,0,0,0],"sum_hessian":[3.3744555E4,1.5940931E4,1.7803625E4,1.7151623E4,6.520023E2,1.19805214E2,1.7031816E4,2.0702097E1,1.7011115E4,1.6948074E4,6.3040554E1],"tree_param":{"num_deleted":"0","num_feature":"16","num_nodes":"11","size_leaf_vector":"1"}},{"base_weights":[-2.4707374E-4,-1.6475236E-2,1.3007553E0,1.3677909E0,-1.6492415E-2,-1.518577E-2,1.3880057E0,-1.751663E-2,1.399425E0,1.6293308E-2,-0E0],"categories":[],"categories_nodes":[],"categories_segments":[],"categories_sizes":[],"default_left":[0,0,0,0,0,0,0,0,0,0,0],"id":45,"left_children":[1,-1,3,5,-1,-1,7,-1,9,-1,-1],"loss_changes":[6.1822387E4,0E0,3.1945137E3,9.296289E2,0E0,0E0,5.6831445E2,0E0,4.023828E1,0E0,0E0],"parents":[2147483647,0,0,2,2,3,3,6,6,8,8],"right_children":[2,-1,4,6,-1,-1,8,-1,10,-1,-1],"split_conditions":[3.878899E-1,-1.6475236E-2,3.7266943E2,1.5835297E2,-1.6492415E-2,-1.518577E-2,2.3139618E1,-1.751663E-2,3.8176772E-1,1.6293308E-2,-0E0],"split_indices":[12,0,1,1,0,0,15,0,7,0,0],"split_type":[0,0,0,0,0,0,0,0,0,0,0],"sum_hessian":[3.3530414E4,1.6053779E4,1.7476635E4,1.7058139E4,4.1849524E2,1.2594901E2,1.693219E4,6.456628E1,1.6867623E4,1.684915E4,1.8472942E1],"tree_param":{"num_deleted":"0","num_feature":"16","num_nodes":"11","size_leaf_vector":"1"}},{"base_weights":[-9.245786E-4,-1.6394967E-2,1.2941992E0,-1.6811173E-2,1.3482026E0,-1.7007876E-2,1.3860728E0,1.3954006E0,-1.1459785E-2,1.6280118E-2,-1.7018463E-2],"categories":[],"categories_nodes":[],"categories_segments":[],"categories_sizes":[],"default_left":[0,0,0,0,0,0,0,0,0,0,0],"id":46,"left_children":[1,-1,3,-1,5,-1,7,9,-1,-1,-1],"loss_changes":[6.0833023E4,0E0,2.5777031E3,0E0,1.8213184E3,0E0,3.7741016E2,2.3014844E2,0E0,0E0,0E0],"parents":[2147483647,0,0,2,2,4,4,6,6,7,7],"right_children":[2,-1,4,-1,6,-1,8,10,-1,-1,-1],"split_conditions":[3.878899E-1,-1.6394967E-2,5.51217E-1,-1.6811173E-2,2.3139618E1,-1.7007876E-2,3.8176772E-1,5.8002594E1,-1.1459785E-2,1.6280118E-2,-1.7018463E-2],"split_indices":[12,0,6,0,15,0,7,14,0,0,0],"split_type":[0,0,0,0,0,0,0,0,0,0,0],"sum_hessian":[3.3321734E4,1.5960844E4,1.736089E4,3.3355142E2,1.7027338E4,2.2436969E2,1.6802969E4,1.673933E4,6.3638554E1,1.6714227E4,2.5103254E1],"tree_param":{"num_deleted":"0","num_feature":"16","num_nodes":"11","size_leaf_vector":"1"}},{"base_weights":[-2.5024163E-4,-1.6316323E-2,1.2874972E0,1.3525296E0,-1.6278328E-2,-1.7018441E-2,1.3835895E0,-1.8580033E-2,1.38794E0,1.6156381E-2,-1.1438886E-2],"categories":[],"categories_nodes":[],"categories_segments":[],"categories_sizes":[],"default_left":[0,0,0,0,0,0,0,0,0,0,0],"id":47,"left_children":[1,-1,3,5,-1,-1,7,-1,9,-1,-1],"loss_changes":[5.9821066E4,0E0,3.0245645E3,1.4825234E3,0E0,0E0,2.2526562E2,0E0,6.2990234E1,0E0,0E0],"parents":[2147483647,0,0,2,2,3,3,6,6,8,8],"right_children":[2,-1,4,6,-1,-1,8,-1,10,-1,-1],"split_conditions":[3.878899E-1,-1.6316323E-2,2.15045E1,2.3139618E1,-1.6278328E-2,-1.7018441E-2,4.0290168E-1,-1.8580033E-2,3.7266943E2,1.6156381E-2,-1.1438886E-2],"split_indices":[12,0,0,15,0,0,8,0,1,0,0],"split_type":[0,0,0,0,0,0,0,0,0,0,0],"sum_hessian":[3.3097984E4,1.5842279E4,1.7255705E4,1.6850021E4,4.056821E2,1.8182744E2,1.6668195E4,2.2332502E1,1.6645861E4,1.6637861E4,8.001385E0],"tree_param":{"num_deleted":"0","num_feature":"16","num_nodes":"11","size_leaf_vector":"1"}},{"base_weights":[-0E0,-1.6239341E-2,1.2809191E0,1.2998677E0,-1.315439E-2,-1.8375158E-2,1.3126134E0,-1.7258897E-2,1.3213929E0,-1.6335638E-2,1.5772989E-2],"categories":[],"categories_nodes":[],"categories_segments":[],"categories_sizes":[],"default_left":[0,0,0,0,0,0,0,0,0,0,0],"id":48,"left_children":[1,-1,3,5,-1,-1,7,-1,9,-1,-1],"loss_changes":[5.883918E4,0E0,7.903125E2,6.3360547E2,0E0,0E0,4.2442383E2,0E0,1.6216445E3,0E0,0E0],"parents":[2147483647,0,0,2,2,3,3,6,6,8,8],"right_children":[2,-1,4,6,-1,-1,8,-1,10,-1,-1],"split_conditions":[3.878899E-1,-1.6239341E-2,1.1471533E0,1.376457E-1,-1.315439E-2,-1.8375158E-2,4.0290168E-1,-1.7258897E-2,2.3139618E1,-1.6335638E-2,1.5772989E-2],"split_indices":[12,0,4,5,0,0,8,0,15,0,0],"split_type":[0,0,0,0,0,0,0,0,0,0,0],"sum_hessian":[3.2877453E4,1.5730022E4,1.7147432E4,1.7015982E4,1.314485E2,7.296369E1,1.694302E4,5.0981308E1,1.689204E4,2.122748E2,1.6679764E4],"tree_param":{"num_deleted":"0","num_feature":"16","num_nodes":"11","size_leaf_vector":"1"}},{"base_weights":[-1.2355677E-3,-1.3900474E0,1.2744318E0,-1.6203273E-2,1.2759295E-4,-1.6645253E-2,1.32813E0,1.34073E0,-5.6319976E-1,-1.6236167E-2,1.3622776E0,5.1244694E-1,-1.7676357E-2,1.6029144E-2,-1.509059E-2,1.4579743E-2,-1.2350824E-2],"categories":[],"categories_nodes":[],"categories_segments":[],"categories_sizes":[],"default_left":[0,0,0,0,0,0,0,0,0,0,0,0,0,0,0,0,0],"id":49,"left_children":[1,3,5,-1,-1,-1,7,9,11,-1,13,15,-1,-1,-1,-1,-1],"loss_changes":[5.788526E4,7.415039E1,2.48192E3,0E0,0E0,0E0,4.0110156E2,9.8618945E2,1.2726984E2,0E0,7.1559375E2,7.358329E1,0E0,0E0,0E0,0E0,0E0],"parents":[2147483647,0,0,1,1,2,2,6,6,7,7,8,8,10,10,11,11],"right_children":[2,4,6,-1,-1,-1,8,10,12,-1,14,16,-1,-1,-1,-1,-1],"split_conditions":[3.878899E-1,9.61931E-1,5.51217E-1,-1.6203273E-2,1.2759295E-4,-1.6645253E-2,9.66223E-1,-3.5573692E1,9.0213954E-1,-1.6236167E-2,1.0722495E2,4.0081397E-1,-1.7676357E-2,1.6029144E-2,-1.509059E-2,1.4579743E-2,-1.2350824E-2],"split_indices":[12,8,6,0,0,0,8,14,6,0,2,12,0,0,0,0,0],"split_type":[0,0,0,0,0,0,0,0,0,0,0,0,0,0,0,0,0],"sum_hessian":[3.2657828E4,1.5637072E4,1.7020754E4,1.5602468E4,3.460494E1,3.2916858E2,1.6691586E4,1.658364E4,1.0794465E2,1.2750294E2,1.6456139E4,4.8950306E1,5.8994343E1,1.635874E4,9.739878E1,3.525129E1,1.3699015E1],"tree_param":{"num_deleted":"0","num_feature":"16","num_nodes":"17","size_leaf_vector":"1"}},{"base_weights":[-3.6125674E-4,-1.378315E0,1.2324713E0,-1.6126964E-2,-3.675636E-1,1.3316226E0,-1.61257E-2,9.520663E-1,-1.5716877E-2,-1.8052759E-2,1.3486247E0,1.6350858E-2,-1.0183389E-2,-5.794723E-1,1.3626009E0,-1.8902872E-2,1.4679289E-2,-1.5062615E-2,1.5909698E-2],"categories":[],"categories_nodes":[],"categories_segments":[],"categories_sizes":[],"default_left":[0,0,0,0,0,0,0,0,0,0,0,0,0,0,0,0,0,0,0],"id":50,"left_children":[1,3,5,-1,7,9,-1,11,-1,-1,13,-1,-1,15,17,-1,-1,-1,-1],"loss_changes":[5.5089977E4,1.2168555E2,4.451701E3,0E0,1.9177376E2,8.172539E2,0E0,5.7165478E1,0E0,0E0,4.4511133E2,0E0,0E0,2.4513976E2,2.4871484E2,0E0,0E0,0E0,0E0],"parents":[2147483647,0,0,1,1,2,2,4,4,5,5,7,7,10,10,13,13,14,14],"right_children":[2,4,6,-1,8,10,-1,12,-1,-1,14,-1,-1,16,18,-1,-1,-1,-1],"split_conditions":[4.3282554E-1,4.0768275E-1,2.15045E1,-1.6126964E-2,1.05596895E1,-3.860542E1,-1.61257E-2,2.8793338E-1,-1.5716877E-2,-1.8052759E-2,2.7399076E1,1.6350858E-2,-1.0183389E-2,3.1522412E2,1.0581536E2,-1.8902872E-2,1.4679289E-2,-1.5062615E-2,1.5909698E-2],"split_indices":[4,4,0,0,0,13,0,7,0,0,2,0,0,3,3,0,0,0,0],"split_type":[0,0,0,0,0,0,0,0,0,0,0,0,0,0,0,0,0,0,0],"sum_hessian":[3.2413623E4,1.5307522E4,1.7106102E4,1.5174588E4,1.3293419E2,1.6484201E4,6.219008E2,5.4956196E1,7.797799E1,9.461464E1,1.6389586E4,4.6065056E1,8.891139E0,1.1547265E2,1.6274113E4,7.518879E1,4.0283855E1,3.2016117E1,1.6242097E4],"tree_param":{"num_deleted":"0","num_feature":"16","num_nodes":"19","size_leaf_vector":"1"}}]},"name":"gbtree"},"learner_model_param":{"base_score":"4.9921173E-1","boost_from_average":"1","num_class":"0","num_feature":"16","num_target":"1"},"objective":{"name":"binary:logistic","reg_loss_param":{"scale_pos_weight":"1"}}},"version":[2,1,1]}