{"learner":{"attributes":{"best_iteration":"36","best_score":"0.8482265875330277"},"feature_names":["Cumulative"],"feature_types":["float"],"gradient_booster":{"model":{"gbtree_model_param":{"num_parallel_tree":"1","num_trees":"87"},"iteration_indptr":[0,1,2,3,4,5,6,7,8,9,10,11,12,13,14,15,16,17,18,19,20,21,22,23,24,25,26,27,28,29,30,31,32,33,34,35,36,37,38,39,40,41,42,43,44,45,46,47,48,49,50,51,52,53,54,55,56,57,58,59,60,61,62,63,64,65,66,67,68,69,70,71,72,73,74,75,76,77,78,79,80,81,82,83,84,85,86,87],"tree_info":[0,0,0,0,0,0,0,0,0,0,0,0,0,0,0,0,0,0,0,0,0,0,0,0,0,0,0,0,0,0,0,0,0,0,0,0,0,0,0,0,0,0,0,0,0,0,0,0,0,0,0,0,0,0,0,0,0,0,0,0,0,0,0,0,0,0,0,0,0,0,0,0,0,0,0,0,0,0,0,0,0,0,0,0,0,0,0],"trees":[{"base_weights":[-1.1312658E0],"categories":[],"categories_nodes":[],"categories_segments":[],"categories_sizes":[],"default_left":[0],"id":0,"left_children":[-1],"loss_changes":[0E0],"parents":[2147483647],"right_children":[-1],"split_conditions":[-1.9797151E-1],"split_indices":[0],"split_type":[0],"sum_hessian":[4.5426066E4],"tree_param":{"num_deleted":"0","num_feature":"1","num_nodes":"1","size_leaf_vector":"1"}},{"base_weights":[-1.1062332E0,-1.9367309E-1,-1.7164613E-1],"categories":[],"categories_nodes":[],"categories_segments":[],"categories_sizes":[],"default_left":[0,0,0],"id":1,"left_children":[1,-1,-1],"loss_changes":[1.2070312E0,0E0,0E0],"parents":[2147483647,0,0],"right_children":[2,-1,-1],"split_conditions":[7.227692E0,-1.9367309E-1,-1.7164613E-1],"split_indices":[0,0,0],"split_type":[0,0,0],"sum_hessian":[3.8930035E4,3.87768E4,1.5323576E2],"tree_param":{"num_deleted":"0","num_feature":"1","num_nodes":"3","size_leaf_vector":"1"}},{"base_weights":[-1.0857866E0,-1.9010727E-1,-1.6575484E-1],"categories":[],"categories_nodes":[],"categories_segments":[],"categories_sizes":[],"default_left":[0,0,0],"id":2,"left_children":[1,-1,-1],"loss_changes":[1.46875E0,0E0,0E0],"parents":[2147483647,0,0],"right_children":[2,-1,-1],"split_conditions":[7.227692E0,-1.9010727E-1,-1.6575484E-1],"split_indices":[0,0,0],"split_type":[0,0,0],"sum_hessian":[3.328109E4,3.3144945E4,1.361451E2],"tree_param":{"num_deleted":"0","num_feature":"1","num_nodes":"3","size_leaf_vector":"1"}},{"base_weights":[-1.068917E0,-1.871712E-1,-1.5702505E-1],"categories":[],"categories_nodes":[],"categories_segments":[],"categories_sizes":[],"default_left":[0,0,0],"id":3,"left_children":[1,-1,-1],"loss_changes":[2.1171875E0,0E0,0E0],"parents":[2147483647,0,0],"right_children":[2,-1,-1],"split_conditions":[7.227692E0,-1.871712E-1,-1.5702505E-1],"split_indices":[0,0,0],"split_type":[0,0,0],"sum_hessian":[2.8330117E4,2.8220844E4,1.0927251E2],"tree_param":{"num_deleted":"0","num_feature":"1","num_nodes":"3","size_leaf_vector":"1"}},{"base_weights":[-1.0547328E0,-1.8470787E-1,-1.5183525E-1],"categories":[],"categories_nodes":[],"categories_segments":[],"categories_sizes":[],"default_left":[0,0,0],"id":4,"left_children":[1,-1,-1],"loss_changes":[2.4140625E0,0E0,0E0],"parents":[2147483647,0,0],"right_children":[2,-1,-1],"split_conditions":[7.227692E0,-1.8470787E-1,-1.5183525E-1],"split_indices":[0,0,0],"split_type":[0,0,0],"sum_hessian":[2.3993879E4,2.3894645E4,9.923385E1],"tree_param":{"num_deleted":"0","num_feature":"1","num_nodes":"3","size_leaf_vector":"1"}},{"base_weights":[-1.0427043E0,-1.8262555E-1,-1.4500193E-1],"categories":[],"categories_nodes":[],"categories_segments":[],"categories_sizes":[],"default_left":[0,0,0],"id":5,"left_children":[1,-1,-1],"loss_changes":[2.9316406E0,0E0,0E0],"parents":[2147483647,0,0],"right_children":[2,-1,-1],"split_conditions":[7.227692E0,-1.8262555E-1,-1.4500193E-1],"split_indices":[0,0,0],"split_type":[0,0,0],"sum_hessian":[2.0374902E4,2.0288578E4,8.6323425E1],"tree_param":{"num_deleted":"0","num_feature":"1","num_nodes":"3","size_leaf_vector":"1"}},{"base_weights":[-1.0322839E0,-1.8082842E-1,-1.3911402E-1],"categories":[],"categories_nodes":[],"categories_segments":[],"categories_sizes":[],"default_left":[0,0,0],"id":6,"left_children":[1,-1,-1],"loss_changes":[3.3730469E0,0E0,0E0],"parents":[2147483647,0,0],"right_children":[2,-1,-1],"split_conditions":[7.227692E0,-1.8082842E-1,-1.3911402E-1],"split_indices":[0,0,0],"split_type":[0,0,0],"sum_hessian":[1.7304182E4,1.7226701E4,7.748163E1],"tree_param":{"num_deleted":"0","num_feature":"1","num_nodes":"3","size_leaf_vector":"1"}},{"base_weights":[-1.0230409E0,-1.7924377E-1,-1.3068557E-1],"categories":[],"categories_nodes":[],"categories_segments":[],"categories_sizes":[],"default_left":[0,0,0],"id":7,"left_children":[1,-1,-1],"loss_changes":[4.125E0,0E0,0E0],"parents":[2147483647,0,0],"right_children":[2,-1,-1],"split_conditions":[7.227692E0,-1.7924377E-1,-1.3068557E-1],"split_indices":[0,0,0],"split_type":[0,0,0],"sum_hessian":[1.463279E4,1.4566324E4,6.646637E1],"tree_param":{"num_deleted":"0","num_feature":"1","num_nodes":"3","size_leaf_vector":"1"}},{"base_weights":[-1.0146114E0,-1.7780682E-1,-1.2509334E-1],"categories":[],"categories_nodes":[],"categories_segments":[],"categories_sizes":[],"default_left":[0,0,0],"id":8,"left_children":[1,-1,-1],"loss_changes":[4.5595703E0,0E0,0E0],"parents":[2147483647,0,0],"right_children":[2,-1,-1],"split_conditions":[7.227692E0,-1.7780682E-1,-1.2509334E-1],"split_indices":[0,0,0],"split_type":[0,0,0],"sum_hessian":[1.2349884E4,1.2288975E4,6.0909245E1],"tree_param":{"num_deleted":"0","num_feature":"1","num_nodes":"3","size_leaf_vector":"1"}},{"base_weights":[-1.0068281E0,-1.7649005E-1,-1.15905926E-1],"categories":[],"categories_nodes":[],"categories_segments":[],"categories_sizes":[],"default_left":[0,0,0],"id":9,"left_children":[1,-1,-1],"loss_changes":[5.413086E0,0E0,0E0],"parents":[2147483647,0,0],"right_children":[2,-1,-1],"split_conditions":[7.227692E0,-1.7649005E-1,-1.15905926E-1],"split_indices":[0,0,0],"split_type":[0,0,0],"sum_hessian":[1.0466159E4,1.0413254E4,5.290568E1],"tree_param":{"num_deleted":"0","num_feature":"1","num_nodes":"3","size_leaf_vector":"1"}},{"base_weights":[-9.993197E-1,-1.7522947E-1,-1.0853149E-1],"categories":[],"categories_nodes":[],"categories_segments":[],"categories_sizes":[],"default_left":[0,0,0],"id":10,"left_children":[1,-1,-1],"loss_changes":[6.057617E0,0E0,0E0],"parents":[2147483647,0,0],"right_children":[2,-1,-1],"split_conditions":[7.227692E0,-1.7522947E-1,-1.0853149E-1],"split_indices":[0,0,0],"split_type":[0,0,0],"sum_hessian":[8.843933E3,8.796087E3,4.784584E1],"tree_param":{"num_deleted":"0","num_feature":"1","num_nodes":"3","size_leaf_vector":"1"}},{"base_weights":[-9.918035E-1,-1.7397782E-1,-1.0020815E-1],"categories":[],"categories_nodes":[],"categories_segments":[],"categories_sizes":[],"default_left":[0,0,0],"id":11,"left_children":[1,-1,-1],"loss_changes":[6.800293E0,0E0,0E0],"parents":[2147483647,0,0],"right_children":[2,-1,-1],"split_conditions":[7.227692E0,-1.7397782E-1,-1.0020815E-1],"split_indices":[0,0,0],"split_type":[0,0,0],"sum_hessian":[7.462326E3,7.419264E3,4.3062035E1],"tree_param":{"num_deleted":"0","num_feature":"1","num_nodes":"3","size_leaf_vector":"1"}},{"base_weights":[-9.841764E-1,-1.727167E-1,-9.266009E-2],"categories":[],"categories_nodes":[],"categories_segments":[],"categories_sizes":[],"default_left":[0,0,0],"id":12,"left_children":[1,-1,-1],"loss_changes":[7.4414062E0,0E0,0E0],"parents":[2147483647,0,0],"right_children":[2,-1,-1],"split_conditions":[7.227692E0,-1.727167E-1,-9.266009E-2],"split_indices":[0,0,0],"split_type":[0,0,0],"sum_hessian":[6.308498E3,6.26905E3,3.944829E1],"tree_param":{"num_deleted":"0","num_feature":"1","num_nodes":"3","size_leaf_vector":"1"}},{"base_weights":[-9.7623295E-1,-9.794966E-1,-8.462705E-2,-9.3031025E-1,-1.7269814E-1,-1.654195E-1,-7.4198656E-2],"categories":[],"categories_nodes":[],"categories_segments":[],"categories_sizes":[],"default_left":[0,0,0,0,0,0,0],"id":13,"left_children":[1,3,-1,5,-1,-1,-1],"loss_changes":[8.123535E0,1.0014648E0,0E0,4.954956E0,0E0,0E0,0E0],"parents":[2147483647,0,0,1,1,3,3],"right_children":[2,4,-1,6,-1,-1,-1],"split_conditions":[7.227692E0,-4.334729E-1,-8.462705E-2,-4.4125053E-1,-1.7269814E-1,-1.654195E-1,-7.4198656E-2],"split_indices":[0,0,0,0,0,0,0],"split_type":[0,0,0,0,0,0,0],"sum_hessian":[5.3455366E3,5.309375E3,3.6161354E1,7.068195E2,4.6025557E3,6.8571356E2,2.110593E1],"tree_param":{"num_deleted":"0","num_feature":"1","num_nodes":"7","size_leaf_vector":"1"}},{"base_weights":[-9.675897E-1,-9.723938E-1,-9.378177E-2,-9.144118E-1,-1.7171253E-1,-1.630519E-1,-6.367712E-2],"categories":[],"categories_nodes":[],"categories_segments":[],"categories_sizes":[],"default_left":[0,0,0,0,0,0,0],"id":14,"left_children":[1,3,-1,5,-1,-1,-1],"loss_changes":[8.85498E0,1.3886719E0,0E0,5.4267883E0,0E0,0E0,0E0],"parents":[2147483647,0,0,1,1,3,3],"right_children":[2,4,-1,6,-1,-1,-1],"split_conditions":[5.067556E0,-4.334729E-1,-9.378177E-2,-4.4125053E-1,-1.7171253E-1,-1.630519E-1,-6.367712E-2],"split_indices":[0,0,0,0,0,0,0],"split_type":[0,0,0,0,0,0,0],"sum_hessian":[4.5199595E3,4.4689736E3,5.098551E1,6.0390967E2,3.8650642E3,5.8482574E2,1.908392E1],"tree_param":{"num_deleted":"0","num_feature":"1","num_nodes":"7","size_leaf_vector":"1"}},{"base_weights":[-9.582789E-1,-9.639006E-1,-8.600025E-2,-8.9686203E-1,-1.7048977E-1,-1.6041945E-1,-5.8270656E-2],"categories":[],"categories_nodes":[],"categories_segments":[],"categories_sizes":[],"default_left":[0,0,0,0,0,0,0],"id":15,"left_children":[1,3,-1,5,-1,-1,-1],"loss_changes":[9.603516E0,1.7519531E0,0E0,5.4938965E0,0E0,0E0,0E0],"parents":[2147483647,0,0,1,1,3,3],"right_children":[2,4,-1,6,-1,-1,-1],"split_conditions":[5.067556E0,-4.334729E-1,-8.600025E-2,-4.4125053E-1,-1.7048977E-1,-1.6041945E-1,-5.8270656E-2],"split_indices":[0,0,0,0,0,0,0],"split_type":[0,0,0,0,0,0,0],"sum_hessian":[3.8386208E3,3.7918948E3,4.6726177E1,5.1786475E2,3.27403E3,4.9967554E2,1.81892E1],"tree_param":{"num_deleted":"0","num_feature":"1","num_nodes":"7","size_leaf_vector":"1"}},{"base_weights":[-9.475457E-1,-9.5284885E-1,-5.7396565E-2,-8.762687E-1,-9.6473587E-1,-1.5734312E-1,-5.0075892E-2,-1.6942176E-1,-1.2538268E-1],"categories":[],"categories_nodes":[],"categories_segments":[],"categories_sizes":[],"default_left":[0,0,0,0,0,0,0,0,0],"id":16,"left_children":[1,3,-1,5,7,-1,-1,-1,-1],"loss_changes":[1.0341553E1,2.0808105E0,0E0,5.7101135E0,1.638916E0,0E0,0E0,0E0,0E0],"parents":[2147483647,0,0,1,1,3,3,4,4],"right_children":[2,4,-1,6,8,-1,-1,-1,-1],"split_conditions":[7.227692E0,-4.334729E-1,-5.7396565E-2,-4.4125053E-1,3.6338418E0,-1.5734312E-1,-5.0075892E-2,-1.6942176E-1,-1.2538268E-1],"split_indices":[0,0,0,0,0,0,0,0,0],"split_type":[0,0,0,0,0,0,0,0,0],"sum_hessian":[3.2416199E3,3.2135757E3,2.8044123E1,4.41837E2,2.7717388E3,4.2487286E2,1.6964142E1,2.7315571E3,4.018165E1],"tree_param":{"num_deleted":"0","num_feature":"1","num_nodes":"9","size_leaf_vector":"1"}},{"base_weights":[-9.358335E-1,-9.4353235E-1,-6.938329E-2,-8.541288E-1,-9.577277E-1,-8.800127E-1,-4.5226704E-2,-1.6945235E-1,-1.5327547E-1,-7.3905724E-1,-9.0911627E-1,-1.6461219E-1,-5.486279E-2,-1.7061155E-1,-1.4135794E-1],"categories":[],"categories_nodes":[],"categories_segments":[],"categories_sizes":[],"default_left":[0,0,0,0,0,0,0,0,0,0,0,0,0,0,0],"id":17,"left_children":[1,3,-1,5,7,9,-1,-1,-1,11,13,-1,-1,-1,-1],"loss_changes":[1.1078857E1,2.63208E0,0E0,5.658844E0,1.1750488E0,8.272705E-1,0E0,0E0,0E0,5.528858E0,1.2038727E0,0E0,0E0,0E0,0E0],"parents":[2147483647,0,0,1,1,3,3,4,4,5,5,9,9,10,10],"right_children":[2,4,-1,6,8,10,-1,-1,-1,12,14,-1,-1,-1,-1],"split_conditions":[5.067556E0,-4.334729E-1,-6.938329E-2,-4.4125053E-1,3.6961344E-1,-6.112828E-1,-4.5226704E-2,-1.6945235E-1,-1.5327547E-1,-6.586007E-1,-4.649718E-1,-1.6461219E-1,-5.486279E-2,-1.7061155E-1,-1.4135794E-1],"split_indices":[0,0,0,0,0,0,0,0,0,0,0,0,0,0,0],"split_type":[0,0,0,0,0,0,0,0,0,0,0,0,0,0,0],"sum_hessian":[2.7571921E3,2.717651E3,3.9541313E1,3.8075922E2,2.3368916E3,3.6444604E2,1.631317E1,2.06005E3,2.768417E2,6.688768E1,2.9755838E2,4.4566387E1,2.2321291E1,1.7519344E2,1.2236494E2],"tree_param":{"num_deleted":"0","num_feature":"1","num_nodes":"15","size_leaf_vector":"1"}},{"base_weights":[-9.227023E-1,-9.316263E-1,-6.2270798E-2,-8.2927597E-1,-9.4815356E-1,-8.584896E-1,-3.981829E-2,-1.6808522E-1,-1.4951581E-1,-7.013909E-1,-8.917905E-1,-1.6242416E-1,-4.6737775E-2,-1.6943784E-1,-1.3596676E-1],"categories":[],"categories_nodes":[],"categories_segments":[],"categories_sizes":[],"default_left":[0,0,0,0,0,0,0,0,0,0,0,0,0,0,0],"id":18,"left_children":[1,3,-1,5,7,9,-1,-1,-1,11,13,-1,-1,-1,-1],"loss_changes":[1.1572144E1,3.1314697E0,0E0,5.6051025E0,1.4775391E0,1.0189056E0,0E0,0E0,0E0,5.62735E0,1.4915924E0,0E0,0E0,0E0,0E0],"parents":[2147483647,0,0,1,1,3,3,4,4,5,5,9,9,10,10],"right_children":[2,4,-1,6,8,10,-1,-1,-1,12,14,-1,-1,-1,-1],"split_conditions":[5.067556E0,-4.334729E-1,-6.2270798E-2,-4.4125053E-1,3.6961344E-1,-6.112828E-1,-3.981829E-2,-1.6808522E-1,-1.4951581E-1,-6.586007E-1,-4.649718E-1,-1.6242416E-1,-4.6737775E-2,-1.6943784E-1,-1.3596676E-1],"split_indices":[0,0,0,0,0,0,0,0,0,0,0,0,0,0,0],"split_type":[0,0,0,0,0,0,0,0,0,0,0,0,0,0,0],"sum_hessian":[2.3520767E3,2.314989E3,3.7087612E1,3.2896066E2,1.9860284E3,3.133227E2,1.56379795E1,1.7470209E3,2.3900754E2,5.8658894E1,2.546638E2,3.779172E1,2.0867172E1,1.4844243E2,1.06221375E2],"tree_param":{"num_deleted":"0","num_feature":"1","num_nodes":"15","size_leaf_vector":"1"}},{"base_weights":[-9.0736896E-1,-9.200595E-1,-4.169087E-1,-8.023828E-1,-9.3982756E-1,-1.0348329E-1,-3.364349E-2,-8.3503157E-1,-3.4643427E-2,-1.6648887E-1,-1.4789163E-1,-6.667778E-1,-8.723327E-1,-1.6022226E-1,-4.126156E-2,-1.6807681E-1,-1.3048229E-1],"categories":[],"categories_nodes":[],"categories_segments":[],"categories_sizes":[],"default_left":[0,0,0,0,0,0,0,0,0,0,0,0,0,0,0,0,0],"id":19,"left_children":[1,3,5,7,9,-1,-1,11,-1,-1,-1,13,15,-1,-1,-1,-1],"loss_changes":[1.2076538E1,3.7835693E0,1.9365644E0,5.5057373E0,1.0150146E0,0E0,0E0,1.1276093E0,0E0,0E0,0E0,5.5381813E0,1.7365417E0,0E0,0E0,0E0,0E0],"parents":[2147483647,0,0,1,1,2,2,3,3,4,4,7,7,11,11,12,12],"right_children":[2,4,6,8,10,-1,-1,12,-1,-1,-1,14,16,-1,-1,-1,-1],"split_conditions":[3.6338418E0,-4.334729E-1,7.227692E0,-4.4125053E-1,3.6961344E-1,-1.0348329E-1,-3.364349E-2,-6.112828E-1,-3.4643427E-2,-1.6648887E-1,-1.4789163E-1,-6.586007E-1,-4.649718E-1,-1.6022226E-1,-4.126156E-2,-1.6807681E-1,-1.3048229E-1],"split_indices":[0,0,0,0,0,0,0,0,0,0,0,0,0,0,0,0,0],"split_type":[0,0,0,0,0,0,0,0,0,0,0,0,0,0,0,0,0],"sum_hessian":[2.0008984E3,1.9495779E3,5.132062E1,2.8638074E2,1.6631971E3,2.7971579E1,2.3349041E1,2.7134222E2,1.5038521E1,1.4745677E3,1.8862936E2,5.266449E1,2.1867772E2,3.2677998E1,1.998649E1,1.2511077E2,9.3566956E1],"tree_param":{"num_deleted":"0","num_feature":"1","num_nodes":"17","size_leaf_vector":"1"}},{"base_weights":[-8.904097E-1,-9.049989E-1,-3.7374935E-1,-7.7196634E-1,-9.278716E-1,-9.5714584E-2,-2.898354E-2,-8.0823046E-1,-2.9995447E-2,-1.6471809E-1,-8.206617E-1,-6.215582E-1,-8.5063356E-1,-7.1177906E-1,-1.5817375E-1,-1.570079E-1,-3.6594026E-2,-1.6659057E-1,-1.24242894E-1,-1.3213803E-1,-4.1590672E-2],"categories":[],"categories_nodes":[],"categories_segments":[],"categories_sizes":[],"default_left":[0,0,0,0,0,0,0,0,0,0,0,0,0,0,0,0,0,0,0,0,0],"id":20,"left_children":[1,3,5,7,9,-1,-1,11,-1,-1,13,15,17,19,-1,-1,-1,-1,-1,-1,-1],"loss_changes":[1.25876465E1,4.3563232E0,1.6683717E0,5.317642E0,1.2600098E0,0E0,0E0,1.3392639E0,0E0,0E0,8.5149384E-1,5.2005844E0,2.0262604E0,1.3843727E0,0E0,0E0,0E0,0E0,0E0,0E0,0E0],"parents":[2147483647,0,0,1,1,2,2,3,3,4,4,7,7,10,10,11,11,12,12,13,13],"right_children":[2,4,6,8,10,-1,-1,12,-1,-1,14,16,18,20,-1,-1,-1,-1,-1,-1,-1],"split_conditions":[3.6338418E0,-4.334729E-1,7.227692E0,-4.4125053E-1,3.6961344E-1,-9.5714584E-2,-2.898354E-2,-6.112828E-1,-2.9995447E-2,-1.6471809E-1,8.6809206E-1,-6.586007E-1,-4.649718E-1,8.015002E-1,-1.5817375E-1,-1.570079E-1,-3.6594026E-2,-1.6659057E-1,-1.24242894E-1,-1.3213803E-1,-4.1590672E-2],"split_indices":[0,0,0,0,0,0,0,0,0,0,0,0,0,0,0,0,0,0,0,0,0],"split_type":[0,0,0,0,0,0,0,0,0,0,0,0,0,0,0,0,0,0,0,0,0],"sum_hessian":[1.71387E3,1.6660726E3,4.7797363E1,2.495261E2,1.4165465E3,2.5199844E1,2.2597517E1,2.3499074E2,1.4535355E1,1.252514E3,1.640325E2,4.6396496E1,1.8859424E2,7.518345E1,8.8849045E1,2.7106573E1,1.9289923E1,1.0628295E2,8.2311295E1,6.8349365E1,6.8340883E0],"tree_param":{"num_deleted":"0","num_feature":"1","num_nodes":"21","size_leaf_vector":"1"}},{"base_weights":[-8.7064123E-1,-8.8737285E-1,-3.3336577E-1,-7.393421E-1,-9.1372335E-1,-8.8036865E-2,-2.4856294E-2,-7.79156E-1,-2.5858678E-2,-9.293686E-1,-7.9015255E-1,-5.841101E-1,-8.258664E-1,-8.4215814E-1,-1.6599412E-1,-6.685623E-1,-1.5498018E-1,-1.5433471E-1,-3.0979626E-2,-1.6483884E-1,-1.1760081E-1,-1.6012241E-1,-9.3748756E-2,-1.2523663E-1,-3.543471E-2],"categories":[],"categories_nodes":[],"categories_segments":[],"categories_sizes":[],"default_left":[0,0,0,0,0,0,0,0,0,0,0,0,0,0,0,0,0,0,0,0,0,0,0,0,0],"id":21,"left_children":[1,3,5,7,9,-1,-1,11,-1,13,15,17,19,21,-1,23,-1,-1,-1,-1,-1,-1,-1,-1,-1],"loss_changes":[1.2889893E1,4.8707275E0,1.4189029E0,5.068939E0,1.5910645E0,0E0,0E0,1.3943024E0,0E0,9.7650146E-1,1.0541534E0,5.082939E0,2.2917862E0,3.979599E0,0E0,1.313324E0,0E0,0E0,0E0,0E0,0E0,0E0,0E0,0E0,0E0],"parents":[2147483647,0,0,1,1,2,2,3,3,4,4,7,7,9,9,10,10,11,11,12,12,13,13,15,15],"right_children":[2,4,6,8,10,-1,-1,12,-1,14,16,18,20,22,-1,24,-1,-1,-1,-1,-1,-1,-1,-1,-1],"split_conditions":[3.6338418E0,-4.334729E-1,7.227692E0,-4.4125053E-1,3.6961344E-1,-8.8036865E-2,-2.4856294E-2,-6.112828E-1,-2.5858678E-2,-3.7386537E-1,8.6809206E-1,-6.586007E-1,-4.649718E-1,-3.738747E-1,-1.6599412E-1,8.015002E-1,-1.5498018E-1,-1.5433471E-1,-3.0979626E-2,-1.6483884E-1,-1.1760081E-1,-1.6012241E-1,-9.3748756E-2,-1.2523663E-1,-3.543471E-2],"split_indices":[0,0,0,0,0,0,0,0,0,0,0,0,0,0,0,0,0,0,0,0,0,0,0,0,0],"split_type":[0,0,0,0,0,0,0,0,0,0,0,0,0,0,0,0,0,0,0,0,0,0,0,0,0],"sum_hessian":[1.4658054E3,1.4209047E3,4.4900852E1,2.1910168E2,1.201803E3,2.293187E1,2.1968983E1,2.049886E2,1.4113082E1,1.0609552E3,1.4084775E2,4.221569E1,1.627729E2,1.9927698E2,8.616782E2,6.546166E1,7.538609E1,2.3706648E1,1.850904E1,8.986149E1,7.2911415E1,1.5940836E2,3.986862E1,5.8970024E1,6.491634E0],"tree_param":{"num_deleted":"0","num_feature":"1","num_nodes":"25","size_leaf_vector":"1"}},{"base_weights":[-8.487221E-1,-8.677373E-1,-2.9554218E-1,-7.0156777E-1,-8.98054E-1,-8.042352E-2,-2.1231502E-2,-7.450077E-1,-2.2206739E-2,-9.1607714E-1,-7.5958085E-1,-5.368821E-1,-7.970192E-1,-8.1789005E-1,-1.641918E-1,-6.3166064E-1,-1.5141693E-1,-1.5044338E-1,-2.6410481E-2,-1.627946E-1,-1.0991266E-1,-1.575554E-1,-8.58132E-2,-1.191161E-1,-3.3409774E-2],"categories":[],"categories_nodes":[],"categories_segments":[],"categories_sizes":[],"default_left":[0,0,0,0,0,0,0,0,0,0,0,0,0,0,0,0,0,0,0,0,0,0,0,0,0],"id":22,"left_children":[1,3,5,7,9,-1,-1,11,-1,13,15,17,19,21,-1,23,-1,-1,-1,-1,-1,-1,-1,-1,-1],"loss_changes":[1.3026367E1,5.517395E0,1.1867309E0,4.719818E0,1.8708496E0,0E0,0E0,1.5107803E0,0E0,1.2021484E0,1.1334152E0,4.7132006E0,2.5946274E0,4.2687836E0,0E0,1.1643791E0,0E0,0E0,0E0,0E0,0E0,0E0,0E0,0E0,0E0],"parents":[2147483647,0,0,1,1,2,2,3,3,4,4,7,7,9,9,10,10,11,11,12,12,13,13,15,15],"right_children":[2,4,6,8,10,-1,-1,12,-1,14,16,18,20,22,-1,24,-1,-1,-1,-1,-1,-1,-1,-1,-1],"split_conditions":[3.6338418E0,-4.334729E-1,7.227692E0,-4.4125053E-1,3.6961344E-1,-8.042352E-2,-2.1231502E-2,-6.112828E-1,-2.2206739E-2,-3.7386537E-1,8.6809206E-1,-6.586007E-1,-4.649718E-1,-3.738747E-1,-1.641918E-1,8.015002E-1,-1.5141693E-1,-1.5044338E-1,-2.6410481E-2,-1.627946E-1,-1.0991266E-1,-1.575554E-1,-8.58132E-2,-1.191161E-1,-3.3409774E-2],"split_indices":[0,0,0,0,0,0,0,0,0,0,0,0,0,0,0,0,0,0,0,0,0,0,0,0,0],"split_type":[0,0,0,0,0,0,0,0,0,0,0,0,0,0,0,0,0,0,0,0,0,0,0,0,0],"sum_hessian":[1.2617662E3,1.2192856E3,4.2480686E1,1.918536E2,1.027432E3,2.1037163E1,2.1443525E1,1.7809486E2,1.3758739E1,9.041372E2,1.2329482E2,3.7871853E1,1.40223E2,1.7347318E2,7.30664E2,5.8928658E1,6.4366165E1,1.9955292E1,1.7916563E1,7.587773E1,6.434528E1,1.3719707E2,3.6276104E1,5.2542583E1,6.3860726E0],"tree_param":{"num_deleted":"0","num_feature":"1","num_nodes":"25","size_leaf_vector":"1"}},{"base_weights":[-8.2457066E-1,-8.459989E-1,-2.5815088E-1,-6.6499573E-1,-8.803488E-1,-7.230651E-2,-1.8071584E-2,-7.11501E-1,-1.900602E-2,-9.00923E-1,-7.277662E-1,-4.9682295E-1,-7.6781654E-1,-7.9028547E-1,-1.6213822E-1,-5.922411E-1,-1.4773731E-1,-1.4683306E-1,-2.2642832E-2,-1.6657095E-1,-1.0783109E-1,-1.5452547E-1,-7.8424156E-2,-1.126513E-1,-2.841566E-2],"categories":[],"categories_nodes":[],"categories_segments":[],"categories_sizes":[],"default_left":[0,0,0,0,0,0,0,0,0,0,0,0,0,0,0,0,0,0,0,0,0,0,0,0,0],"id":23,"left_children":[1,3,5,7,9,-1,-1,11,-1,13,15,17,19,21,-1,23,-1,-1,-1,-1,-1,-1,-1,-1,-1],"loss_changes":[1.3061707E1,5.966675E0,9.495678E-1,4.3778763E0,2.1152344E0,0E0,0E0,1.537384E0,0E0,1.4571533E0,1.2372131E0,4.3952E0,2.8708572E0,4.428528E0,0E0,1.095398E0,0E0,0E0,0E0,0E0,0E0,0E0,0E0,0E0,0E0],"parents":[2147483647,0,0,1,1,2,2,3,3,4,4,7,7,9,9,10,10,11,11,12,12,13,13,15,15],"right_children":[2,4,6,8,10,-1,-1,12,-1,14,16,18,20,22,-1,24,-1,-1,-1,-1,-1,-1,-1,-1,-1],"split_conditions":[3.6338418E0,-4.334729E-1,7.227692E0,-4.4125053E-1,3.6961344E-1,-7.230651E-2,-1.8071584E-2,-6.112828E-1,-1.900602E-2,-3.7386537E-1,8.6809206E-1,-6.586007E-1,-4.9746E-1,-3.738747E-1,-1.6213822E-1,8.015002E-1,-1.4773731E-1,-1.4683306E-1,-2.2642832E-2,-1.6657095E-1,-1.0783109E-1,-1.5452547E-1,-7.8424156E-2,-1.126513E-1,-2.841566E-2],"split_indices":[0,0,0,0,0,0,0,0,0,0,0,0,0,0,0,0,0,0,0,0,0,0,0,0,0],"split_type":[0,0,0,0,0,0,0,0,0,0,0,0,0,0,0,0,0,0,0,0,0,0,0,0,0],"sum_hessian":[1.0931512E3,1.0528281E3,4.0323097E1,1.7117906E2,8.816491E2,1.9318705E1,2.1004393E1,1.5771762E2,1.3461431E1,7.725712E2,1.0907784E2,3.4816673E1,1.2290095E2,1.5107396E2,6.214973E2,5.3222076E1,5.585577E1,1.7362247E1,1.7454426E1,5.313878E1,6.976217E1,1.1761981E2,3.3454144E1,4.7085617E1,6.1364565E0],"tree_param":{"num_deleted":"0","num_feature":"1","num_nodes":"25","size_leaf_vector":"1"}},{"base_weights":[-7.969022E-1,-8.2088745E-1,-3.9698046E-2,-6.8818575E-1,-8.799103E-1,-7.211514E-1,-7.093405E-2,-1.5976419E-1,-6.902385E-1,-6.2434745E-1,-1.5078582E-1,-5.468784E-1,-1.4329712E-1,-1.17888965E-1,-1.6218431E-2,-1.1311396E-1,-5.0592743E-2],"categories":[],"categories_nodes":[],"categories_segments":[],"categories_sizes":[],"default_left":[0,0,0,0,0,0,0,0,0,0,0,0,0,0,0,0,0],"id":24,"left_children":[1,3,-1,5,7,9,-1,-1,11,13,-1,15,-1,-1,-1,-1,-1],"loss_changes":[1.278125E1,6.5197754E0,0E0,2.361847E0,3.2919006E0,2.91156E0,0E0,0E0,1.3396301E0,3.9693108E0,0E0,1.0660725E0,0E0,0E0,0E0,0E0,0E0],"parents":[2147483647,0,0,1,1,3,3,4,4,5,5,8,8,9,9,11,11],"right_children":[2,4,-1,6,8,10,-1,-1,12,14,-1,16,-1,-1,-1,-1,-1],"split_conditions":[3.6338418E0,-3.7386537E-1,-3.9698046E-2,-3.738747E-1,3.6961344E-1,-4.334729E-1,-7.093405E-2,-1.5976419E-1,8.6809206E-1,-4.4125053E-1,-1.5078582E-1,6.763773E-1,-1.4329712E-1,-1.17888965E-1,-1.6218431E-2,-1.1311396E-1,-5.0592743E-2],"split_indices":[0,0,0,0,0,0,0,0,0,0,0,0,0,0,0,0,0],"split_type":[0,0,0,0,0,0,0,0,0,0,0,0,0,0,0,0,0],"sum_hessian":[9.474066E2,9.087315E2,3.867514E1,2.8365228E2,6.250792E2,2.5265596E2,3.0996328E1,5.291279E2,9.5951294E1,1.528048E2,9.985115E1,4.7856014E1,4.8095284E1,1.395928E2,1.3211996E1,3.3441895E1,1.4414118E1],"tree_param":{"num_deleted":"0","num_feature":"1","num_nodes":"17","size_leaf_vector":"1"}},{"base_weights":[-7.661386E-1,-7.927656E-1,-1.9647433E-1,-6.48089E-1,-8.5935664E-1,-6.1160874E-2,-9.167651E-3,-6.8353444E-1,-6.282893E-2,-1.5700178E-1,-6.518594E-1,-5.8020794E-1,-1.4685844E-1,-5.033085E-1,-1.385152E-1,-1.1230147E-1,-2.4384437E-2,-1.19882666E-1,-6.03785E-2],"categories":[],"categories_nodes":[],"categories_segments":[],"categories_sizes":[],"default_left":[0,0,0,0,0,0,0,0,0,0,0,0,0,0,0,0,0,0,0],"id":25,"left_children":[1,3,5,7,9,-1,-1,11,-1,-1,13,15,-1,17,-1,-1,-1,-1,-1],"loss_changes":[1.23706665E1,7.040741E0,8.2404923E-1,2.3431473E0,3.6265259E0,0E0,0E0,3.1147614E0,0E0,0E0,1.3940544E0,3.6485977E0,0E0,1.0469913E0,0E0,0E0,0E0,0E0,0E0],"parents":[2147483647,0,0,1,1,2,2,3,3,4,4,7,7,10,10,11,11,13,13],"right_children":[2,4,6,8,10,-1,-1,12,-1,-1,14,16,-1,18,-1,-1,-1,-1,-1],"split_conditions":[3.6338418E0,-3.7386537E-1,7.227692E0,-3.738747E-1,3.6961344E-1,-6.1160874E-2,-9.167651E-3,-4.334729E-1,-6.282893E-2,-1.5700178E-1,8.6809206E-1,-4.4904363E-1,-1.4685844E-1,5.2704895E-1,-1.385152E-1,-1.1230147E-1,-2.4384437E-2,-1.19882666E-1,-6.03785E-2],"split_indices":[0,0,0,0,0,0,0,0,0,0,0,0,0,0,0,0,0,0,0],"split_type":[0,0,0,0,0,0,0,0,0,0,0,0,0,0,0,0,0,0,0],"sum_hessian":[8.248218E2,7.876157E2,3.7206017E1,2.5163731E2,5.359784E2,1.7352598E1,1.9853418E1,2.2293616E2,2.8701159E1,4.5057996E2,8.539847E1,1.3683269E2,8.610347E1,4.3612343E1,4.178612E1,1.19678276E2,1.7154408E1,1.8753325E1,2.4859018E1],"tree_param":{"num_deleted":"0","num_feature":"1","num_nodes":"19","size_leaf_vector":"1"}},{"base_weights":[-7.328446E-1,-7.620425E-1,-2.9705534E-2,-6.0636187E-1,-8.3641136E-1,-6.4370763E-1,-5.5732835E-2,-1.5389898E-1,-6.101852E-1,-5.3749704E-1,-1.4220408E-1,-4.57303E-1,-1.3316247E-1,-1.1819439E-1,-5.6821205E-2,-9.9033915E-2,-3.529078E-2],"categories":[],"categories_nodes":[],"categories_segments":[],"categories_sizes":[],"default_left":[0,0,0,0,0,0,0,0,0,0,0,0,0,0,0,0,0],"id":26,"left_children":[1,3,-1,5,7,9,-1,-1,11,13,-1,15,-1,-1,-1,-1,-1],"loss_changes":[1.1778412E1,7.4614563E0,0E0,2.2262802E0,3.9698486E0,3.1362152E0,0E0,0E0,1.4324017E0,3.4559402E0,0E0,1.0203333E0,0E0,0E0,0E0,0E0,0E0],"parents":[2147483647,0,0,1,1,3,3,4,4,5,5,8,8,9,9,11,11],"right_children":[2,4,-1,6,8,10,-1,-1,12,14,-1,16,-1,-1,-1,-1,-1],"split_conditions":[3.6338418E0,-3.7386537E-1,-2.9705534E-2,-3.738747E-1,3.6961344E-1,-4.334729E-1,-5.5732835E-2,-1.5389898E-1,8.6809206E-1,-4.5970106E-1,-1.4220408E-1,6.763773E-1,-1.3316247E-1,-1.1819439E-1,-5.6821205E-2,-9.9033915E-2,-3.529078E-2],"split_indices":[0,0,0,0,0,0,0,0,0,0,0,0,0,0,0,0,0],"split_type":[0,0,0,0,0,0,0,0,0,0,0,0,0,0,0,0,0],"sum_hessian":[7.232603E2,6.8727057E2,3.598977E1,2.251353E2,4.6213525E2,1.9818958E2,2.6945732E1,3.8588184E2,7.62534E1,1.2423965E2,7.394992E1,3.9860725E1,3.6392673E1,7.406861E1,5.0171036E1,2.71239E1,1.2736828E1],"tree_param":{"num_deleted":"0","num_feature":"1","num_nodes":"17","size_leaf_vector":"1"}},{"base_weights":[-6.969078E-1,-7.2856766E-1,-2.5433935E-2,-5.646711E-1,-8.104723E-1,-2.3688455E-1,-6.042896E-1,-1.5033947E-1,-5.6681615E-1,-1.3011828E-1,4.0548656E-2,-1.6076341E-1,-5.309031E-1,-4.1337207E-1,-1.2716778E-1,-6.0143452E-2,-1.1334438E-1,-1.06990956E-1,-4.4748526E-2],"categories":[],"categories_nodes":[],"categories_segments":[],"categories_sizes":[],"default_left":[0,0,0,0,0,0,0,0,0,0,0,0,0,0,0,0,0,0,0],"id":27,"left_children":[1,3,-1,5,7,9,11,-1,13,-1,-1,-1,15,17,-1,-1,-1,-1,-1],"loss_changes":[1.1058014E1,7.65506E0,0E0,2.5148544E0,4.258728E0,5.8026123E0,3.7100372E0,0E0,1.406353E0,0E0,0E0,0E0,3.0546227E0,1.024406E0,0E0,0E0,0E0,0E0,0E0],"parents":[2147483647,0,0,1,1,3,3,4,4,5,5,6,6,8,8,12,12,13,13],"right_children":[2,4,-1,6,8,10,12,-1,14,-1,-1,-1,16,18,-1,-1,-1,-1,-1],"split_conditions":[3.6338418E0,-3.7386537E-1,-2.5433935E-2,-6.112828E-1,3.6961344E-1,-6.586007E-1,-4.9746E-1,-1.5033947E-1,8.6809206E-1,-1.3011828E-1,4.0548656E-2,-1.6076341E-1,-4.334729E-1,5.2704895E-1,-1.2716778E-1,-6.0143452E-2,-1.1334438E-1,-1.06990956E-1,-4.4748526E-2],"split_indices":[0,0,0,0,0,0,0,0,0,0,0,0,0,0,0,0,0,0,0],"split_type":[0,0,0,0,0,0,0,0,0,0,0,0,0,0,0,0,0,0,0],"sum_hessian":[6.383005E2,6.033478E2,3.4952667E1,2.0367505E2,3.9967273E2,2.271554E1,1.809595E2,3.310926E2,6.858014E1,1.0632627E1,1.2082913E1,3.2069332E1,1.4889017E2,3.6821568E1,3.175857E1,5.8708553E1,9.0181625E1,1.5047068E1,2.17745E1],"tree_param":{"num_deleted":"0","num_feature":"1","num_nodes":"19","size_leaf_vector":"1"}},{"base_weights":[-6.578664E-1,-6.955827E-1,-1.6444388E-1,-5.202822E-1,-7.8895307E-1,-5.3290486E-2,1.2918139E-3,-5.6402946E-1,-3.471872E-2,-1.4623629E-1,-5.4196215E-1,-4.4853112E-1,-1.3313128E-1,-3.7348747E-1,-1.3667388E-1,-9.094831E-2,-2.929299E-3,-9.948672E-2,-3.991014E-2],"categories":[],"categories_nodes":[],"categories_segments":[],"categories_sizes":[],"default_left":[0,0,0,0,0,0,0,0,0,0,0,0,0,0,0,0,0,0,0],"id":28,"left_children":[1,3,5,7,9,-1,-1,11,-1,-1,13,15,-1,17,-1,-1,-1,-1,-1],"loss_changes":[1.0436386E1,8.205109E0,1.0027165E0,2.5054054E0,3.4847565E0,0E0,0E0,3.3641968E0,0E0,0E0,2.0090542E0,3.22406E0,0E0,8.7509966E-1,0E0,0E0,0E0,0E0,0E0],"parents":[2147483647,0,0,1,1,2,2,3,3,4,4,7,7,10,10,11,11,13,13],"right_children":[2,4,6,8,10,-1,-1,12,-1,-1,14,16,-1,18,-1,-1,-1,-1,-1],"split_conditions":[2.170283E0,-3.7386537E-1,7.227692E0,-3.738747E-1,3.6961344E-1,-5.3290486E-2,1.2918139E-3,-4.334729E-1,-3.471872E-2,-1.4623629E-1,8.6809206E-1,-4.4904363E-1,-1.3313128E-1,5.2704895E-1,-1.3667388E-1,-9.094831E-2,-2.929299E-3,-9.948672E-2,-3.991014E-2],"split_indices":[0,0,0,0,0,0,0,0,0,0,0,0,0,0,0,0,0,0,0],"split_type":[0,0,0,0,0,0,0,0,0,0,0,0,0,0,0,0,0,0,0],"sum_hessian":[5.659396E2,5.2537146E2,4.0568134E1,1.8486475E2,3.405067E2,2.1923634E1,1.86445E1,1.6208405E2,2.2780697E1,2.8437476E2,5.6131935E1,1.04191414E2,5.7892628E1,3.4428482E1,2.1703455E1,8.927274E1,1.4918673E1,1.3464586E1,2.0963896E1],"tree_param":{"num_deleted":"0","num_feature":"1","num_nodes":"19","size_leaf_vector":"1"}},{"base_weights":[-6.1691934E-1,-6.5683705E-1,-2.4421498E-2,-4.7624522E-1,-7.578477E-1,-1.3410495E-1,-5.2064735E-1,-1.4169714E-1,-4.9776122E-1,-1.1945928E-1,5.0783396E-2,-1.5677457E-1,-4.3868217E-1,-3.33625E-1,-1.3102016E-1,-4.4450976E-2,-9.874432E-2,-6.969097E-2,8.500334E-3],"categories":[],"categories_nodes":[],"categories_segments":[],"categories_sizes":[],"default_left":[0,0,0,0,0,0,0,0,0,0,0,0,0,0,0,0,0,0,0],"id":29,"left_children":[1,3,-1,5,7,9,11,-1,13,-1,-1,-1,15,17,-1,-1,-1,-1,-1],"loss_changes":[9.564011E0,8.164215E0,0E0,2.517746E0,3.61586E0,5.0651245E0,4.2328453E0,0E0,1.8973284E0,0E0,0E0,0E0,2.764862E0,8.421371E-1,0E0,0E0,0E0,0E0,0E0],"parents":[2147483647,0,0,1,1,3,3,4,4,5,5,6,6,8,8,12,12,13,13],"right_children":[2,4,-1,6,8,10,12,-1,14,-1,-1,-1,16,18,-1,-1,-1,-1,-1],"split_conditions":[2.170283E0,-3.7386537E-1,-2.4421498E-2,-6.112828E-1,3.6961344E-1,-6.586007E-1,-4.9746E-1,-1.4169714E-1,8.6809206E-1,-1.1945928E-1,5.0783396E-2,-1.5677457E-1,-4.334729E-1,8.015002E-1,-1.3102016E-1,-4.4450976E-2,-9.874432E-2,-6.969097E-2,8.500334E-3],"split_indices":[0,0,0,0,0,0,0,0,0,0,0,0,0,0,0,0,0,0,0],"split_type":[0,0,0,0,0,0,0,0,0,0,0,0,0,0,0,0,0,0,0],"sum_hessian":[5.05715E2,4.6634323E2,3.937176E1,1.6932698E2,2.9701624E2,1.9912382E1,1.494146E2,2.4588416E2,5.1132084E1,8.419287E0,1.1493095E1,2.5007845E1,1.2440676E2,3.2320232E1,1.8811852E1,5.157643E1,7.283033E1,2.761078E1,4.709452E0],"tree_param":{"num_deleted":"0","num_feature":"1","num_nodes":"19","size_leaf_vector":"1"}},{"base_weights":[-5.728983E-1,-6.144639E-1,-2.1091526E-2,-4.308327E-1,-7.226574E-1,-4.7966248E-1,-1.6198544E-2,-1.3643622E-1,-4.5412314E-1,-3.6334378E-1,-6.9703156E-1,-5.1706064E-2,-1.250485E-1,-9.107421E-2,-2.8059833E-2,-1.6390626E-1,-9.780296E-2],"categories":[],"categories_nodes":[],"categories_segments":[],"categories_sizes":[],"default_left":[0,0,0,0,0,0,0,0,0,0,0,0,0,0,0,0,0],"id":30,"left_children":[1,3,-1,5,7,9,-1,-1,11,13,15,-1,-1,-1,-1,-1,-1],"loss_changes":[8.476868E0,7.958496E0,0E0,2.5455418E0,3.6309357E0,3.205101E0,0E0,0E0,1.7716389E0,2.8243713E0,1.0186691E0,0E0,0E0,0E0,0E0,0E0,0E0],"parents":[2147483647,0,0,1,1,3,3,4,4,5,5,8,8,9,9,10,10],"right_children":[2,4,-1,6,8,10,-1,-1,12,14,16,-1,-1,-1,-1,-1,-1],"split_conditions":[2.170283E0,-3.7386537E-1,-2.1091526E-2,-3.738747E-1,3.6961344E-1,-4.334729E-1,-1.6198544E-2,-1.3643622E-1,8.6809206E-1,-4.5970106E-1,-3.855054E-1,-5.1706064E-2,-1.250485E-1,-9.107421E-2,-2.8059833E-2,-1.6390626E-1,-9.780296E-2],"split_indices":[0,0,0,0,0,0,0,0,0,0,0,0,0,0,0,0,0],"split_type":[0,0,0,0,0,0,0,0,0,0,0,0,0,0,0,0,0],"sum_hessian":[4.537573E2,4.1524503E2,3.8512253E1,1.557984E2,2.5944662E2,1.357803E2,2.00181E1,2.1246257E2,4.6984055E1,9.018955E1,4.559076E1,3.0523573E1,1.646048E1,4.996422E1,4.022533E1,1.4561217E1,3.102954E1],"tree_param":{"num_deleted":"0","num_feature":"1","num_nodes":"17","size_leaf_vector":"1"}},{"base_weights":[-5.300135E-1,-5.746908E-1,-1.1731007E-1,-3.8947314E-1,-6.9117063E-1,-4.2941704E-2,8.835005E-3,-4.5554344E-2,-4.3733218E-1,-1.3092846E-1,-4.1869047E-1,-1.0900799E-1,5.9281215E-2,-1.5145883E-1,-3.539214E-1,-2.583596E-1,-1.3375074E-1,-3.346535E-2,-8.338961E-2,-8.203338E-2,-2.028556E-2],"categories":[],"categories_nodes":[],"categories_segments":[],"categories_sizes":[],"default_left":[0,0,0,0,0,0,0,0,0,0,0,0,0,0,0,0,0,0,0,0,0],"id":31,"left_children":[1,3,5,7,9,-1,-1,11,13,-1,15,-1,-1,-1,17,19,-1,-1,-1,-1,-1],"loss_changes":[7.556038E0,7.7738647E0,9.0728635E-1,2.3869019E0,3.220955E0,0E0,0E0,4.4220314E0,4.273653E0,0E0,2.109726E0,0E0,0E0,0E0,2.0833693E0,8.433788E-1,0E0,0E0,0E0,0E0,0E0],"parents":[2147483647,0,0,1,1,2,2,3,3,4,4,7,7,8,8,10,10,14,14,15,15],"right_children":[2,4,6,8,10,-1,-1,12,14,-1,16,-1,-1,-1,18,20,-1,-1,-1,-1,-1],"split_conditions":[1.717806E0,-3.7386537E-1,7.227692E0,-6.112828E-1,3.6961344E-1,-4.2941704E-2,8.835005E-3,-6.586007E-1,-4.9746E-1,-1.3092846E-1,8.6809206E-1,-1.0900799E-1,5.9281215E-2,-1.5145883E-1,-4.334729E-1,5.2704895E-1,-1.3375074E-1,-3.346535E-2,-8.338961E-2,-8.203338E-2,-2.028556E-2],"split_indices":[0,0,0,0,0,0,0,0,0,0,0,0,0,0,0,0,0,0,0,0,0],"split_type":[0,0,0,0,0,0,0,0,0,0,0,0,0,0,0,0,0,0,0,0,0],"sum_hessian":[4.124533E2,3.718104E2,4.0642925E1,1.4522612E2,2.2658427E2,2.2787703E1,1.7855223E1,1.7979055E1,1.27247055E2,1.8594601E2,4.0638264E1,6.9368367E0,1.1042219E1,1.921915E1,1.0802791E2,2.8953636E1,1.1684629E1,4.7521587E1,6.050632E1,1.0763651E1,1.8189985E1],"tree_param":{"num_deleted":"0","num_feature":"1","num_nodes":"21","size_leaf_vector":"1"}},{"base_weights":[-4.861597E-1,-5.3141874E-1,-1.7240757E-2,-3.487534E-1,-6.5254486E-1,-4.014809E-1,-4.3636214E-4,-1.2487084E-1,-3.7805814E-1,-2.873233E-1,-6.3283217E-1,-3.993503E-2,-1.2799226E-1,-6.180523E-2,2.7902313E-2,-1.6103736E-1,-8.354509E-2],"categories":[],"categories_nodes":[],"categories_segments":[],"categories_sizes":[],"default_left":[0,0,0,0,0,0,0,0,0,0,0,0,0,0,0,0,0],"id":32,"left_children":[1,3,-1,5,7,9,-1,-1,11,13,15,-1,-1,-1,-1,-1,-1],"loss_changes":[6.584221E0,7.261917E0,0E0,2.502327E0,3.1190948E0,2.9606724E0,0E0,0E0,1.8942542E0,2.454114E0,1.2796154E0,0E0,0E0,0E0,0E0,0E0,0E0],"parents":[2147483647,0,0,1,1,3,3,4,4,5,5,8,8,9,9,10,10],"right_children":[2,4,-1,6,8,10,-1,-1,12,14,16,-1,-1,-1,-1,-1,-1],"split_conditions":[1.717806E0,-3.7386537E-1,-1.7240757E-2,-3.738747E-1,3.6961344E-1,-4.334729E-1,-4.3636214E-4,-1.2487084E-1,8.6809206E-1,-4.4125053E-1,-3.855054E-1,-3.993503E-2,-1.2799226E-1,-6.180523E-2,2.7902313E-2,-1.6103736E-1,-8.354509E-2],"split_indices":[0,0,0,0,0,0,0,0,0,0,0,0,0,0,0,0,0],"split_type":[0,0,0,0,0,0,0,0,0,0,0,0,0,0,0,0,0],"sum_hessian":[3.7727563E2,3.3749994E2,3.977569E1,1.3611293E2,2.0138702E2,1.1798675E2,1.812618E1,1.6345966E2,3.7927376E1,8.050461E1,3.748214E1,2.7787563E1,1.01398115E1,7.0345726E1,1.0158884E1,1.1429497E1,2.605264E1],"tree_param":{"num_deleted":"0","num_feature":"1","num_nodes":"17","size_leaf_vector":"1"}},{"base_weights":[-4.4175297E-1,-5.029085E-1,-1.7378096E-1,-3.1270137E-1,-6.6762084E-1,-2.8250498E-1,4.857797E-3,1.7951434E-2,-3.6055633E-1,-7.769895E-1,-5.780733E-1,-1.12086E-2,-4.2404303E-1,-9.772485E-2,5.982309E-2,-1.461752E-1,-2.7911192E-1,-8.157602E-2,-1.4773987E-1,-3.8254142E-1,-1.2366235E-1,-1.2264873E-1,-4.128371E-2,-2.2674436E-2,-6.876624E-2,-1.0665704E-1,2.1139154E-4],"categories":[],"categories_nodes":[],"categories_segments":[],"categories_sizes":[],"default_left":[0,0,0,0,0,0,0,0,0,0,0,0,0,0,0,0,0,0,0,0,0,0,0,0,0,0,0],"id":33,"left_children":[1,3,5,7,9,11,-1,13,15,17,19,-1,21,-1,-1,-1,23,-1,-1,25,-1,-1,-1,-1,-1,-1,-1],"loss_changes":[5.6201477E0,8.658562E0,1.4593422E0,2.114665E0,1.0277481E0,1.3060534E0,0E0,3.5134006E0,4.2687397E0,9.646034E-1,1.9122849E0,0E0,1.188036E0,0E0,0E0,0E0,1.6665597E0,0E0,0E0,3.189849E0,0E0,0E0,0E0,0E0,0E0,0E0,0E0],"parents":[2147483647,0,0,1,1,2,2,3,3,4,4,5,5,7,7,8,8,9,9,10,10,12,12,16,16,19,19],"right_children":[2,4,6,8,10,12,-1,14,16,18,20,-1,22,-1,-1,-1,24,-1,-1,26,-1,-1,-1,-1,-1,-1,-1],"split_conditions":[5.2704895E-1,-3.595176E-1,5.067556E0,-6.112828E-1,-1.8096632E-1,8.6809206E-1,4.857797E-3,-6.586007E-1,-4.9746E-1,-3.1919488E-1,-4.8015818E-2,-1.12086E-2,1.717806E0,-9.772485E-2,5.982309E-2,-1.461752E-1,-4.334729E-1,-8.157602E-2,-1.4773987E-1,-1.0615371E-1,-1.2366235E-1,-1.2264873E-1,-4.128371E-2,-2.2674436E-2,-6.876624E-2,-1.0665704E-1,2.1139154E-4],"split_indices":[0,0,0,0,0,0,0,0,0,0,0,0,0,0,0,0,0,0,0,0,0,0,0,0,0,0,0],"split_type":[0,0,0,0,0,0,0,0,0,0,0,0,0,0,0,0,0,0,0,0,0,0,0,0,0,0,0],"sum_hessian":[3.472761E2,2.8203452E2,6.52416E1,1.3223271E2,1.4980179E2,4.2118397E1,2.3123203E1,1.6797266E1,1.1543545E2,6.3981407E1,8.582038E1,1.713069E1,2.4987709E1,5.7827E0,1.1014566E1,1.554858E1,9.988687E1,1.2789362E1,5.1192047E1,3.562143E1,5.019895E1,9.008365E0,1.5979343E1,4.4096947E1,5.578992E1,2.2014889E1,1.3606539E1],"tree_param":{"num_deleted":"0","num_feature":"1","num_nodes":"27","size_leaf_vector":"1"}},{"base_weights":[-3.998501E-1,-4.5965287E-1,-1.524943E-1,-2.924411E-1,-6.440905E-1,-2.5165784E-1,4.022483E-3,8.9133475E-3,-3.345724E-1,-1.434849E-1,-5.3512484E-1,-9.464933E-3,-3.8657907E-1,-9.130362E-2,4.7280896E-2,-1.4209904E-1,-2.672932E-1,-3.451053E-1,-1.1693409E-1,-1.1682005E-1,-3.6507953E-2,-1.9240204E-2,-6.4783715E-2,-9.890067E-2,-2.7425021E-3],"categories":[],"categories_nodes":[],"categories_segments":[],"categories_sizes":[],"default_left":[0,0,0,0,0,0,0,0,0,0,0,0,0,0,0,0,0,0,0,0,0,0,0,0,0],"id":34,"left_children":[1,3,5,7,9,11,-1,13,15,-1,17,-1,19,-1,-1,-1,21,23,-1,-1,-1,-1,-1,-1,-1],"loss_changes":[4.722843E0,7.843334E0,1.1295576E0,1.7604923E0,1.9178505E0,1.0812502E0,0E0,2.6299455E0,3.6847153E0,0E0,1.7624302E0,0E0,1.0810592E0,0E0,0E0,0E0,1.7072825E0,2.4942932E0,0E0,0E0,0E0,0E0,0E0,0E0,0E0],"parents":[2147483647,0,0,1,1,2,2,3,3,4,4,5,5,7,7,8,8,10,10,12,12,16,16,17,17],"right_children":[2,4,6,8,10,12,-1,14,16,-1,18,-1,20,-1,-1,-1,22,24,-1,-1,-1,-1,-1,-1,-1],"split_conditions":[5.2704895E-1,-3.1919488E-1,5.067556E0,-6.112828E-1,-1.8096632E-1,8.6809206E-1,4.022483E-3,-6.586007E-1,-4.9746E-1,-1.434849E-1,-4.8015818E-2,-9.464933E-3,1.717806E0,-9.130362E-2,4.7280896E-2,-1.4209904E-1,-4.334729E-1,-1.0615371E-1,-1.1693409E-1,-1.1682005E-1,-3.6507953E-2,-1.9240204E-2,-6.4783715E-2,-9.890067E-2,-2.7425021E-3],"split_indices":[0,0,0,0,0,0,0,0,0,0,0,0,0,0,0,0,0,0,0,0,0,0,0,0,0],"split_type":[0,0,0,0,0,0,0,0,0,0,0,0,0,0,0,0,0,0,0,0,0,0,0,0,0],"sum_hessian":[3.230099E2,2.5942975E2,6.3580154E1,1.3742517E2,1.2200457E2,4.0346348E1,2.3233805E1,1.695301E1,1.2047216E2,4.418485E1,7.7819725E1,1.6940424E1,2.3405926E1,5.264131E0,1.1688879E1,1.351301E1,1.0695915E2,3.3531406E1,4.428832E1,8.0095415E0,1.5396384E1,4.310833E1,6.3850822E1,1.967453E1,1.3856874E1],"tree_param":{"num_deleted":"0","num_feature":"1","num_nodes":"25","size_leaf_vector":"1"}},{"base_weights":[-3.5861528E-1,-4.1957828E-1,-1.3961977E-1,-2.5711164E-1,-6.180231E-1,-3.916239E-2,3.333604E-3,2.41402E-3,-2.9571748E-1,-1.3856019E-1,-5.085873E-1,-8.4824726E-2,3.7803296E-2,-1.3755016E-1,-2.3212744E-1,-3.5847938E-1,-1.2768349E-1,-1.6282523E-2,-5.7301726E-2,-9.309944E-2,-3.5910953E-2],"categories":[],"categories_nodes":[],"categories_segments":[],"categories_sizes":[],"default_left":[0,0,0,0,0,0,0,0,0,0,0,0,0,0,0,0,0,0,0,0,0],"id":35,"left_children":[1,3,5,7,9,-1,-1,11,13,-1,15,-1,-1,-1,17,19,-1,-1,-1,-1,-1],"loss_changes":[3.9895287E0,7.4721146E0,9.060335E-1,1.3217897E0,1.6096992E0,0E0,0E0,1.9845287E0,3.3963175E0,0E0,1.9856853E0,0E0,0E0,0E0,1.3353095E0,1.0159149E0,0E0,0E0,0E0,0E0,0E0],"parents":[2147483647,0,0,1,1,2,2,3,3,4,4,7,7,8,8,10,10,14,14,15,15],"right_children":[2,4,6,8,10,-1,-1,12,14,-1,16,-1,-1,-1,18,20,-1,-1,-1,-1,-1],"split_conditions":[4.192597E-1,-3.1919488E-1,5.067556E0,-6.112828E-1,-1.8096632E-1,-3.916239E-2,3.333604E-3,-6.586007E-1,-4.9746E-1,-1.3856019E-1,1.7593093E-2,-8.4824726E-2,3.7803296E-2,-1.3755016E-1,-4.334729E-1,-1.0615371E-1,-1.2768349E-1,-1.6282523E-2,-5.7301726E-2,-9.309944E-2,-3.5910953E-2],"split_indices":[0,0,0,0,0,0,0,0,0,0,0,0,0,0,0,0,0,0,0,0,0],"split_type":[0,0,0,0,0,0,0,0,0,0,0,0,0,0,0,0,0,0,0,0,0],"sum_hessian":[3.0221506E2,2.3568906E2,6.652599E1,1.3085434E2,1.04834724E2,4.320022E1,2.3325775E1,1.7066067E1,1.1378827E2,3.8103466E1,6.673126E1,4.8153763E0,1.22506895E1,1.1759703E1,1.02028564E2,4.1303223E1,2.5428038E1,4.2290916E1,5.9737648E1,1.8213413E1,2.308981E1],"tree_param":{"num_deleted":"0","num_feature":"1","num_nodes":"21","size_leaf_vector":"1"}},{"base_weights":[-3.191071E-1,-3.7698874E-1,-2.1211606E-2,-2.2469409E-1,-5.751886E-1,-9.746222E-4,-2.6151845E-1,-1.3362008E-1,-4.60759E-1,-7.719115E-2,2.8327545E-2,-1.4116259E-1,-2.021456E-1,-2.5862166E-1,-1.1161994E-1,-1.3737014E-2,-5.0780773E-2,-8.399683E-2,5.0596483E-3],"categories":[],"categories_nodes":[],"categories_segments":[],"categories_sizes":[],"default_left":[0,0,0,0,0,0,0,0,0,0,0,0,0,0,0,0,0,0,0],"id":36,"left_children":[1,3,-1,5,7,9,11,-1,13,-1,-1,-1,15,17,-1,-1,-1,-1,-1],"loss_changes":[3.2263107E0,6.527525E0,0E0,1.040658E0,1.6997223E0,1.4232405E0,3.3482327E0,0E0,2.0446234E0,0E0,0E0,0E0,1.0566368E0,1.9556792E0,0E0,0E0,0E0,0E0,0E0],"parents":[2147483647,0,0,1,1,3,3,4,4,5,5,6,6,8,8,12,12,13,13],"right_children":[2,4,-1,6,8,10,12,-1,14,-1,-1,-1,16,18,-1,-1,-1,-1,-1],"split_conditions":[4.192597E-1,-3.1919488E-1,-2.1211606E-2,-5.840565E-1,-1.8096632E-1,-6.586007E-1,-4.9746E-1,-1.3362008E-1,-4.8015818E-2,-7.719115E-2,2.8327545E-2,-1.4116259E-1,-4.334729E-1,-1.0615371E-1,-1.1161994E-1,-1.3737014E-2,-5.0780773E-2,-8.399683E-2,5.0596483E-3],"split_indices":[0,0,0,0,0,0,0,0,0,0,0,0,0,0,0,0,0,0,0],"split_type":[0,0,0,0,0,0,0,0,0,0,0,0,0,0,0,0,0,0,0],"sum_hessian":[2.8464856E2,2.1953381E2,6.511473E1,1.2534993E2,9.418388E1,1.7861607E1,1.0748833E2,3.345056E1,6.073332E1,4.3625336E0,1.3499072E1,9.321155E0,9.8167175E1,2.950817E1,3.1225147E1,4.161123E1,5.6555946E1,1.6294453E1,1.32137165E1],"tree_param":{"num_deleted":"0","num_feature":"1","num_nodes":"19","size_leaf_vector":"1"}},{"base_weights":[-2.821358E-1,-3.1723157E-1,5.160569E-4,-1.774856E-1,-4.284215E-1,-2.450609E-1,4.422194E-2,-5.1551336E-1,-1.895179E-1,-1.4763185E-1,-4.801647E-1,-4.7490582E-1,-1.5209287E-1,-9.055241E-3,-6.9011256E-2,-3.6773264E-2,3.6169022E-2,-1.5470566E-1,-4.8791956E-2,-1.0386655E-1,-5.0799303E-2],"categories":[],"categories_nodes":[],"categories_segments":[],"categories_sizes":[],"default_left":[0,0,0,0,0,0,0,0,0,0,0,0,0,0,0,0,0,0,0,0,0],"id":37,"left_children":[1,3,-1,5,7,9,-1,11,13,15,17,19,-1,-1,-1,-1,-1,-1,-1,-1,-1],"loss_changes":[2.7120495E0,3.6729965E0,0E0,3.2193935E0,2.6832905E0,2.0909514E0,0E0,9.853306E-1,1.0319172E0,1.5530645E0,1.9660969E0,1.7887001E0,0E0,0E0,0E0,0E0,0E0,0E0,0E0,0E0,0E0],"parents":[2147483647,0,0,1,1,3,3,4,4,5,5,7,7,8,8,9,9,10,10,11,11],"right_children":[2,4,-1,6,8,10,-1,12,14,16,18,20,-1,-1,-1,-1,-1,-1,-1,-1,-1],"split_conditions":[3.6338418E0,-3.7386537E-1,5.160569E-4,-3.738747E-1,3.6961344E-1,-4.334729E-1,4.422194E-2,1.49502E-1,8.6809206E-1,-4.4125053E-1,-3.855054E-1,-1.3248403E-1,-1.5209287E-1,-9.055241E-3,-6.9011256E-2,-3.6773264E-2,3.6169022E-2,-1.5470566E-1,-4.8791956E-2,-1.0386655E-1,-5.0799303E-2],"split_indices":[0,0,0,0,0,0,0,0,0,0,0,0,0,0,0,0,0,0,0,0,0],"split_type":[0,0,0,0,0,0,0,0,0,0,0,0,0,0,0,0,0,0,0,0,0],"sum_hessian":[2.6996878E2,2.4027644E2,2.9692337E1,1.0761712E2,1.3265932E2,9.337899E1,1.4238128E1,9.6369995E1,3.6289326E1,6.7170784E1,2.6208208E1,8.854433E1,7.825672E0,2.2445026E1,1.3844297E1,5.7444435E1,9.726344E0,7.591335E0,1.8616873E1,5.2560486E1,3.5983837E1],"tree_param":{"num_deleted":"0","num_feature":"1","num_nodes":"21","size_leaf_vector":"1"}},{"base_weights":[-2.4920054E-1,-2.8705612E-1,-3.0290326E-3,-1.5700775E-1,-4.0743965E-1,-2.1590216E-1,2.3830704E-2,-6.01245E-1,-5.4896627E-2,-1.2555392E-1,-4.435754E-1,-4.650397E-2,-1.2288976E-1,-4.3951977E-2,2.8986463E-3,-1.5181302E-1,-4.3965656E-2],"categories":[],"categories_nodes":[],"categories_segments":[],"categories_sizes":[],"default_left":[0,0,0,0,0,0,0,0,0,0,0,0,0,0,0,0,0],"id":38,"left_children":[1,3,-1,5,7,9,-1,11,-1,13,15,-1,-1,-1,-1,-1,-1],"loss_changes":[2.2694778E0,3.4220924E0,0E0,1.905715E0,1.9008331E0,1.8135996E0,0E0,1.0467072E0,0E0,1.1903434E0,1.8549838E0,0E0,0E0,0E0,0E0,0E0,0E0],"parents":[2147483647,0,0,1,1,3,3,4,4,5,5,7,7,9,9,10,10],"right_children":[2,4,-1,6,8,10,-1,12,-1,14,16,-1,-1,-1,-1,-1,-1],"split_conditions":[1.717806E0,-3.595176E-1,-3.0290326E-3,-3.738747E-1,-1.8096632E-1,-4.334729E-1,2.3830704E-2,-3.1919488E-1,-5.4896627E-2,-4.5366836E-1,-3.855054E-1,-4.650397E-2,-1.2288976E-1,-4.3951977E-2,2.8986463E-3,-1.5181302E-1,-4.3965656E-2],"split_indices":[0,0,0,0,0,0,0,0,0,0,0,0,0,0,0,0,0],"split_type":[0,0,0,0,0,0,0,0,0,0,0,0,0,0,0,0,0],"sum_hessian":[2.5809586E2,2.2167093E2,3.6424942E1,1.0766569E2,1.1400523E2,8.987522E1,1.7790468E1,3.5402126E1,7.860311E1,6.545284E1,2.4422377E1,9.030452E0,2.6371675E1,3.4338264E1,3.1114582E1,6.526866E0,1.7895512E1],"tree_param":{"num_deleted":"0","num_feature":"1","num_nodes":"17","size_leaf_vector":"1"}},{"base_weights":[-2.1691965E-1,-2.6836985E-1,-1.1384352E-2,-1.4529379E-1,-4.6162072E-1,1.2645331E-2,-1.8281464E-1,-1.1608874E-1,-3.511408E-1,-1.3424899E-1,-2.1945493E-2,-3.2476E-2,-1.1772649E-1],"categories":[],"categories_nodes":[],"categories_segments":[],"categories_sizes":[],"default_left":[0,0,0,0,0,0,0,0,0,0,0,0,0],"id":39,"left_children":[1,3,-1,5,7,-1,9,-1,11,-1,-1,-1,-1],"loss_changes":[1.923687E0,4.3389244E0,0E0,9.489088E-1,1.363286E0,0E0,3.1931334E0,0E0,2.4520516E0,0E0,0E0,0E0,0E0],"parents":[2147483647,0,0,1,1,3,3,4,4,6,6,8,8],"right_children":[2,4,-1,6,8,-1,10,-1,12,-1,-1,-1,-1],"split_conditions":[3.6961344E-1,-3.1919488E-1,-1.1384352E-2,-5.840565E-1,-1.8096632E-1,1.2645331E-2,-4.9746E-1,-1.1608874E-1,1.7593093E-2,-1.3424899E-1,-2.1945493E-2,-3.2476E-2,-1.1772649E-1],"split_indices":[0,0,0,0,0,0,0,0,0,0,0,0,0],"split_type":[0,0,0,0,0,0,0,0,0,0,0,0,0],"sum_hessian":[2.4743321E2,1.8424602E2,6.318719E1,1.1363006E2,7.061596E1,1.6578583E1,9.7051476E1,2.3216585E1,4.7399376E1,7.5766196E0,8.947485E1,3.233108E1,1.5068293E1],"tree_param":{"num_deleted":"0","num_feature":"1","num_nodes":"13","size_leaf_vector":"1"}},{"base_weights":[-1.8988366E-1,-2.3373728E-1,-8.089211E-3,-2.1875117E-2,-3.978495E-1,-1.0971392E-1,-2.9374382E-1,-1.0094188E-1,-8.014481E-2,-5.9264597E-2,2.8796311E-2],"categories":[],"categories_nodes":[],"categories_segments":[],"categories_sizes":[],"default_left":[0,0,0,0,0,0,0,0,0,0,0],"id":40,"left_children":[1,3,-1,-1,5,-1,7,9,-1,-1,-1],"loss_changes":[1.5021963E0,3.22923E0,0E0,0E0,1.5513344E0,0E0,1.5975394E0,1.643741E0,0E0,0E0,0E0],"parents":[2147483647,0,0,1,1,4,4,6,6,7,7],"right_children":[2,4,-1,-1,6,-1,8,10,-1,-1,-1],"split_conditions":[5.2704895E-1,-3.1919488E-1,-8.089211E-3,-2.1875117E-2,-1.8096632E-1,-1.0971392E-1,-4.8015818E-2,-1.0615371E-1,-8.014481E-2,-5.9264597E-2,2.8796311E-2],"split_indices":[0,0,0,0,0,0,0,0,0,0,0],"split_type":[0,0,0,0,0,0,0,0,0,0,0],"sum_hessian":[2.3915906E2,1.8274667E2,5.6412384E1,1.10977486E2,7.176919E1,2.0855042E1,5.0914146E1,2.4162281E1,2.6751863E1,1.2602683E1,1.1559599E1],"tree_param":{"num_deleted":"0","num_feature":"1","num_nodes":"11","size_leaf_vector":"1"}},{"base_weights":[-1.6420312E-1,-1.8824847E-1,1.0272135E-2,-9.3368195E-2,-2.6948154E-1,-1.5128121E-1,3.931244E-2,-3.587171E-1,-9.9514194E-2,-6.592554E-2,-3.7810105E-1,-3.102903E-1,-1.433414E-1,8.338013E-3,-4.388521E-2,-2.2703461E-2,3.1240081E-2,-1.4771706E-1,-3.2255825E-2,-7.6078735E-2,-2.5163032E-2],"categories":[],"categories_nodes":[],"categories_segments":[],"categories_sizes":[],"default_left":[0,0,0,0,0,0,0,0,0,0,0,0,0,0,0,0,0,0,0,0,0],"id":41,"left_children":[1,3,-1,5,7,9,-1,11,13,15,17,19,-1,-1,-1,-1,-1,-1,-1,-1,-1],"loss_changes":[1.2587776E0,1.5962234E0,0E0,1.8492111E0,1.6752157E0,1.6008836E0,0E0,1.3863916E0,9.071877E-1,9.93729E-1,1.8987608E0,1.3504367E0,0E0,0E0,0E0,0E0,0E0,0E0,0E0,0E0,0E0],"parents":[2147483647,0,0,1,1,3,3,4,4,5,5,7,7,8,8,9,9,10,10,11,11],"right_children":[2,4,-1,6,8,10,-1,12,14,16,18,20,-1,-1,-1,-1,-1,-1,-1,-1,-1],"split_conditions":[5.067556E0,-3.7386537E-1,1.0272135E-2,-3.738747E-1,3.6961344E-1,-4.334729E-1,3.931244E-2,1.49502E-1,8.6809206E-1,-4.4904363E-1,-3.855054E-1,-1.3248403E-1,-1.433414E-1,8.338013E-3,-4.388521E-2,-2.2703461E-2,3.1240081E-2,-1.4771706E-1,-3.2255825E-2,-7.6078735E-2,-2.5163032E-2],"split_indices":[0,0,0,0,0,0,0,0,0,0,0,0,0,0,0,0,0,0,0,0,0],"split_type":[0,0,0,0,0,0,0,0,0,0,0,0,0,0,0,0,0,0,0,0,0],"sum_hessian":[2.3179666E2,2.0936678E2,2.242988E1,9.756278E1,1.11804E2,8.297624E1,1.4586535E1,7.258514E1,3.9218864E1,6.122647E1,2.1749775E1,6.719131E1,5.3938313E0,2.0225954E1,1.8992912E1,4.892451E1,1.2301961E1,5.40242E0,1.6347355E1,3.7529953E1,2.9661352E1],"tree_param":{"num_deleted":"0","num_feature":"1","num_nodes":"21","size_leaf_vector":"1"}},{"base_weights":[-1.3976529E-1,1.6876373E-2,-1.5955102E-1,-1.4702104E-1,-1.3791877E-1,-1.6974409E-1,2.3979982E-3,-1.1927283E-2,-2.6969513E-1,-9.654797E-2,-3.3182926E-2],"categories":[],"categories_nodes":[],"categories_segments":[],"categories_sizes":[],"default_left":[0,0,0,0,0,0,0,0,0,0,0],"id":42,"left_children":[1,-1,3,-1,5,7,-1,-1,9,-1,-1],"loss_changes":[1.0724311E0,0E0,2.9622116E0,0E0,9.8589945E-1,1.6929989E0,0E0,0E0,1.8063126E0,0E0,0E0],"parents":[2147483647,0,0,2,2,4,4,5,5,8,8],"right_children":[2,-1,4,-1,6,8,-1,-1,10,-1,-1],"split_conditions":[-5.559416E-1,1.6876373E-2,-4.9746E-1,-1.4702104E-1,1.717806E0,-3.1919488E-1,2.3979982E-3,-1.1927283E-2,-1.8096632E-1,-9.654797E-2,-3.3182926E-2],"split_indices":[0,0,0,0,0,0,0,0,0,0,0],"split_type":[0,0,0,0,0,0,0,0,0,0,0],"sum_hessian":[2.2518199E2,1.710529E1,2.0807669E2,5.2444787E0,2.0283221E2,1.6754504E2,3.5287174E1,8.392614E1,8.3618904E1,1.7190516E1,6.642839E1],"tree_param":{"num_deleted":"0","num_feature":"1","num_nodes":"11","size_leaf_vector":"1"}},{"base_weights":[-1.20829865E-1],"categories":[],"categories_nodes":[],"categories_segments":[],"categories_sizes":[],"default_left":[0],"id":43,"left_children":[-1],"loss_changes":[0E0],"parents":[2147483647],"right_children":[-1],"split_conditions":[-2.1145226E-2],"split_indices":[0],"split_type":[0],"sum_hessian":[2.2031505E2],"tree_param":{"num_deleted":"0","num_feature":"1","num_nodes":"1","size_leaf_vector":"1"}},{"base_weights":[-1.00869365E-1,1.9288013E-2,-1.18248425E-1,-1.21548176E-1,-9.8294064E-2,6.6783717E-3,-1.3033657E-1,-1.4285193E-1,-1.0521256E-1,-2.9715609E-2,-3.528185E-4],"categories":[],"categories_nodes":[],"categories_segments":[],"categories_sizes":[],"default_left":[0,0,0,0,0,0,0,0,0,0,0],"id":44,"left_children":[1,-1,3,-1,5,-1,7,-1,9,-1,-1],"loss_changes":[8.0697274E-1,0E0,2.2367907E0,0E0,8.57146E-1,0E0,2.6381638E0,0E0,1.0236545E0,0E0,0E0],"parents":[2147483647,0,0,2,2,4,4,6,6,8,8],"right_children":[2,-1,4,-1,6,-1,8,-1,10,-1,-1],"split_conditions":[-5.840565E-1,1.9288013E-2,-4.9746E-1,-1.21548176E-1,-4.334729E-1,6.6783717E-3,-3.855054E-1,-1.4285193E-1,3.6961344E-1,-2.9715609E-2,-3.528185E-4],"split_indices":[0,0,0,0,0,0,0,0,0,0,0],"split_type":[0,0,0,0,0,0,0,0,0,0,0],"sum_hessian":[2.1542152E2,1.598046E1,1.9944107E2,5.543008E0,1.9389806E2,3.6836243E1,1.5706181E2,4.4366746E0,1.5262514E2,9.347405E1,5.915109E1],"tree_param":{"num_deleted":"0","num_feature":"1","num_nodes":"11","size_leaf_vector":"1"}},{"base_weights":[-8.798602E-2],"categories":[],"categories_nodes":[],"categories_segments":[],"categories_sizes":[],"default_left":[0],"id":45,"left_children":[-1],"loss_changes":[0E0],"parents":[2147483647],"right_children":[-1],"split_conditions":[-1.5397553E-2],"split_indices":[0],"split_type":[0],"sum_hessian":[2.1236455E2],"tree_param":{"num_deleted":"0","num_feature":"1","num_nodes":"1","size_leaf_vector":"1"}},{"base_weights":[-7.3449574E-2],"categories":[],"categories_nodes":[],"categories_segments":[],"categories_sizes":[],"default_left":[0],"id":46,"left_children":[-1],"loss_changes":[0E0],"parents":[2147483647],"right_children":[-1],"split_conditions":[-1.28536755E-2],"split_indices":[0],"split_type":[0],"sum_hessian":[2.0903044E2],"tree_param":{"num_deleted":"0","num_feature":"1","num_nodes":"1","size_leaf_vector":"1"}},{"base_weights":[-6.1848465E-2],"categories":[],"categories_nodes":[],"categories_segments":[],"categories_sizes":[],"default_left":[0],"id":47,"left_children":[-1],"loss_changes":[0E0],"parents":[2147483647],"right_children":[-1],"split_conditions":[-1.0823482E-2],"split_indices":[0],"split_type":[0],"sum_hessian":[2.064439E2],"tree_param":{"num_deleted":"0","num_feature":"1","num_nodes":"1","size_leaf_vector":"1"}},{"base_weights":[-5.1698603E-2],"categories":[],"categories_nodes":[],"categories_segments":[],"categories_sizes":[],"default_left":[0],"id":48,"left_children":[-1],"loss_changes":[0E0],"parents":[2147483647],"right_children":[-1],"split_conditions":[-9.047255E-3],"split_indices":[0],"split_type":[0],"sum_hessian":[2.0423224E2],"tree_param":{"num_deleted":"0","num_feature":"1","num_nodes":"1","size_leaf_vector":"1"}},{"base_weights":[-4.301445E-2],"categories":[],"categories_nodes":[],"categories_segments":[],"categories_sizes":[],"default_left":[0],"id":49,"left_children":[-1],"loss_changes":[0E0],"parents":[2147483647],"right_children":[-1],"split_conditions":[-7.527529E-3],"split_indices":[0],"split_type":[0],"sum_hessian":[2.0237689E2],"tree_param":{"num_deleted":"0","num_feature":"1","num_nodes":"1","size_leaf_vector":"1"}},{"base_weights":[-3.5264302E-2],"categories":[],"categories_nodes":[],"categories_segments":[],"categories_sizes":[],"default_left":[0],"id":50,"left_children":[-1],"loss_changes":[0E0],"parents":[2147483647],"right_children":[-1],"split_conditions":[-6.1712526E-3],"split_indices":[0],"split_type":[0],"sum_hessian":[2.0074884E2],"tree_param":{"num_deleted":"0","num_feature":"1","num_nodes":"1","size_leaf_vector":"1"}},{"base_weights":[-3.0089743E-2],"categories":[],"categories_nodes":[],"categories_segments":[],"categories_sizes":[],"default_left":[0],"id":51,"left_children":[-1],"loss_changes":[0E0],"parents":[2147483647],"right_children":[-1],"split_conditions":[-5.265705E-3],"split_indices":[0],"split_type":[0],"sum_hessian":[1.9967705E2],"tree_param":{"num_deleted":"0","num_feature":"1","num_nodes":"1","size_leaf_vector":"1"}},{"base_weights":[-2.5112014E-2],"categories":[],"categories_nodes":[],"categories_segments":[],"categories_sizes":[],"default_left":[0],"id":52,"left_children":[-1],"loss_changes":[0E0],"parents":[2147483647],"right_children":[-1],"split_conditions":[-4.3946025E-3],"split_indices":[0],"split_type":[0],"sum_hessian":[1.9865625E2],"tree_param":{"num_deleted":"0","num_feature":"1","num_nodes":"1","size_leaf_vector":"1"}},{"base_weights":[-2.1144453E-2],"categories":[],"categories_nodes":[],"categories_segments":[],"categories_sizes":[],"default_left":[0],"id":53,"left_children":[-1],"loss_changes":[0E0],"parents":[2147483647],"right_children":[-1],"split_conditions":[-3.7002794E-3],"split_indices":[0],"split_type":[0],"sum_hessian":[1.9785016E2],"tree_param":{"num_deleted":"0","num_feature":"1","num_nodes":"1","size_leaf_vector":"1"}},{"base_weights":[-1.661097E-2],"categories":[],"categories_nodes":[],"categories_segments":[],"categories_sizes":[],"default_left":[0],"id":54,"left_children":[-1],"loss_changes":[0E0],"parents":[2147483647],"right_children":[-1],"split_conditions":[-2.90692E-3],"split_indices":[0],"split_type":[0],"sum_hessian":[1.9693614E2],"tree_param":{"num_deleted":"0","num_feature":"1","num_nodes":"1","size_leaf_vector":"1"}},{"base_weights":[-1.36742275E-2],"categories":[],"categories_nodes":[],"categories_segments":[],"categories_sizes":[],"default_left":[0],"id":55,"left_children":[-1],"loss_changes":[0E0],"parents":[2147483647],"right_children":[-1],"split_conditions":[-2.3929898E-3],"split_indices":[0],"split_type":[0],"sum_hessian":[1.9634885E2],"tree_param":{"num_deleted":"0","num_feature":"1","num_nodes":"1","size_leaf_vector":"1"}},{"base_weights":[-1.1518942E-2],"categories":[],"categories_nodes":[],"categories_segments":[],"categories_sizes":[],"default_left":[0],"id":56,"left_children":[-1],"loss_changes":[0E0],"parents":[2147483647],"right_children":[-1],"split_conditions":[-2.015815E-3],"split_indices":[0],"split_type":[0],"sum_hessian":[1.9592021E2],"tree_param":{"num_deleted":"0","num_feature":"1","num_nodes":"1","size_leaf_vector":"1"}},{"base_weights":[-1.0893558E-2],"categories":[],"categories_nodes":[],"categories_segments":[],"categories_sizes":[],"default_left":[0],"id":57,"left_children":[-1],"loss_changes":[0E0],"parents":[2147483647],"right_children":[-1],"split_conditions":[-1.9063726E-3],"split_indices":[0],"split_type":[0],"sum_hessian":[1.9579704E2],"tree_param":{"num_deleted":"0","num_feature":"1","num_nodes":"1","size_leaf_vector":"1"}},{"base_weights":[-7.817119E-3],"categories":[],"categories_nodes":[],"categories_segments":[],"categories_sizes":[],"default_left":[0],"id":58,"left_children":[-1],"loss_changes":[0E0],"parents":[2147483647],"right_children":[-1],"split_conditions":[-1.3679959E-3],"split_indices":[0],"split_type":[0],"sum_hessian":[1.9518822E2],"tree_param":{"num_deleted":"0","num_feature":"1","num_nodes":"1","size_leaf_vector":"1"}},{"base_weights":[-6.681698E-3],"categories":[],"categories_nodes":[],"categories_segments":[],"categories_sizes":[],"default_left":[0],"id":59,"left_children":[-1],"loss_changes":[0E0],"parents":[2147483647],"right_children":[-1],"split_conditions":[-1.1692971E-3],"split_indices":[0],"split_type":[0],"sum_hessian":[1.9496492E2],"tree_param":{"num_deleted":"0","num_feature":"1","num_nodes":"1","size_leaf_vector":"1"}},{"base_weights":[-5.0621456E-3],"categories":[],"categories_nodes":[],"categories_segments":[],"categories_sizes":[],"default_left":[0],"id":60,"left_children":[-1],"loss_changes":[0E0],"parents":[2147483647],"right_children":[-1],"split_conditions":[-8.858755E-4],"split_indices":[0],"split_type":[0],"sum_hessian":[1.9464676E2],"tree_param":{"num_deleted":"0","num_feature":"1","num_nodes":"1","size_leaf_vector":"1"}},{"base_weights":[-4.480448E-3],"categories":[],"categories_nodes":[],"categories_segments":[],"categories_sizes":[],"default_left":[0],"id":61,"left_children":[-1],"loss_changes":[0E0],"parents":[2147483647],"right_children":[-1],"split_conditions":[-7.840784E-4],"split_indices":[0],"split_type":[0],"sum_hessian":[1.9453302E2],"tree_param":{"num_deleted":"0","num_feature":"1","num_nodes":"1","size_leaf_vector":"1"}},{"base_weights":[-4.143728E-3],"categories":[],"categories_nodes":[],"categories_segments":[],"categories_sizes":[],"default_left":[0],"id":62,"left_children":[-1],"loss_changes":[0E0],"parents":[2147483647],"right_children":[-1],"split_conditions":[-7.251524E-4],"split_indices":[0],"split_type":[0],"sum_hessian":[1.9446742E2],"tree_param":{"num_deleted":"0","num_feature":"1","num_nodes":"1","size_leaf_vector":"1"}},{"base_weights":[-2.8162156E-3],"categories":[],"categories_nodes":[],"categories_segments":[],"categories_sizes":[],"default_left":[0],"id":63,"left_children":[-1],"loss_changes":[0E0],"parents":[2147483647],"right_children":[-1],"split_conditions":[-4.9283775E-4],"split_indices":[0],"split_type":[0],"sum_hessian":[1.942077E2],"tree_param":{"num_deleted":"0","num_feature":"1","num_nodes":"1","size_leaf_vector":"1"}},{"base_weights":[-2.4930695E-3],"categories":[],"categories_nodes":[],"categories_segments":[],"categories_sizes":[],"default_left":[0],"id":64,"left_children":[-1],"loss_changes":[0E0],"parents":[2147483647],"right_children":[-1],"split_conditions":[-4.3628717E-4],"split_indices":[0],"split_type":[0],"sum_hessian":[1.9414482E2],"tree_param":{"num_deleted":"0","num_feature":"1","num_nodes":"1","size_leaf_vector":"1"}},{"base_weights":[-1.1415783E-3],"categories":[],"categories_nodes":[],"categories_segments":[],"categories_sizes":[],"default_left":[0],"id":65,"left_children":[-1],"loss_changes":[0E0],"parents":[2147483647],"right_children":[-1],"split_conditions":[-1.997762E-4],"split_indices":[0],"split_type":[0],"sum_hessian":[1.938811E2],"tree_param":{"num_deleted":"0","num_feature":"1","num_nodes":"1","size_leaf_vector":"1"}},{"base_weights":[-1.955966E-3],"categories":[],"categories_nodes":[],"categories_segments":[],"categories_sizes":[],"default_left":[0],"id":66,"left_children":[-1],"loss_changes":[0E0],"parents":[2147483647],"right_children":[-1],"split_conditions":[-3.4229405E-4],"split_indices":[0],"split_type":[0],"sum_hessian":[1.9404022E2],"tree_param":{"num_deleted":"0","num_feature":"1","num_nodes":"1","size_leaf_vector":"1"}},{"base_weights":[-9.575982E-4],"categories":[],"categories_nodes":[],"categories_segments":[],"categories_sizes":[],"default_left":[0],"id":67,"left_children":[-1],"loss_changes":[0E0],"parents":[2147483647],"right_children":[-1],"split_conditions":[-1.6757968E-4],"split_indices":[0],"split_type":[0],"sum_hessian":[1.9384558E2],"tree_param":{"num_deleted":"0","num_feature":"1","num_nodes":"1","size_leaf_vector":"1"}},{"base_weights":[-1.3338778E-3],"categories":[],"categories_nodes":[],"categories_segments":[],"categories_sizes":[],"default_left":[0],"id":68,"left_children":[-1],"loss_changes":[0E0],"parents":[2147483647],"right_children":[-1],"split_conditions":[-2.3342861E-4],"split_indices":[0],"split_type":[0],"sum_hessian":[1.9391908E2],"tree_param":{"num_deleted":"0","num_feature":"1","num_nodes":"1","size_leaf_vector":"1"}},{"base_weights":[-9.401085E-4],"categories":[],"categories_nodes":[],"categories_segments":[],"categories_sizes":[],"default_left":[0],"id":69,"left_children":[-1],"loss_changes":[0E0],"parents":[2147483647],"right_children":[-1],"split_conditions":[-1.6451899E-4],"split_indices":[0],"split_type":[0],"sum_hessian":[1.9384244E2],"tree_param":{"num_deleted":"0","num_feature":"1","num_nodes":"1","size_leaf_vector":"1"}},{"base_weights":[-1.4466451E-3],"categories":[],"categories_nodes":[],"categories_segments":[],"categories_sizes":[],"default_left":[0],"id":70,"left_children":[-1],"loss_changes":[0E0],"parents":[2147483647],"right_children":[-1],"split_conditions":[-2.531629E-4],"split_indices":[0],"split_type":[0],"sum_hessian":[1.9394136E2],"tree_param":{"num_deleted":"0","num_feature":"1","num_nodes":"1","size_leaf_vector":"1"}},{"base_weights":[6.6862686E-4],"categories":[],"categories_nodes":[],"categories_segments":[],"categories_sizes":[],"default_left":[0],"id":71,"left_children":[-1],"loss_changes":[0E0],"parents":[2147483647],"right_children":[-1],"split_conditions":[1.170097E-4],"split_indices":[0],"split_type":[0],"sum_hessian":[1.9352953E2],"tree_param":{"num_deleted":"0","num_feature":"1","num_nodes":"1","size_leaf_vector":"1"}},{"base_weights":[-1.3900081E-4],"categories":[],"categories_nodes":[],"categories_segments":[],"categories_sizes":[],"default_left":[0],"id":72,"left_children":[-1],"loss_changes":[0E0],"parents":[2147483647],"right_children":[-1],"split_conditions":[-2.4325142E-5],"split_indices":[0],"split_type":[0],"sum_hessian":[1.9368655E2],"tree_param":{"num_deleted":"0","num_feature":"1","num_nodes":"1","size_leaf_vector":"1"}},{"base_weights":[-4.6239726E-4],"categories":[],"categories_nodes":[],"categories_segments":[],"categories_sizes":[],"default_left":[0],"id":73,"left_children":[-1],"loss_changes":[0E0],"parents":[2147483647],"right_children":[-1],"split_conditions":[-8.091952E-5],"split_indices":[0],"split_type":[0],"sum_hessian":[1.9374953E2],"tree_param":{"num_deleted":"0","num_feature":"1","num_nodes":"1","size_leaf_vector":"1"}},{"base_weights":[-9.1728574E-4],"categories":[],"categories_nodes":[],"categories_segments":[],"categories_sizes":[],"default_left":[0],"id":74,"left_children":[-1],"loss_changes":[0E0],"parents":[2147483647],"right_children":[-1],"split_conditions":[-1.60525E-4],"split_indices":[0],"split_type":[0],"sum_hessian":[1.9383824E2],"tree_param":{"num_deleted":"0","num_feature":"1","num_nodes":"1","size_leaf_vector":"1"}},{"base_weights":[-7.987418E-4],"categories":[],"categories_nodes":[],"categories_segments":[],"categories_sizes":[],"default_left":[0],"id":75,"left_children":[-1],"loss_changes":[0E0],"parents":[2147483647],"right_children":[-1],"split_conditions":[-1.3977982E-4],"split_indices":[0],"split_type":[0],"sum_hessian":[1.9381525E2],"tree_param":{"num_deleted":"0","num_feature":"1","num_nodes":"1","size_leaf_vector":"1"}},{"base_weights":[5.2249736E-5],"categories":[],"categories_nodes":[],"categories_segments":[],"categories_sizes":[],"default_left":[0],"id":76,"left_children":[-1],"loss_changes":[0E0],"parents":[2147483647],"right_children":[-1],"split_conditions":[9.143703E-6],"split_indices":[0],"split_type":[0],"sum_hessian":[1.9364958E2],"tree_param":{"num_deleted":"0","num_feature":"1","num_nodes":"1","size_leaf_vector":"1"}},{"base_weights":[5.996436E-5],"categories":[],"categories_nodes":[],"categories_segments":[],"categories_sizes":[],"default_left":[0],"id":77,"left_children":[-1],"loss_changes":[0E0],"parents":[2147483647],"right_children":[-1],"split_conditions":[1.0493763E-5],"split_indices":[0],"split_type":[0],"sum_hessian":[1.9364807E2],"tree_param":{"num_deleted":"0","num_feature":"1","num_nodes":"1","size_leaf_vector":"1"}},{"base_weights":[-4.3317545E-4],"categories":[],"categories_nodes":[],"categories_segments":[],"categories_sizes":[],"default_left":[0],"id":78,"left_children":[-1],"loss_changes":[0E0],"parents":[2147483647],"right_children":[-1],"split_conditions":[-7.58057E-5],"split_indices":[0],"split_type":[0],"sum_hessian":[1.9374408E2],"tree_param":{"num_deleted":"0","num_feature":"1","num_nodes":"1","size_leaf_vector":"1"}},{"base_weights":[-1.3390527E-3],"categories":[],"categories_nodes":[],"categories_segments":[],"categories_sizes":[],"default_left":[0],"id":79,"left_children":[-1],"loss_changes":[0E0],"parents":[2147483647],"right_children":[-1],"split_conditions":[-2.3433422E-4],"split_indices":[0],"split_type":[0],"sum_hessian":[1.9392073E2],"tree_param":{"num_deleted":"0","num_feature":"1","num_nodes":"1","size_leaf_vector":"1"}},{"base_weights":[-2.2873507E-4],"categories":[],"categories_nodes":[],"categories_segments":[],"categories_sizes":[],"default_left":[0],"id":80,"left_children":[-1],"loss_changes":[0E0],"parents":[2147483647],"right_children":[-1],"split_conditions":[-4.0028637E-5],"split_indices":[0],"split_type":[0],"sum_hessian":[1.9370442E2],"tree_param":{"num_deleted":"0","num_feature":"1","num_nodes":"1","size_leaf_vector":"1"}},{"base_weights":[-7.78959E-5],"categories":[],"categories_nodes":[],"categories_segments":[],"categories_sizes":[],"default_left":[0],"id":81,"left_children":[-1],"loss_changes":[0E0],"parents":[2147483647],"right_children":[-1],"split_conditions":[-1.3631782E-5],"split_indices":[0],"split_type":[0],"sum_hessian":[1.936751E2],"tree_param":{"num_deleted":"0","num_feature":"1","num_nodes":"1","size_leaf_vector":"1"}},{"base_weights":[-6.906105E-5],"categories":[],"categories_nodes":[],"categories_segments":[],"categories_sizes":[],"default_left":[0],"id":82,"left_children":[-1],"loss_changes":[0E0],"parents":[2147483647],"right_children":[-1],"split_conditions":[-1.2085683E-5],"split_indices":[0],"split_type":[0],"sum_hessian":[1.936734E2],"tree_param":{"num_deleted":"0","num_feature":"1","num_nodes":"1","size_leaf_vector":"1"}},{"base_weights":[-8.312962E-4],"categories":[],"categories_nodes":[],"categories_segments":[],"categories_sizes":[],"default_left":[0],"id":83,"left_children":[-1],"loss_changes":[0E0],"parents":[2147483647],"right_children":[-1],"split_conditions":[-1.4547684E-4],"split_indices":[0],"split_type":[0],"sum_hessian":[1.938219E2],"tree_param":{"num_deleted":"0","num_feature":"1","num_nodes":"1","size_leaf_vector":"1"}},{"base_weights":[-1.3489778E-3],"categories":[],"categories_nodes":[],"categories_segments":[],"categories_sizes":[],"default_left":[0],"id":84,"left_children":[-1],"loss_changes":[0E0],"parents":[2147483647],"right_children":[-1],"split_conditions":[-2.3607111E-4],"split_indices":[0],"split_type":[0],"sum_hessian":[1.9392294E2],"tree_param":{"num_deleted":"0","num_feature":"1","num_nodes":"1","size_leaf_vector":"1"}},{"base_weights":[7.672161E-4],"categories":[],"categories_nodes":[],"categories_segments":[],"categories_sizes":[],"default_left":[0],"id":85,"left_children":[-1],"loss_changes":[0E0],"parents":[2147483647],"right_children":[-1],"split_conditions":[1.3426281E-4],"split_indices":[0],"split_type":[0],"sum_hessian":[1.9351102E2],"tree_param":{"num_deleted":"0","num_feature":"1","num_nodes":"1","size_leaf_vector":"1"}},{"base_weights":[4.9800245E-4],"categories":[],"categories_nodes":[],"categories_segments":[],"categories_sizes":[],"default_left":[0],"id":86,"left_children":[-1],"loss_changes":[0E0],"parents":[2147483647],"right_children":[-1],"split_conditions":[8.715043E-5],"split_indices":[0],"split_type":[0],"sum_hessian":[1.9356323E2],"tree_param":{"num_deleted":"0","num_feature":"1","num_nodes":"1","size_leaf_vector":"1"}}]},"name":"gbtree"},"learner_model_param":{"base_score":"1.193917E-1","boost_from_average":"1","num_class":"0","num_feature":"1","num_target":"1"},"objective":{"name":"binary:logistic","reg_loss_param":{"scale_pos_weight":"1"}}},"version":[2,0,3]}