{"learner":{"attributes":{},"feature_names":[],"feature_types":[],"gradient_booster":{"model":{"gbtree_model_param":{"num_parallel_tree":"1","num_trees":"420"},"iteration_indptr":[0,7,14,21,28,35,42,49,56,63,70,77,84,91,98,105,112,119,126,133,140,147,154,161,168,175,182,189,196,203,210,217,224,231,238,245,252,259,266,273,280,287,294,301,308,315,322,329,336,343,350,357,364,371,378,385,392,399,406,413,420],"tree_info":[0,1,2,3,4,5,6,0,1,2,3,4,5,6,0,1,2,3,4,5,6,0,1,2,3,4,5,6,0,1,2,3,4,5,6,0,1,2,3,4,5,6,0,1,2,3,4,5,6,0,1,2,3,4,5,6,0,1,2,3,4,5,6,0,1,2,3,4,5,6,0,1,2,3,4,5,6,0,1,2,3,4,5,6,0,1,2,3,4,5,6,0,1,2,3,4,5,6,0,1,2,3,4,5,6,0,1,2,3,4,5,6,0,1,2,3,4,5,6,0,1,2,3,4,5,6,0,1,2,3,4,5,6,0,1,2,3,4,5,6,0,1,2,3,4,5,6,0,1,2,3,4,5,6,0,1,2,3,4,5,6,0,1,2,3,4,5,6,0,1,2,3,4,5,6,0,1,2,3,4,5,6,0,1,2,3,4,5,6,0,1,2,3,4,5,6,0,1,2,3,4,5,6,0,1,2,3,4,5,6,0,1,2,3,4,5,6,0,1,2,3,4,5,6,0,1,2,3,4,5,6,0,1,2,3,4,5,6,0,1,2,3,4,5,6,0,1,2,3,4,5,6,0,1,2,3,4,5,6,0,1,2,3,4,5,6,0,1,2,3,4,5,6,0,1,2,3,4,5,6,0,1,2,3,4,5,6,0,1,2,3,4,5,6,0,1,2,3,4,5,6,0,1,2,3,4,5,6,0,1,2,3,4,5,6,0,1,2,3,4,5,6,0,1,2,3,4,5,6,0,1,2,3,4,5,6,0,1,2,3,4,5,6,0,1,2,3,4,5,6,0,1,2,3,4,5,6,0,1,2,3,4,5,6,0,1,2,3,4,5,6,0,1,2,3,4,5,6,0,1,2,3,4,5,6,0,1,2,3,4,5,6,0,1,2,3,4,5,6,0,1,2,3,4,5,6,0,1,2,3,4,5,6,0,1,2,3,4,5,6],"trees":[{"base_weights":[-1.7384679E-8,1.5643969E0,-3.5180223E-1,6.640892E-1,2.5480797E0,2.3196687E-1,-4.8572588E-1,3.192197E0,5.099334E-1,3.4810328E0,2.1161003E0,6.263528E-1,-4.3213242E-1,1.4629202E0,-4.9765098E-1,-1.5296799E-1,3.4329796E0,1.111848E0,-1.12497546E-1,3.4900777E0,2.5560186E0,2.519287E0,1.1137115E0,1.2013987E0,-1.4679767E-1,3.0441623E0,-4.7624415E-1,-3.3144808E-1,3.4849393E0,-5.6900805E-1,-3.738305E-1,-5.709183E-1,3.4563056E-1,3.4975833E-1,2.2445385E0,2.7285728E-1,1.555641E0,2.4954119E0,-1.5401053E-1,2.9471319E0,3.4948928E0,3.4868595E-1,-1.3943051E-1,1.1526715E0,2.8291821E0,2.3921897E0,3.5128942E-1,4.0392514E-2,1.5805515E0,3.9600435E-1,-3.2422024E-1,3.377103E0,-5.6281406E-2,3.3014712E0,-4.9271256E-1,-5.010561E-1,3.419587E0,9.4029844E-1,3.4902334E0,-5.7150155E-1,-2.954955E-1,1.5434437E0,-3.9131218E-1,-5.8248717E-2,2.3172413E-1,-4.1524686E-2,3.3554533E-1,1.1769575E-2,2.5547227E-1,2.0166561E-2,2.0050795E-1,3.483855E-1,-4.4745818E-2,-2.914272E-2,3.6481168E-2,3.48956E-1,-4.513801E-3,3.4999344E-1,3.4112322E-1,3.2900855E-1,-5.7883978E-2,3.1421274E-1,6.2404096E-2,1.2317928E-1,3.115707E-1,1.3403867E-1,3.433093E-1,2.2483838E-1,9.229153E-3,-1.7983336E-2,1.1217854E-1,1.9199675E-1,2.773255E-2,1.2684591E-1,-8.587598E-3,3.4849256E-1,-3.3810254E-2,3.4972003E-1,1.9228686E-1,-5.5976916E-2,3.4927455E-1,-5.2105792E-2,7.0771403E-3,3.304298E-1,-5.4945227E-2,3.4708363E-1,8.8537544E-2,-1.9384617E-2,2.611399E-1,3.494758E-1,2.835331E-1,-5.7157665E-2,3.293124E-1,3.4857094E-1,-4.1687693E-2,3.745199E-2,3.35469E-1,-5.0543826E-2,-2.2656245E-2],"categories":[],"categories_nodes":[],"categories_segments":[],"categories_sizes":[],"default_left":[0,0,0,0,0,0,0,0,0,0,0,0,0,0,0,0,0,0,0,0,0,0,0,0,0,0,0,0,0,0,0,0,0,0,0,0,0,0,0,0,0,0,0,0,0,0,0,0,0,0,0,0,0,0,0,0,0,0,0,0,0,0,0,0,0,0,0,0,0,0,0,0,0,0,0,0,0,0,0,0,0,0,0,0,0,0,0,0,0,0,0,0,0,0,0,0,0,0,0,0,0,0,0,0,0,0,0,0,0,0,0,0,0,0,0,0,0,0,0],"id":0,"left_children":[1,3,5,7,9,11,13,15,17,19,21,23,25,27,29,31,33,35,37,39,41,43,45,47,49,51,53,55,57,59,61,63,-1,-1,65,67,69,71,73,75,77,-1,79,81,83,85,87,89,91,93,95,97,-1,99,101,103,105,107,109,111,113,115,117,-1,-1,-1,-1,-1,-1,-1,-1,-1,-1,-1,-1,-1,-1,-1,-1,-1,-1,-1,-1,-1,-1,-1,-1,-1,-1,-1,-1,-1,-1,-1,-1,-1,-1,-1,-1,-1,-1,-1,-1,-1,-1,-1,-1,-1,-1,-1,-1,-1,-1,-1,-1,-1,-1,-1,-1],"loss_changes":[1.1448582E6,3.382268E5,1.3277347E5,7.771233E4,7.354525E4,8.300191E4,3.2101062E4,9.231289E3,7.041534E4,4.743125E2,5.0414E4,8.839928E4,1.810825E4,3.0487389E4,1.2130719E4,1.1642244E3,8.1296094E2,3.5576266E4,1.0003885E4,1.391875E2,1.413175E3,3.7673438E4,3.4880707E4,5.019275E4,8.1675605E3,1.7788789E3,7.255658E3,2.834581E3,4.9941406E1,5.9390625E2,1.6825125E4,2.4450241E1,0E0,0E0,1.6382896E3,1.1703988E4,3.8028266E4,4.213173E3,6.4846484E3,8.2657666E2,1.2E1,0E0,2.2115193E2,1.7294234E4,3.3187188E4,1.46313125E4,1.101484E4,6.68532E3,3.8019625E4,8.78361E3,3.3810586E3,2.2988867E2,0E0,3.7583057E2,1.8543164E3,7.8654065E2,2.1961182E1,1.8646648E1,1.7695312E0,2.52375E2,3.6140103E3,9.601931E3,9.352734E3,0E0,0E0,0E0,0E0,0E0,0E0,0E0,0E0,0E0,0E0,0E0,0E0,0E0,0E0,0E0,0E0,0E0,0E0,0E0,0E0,0E0,0E0,0E0,0E0,0E0,0E0,0E0,0E0,0E0,0E0,0E0,0E0,0E0,0E0,0E0,0E0,0E0,0E0,0E0,0E0,0E0,0E0,0E0,0E0,0E0,0E0,0E0,0E0,0E0,0E0,0E0,0E0,0E0,0E0,0E0,0E0],"parents":[2147483647,0,0,1,1,2,2,3,3,4,4,5,5,6,6,7,7,8,8,9,9,10,10,11,11,12,12,13,13,14,14,15,15,16,16,17,17,18,18,19,19,20,20,21,21,22,22,23,23,24,24,25,25,26,26,27,27,28,28,29,29,30,30,31,31,34,34,35,35,36,36,37,37,38,38,39,39,40,40,42,42,43,43,44,44,45,45,46,46,47,47,48,48,49,49,50,50,51,51,53,53,54,54,55,55,56,56,57,57,58,58,59,59,60,60,61,61,62,62],"right_children":[2,4,6,8,10,12,14,16,18,20,22,24,26,28,30,32,34,36,38,40,42,44,46,48,50,52,54,56,58,60,62,64,-1,-1,66,68,70,72,74,76,78,-1,80,82,84,86,88,90,92,94,96,98,-1,100,102,104,106,108,110,112,114,116,118,-1,-1,-1,-1,-1,-1,-1,-1,-1,-1,-1,-1,-1,-1,-1,-1,-1,-1,-1,-1,-1,-1,-1,-1,-1,-1,-1,-1,-1,-1,-1,-1,-1,-1,-1,-1,-1,-1,-1,-1,-1,-1,-1,-1,-1,-1,-1,-1,-1,-1,-1,-1,-1,-1,-1,-1],"split_conditions":[3.4844652E-1,4.335638E-1,3.5717127E-1,7.938731E-2,2.2625122E-3,2.4967312E-7,5.3204403E-6,3.3051836E-1,2.4967312E-7,3.4719422E-1,2.4967312E-7,8.45923E-1,5.450085E-1,9.251238E-1,9.2541546E-1,2.2793949E-1,7.660539E-2,5.738937E-1,4.459024E-1,9.2127174E-1,5.3204403E-6,5.738484E-1,9.607573E-2,5.7364124E-1,9.252384E-1,5.810473E-1,2.2625122E-3,1.6485246E-1,5.374963E-1,5.113081E-1,7.0023084E-1,2.8090167E-1,3.4563056E-1,3.4975833E-1,9.537868E-2,4.2773446E-1,2.3124373E-1,5.759159E-1,8.5120505E-1,5.3204403E-6,3.444498E-1,3.4868595E-1,1.2849975E-1,9.252251E-1,2.31503E-1,8.3149683E-1,9.749134E-1,4.6010962E-1,5.90301E-1,3.5105214E-1,3.3169386E-1,5.438507E-1,-5.6281406E-2,4.8725063E-1,4.9139106E-1,4.236713E-1,2.535185E-1,6.021042E-1,6.19626E-1,9.944444E-1,4.6727848E-1,3.4706643E-1,2.2780271E-1,-5.8248717E-2,2.3172413E-1,-4.1524686E-2,3.3554533E-1,1.1769575E-2,2.5547227E-1,2.0166561E-2,2.0050795E-1,3.483855E-1,-4.4745818E-2,-2.914272E-2,3.6481168E-2,3.48956E-1,-4.513801E-3,3.4999344E-1,3.4112322E-1,3.2900855E-1,-5.7883978E-2,3.1421274E-1,6.2404096E-2,1.2317928E-1,3.115707E-1,1.3403867E-1,3.433093E-1,2.2483838E-1,9.229153E-3,-1.7983336E-2,1.1217854E-1,1.9199675E-1,2.773255E-2,1.2684591E-1,-8.587598E-3,3.4849256E-1,-3.3810254E-2,3.4972003E-1,1.9228686E-1,-5.5976916E-2,3.4927455E-1,-5.2105792E-2,7.0771403E-3,3.304298E-1,-5.4945227E-2,3.4708363E-1,8.8537544E-2,-1.9384617E-2,2.611399E-1,3.494758E-1,2.835331E-1,-5.7157665E-2,3.293124E-1,3.4857094E-1,-4.1687693E-2,3.745199E-2,3.35469E-1,-5.0543826E-2,-2.2656245E-2],"split_indices":[19,35,19,27,27,32,27,23,32,19,32,12,16,10,14,20,27,22,24,10,27,22,8,22,10,22,27,5,14,11,34,0,0,0,8,15,20,22,12,27,19,0,0,10,20,21,18,35,16,19,23,16,0,2,35,17,20,3,16,18,1,4,20,0,0,0,0,0,0,0,0,0,0,0,0,0,0,0,0,0,0,0,0,0,0,0,0,0,0,0,0,0,0,0,0,0,0,0,0,0,0,0,0,0,0,0,0,0,0,0,0,0,0,0,0,0,0,0,0],"split_type":[0,0,0,0,0,0,0,0,0,0,0,0,0,0,0,0,0,0,0,0,0,0,0,0,0,0,0,0,0,0,0,0,0,0,0,0,0,0,0,0,0,0,0,0,0,0,0,0,0,0,0,0,0,0,0,0,0,0,0,0,0,0,0,0,0,0,0,0,0,0,0,0,0,0,0,0,0,0,0,0,0,0,0,0,0,0,0,0,0,0,0,0,0,0,0,0,0,0,0,0,0,0,0,0,0,0,0,0,0,0,0,0,0,0,0,0,0,0,0],"sum_hessian":[2.0802036E6,3.8191178E5,1.6982918E6,1.9940744E5,1.8250434E5,3.169063E5,1.3813855E6,1.1459267E4,1.8794817E5,5.7757473E4,1.2474687E5,1.9882875E5,1.1807756E5,8.40147E3,1.372984E6,7.694694E2,1.0689797E4,9.5548414E4,9.239976E4,5.7195434E4,5.6204083E2,8.8962375E4,3.5784492E4,1.1402205E5,8.48067E4,1.478694E3,1.1659887E5,4.4517554E3,3.9497146E3,8.710176E5,5.019664E5,6.903674E2,7.910204E1,1.0136817E4,5.529796E2,3.3056574E4,6.249184E4,1.4468573E3,9.095291E4,5.081633E2,5.668727E4,4.1755106E2,1.444898E2,1.6445145E4,7.251723E4,1.3367267E4,2.2417227E4,2.806996E4,8.5952086E4,2.0891268E4,6.3915434E4,1.353796E3,1.24897964E2,5.0522452E2,1.1609364E5,4.2600005E3,1.9175511E2,8.571429E0,3.941143E3,8.6314756E5,7.8700415E3,4.534776E3,4.9743162E5,6.884082E2,1.9591838E0,1.6310205E2,3.8987756E2,3.09529E4,2.1036736E3,1.5574287E4,4.6917555E4,1.0829388E3,3.639184E2,7.190768E4,1.9045227E4,4.3004083E2,7.812245E1,5.342694E4,3.2603267E3,1.56734705E1,1.2881633E2,3.4513472E3,1.2993797E4,1.102996E4,6.148727E4,6.6499595E3,6.7173066E3,2.6919185E3,1.9725307E4,2.3321389E4,4.748572E3,6.819159E4,1.776049E4,7.432654E3,1.3458613E4,2.3118369E2,6.368425E4,1.2492246E3,1.04571434E2,2.3755104E1,4.8146942E2,1.1053348E5,5.5601636E3,5.2653065E1,4.207347E3,1.8759184E2,4.1632657E0,5.632653E0,2.9387758E0,3.9097961E3,3.1346941E1,8.631316E5,1.5918368E1,2.4391838E2,7.626123E3,2.7568164E3,1.7779594E3,2.9386338E5,2.0356827E5],"tree_param":{"num_deleted":"0","num_feature":"38","num_nodes":"119","size_leaf_vector":"1"}},{"base_weights":[-1.7384679E-8,2.8861868E0,-5.187166E-1,3.4500499E0,-5.8332015E-2,4.8803878E-1,-5.7131624E-1,3.4920862E0,-1.6718678E-1,3.1135528E0,-4.1674143E-1,-5.801111E-1,9.798453E-2,-5.6459017E-2,3.4925418E0,-5.8312595E-2,3.489066E-1,3.448169E0,-5.8302026E-2,-5.819577E-1,1.5352886E0,-9.8805696E-2,-5.826395E-1,3.3280551E0,-5.6252086E-1,3.492764E0,-5.4616388E-2,3.4683743E0,-5.7770338E-2,-5.833236E-2,2.3986733E0,-5.8309164E-2,3.449984E0,3.3968968E0,-5.832565E-2,-5.8333296E-2,-4.591239E-1,3.4528804E0,-5.7826627E-2,-5.833006E-2,1.044582E0,-5.357737E-2,3.4929344E-1,3.476338E-1,-5.6916215E-2,-5.0670244E-2,3.3339784E-1,-3.886542E-2,3.4979138E-1,3.462809E-1,-5.511811E-2,1.5201369E-1,-5.832659E-2,-5.520263E-2,3.472881E-1,-5.5648983E-2,3.209848E-1],"categories":[],"categories_nodes":[],"categories_segments":[],"categories_sizes":[],"default_left":[0,0,0,0,0,0,0,0,0,0,0,0,0,0,0,0,0,0,0,0,0,0,0,0,0,0,0,0,0,0,0,0,0,0,0,0,0,0,0,0,0,0,0,0,0,0,0,0,0,0,0,0,0,0,0,0,0],"id":1,"left_children":[1,3,5,7,-1,9,11,13,15,17,19,21,23,-1,25,-1,-1,27,-1,29,31,33,35,37,39,41,-1,43,-1,-1,45,-1,47,49,-1,-1,51,53,-1,-1,55,-1,-1,-1,-1,-1,-1,-1,-1,-1,-1,-1,-1,-1,-1,-1,-1],"loss_changes":[3.1143025E6,6.19975E5,9.337578E4,4.145125E4,0E0,2.0798403E5,9.8641875E3,5.0025E2,4.7658896E3,2.775761E4,2.1000855E4,2.01275E3,4.6373473E4,0E0,2.44E2,0E0,0E0,1.6757812E3,0E0,2.4581055E2,2.0612473E4,1.46417E4,1.406875E2,1.8013359E3,6.032612E2,1.8675E2,0E0,6.6028125E2,0E0,0E0,7.694501E1,0E0,4.9243945E2,2.757578E2,0E0,0E0,2.2591506E3,2.8835547E2,0E0,0E0,8.016144E2,0E0,0E0,0E0,0E0,0E0,0E0,0E0,0E0,0E0,0E0,0E0,0E0,0E0,0E0,0E0,0E0],"parents":[2147483647,0,0,1,1,2,2,3,3,5,5,6,6,7,7,8,8,9,9,10,10,11,11,12,12,14,14,17,17,19,19,20,20,21,21,22,22,23,23,24,24,25,25,27,27,30,30,32,32,33,33,36,36,37,37,40,40],"right_children":[2,4,6,8,-1,10,12,14,16,18,20,22,24,-1,26,-1,-1,28,-1,30,32,34,36,38,40,42,-1,44,-1,-1,46,-1,48,50,-1,-1,52,54,-1,-1,56,-1,-1,-1,-1,-1,-1,-1,-1,-1,-1,-1,-1,-1,-1,-1,-1],"split_conditions":[5.680646E-1,6.1482877E-1,5.8327794E-1,5.0755346E-1,-5.8332015E-2,8.1101686E-1,5.87814E-1,5.673159E-1,5.0889254E-1,1.20489225E-1,4.9974597E-1,6.918968E-1,9.016661E-1,-5.6459017E-2,9.7975624E-1,-5.8312595E-2,3.489066E-1,5.071649E-1,-5.8302026E-2,2.4482802E-1,6.12046E-1,7.8456306E-1,5.606957E-1,6.0481966E-2,2.6518723E-1,3.5658512E-1,-5.4616388E-2,9.2841583E-1,-5.7770338E-2,-5.833236E-2,4.9517158E-1,-5.8309164E-2,5.3204403E-6,6.122676E-1,-5.832565E-2,-5.8333296E-2,8.1704974E-1,5.190162E-1,-5.7826627E-2,-5.833006E-2,7.751084E-1,-5.357737E-2,3.4929344E-1,3.476338E-1,-5.6916215E-2,-5.0670244E-2,3.3339784E-1,-3.886542E-2,3.4979138E-1,3.462809E-1,-5.511811E-2,1.5201369E-1,-5.832659E-2,-5.520263E-2,3.472881E-1,-5.5648983E-2,3.209848E-1],"split_indices":[22,2,2,11,0,21,35,16,7,8,9,34,18,0,18,0,0,11,0,20,25,21,35,27,20,19,0,10,0,0,7,0,27,25,0,0,18,1,0,0,21,0,0,0,0,0,0,0,0,0,0,0,0,0,0,0,0],"split_type":[0,0,0,0,0,0,0,0,0,0,0,0,0,0,0,0,0,0,0,0,0,0,0,0,0,0,0,0,0,0,0,0,0,0,0,0,0,0,0,0,0,0,0,0,0,0,0,0,0,0,0,0,0,0,0,0,0],"sum_hessian":[2.0802036E6,3.169058E5,1.7632978E6,2.7260256E5,4.430327E4,8.755176E4,1.675746E6,2.6947103E5,3.1315105E3,2.2438043E4,6.511372E4,1.6540118E6,2.1734205E4,3.0122452E1,2.694409E5,2.8124084E3,3.1910205E2,2.0575594E4,1.8624491E3,6.003331E4,5.0804087E3,8.643674E3,1.6453681E6,3.689143E3,1.8045062E4,2.6942622E5,1.4693878E1,2.047298E4,1.0261225E2,6.0006617E4,2.669388E1,2.412245E3,2.6681636E3,1.051347E3,7.592327E3,1.6361784E6,9.189797E3,3.5750208E3,1.1412246E2,1.7815348E4,2.297143E2,1.1265306E1,2.6941497E5,2.0432818E4,4.016327E1,6.6122456E0,2.0081635E1,3.281633E1,2.6353472E3,1.0342041E3,1.7142859E1,5.417143E2,8.648082E3,1.7632654E1,3.557388E3,1.324898E2,9.7224495E1],"tree_param":{"num_deleted":"0","num_feature":"38","num_nodes":"57","size_leaf_vector":"1"}},{"base_weights":[-1.7384679E-8,-5.0730366E-1,1.0387547E0,-5.13519E-1,2.6071477E0,1.9852462E-1,2.810772E0,-5.809437E-1,-3.084028E-1,3.4947195E0,-5.8237214E-2,9.532502E-1,-3.1713516E-1,3.1515508E0,3.027354E-1,-5.8331174E-1,1.7264055E-1,-5.64457E-1,1.2382023E0,-3.4710746E-2,3.4974727E-1,1.6477166E0,-9.979114E-4,-5.406477E-1,-3.402707E-2,3.1911337E0,7.72476E-1,-5.8330495E-2,3.4974572E-1,-5.8332898E-2,-2.6987952E-1,3.1047308E0,-5.8311034E-2,-5.8237296E-1,7.8160596E-1,2.5819008E0,-3.5728616E-1,4.9591646E-1,1.9163396E0,-3.0820158E-1,1.4624863E0,2.8581768E-1,-5.7769465E-1,-1.10866815E-1,1.7271856E0,3.2653353E0,2.2523525E0,-3.8191074E-1,2.888227E0,2.8528303E-1,-5.727036E-2,-5.7361443E-2,3.4585503E-1,-5.8333136E-2,3.4496918E-1,2.8763506E-1,-4.3558057E-2,2.9538536E-1,-1.32637685E-2,-4.4711508E-2,9.513387E-2,3.2198355E-1,1.1538612E-2,1.4588152E-1,2.6766312E-1,-3.839646E-2,1.9426602E-1,3.4936437E-1,3.1590026E-2,-5.302287E-2,2.0513757E-1,3.3413503E-1,-5.782785E-2,-3.2826774E-2,3.952267E-2,3.4326813E-1,-5.8306273E-2,3.2879654E-1,1.3011739E-2,3.0485964E-1,-4.415868E-2,3.4462824E-1,-5.8303367E-2,3.4868822E-1,-5.7980496E-2],"categories":[],"categories_nodes":[],"categories_segments":[],"categories_sizes":[],"default_left":[0,0,0,0,0,0,0,0,0,0,0,0,0,0,0,0,0,0,0,0,0,0,0,0,0,0,0,0,0,0,0,0,0,0,0,0,0,0,0,0,0,0,0,0,0,0,0,0,0,0,0,0,0,0,0,0,0,0,0,0,0,0,0,0,0,0,0,0,0,0,0,0,0,0,0,0,0,0,0,0,0,0,0,0,0],"id":2,"left_children":[1,3,5,7,9,11,13,15,17,19,-1,21,23,25,27,29,31,33,35,-1,-1,37,39,41,43,45,47,-1,-1,-1,49,51,-1,53,55,57,59,61,63,65,67,69,71,73,75,77,79,81,83,-1,-1,-1,-1,-1,-1,-1,-1,-1,-1,-1,-1,-1,-1,-1,-1,-1,-1,-1,-1,-1,-1,-1,-1,-1,-1,-1,-1,-1,-1,-1,-1,-1,-1,-1,-1],"loss_changes":[1.0961936E6,2.7055688E4,1.0162824E6,1.9290406E4,7.882699E3,1.8020053E5,1.8764462E5,1.8734688E3,1.3665683E5,2.425E1,0E0,1.2455006E5,1.7406496E4,1.8199625E4,7.434589E4,5.4375E0,7.2905464E3,7.140328E3,1.0508439E5,0E0,0E0,3.3655406E4,3.5592836E4,4.7067344E3,1.6424168E4,1.32365E4,7.7302876E3,0E0,0E0,0E0,5.7696274E1,8.794658E2,0E0,1.1309922E3,9.917642E3,2.6865672E4,2.6347034E3,2.1324412E4,3.0679188E4,1.11591E4,3.1986576E4,9.503896E3,3.3855078E2,1.2794831E4,1.9992473E4,1.25005E4,2.9881258E4,1.5791085E3,2.3215947E3,0E0,0E0,0E0,0E0,0E0,0E0,0E0,0E0,0E0,0E0,0E0,0E0,0E0,0E0,0E0,0E0,0E0,0E0,0E0,0E0,0E0,0E0,0E0,0E0,0E0,0E0,0E0,0E0,0E0,0E0,0E0,0E0,0E0,0E0,0E0,0E0],"parents":[2147483647,0,0,1,1,2,2,3,3,4,4,5,5,6,6,7,7,8,8,9,9,11,11,12,12,13,13,14,14,15,15,16,16,17,17,18,18,21,21,22,22,23,23,24,24,25,25,26,26,30,30,31,31,33,33,34,34,35,35,36,36,37,37,38,38,39,39,40,40,41,41,42,42,43,43,44,44,45,45,46,46,47,47,48,48],"right_children":[2,4,6,8,10,12,14,16,18,20,-1,22,24,26,28,30,32,34,36,-1,-1,38,40,42,44,46,48,-1,-1,-1,50,52,-1,54,56,58,60,62,64,66,68,70,72,74,76,78,80,82,84,-1,-1,-1,-1,-1,-1,-1,-1,-1,-1,-1,-1,-1,-1,-1,-1,-1,-1,-1,-1,-1,-1,-1,-1,-1,-1,-1,-1,-1,-1,-1,-1,-1,-1,-1,-1],"split_conditions":[5.756222E-1,6.6561484E-1,4.4039404E-1,2.3936187E-1,4.9602965E-1,9.7349995E-1,6.351816E-1,5.0645554E-1,6.1482877E-1,4.459024E-1,-5.8237214E-2,5.9004694E-1,5.9048885E-1,3.3237246E-1,4.7230032E-1,5.049762E-1,6.116819E-1,5.738937E-1,9.745055E-1,-3.4710746E-2,3.4974727E-1,6.117733E-1,6.132573E-1,9.748951E-1,6.1362064E-1,6.20314E-1,4.018573E-1,-5.8330495E-2,3.4974572E-1,-5.8332898E-2,6.652611E-2,1.1567599E-1,-5.8311034E-2,7.9455453E-1,4.2814574E-1,5.0211674E-1,6.746474E-1,2.7389395E-1,5.185285E-1,1.9223833E-1,3.4399626E-1,5.8675575E-1,4.1522083E-1,4.2926577E-1,6.047867E-1,5.781062E-1,4.4428217E-1,3.28731E-1,4.4480875E-1,2.8528303E-1,-5.727036E-2,-5.7361443E-2,3.4585503E-1,-5.8333136E-2,3.4496918E-1,2.8763506E-1,-4.3558057E-2,2.9538536E-1,-1.32637685E-2,-4.4711508E-2,9.513387E-2,3.2198355E-1,1.1538612E-2,1.4588152E-1,2.6766312E-1,-3.839646E-2,1.9426602E-1,3.4936437E-1,3.1590026E-2,-5.302287E-2,2.0513757E-1,3.3413503E-1,-5.782785E-2,-3.2826774E-2,3.952267E-2,3.4326813E-1,-5.8306273E-2,3.2879654E-1,1.3011739E-2,3.0485964E-1,-4.415868E-2,3.4462824E-1,-5.8303367E-2,3.4868822E-1,-5.7980496E-2],"split_indices":[22,3,17,20,11,18,22,9,2,24,0,22,16,27,15,7,25,22,18,0,0,25,25,18,25,22,35,0,0,0,0,32,0,34,15,4,1,33,6,0,1,16,3,15,36,3,24,23,24,0,0,0,0,0,0,0,0,0,0,0,0,0,0,0,0,0,0,0,0,0,0,0,0,0,0,0,0,0,0,0,0,0,0,0,0],"split_type":[0,0,0,0,0,0,0,0,0,0,0,0,0,0,0,0,0,0,0,0,0,0,0,0,0,0,0,0,0,0,0,0,0,0,0,0,0,0,0,0,0,0,0,0,0,0,0,0,0,0,0,0,0,0,0,0,0,0,0,0,0,0,0,0,0,0,0,0,0,0,0,0,0,0,0,0,0,0,0,0,0,0,0,0,0],"sum_hessian":[2.0802036E6,1.3976328E6,6.825708E5,1.39485E6,2.7827756E3,4.6302247E5,2.1954834E5,1.0497726E6,3.450774E5,2.1768982E3,6.0587756E2,1.8794427E5,2.7507822E5,1.9328548E5,2.626286E4,1.0464843E6,3.288245E3,2.960623E5,4.9015105E4,1.4693879E0,2.1754287E3,1.0877854E5,7.916572E4,1.5371781E5,1.21360414E5,1.9012189E5,3.163592E3,2.0561145E4,5.701715E3,1.04642606E6,5.8285717E1,6.7322455E2,2.6150205E3,2.9217406E5,3.888245E3,2.6606695E4,2.240841E4,2.0572164E4,8.8206375E4,6.5431598E4,1.3734123E4,6.594613E3,1.4712319E5,1.1628784E5,5.072572E3,1.7619308E5,1.3928817E4,2.047347E3,1.116245E3,4.4081635E0,5.3877556E1,5.9020412E1,6.142041E2,2.921055E5,6.8571434E1,1.4284899E3,2.4597554E3,2.3400246E4,3.2064492E3,2.0969635E4,1.4387756E3,2.5207349E3,1.805143E4,5.506972E4,3.3136656E4,6.330172E4,2.1298777E3,4.954776E3,8.779348E3,4.510531E3,2.0840818E3,2.1061226E1,1.4710214E5,8.134507E4,3.4942777E4,2.9179595E3,2.1546123E3,1.7493038E5,1.262694E3,1.0751021E4,3.1777961E3,1.01387764E2,1.9459594E3,9.5191846E2,1.6432654E2],"tree_param":{"num_deleted":"0","num_feature":"38","num_nodes":"85","size_leaf_vector":"1"}},{"base_weights":[-1.7384679E-8,-4.8993662E-1,1.3018278E0,-5.5471265E-1,1.5401317E-1,2.1526887E0,1.952479E-1,-5.574398E-1,2.136631E0,-5.6440294E-1,9.8763436E-1,-5.3148407E-1,2.6983068E0,-1.654628E-2,2.4138207E0,-5.660043E-1,3.0176294E-1,3.440938E0,-5.8204163E-2,3.2418566E0,-5.8186316E-1,4.5380452E-1,2.358028E0,2.891028E0,-5.478467E-1,1.9135793E0,3.1062074E0,7.4583954E-1,-2.9735756E-1,3.4922688E0,-5.8323104E-2,-5.7148296E-1,-3.3824688E-1,-5.8287203E-1,2.739163E0,-5.3164553E-2,3.4854743E0,-5.562914E-2,3.489007E-1,1.9861284E0,-5.824181E-1,8.4861594E-1,-3.9049911E-1,-2.844425E-2,2.9410968E0,3.4836307E-1,6.2360782E-2,-5.7451147E-1,4.5322198E-1,2.8543086E0,1.0458388E0,3.1568663E0,-5.822493E-1,4.5204023E-1,3.0444658E0,3.1589062E0,-3.317576E-1,3.496241E0,-5.4782607E-2,-5.7807203E-2,-4.824938E-2,7.523532E-2,-5.8246713E-2,-5.8327455E-2,-1.5172091E-9,-5.8234375E-2,3.3871546E-1,3.4951466E-1,-4.012739E-2,3.1829944E-1,-4.883721E-2,-5.8275383E-2,-5.123208E-2,3.03107E-1,5.4521926E-2,3.4757695E-1,-5.668207E-2,1.8699162E-1,-5.146422E-2,2.3531837E-2,3.119033E-1,3.06801E-1,-5.682657E-2,-5.8140166E-2,-4.449391E-2,2.7421266E-1,-5.8273E-2,3.133457E-1,1.22751966E-1,1.3152638E-2,1.4594494E-1,3.283924E-1,1.967789E-1,-3.440454E-2,-5.830875E-2,2.9107496E-1,3.31327E-2,-5.8256473E-2,3.493227E-1,-5.789066E-2,3.4862864E-1,1.0308333E-2,-4.719636E-2,3.4973142E-1,-4.703557E-2],"categories":[],"categories_nodes":[],"categories_segments":[],"categories_sizes":[],"default_left":[0,0,0,0,0,0,0,0,0,0,0,0,0,0,0,0,0,0,0,0,0,0,0,0,0,0,0,0,0,0,0,0,0,0,0,0,0,0,0,0,0,0,0,0,0,0,0,0,0,0,0,0,0,0,0,0,0,0,0,0,0,0,0,0,0,0,0,0,0,0,0,0,0,0,0,0,0,0,0,0,0,0,0,0,0,0,0,0,0,0,0,0,0,0,0,0,0,0,0,0,0,0,0,0,0],"id":3,"left_children":[1,3,5,7,9,11,13,15,17,19,21,23,25,27,29,31,33,35,-1,37,39,41,43,45,47,49,51,53,55,57,-1,59,61,63,65,-1,67,-1,-1,69,71,73,75,77,79,-1,81,83,85,87,89,91,93,95,97,99,101,103,-1,-1,-1,-1,-1,-1,-1,-1,-1,-1,-1,-1,-1,-1,-1,-1,-1,-1,-1,-1,-1,-1,-1,-1,-1,-1,-1,-1,-1,-1,-1,-1,-1,-1,-1,-1,-1,-1,-1,-1,-1,-1,-1,-1,-1,-1,-1],"loss_changes":[1.3267822E6,6.3044344E4,5.355579E5,1.0080344E4,8.273042E4,4.7093375E5,1.1617831E5,1.00953125E4,4.9320073E3,4.932908E3,4.677697E4,3.043709E3,8.5534E4,4.8320594E4,6.9644305E4,1.6946875E3,2.9197594E4,1.681084E2,0E0,3.2012622E2,1.064082E2,1.5340189E4,2.494311E4,4.333225E2,1.4434307E3,7.460953E4,3.2857125E4,4.102945E4,1.9612846E4,2.5621875E2,0E0,7.774375E2,8.499423E3,2.3312988E0,7.7629785E3,0E0,3.634082E1,0E0,0E0,4.948478E1,1.4375E0,2.0760877E4,9.998027E3,3.2504697E3,6.935078E3,0E0,8.858563E1,4.6757812E1,3.329062E3,1.9911875E4,1.7980703E4,2.6199E4,2.7526855E-1,1.5988158E4,1.1209082E4,1.9913076E3,9.957529E3,6.903125E1,0E0,0E0,0E0,0E0,0E0,0E0,0E0,0E0,0E0,0E0,0E0,0E0,0E0,0E0,0E0,0E0,0E0,0E0,0E0,0E0,0E0,0E0,0E0,0E0,0E0,0E0,0E0,0E0,0E0,0E0,0E0,0E0,0E0,0E0,0E0,0E0,0E0,0E0,0E0,0E0,0E0,0E0,0E0,0E0,0E0,0E0,0E0],"parents":[2147483647,0,0,1,1,2,2,3,3,4,4,5,5,6,6,7,7,8,8,9,9,10,10,11,11,12,12,13,13,14,14,15,15,16,16,17,17,19,19,20,20,21,21,22,22,23,23,24,24,25,25,26,26,27,27,28,28,29,29,31,31,32,32,33,33,34,34,36,36,39,39,40,40,41,41,42,42,43,43,44,44,46,46,47,47,48,48,49,49,50,50,51,51,52,52,53,53,54,54,55,55,56,56,57,57],"right_children":[2,4,6,8,10,12,14,16,18,20,22,24,26,28,30,32,34,36,-1,38,40,42,44,46,48,50,52,54,56,58,-1,60,62,64,66,-1,68,-1,-1,70,72,74,76,78,80,-1,82,84,86,88,90,92,94,96,98,100,102,104,-1,-1,-1,-1,-1,-1,-1,-1,-1,-1,-1,-1,-1,-1,-1,-1,-1,-1,-1,-1,-1,-1,-1,-1,-1,-1,-1,-1,-1,-1,-1,-1,-1,-1,-1,-1,-1,-1,-1,-1,-1,-1,-1,-1,-1,-1,-1],"split_conditions":[5.7833666E-1,5.752664E-1,6.129582E-1,2.3320618E-1,2.3691587E-1,2.5057968E-1,6.351816E-1,7.31777E-2,9.9339135E-2,5.945591E-1,9.749008E-1,5.9352124E-1,5.8627135E-1,4.4074658E-1,4.7230032E-1,5.749879E-1,4.2769703E-1,5.7416594E-1,-5.8204163E-2,2.4967312E-7,7.671652E-1,4.40379E-1,4.940631E-1,2.7118728E-1,2.4761617E-1,4.3015185E-1,4.52459E-1,3.8058147E-1,3.4875047E-1,5.814625E-1,-5.8323104E-2,6.033021E-1,8.1700826E-1,4.2765665E-1,7.6064974E-1,-5.3164553E-2,9.3317825E-1,-5.562914E-2,3.489007E-1,9.447626E-2,2.3626493E-1,5.554343E-1,3.3051836E-1,1.875272E-1,7.570487E-1,3.4836307E-1,3.4090343E-1,2.4260241E-1,3.3494085E-1,4.8906934E-1,4.9476007E-1,4.7348458E-1,7.823904E-1,2.9783565E-1,3.3500022E-1,4.6997073E-1,4.349748E-1,2.3320618E-1,-5.4782607E-2,-5.7807203E-2,-4.824938E-2,7.523532E-2,-5.8246713E-2,-5.8327455E-2,-1.5172091E-9,-5.8234375E-2,3.3871546E-1,3.4951466E-1,-4.012739E-2,3.1829944E-1,-4.883721E-2,-5.8275383E-2,-5.123208E-2,3.03107E-1,5.4521926E-2,3.4757695E-1,-5.668207E-2,1.8699162E-1,-5.146422E-2,2.3531837E-2,3.119033E-1,3.06801E-1,-5.682657E-2,-5.8140166E-2,-4.449391E-2,2.7421266E-1,-5.8273E-2,3.133457E-1,1.22751966E-1,1.3152638E-2,1.4594494E-1,3.283924E-1,1.967789E-1,-3.440454E-2,-5.830875E-2,2.9107496E-1,3.31327E-2,-5.8256473E-2,3.493227E-1,-5.789066E-2,3.4862864E-1,1.0308333E-2,-4.719636E-2,3.4973142E-1,-4.703557E-2],"split_indices":[22,22,25,8,20,20,22,32,0,3,18,3,22,15,15,22,15,22,0,32,21,15,9,33,20,15,24,20,35,36,0,16,21,15,34,0,10,0,0,0,20,3,23,27,34,0,1,20,23,35,9,35,34,33,1,11,35,8,0,0,0,0,0,0,0,0,0,0,0,0,0,0,0,0,0,0,0,0,0,0,0,0,0,0,0,0,0,0,0,0,0,0,0,0,0,0,0,0,0,0,0,0,0,0,0],"split_type":[0,0,0,0,0,0,0,0,0,0,0,0,0,0,0,0,0,0,0,0,0,0,0,0,0,0,0,0,0,0,0,0,0,0,0,0,0,0,0,0,0,0,0,0,0,0,0,0,0,0,0,0,0,0,0,0,0,0,0,0,0,0,0,0,0,0,0,0,0,0,0,0,0,0,0,0,0,0,0,0,0,0,0,0,0,0,0,0,0,0,0,0,0,0,0,0,0,0,0,0,0,0,0,0,0],"sum_hessian":[2.0802036E6,1.5113971E6,5.6880644E5,1.3732588E6,1.3813838E5,3.215569E5,2.4724948E5,1.3718695E6,1.3893063E3,7.419625E4,6.394213E4,5.4321555E4,2.6723538E5,2.2570386E5,2.1545635E4,1.35833E6,1.353943E4,9.38694E2,4.5061227E2,3.379592E2,7.385829E4,4.6017555E4,1.7924572E4,2.5763266E2,5.406392E4,9.140131E4,1.7583405E5,6.075527E4,1.6494858E5,1.5844164E4,5.7014697E3,1.3264216E6,3.1908492E4,9.934531E3,3.6048982E3,1.0285715E1,9.284082E2,2.057143E1,3.173878E2,1.5183675E1,7.384311E4,3.1355268E4,1.4662287E4,3.5196738E3,1.4404899E4,2.1281635E2,4.481633E1,5.2661637E4,1.4022858E3,4.3855105E4,4.7546207E4,1.7345194E5,2.3821226E3,5.387094E4,6.884327E3,1.6246532E3,1.6332394E5,1.5828735E4,1.5428573E1,1.2349745E6,9.144711E4,5.8376333E3,2.607086E4,9.927674E3,6.8571434E0,5.884898E2,3.0164084E3,9.2620416E2,2.2040818E0,1.0040817E1,5.1428576E0,7.348384E4,3.5926532E2,3.8257961E3,2.752947E4,6.386939E2,1.4023593E4,7.170613E2,2.8026125E3,8.889797E2,1.3515919E4,7.1020412E0,3.7714287E1,4.999935E4,2.662286E3,4.364082E2,9.658776E2,3.7431188E4,6.423919E3,1.4809716E4,3.2736492E4,1.5670556E5,1.674637E4,9.795919E0,2.3723267E3,2.5200002E3,5.135094E4,7.579592E2,6.1263677E3,1.3077551E2,1.4938777E3,3.9821145E4,1.2350278E5,1.5824572E4,4.1632657E0],"tree_param":{"num_deleted":"0","num_feature":"38","num_nodes":"105","size_leaf_vector":"1"}},{"base_weights":[-1.7384679E-8,1.3225293E0,-3.7881535E-1,5.1597786E-1,2.3368611E0,-5.391656E-1,2.2081953E-2,6.381935E-2,2.0850449E0,2.756632E0,6.520762E-2,1.1660007E0,-5.4430103E-1,-3.01549E-1,7.772406E-1,3.1927118E0,-3.5061624E-2,3.1501293E0,1.3268174E0,2.4981716E-1,2.915138E0,3.1245613E0,-8.227038E-2,-5.830387E-2,3.4895952E0,-5.806434E-1,-3.6825544E-1,-4.6330956E-1,1.2797579E-1,1.3780532E0,1.4444388E-1,-5.8186125E-2,3.4527056E0,-4.2230296E-1,3.426217E-1,-8.481125E-2,3.2634885E0,1.8125701E0,6.691052E-2,-5.773E-1,3.2132301E0,3.0018275E0,-4.4503832E-1,-5.7883132E-2,3.479524E0,-5.42205E-1,4.4324163E-1,-4.2541437E-2,3.4969738E-1,-4.500221E-1,-5.8121973E-1,-4.9725762E-1,5.397979E-1,-5.257001E-1,3.616343E-3,2.4627159E0,1.7551096E-2,-5.649424E-1,1.7014513E0,-3.1020027E-1,5.568448E-1,3.4855026E-1,-2.7753307E-2,1.7358406E-1,-5.154713E-2,1.4483078E-1,2.6762874E-3,1.9795348E-1,-5.642965E-2,3.3220136E-1,-5.8165956E-2,2.1687646E-1,-3.4910183E-2,-5.832531E-2,2.3012976E-1,-5.832606E-2,9.900858E-2,3.4264547E-1,-5.7849277E-2,3.211009E-1,2.189673E-1,-5.260625E-2,1.8224016E-1,3.496635E-1,-4.953846E-2,-5.81387E-2,5.4281503E-2,-5.4586288E-2,1.6696897E-1,2.3105209E-1,-5.7621397E-2,-5.459532E-2,-5.832026E-2,-5.4047078E-2,7.128777E-2,5.1338463E-3,2.4573676E-1,-4.3615773E-2,-5.699275E-2,5.9228804E-2,-5.2823573E-2,-5.827574E-2,3.4958103E-1,2.3242787E-1,-5.2279737E-3,-5.8327492E-2,5.50279E-2,3.0326907E-2,2.0575653E-1,3.4850085E-1,-3.5405666E-2,1.1562735E-1,-2.6122702E-2],"categories":[],"categories_nodes":[],"categories_segments":[],"categories_sizes":[],"default_left":[0,0,0,0,0,0,0,0,0,0,0,0,0,0,0,0,0,0,0,0,0,0,0,0,0,0,0,0,0,0,0,0,0,0,0,0,0,0,0,0,0,0,0,0,0,0,0,0,0,0,0,0,0,0,0,0,0,0,0,0,0,0,0,0,0,0,0,0,0,0,0,0,0,0,0,0,0,0,0,0,0,0,0,0,0,0,0,0,0,0,0,0,0,0,0,0,0,0,0,0,0,0,0,0,0,0,0,0,0,0,0,0,0],"id":4,"left_children":[1,3,5,7,9,11,13,15,17,19,21,23,25,27,29,31,33,35,37,39,41,43,45,-1,47,49,51,53,55,57,59,-1,61,63,65,67,69,71,73,75,77,79,81,-1,83,85,87,-1,-1,89,91,93,95,97,99,101,103,105,107,109,111,-1,-1,-1,-1,-1,-1,-1,-1,-1,-1,-1,-1,-1,-1,-1,-1,-1,-1,-1,-1,-1,-1,-1,-1,-1,-1,-1,-1,-1,-1,-1,-1,-1,-1,-1,-1,-1,-1,-1,-1,-1,-1,-1,-1,-1,-1,-1,-1,-1,-1,-1,-1],"loss_changes":[1.0421714E6,3.789242E5,1.0394942E5,1.8305158E5,1.9563412E5,1.0115094E4,1.1290794E5,6.1969035E4,4.6608156E4,6.8804E4,1.4437747E4,1.4098266E4,7.3674375E3,2.2469836E4,5.2692773E4,6.0236133E3,2.8396977E4,8.801969E3,2.0635441E4,2.5245531E4,4.7442E4,1.9365449E3,7.378959E3,0E0,4.4521484E1,7.159375E1,2.3083137E4,6.843785E3,2.280978E4,4.4673906E4,1.2656548E4,0E0,7.0328125E2,1.9277043E4,3.4328133E4,8.064092E2,5.2203594E3,1.8738531E4,1.3632959E4,7.580859E1,1.8190156E3,2.69655E4,7.536337E2,0E0,9.308008E1,6.924463E2,1.7286066E4,0E0,0E0,1.4635889E3,6.615625E1,9.023203E3,2.2959488E4,8.204492E2,8.670177E3,1.2573021E4,1.3608184E4,2.077417E2,3.034711E4,5.345316E3,1.7357572E4,0E0,0E0,0E0,0E0,0E0,0E0,0E0,0E0,0E0,0E0,0E0,0E0,0E0,0E0,0E0,0E0,0E0,0E0,0E0,0E0,0E0,0E0,0E0,0E0,0E0,0E0,0E0,0E0,0E0,0E0,0E0,0E0,0E0,0E0,0E0,0E0,0E0,0E0,0E0,0E0,0E0,0E0,0E0,0E0,0E0,0E0,0E0,0E0,0E0,0E0,0E0,0E0],"parents":[2147483647,0,0,1,1,2,2,3,3,4,4,5,5,6,6,7,7,8,8,9,9,10,10,11,11,12,12,13,13,14,14,15,15,16,16,17,17,18,18,19,19,20,20,21,21,22,22,24,24,25,25,26,26,27,27,28,28,29,29,30,30,32,32,33,33,34,34,35,35,36,36,37,37,38,38,39,39,40,40,41,41,42,42,44,44,45,45,46,46,49,49,50,50,51,51,52,52,53,53,54,54,55,55,56,56,57,57,58,58,59,59,60,60],"right_children":[2,4,6,8,10,12,14,16,18,20,22,24,26,28,30,32,34,36,38,40,42,44,46,-1,48,50,52,54,56,58,60,-1,62,64,66,68,70,72,74,76,78,80,82,-1,84,86,88,-1,-1,90,92,94,96,98,100,102,104,106,108,110,112,-1,-1,-1,-1,-1,-1,-1,-1,-1,-1,-1,-1,-1,-1,-1,-1,-1,-1,-1,-1,-1,-1,-1,-1,-1,-1,-1,-1,-1,-1,-1,-1,-1,-1,-1,-1,-1,-1,-1,-1,-1,-1,-1,-1,-1,-1,-1,-1,-1,-1,-1,-1],"split_conditions":[4.018573E-1,2.4967312E-7,6.231162E-1,6.252477E-1,2.5917935E-1,1.77164E-1,7.601986E-1,2.1357283E-1,2.2994915E-1,9.439732E-2,4.200268E-1,5.82339E-1,5.054219E-1,9.25534E-1,1.8769576E-1,5.627975E-1,6.2211204E-1,8.4311825E-1,4.2498025E-1,4.9550834E-1,4.2966327E-1,8.205893E-1,8.3064914E-1,-5.830387E-2,4.758692E-1,4.0301448E-1,7.802317E-1,7.558042E-1,5.63453E-1,2.2157137E-1,8.282171E-1,-5.8186125E-2,4.4905636E-1,5.706037E-1,1.7183569E-1,5.722459E-1,6.806917E-1,6.199046E-1,3.359221E-1,4.9381232E-1,3.6437085E-1,9.2951E-1,2.394237E-1,-5.7883132E-2,3.826877E-1,6.7649275E-1,3.333719E-1,-4.2541437E-2,3.4969738E-1,4.9288496E-1,3.623212E-1,9.3317825E-1,2.4967312E-7,4.7970715E-1,5.069237E-1,5.3204403E-6,9.056206E-1,2.2122078E-1,5.086332E-1,3.362235E-1,5.10115E-1,3.4855026E-1,-2.7753307E-2,1.7358406E-1,-5.154713E-2,1.4483078E-1,2.6762874E-3,1.9795348E-1,-5.642965E-2,3.3220136E-1,-5.8165956E-2,2.1687646E-1,-3.4910183E-2,-5.832531E-2,2.3012976E-1,-5.832606E-2,9.900858E-2,3.4264547E-1,-5.7849277E-2,3.211009E-1,2.189673E-1,-5.260625E-2,1.8224016E-1,3.496635E-1,-4.953846E-2,-5.81387E-2,5.4281503E-2,-5.4586288E-2,1.6696897E-1,2.3105209E-1,-5.7621397E-2,-5.459532E-2,-5.832026E-2,-5.4047078E-2,7.128777E-2,5.1338463E-3,2.4573676E-1,-4.3615773E-2,-5.699275E-2,5.9228804E-2,-5.2823573E-2,-5.827574E-2,3.4958103E-1,2.3242787E-1,-5.2279737E-3,-5.8327492E-2,5.50279E-2,3.0326907E-2,2.0575653E-1,3.4850085E-1,-3.5405666E-2,1.1562735E-1,-2.6122702E-2],"split_indices":[35,32,36,36,5,20,34,20,20,8,17,16,13,10,0,16,36,12,33,9,17,34,21,0,4,35,34,34,2,20,21,0,24,22,5,22,1,1,23,7,1,14,0,0,5,28,23,0,0,9,19,10,32,1,13,27,14,20,11,19,11,0,0,0,0,0,0,0,0,0,0,0,0,0,0,0,0,0,0,0,0,0,0,0,0,0,0,0,0,0,0,0,0,0,0,0,0,0,0,0,0,0,0,0,0,0,0,0,0,0,0,0,0],"split_type":[0,0,0,0,0,0,0,0,0,0,0,0,0,0,0,0,0,0,0,0,0,0,0,0,0,0,0,0,0,0,0,0,0,0,0,0,0,0,0,0,0,0,0,0,0,0,0,0,0,0,0,0,0,0,0,0,0,0,0,0,0,0,0,0,0,0,0,0,0,0,0,0,0,0,0,0,0,0,0,0,0,0,0,0,0,0,0,0,0,0,0,0,0,0,0,0,0,0,0,0,0,0,0,0,0,0,0,0,0,0,0,0,0],"sum_hessian":[2.0802036E6,4.6317016E5,1.6170334E6,2.5801202E5,2.0515814E5,1.1550415E6,4.6199194E5,2.0029422E5,5.77178E4,1.7316025E5,3.1997879E4,3.4675105E3,1.151574E6,3.2339734E5,1.3859462E5,6.1349395E3,1.9415928E5,2.4000736E4,3.3717062E4,1.029796E4,1.628623E5,1.4706123E3,3.0527268E4,1.9787756E3,1.4887347E3,9.545227E5,1.9705128E5,2.3492402E5,8.847331E4,7.109339E4,6.750123E4,3.9526532E2,5.739674E3,9.586654E4,9.829274E4,8.125715E2,2.3188164E4,2.4334533E4,9.382531E3,8.0515107E3,2.2464492E3,1.5876638E5,4.0959187E3,1.2857144E2,1.3420409E3,1.6279348E4,1.4247919E4,2.6938777E0,1.4860409E3,4.196572E3,9.503261E5,1.7253994E5,2.451135E4,2.072334E5,2.7690613E4,3.994531E3,8.447878E4,1.0144409E4,6.0948984E4,3.210637E4,3.539486E4,5.689715E3,4.9959187E1,3.9666125E3,9.189992E4,2.1839268E4,7.645348E4,1.5257144E2,6.6000006E2,2.2840654E4,3.4751022E2,2.0892002E4,3.4425308E3,7.268327E3,2.1142043E3,8.0216333E3,2.9877554E1,2.126939E3,1.19510216E2,1.2624687E5,3.2519512E4,3.9553472E3,1.4057144E2,1.3364082E3,5.632653E0,1.5712409E4,5.6693884E2,7.887429E3,6.36049E3,1.826939E2,4.013878E3,5.0603023E4,8.9972306E5,1.6659161E5,5.948327E3,1.9536002E4,4.975347E3,6.851976E4,1.3871364E5,1.3143185E4,1.454743E4,1.01191846E3,2.9826125E3,2.4813064E3,8.199748E4,9.980817E3,1.6359184E2,1.2372735E4,4.857625E4,3.6587756E2,3.1740492E4,2.042694E4,1.4967919E4],"tree_param":{"num_deleted":"0","num_feature":"38","num_nodes":"113","size_leaf_vector":"1"}},{"base_weights":[-1.7384679E-8,-5.0929105E-1,7.324085E-1,-5.7397294E-1,-2.8972828E-1,3.2328807E-2,1.1796542E0,-5.7672274E-1,-2.5038004E-1,7.083737E-2,-5.213442E-1,6.1869097E-1,-2.2605325E-1,1.5405766E0,2.3719253E-1,-5.789219E-1,-2.6733518E-1,1.9105626E0,-5.186622E-1,8.6343646E-1,-2.994191E-1,-5.543694E-1,-2.594849E-1,1.1526081E-1,2.4008136E0,-3.925228E-1,6.053242E-1,9.9762017E-1,2.269654E0,-4.5121753E-1,5.1959544E-1,-5.832636E-1,-5.3203905E-1,-5.83238E-2,3.489316E-1,-5.8163326E-2,3.4898195E-1,-3.162763E-1,-5.83225E-2,4.4779944E-1,3.3615909E0,-5.474677E-1,1.8013439E-1,-5.7152826E-1,-4.559319E-1,2.4533238E0,-5.8329906E-2,-3.9563958E-2,3.08381E0,2.9243221E0,1.0489371E0,-4.166637E-1,1.7844477E0,1.9052961E0,-2.4302368E-1,1.3900392E0,1.9805157E-1,1.1714264E0,2.5736842E0,2.3143573E0,-5.7373196E-1,-3.1696114E-1,1.0916951E0,-5.8333267E-2,-4.25867E-2,-5.674783E-2,2.1758879E-2,-5.0955918E-2,1.464506E-1,2.3650852E-1,7.2533437E-3,3.4992695E-1,-5.7986658E-2,-5.8332063E-2,-3.9268536E-3,1.3439964E-1,-4.9121577E-2,-4.564868E-2,-5.8240872E-2,-2.0754693E-2,-5.4482687E-2,3.4020865E-1,-5.8212914E-2,1.2593876E-1,-3.636359E-2,3.311853E-1,-5.808103E-2,3.0664402E-1,-5.587563E-2,3.366884E-1,-1.7298069E-2,-5.4456603E-2,-1.4529767E-2,3.4816912E-1,-5.8267187E-2,-4.351223E-2,2.593894E-1,2.8758454E-1,-4.947459E-2,-1.9817716E-2,1.6566694E-1,-3.083978E-2,1.2806013E-1,2.022736E-1,5.2202016E-2,2.6471737E-1,-4.0997352E-2,-5.8216747E-2,3.4449157E-1,-5.770268E-2,6.394545E-2,2.2618015E-1,-4.380275E-2,3.0073607E-2,2.185593E-1],"categories":[],"categories_nodes":[],"categories_segments":[],"categories_sizes":[],"default_left":[0,0,0,0,0,0,0,0,0,0,0,0,0,0,0,0,0,0,0,0,0,0,0,0,0,0,0,0,0,0,0,0,0,0,0,0,0,0,0,0,0,0,0,0,0,0,0,0,0,0,0,0,0,0,0,0,0,0,0,0,0,0,0,0,0,0,0,0,0,0,0,0,0,0,0,0,0,0,0,0,0,0,0,0,0,0,0,0,0,0,0,0,0,0,0,0,0,0,0,0,0,0,0,0,0,0,0,0,0,0,0,0,0,0,0],"id":5,"left_children":[1,3,5,7,9,11,13,15,17,19,21,23,25,27,29,31,33,35,37,39,41,43,45,47,49,51,53,55,57,59,61,63,65,-1,-1,-1,-1,67,-1,69,71,73,75,77,79,81,-1,83,85,87,89,91,93,95,97,99,101,103,105,107,109,111,113,-1,-1,-1,-1,-1,-1,-1,-1,-1,-1,-1,-1,-1,-1,-1,-1,-1,-1,-1,-1,-1,-1,-1,-1,-1,-1,-1,-1,-1,-1,-1,-1,-1,-1,-1,-1,-1,-1,-1,-1,-1,-1,-1,-1,-1,-1,-1,-1,-1,-1,-1,-1],"loss_changes":[7.759355E5,1.7425281E4,2.6714647E5,8.4321875E2,2.3317947E4,5.0390207E4,1.7708969E5,6.3934375E2,4.63189E3,3.2048941E4,1.4700664E3,9.12705E4,3.195178E4,1.4901831E5,2.8027328E4,1.89625E2,7.8757915E3,3.4749473E3,9.2673096E1,3.6103508E4,8.854512E3,2.5473047E2,1.672842E4,3.645803E4,1.5855469E4,1.0109559E4,4.2476305E4,6.770025E4,5.3648375E4,1.4210651E4,4.8926617E4,9.0625E0,2.101621E3,0E0,0E0,0E0,0E0,5.930773E2,0E0,2.1450342E4,2.6935625E3,8.938789E2,1.9829271E4,1.6064453E2,4.9479346E2,5.850285E3,0E0,3.1737562E4,3.2879453E3,7.9972188E3,1.7721615E4,6.60291E3,8.478381E3,2.4512723E4,1.8299451E4,6.129025E4,3.894574E4,1.9260332E4,2.7594625E4,5.8283496E3,1.6089551E2,1.2963369E4,5.2528188E4,0E0,0E0,0E0,0E0,0E0,0E0,0E0,0E0,0E0,0E0,0E0,0E0,0E0,0E0,0E0,0E0,0E0,0E0,0E0,0E0,0E0,0E0,0E0,0E0,0E0,0E0,0E0,0E0,0E0,0E0,0E0,0E0,0E0,0E0,0E0,0E0,0E0,0E0,0E0,0E0,0E0,0E0,0E0,0E0,0E0,0E0,0E0,0E0,0E0,0E0,0E0,0E0],"parents":[2147483647,0,0,1,1,2,2,3,3,4,4,5,5,6,6,7,7,8,8,9,9,10,10,11,11,12,12,13,13,14,14,15,15,16,16,17,17,18,18,19,19,20,20,21,21,22,22,23,23,24,24,25,25,26,26,27,27,28,28,29,29,30,30,31,31,32,32,37,37,39,39,40,40,41,41,42,42,43,43,44,44,45,45,47,47,48,48,49,49,50,50,51,51,52,52,53,53,54,54,55,55,56,56,57,57,58,58,59,59,60,60,61,61,62,62],"right_children":[2,4,6,8,10,12,14,16,18,20,22,24,26,28,30,32,34,36,38,40,42,44,46,48,50,52,54,56,58,60,62,64,66,-1,-1,-1,-1,68,-1,70,72,74,76,78,80,82,-1,84,86,88,90,92,94,96,98,100,102,104,106,108,110,112,114,-1,-1,-1,-1,-1,-1,-1,-1,-1,-1,-1,-1,-1,-1,-1,-1,-1,-1,-1,-1,-1,-1,-1,-1,-1,-1,-1,-1,-1,-1,-1,-1,-1,-1,-1,-1,-1,-1,-1,-1,-1,-1,-1,-1,-1,-1,-1,-1,-1,-1,-1,-1],"split_conditions":[3.6649263E-1,4.4918033E-1,3.931361E-1,3.6501816E-1,5.739011E-1,1.02165066E-1,4.421758E-1,9.351827E-1,5.6710047E-1,4.8121753E-1,1.2726476E-2,3.533432E-1,7.019056E-1,2.3763685E-1,5.6632406E-1,6.218641E-1,3.716276E-2,7.631574E-1,5.740601E-1,2.868179E-4,5.733642E-1,3.5799766E-1,5.740092E-1,6.438171E-1,4.9369428E-1,9.914061E-1,5.7295287E-1,1.0956235E-1,3.4735498E-1,3.2039893E-1,3.462631E-1,9.346109E-1,2.868179E-4,-5.83238E-2,3.489316E-1,-5.8163326E-2,3.4898195E-1,1.7755228E-1,-5.83225E-2,5.04238E-1,5.3385997E-1,7.597371E-1,8.421032E-1,5.739394E-1,4.9214026E-1,8.383056E-1,-5.8329906E-2,4.932607E-1,5.7404333E-1,2.3209466E-1,5.7411116E-1,2.7030203E-1,4.915562E-1,6.835502E-1,5.733996E-1,1.2332275E-1,9.754794E-1,7.570487E-1,2.3691587E-1,7.492212E-1,7.610881E-1,9.23502E-1,8.449636E-1,-5.8333267E-2,-4.25867E-2,-5.674783E-2,2.1758879E-2,-5.0955918E-2,1.464506E-1,2.3650852E-1,7.2533437E-3,3.4992695E-1,-5.7986658E-2,-5.8332063E-2,-3.9268536E-3,1.3439964E-1,-4.9121577E-2,-4.564868E-2,-5.8240872E-2,-2.0754693E-2,-5.4482687E-2,3.4020865E-1,-5.8212914E-2,1.2593876E-1,-3.636359E-2,3.311853E-1,-5.808103E-2,3.0664402E-1,-5.587563E-2,3.366884E-1,-1.7298069E-2,-5.4456603E-2,-1.4529767E-2,3.4816912E-1,-5.8267187E-2,-4.351223E-2,2.593894E-1,2.8758454E-1,-4.947459E-2,-1.9817716E-2,1.6566694E-1,-3.083978E-2,1.2806013E-1,2.022736E-1,5.2202016E-2,2.6471737E-1,-4.0997352E-2,-5.8216747E-2,3.4449157E-1,-5.770268E-2,6.394545E-2,2.2618015E-1,-4.380275E-2,3.0073607E-2,2.185593E-1],"split_indices":[33,24,35,33,22,8,35,14,22,35,32,19,28,27,16,36,37,34,22,37,22,33,22,4,7,18,16,8,19,1,19,14,37,0,0,0,0,37,0,13,1,34,12,22,7,12,0,9,22,20,22,5,7,2,22,0,18,34,20,34,34,10,12,0,0,0,0,0,0,0,0,0,0,0,0,0,0,0,0,0,0,0,0,0,0,0,0,0,0,0,0,0,0,0,0,0,0,0,0,0,0,0,0,0,0,0,0,0,0,0,0,0,0,0,0],"split_type":[0,0,0,0,0,0,0,0,0,0,0,0,0,0,0,0,0,0,0,0,0,0,0,0,0,0,0,0,0,0,0,0,0,0,0,0,0,0,0,0,0,0,0,0,0,0,0,0,0,0,0,0,0,0,0,0,0,0,0,0,0,0,0,0,0,0,0,0,0,0,0,0,0,0,0,0,0,0,0,0,0,0,0,0,0,0,0,0,0,0,0,0,0,0,0,0,0,0,0,0,0,0,0,0,0,0,0,0,0,0,0,0,0,0,0],"sum_hessian":[2.0802036E6,1.226995E6,8.532086E5,9.477821E5,2.7921284E5,3.3259472E5,5.206139E5,9.3979525E5,7.986858E3,1.0920687E5,1.7000597E5,1.01730375E5,2.3086434E5,3.7644934E5,1.4416458E5,9.3316144E5,6.6337964E3,8.813878E2,7.1054697E3,3.4771348E4,7.4435516E4,1.509654E5,1.9040572E4,7.932344E4,2.240694E4,1.9234997E5,3.851437E4,2.1576662E5,1.606827E5,4.193633E4,1.0222825E5,8.5405844E5,7.910302E4,6.1200005E3,5.1379596E2,3.4212247E2,5.392653E2,1.7199185E3,5.3855513E3,2.981241E4,4.958939E3,4.9059434E4,2.5376084E4,1.28552336E5,2.2413062E4,2.0297145E3,1.7010857E4,7.539233E4,3.9311023E3,1.6151267E4,6.255674E3,1.9024116E5,2.1088164E3,1.5208409E4,2.330596E4,1.4473275E5,7.103388E4,3.483943E4,1.2584327E5,1.7782042E3,4.0158125E4,4.151829E4,6.0709965E4,8.5368106E5,3.773878E2,7.5532414E4,3.5706125E3,1.5521633E3,1.6775511E2,4.8791025E3,2.4933309E4,4.791674E3,1.6726532E2,4.582629E4,3.233143E3,9.282613E3,1.6093471E4,1.1111511E4,1.1744083E5,5.9081636E3,1.6504898E4,1.5462858E3,4.8342862E2,1.5053144E4,6.0339188E4,3.7008982E3,2.302041E2,1.5518205E4,6.330613E2,2.1587756E3,4.0968984E3,1.292983E5,6.0942863E4,1.2279185E3,8.80898E2,3.4574697E3,1.1750939E4,1.7397552E3,2.1566205E4,2.0805062E4,1.2392768E5,4.839429E4,2.2639594E4,1.5075185E4,1.9764246E4,1.228183E5,3.0249797E3,4.99347E2,1.2788572E3,4.004988E4,1.082449E2,1.8609797E3,3.965731E4,3.5234453E4,2.5475512E4],"tree_param":{"num_deleted":"0","num_feature":"38","num_nodes":"115","size_leaf_vector":"1"}},{"base_weights":[-1.7384679E-8,2.4458213E0,-3.12462E-1,5.825764E-1,3.12652E0,-4.6802476E-1,6.516861E-1,-3.9464223E-1,2.4066672E0,-3.4176204E-1,3.217203E0,-5.578037E-1,-2.1410722E-1,-3.5431919E-1,1.5862073E0,-5.333322E-1,3.394814E0,3.9404416E-1,2.9964764E0,1.448298E0,-5.427345E-1,1.4646963E0,3.3287232E0,-1.4309734E-1,-5.691745E-1,1.498592E0,-3.487083E-1,-4.275837E-1,3.406918E0,2.78558E0,1.2928429E0,2.3492696E0,-5.475223E-1,-5.6245435E-2,3.4701307E0,-4.3208227E-1,2.8865836E0,-1.9876568E-1,3.1410687E0,-5.806482E-2,3.375011E0,-5.670525E-1,1.3315978E0,-3.4474367E-1,3.3470502E0,1.0290161E0,3.3716614E0,-5.833089E-2,1.2719564E0,-5.8199185E-1,-4.2547727E-1,2.2958097E0,-5.174353E-1,7.111626E-1,-4.4244474E-1,9.338554E-1,-4.835339E-1,-5.7003256E-2,3.4807796E0,3.0225916E0,8.531933E-1,3.031844E0,1.0272685E0,-5.72049E-2,3.3850417E-1,-5.721872E-2,1.0269046E-1,3.4890553E-1,-5.0670244E-2,1.5732017E-1,-5.4538395E-2,-5.791986E-2,3.3279344E-1,-5.8246024E-2,3.4502175E-1,3.2621765E-1,8.449813E-2,3.4842268E-1,-5.0143268E-2,-5.831802E-2,7.0514143E-3,-5.618905E-2,3.358615E-1,3.2739002E-1,-5.126859E-2,3.396244E-1,-5.739216E-2,2.458953E-1,-5.7340592E-2,-5.8205552E-2,3.3833012E-1,3.087196E-1,-5.8317464E-2,-5.831913E-2,-4.540985E-2,2.6695916E-1,-4.9712807E-2,-2.8821662E-2,3.0526194E-1,2.148435E-1,-5.794421E-2,-1.5769696E-2,2.4021803E-1,1.096757E-2,-4.9042605E-2,-4.7345283E-3,2.6452717E-1,-1.0786647E-3,-5.656922E-2,3.4941497E-1,-5.154394E-2,-5.7594817E-2,3.1433675E-1,3.39816E-1,-1.8997472E-2,3.2287082E-1,1.9542474E-2,2.6539487E-1,6.3997485E-2],"categories":[],"categories_nodes":[],"categories_segments":[],"categories_sizes":[],"default_left":[0,0,0,0,0,0,0,0,0,0,0,0,0,0,0,0,0,0,0,0,0,0,0,0,0,0,0,0,0,0,0,0,0,0,0,0,0,0,0,0,0,0,0,0,0,0,0,0,0,0,0,0,0,0,0,0,0,0,0,0,0,0,0,0,0,0,0,0,0,0,0,0,0,0,0,0,0,0,0,0,0,0,0,0,0,0,0,0,0,0,0,0,0,0,0,0,0,0,0,0,0,0,0,0,0,0,0,0,0,0,0,0,0,0,0,0,0,0,0],"id":6,"left_children":[1,3,5,7,9,11,13,15,17,19,21,23,25,27,29,31,33,35,37,39,41,43,45,47,49,51,53,55,57,59,61,63,65,-1,67,69,71,73,75,-1,77,79,81,83,85,87,89,-1,91,93,95,97,99,101,103,105,107,-1,109,111,113,115,117,-1,-1,-1,-1,-1,-1,-1,-1,-1,-1,-1,-1,-1,-1,-1,-1,-1,-1,-1,-1,-1,-1,-1,-1,-1,-1,-1,-1,-1,-1,-1,-1,-1,-1,-1,-1,-1,-1,-1,-1,-1,-1,-1,-1,-1,-1,-1,-1,-1,-1,-1,-1,-1,-1,-1,-1],"loss_changes":[1.5897476E6,2.9887312E5,2.7665716E5,1.1239897E5,5.42845E4,3.620728E4,2.4092555E5,2.158109E4,2.6110062E4,1.583206E3,3.28675E4,5.5331875E3,9.56452E4,3.4010098E4,4.6741438E4,1.62154E3,4.340664E2,1.0268983E4,7.8598906E3,1.7386804E3,1.8104077E2,3.4281223E4,1.5611375E4,1.9508418E4,2.10325E3,4.8587992E4,3.8215598E4,9.221703E3,6.946758E2,1.1955125E4,4.929589E4,5.896249E2,1.531293E3,0E0,1.08853516E2,8.519519E2,1.9008174E3,1.034451E3,4.5228125E3,0E0,9.828369E1,4.0198364E1,1.9747531E2,3.1208728E3,9.5345703E2,6.646034E3,7.14575E3,0E0,2.502561E4,1.6059375E2,2.074336E4,4.2367227E4,1.4174756E3,4.5923266E4,9.362242E3,8.025159E3,4.516285E3,0E0,1.2550781E2,1.0109172E4,7.5770376E3,7.895922E3,5.8340023E4,0E0,0E0,0E0,0E0,0E0,0E0,0E0,0E0,0E0,0E0,0E0,0E0,0E0,0E0,0E0,0E0,0E0,0E0,0E0,0E0,0E0,0E0,0E0,0E0,0E0,0E0,0E0,0E0,0E0,0E0,0E0,0E0,0E0,0E0,0E0,0E0,0E0,0E0,0E0,0E0,0E0,0E0,0E0,0E0,0E0,0E0,0E0,0E0,0E0,0E0,0E0,0E0,0E0,0E0,0E0,0E0],"parents":[2147483647,0,0,1,1,2,2,3,3,4,4,5,5,6,6,7,7,8,8,9,9,10,10,11,11,12,12,13,13,14,14,15,15,16,16,17,17,18,18,19,19,20,20,21,21,22,22,23,23,24,24,25,25,26,26,27,27,28,28,29,29,30,30,31,31,32,32,34,34,35,35,36,36,37,37,38,38,40,40,41,41,42,42,43,43,44,44,45,45,46,46,48,48,49,49,50,50,51,51,52,52,53,53,54,54,55,55,56,56,58,58,59,59,60,60,61,61,62,62],"right_children":[2,4,6,8,10,12,14,16,18,20,22,24,26,28,30,32,34,36,38,40,42,44,46,48,50,52,54,56,58,60,62,64,66,-1,68,70,72,74,76,-1,78,80,82,84,86,88,90,-1,92,94,96,98,100,102,104,106,108,-1,110,112,114,116,118,-1,-1,-1,-1,-1,-1,-1,-1,-1,-1,-1,-1,-1,-1,-1,-1,-1,-1,-1,-1,-1,-1,-1,-1,-1,-1,-1,-1,-1,-1,-1,-1,-1,-1,-1,-1,-1,-1,-1,-1,-1,-1,-1,-1,-1,-1,-1,-1,-1,-1,-1,-1,-1,-1,-1,-1],"split_conditions":[5.5891496E-1,4.216859E-1,3.1826466E-1,2.3174416E-1,6.966942E-1,1.8976693E-1,3.51468E-1,5.844809E-1,9.7493315E-1,8.237291E-1,1.045883E-1,4.9183473E-1,5.71527E-1,5.774461E-1,5.6699413E-1,3.2435942E-1,2.1491932E-2,4.4831902E-1,3.6736345E-1,8.2350683E-1,5.582397E-1,5.7429105E-1,3.5029528E-1,9.7513163E-1,9.7835207E-1,5.7354647E-1,5.650144E-1,8.254369E-1,9.2556435E-1,6.0006016E-1,5.71527E-1,6.266624E-1,9.270723E-1,-5.6245435E-2,6.2686557E-1,6.098549E-1,3.3492306E-1,7.707801E-1,8.332975E-1,-5.806482E-2,1.2362437E-1,6.9575727E-1,5.754906E-1,9.0080667E-1,6.269793E-1,6.230049E-1,3.2938495E-2,-5.833089E-2,7.417216E-1,6.298618E-1,5.651616E-1,4.37065E-1,6.1103153E-1,4.4283062E-1,7.3834574E-1,3.3460924E-1,7.174165E-1,-5.7003256E-2,8.4344786E-1,5.3204403E-6,3.6426744E-1,2.868179E-4,3.1355768E-1,-5.72049E-2,3.3850417E-1,-5.721872E-2,1.0269046E-1,3.4890553E-1,-5.0670244E-2,1.5732017E-1,-5.4538395E-2,-5.791986E-2,3.3279344E-1,-5.8246024E-2,3.4502175E-1,3.2621765E-1,8.449813E-2,3.4842268E-1,-5.0143268E-2,-5.831802E-2,7.0514143E-3,-5.618905E-2,3.358615E-1,3.2739002E-1,-5.126859E-2,3.396244E-1,-5.739216E-2,2.458953E-1,-5.7340592E-2,-5.8205552E-2,3.3833012E-1,3.087196E-1,-5.8317464E-2,-5.831913E-2,-4.540985E-2,2.6695916E-1,-4.9712807E-2,-2.8821662E-2,3.0526194E-1,2.148435E-1,-5.794421E-2,-1.5769696E-2,2.4021803E-1,1.096757E-2,-4.9042605E-2,-4.7345283E-3,2.6452717E-1,-1.0786647E-3,-5.656922E-2,3.4941497E-1,-5.154394E-2,-5.7594817E-2,3.1433675E-1,3.39816E-1,-1.8997472E-2,3.2287082E-1,1.9542474E-2,2.6539487E-1,6.3997485E-2],"split_indices":[16,35,5,5,34,5,19,22,18,21,8,9,22,22,16,33,32,27,1,21,16,22,19,18,18,1,16,21,14,1,22,36,10,0,36,25,23,34,21,0,8,34,22,10,36,36,27,0,34,36,22,35,25,35,34,23,34,0,12,27,33,37,35,0,0,0,0,0,0,0,0,0,0,0,0,0,0,0,0,0,0,0,0,0,0,0,0,0,0,0,0,0,0,0,0,0,0,0,0,0,0,0,0,0,0,0,0,0,0,0,0,0,0,0,0,0,0,0,0],"split_type":[0,0,0,0,0,0,0,0,0,0,0,0,0,0,0,0,0,0,0,0,0,0,0,0,0,0,0,0,0,0,0,0,0,0,0,0,0,0,0,0,0,0,0,0,0,0,0,0,0,0,0,0,0,0,0,0,0,0,0,0,0,0,0,0,0,0,0,0,0,0,0,0,0,0,0,0,0,0,0,0,0,0,0,0,0,0,0,0,0,0,0,0,0,0,0,0,0,0,0,0,0,0,0,0,0,0,0,0,0,0,0,0,0,0,0,0,0,0,0],"sum_hessian":[2.0802036E6,2.3564744E5,1.8445561E6,6.3054125E4,1.7259331E5,1.5882902E6,2.5626589E5,4.1058613E4,2.1995512E4,4.397633E3,1.6819569E5,1.173403E6,4.1488728E5,1.2341315E5,1.3285275E5,3.9609797E4,1.4488164E3,4.985388E3,1.7010123E4,4.4326535E2,3.9543677E3,1.0063593E4,1.581321E5,3.131535E4,1.1420876E6,3.022947E4,3.846578E5,1.2105601E5,2.357143E3,2.6107594E4,1.0674515E5,1.932245E2,3.9416574E4,2.6938778E1,1.4218777E3,3.7449797E3,1.2404082E3,7.364082E2,1.6273716E4,2.1624492E2,2.2702043E2,3.9044084E3,4.9959187E1,5.1315923E3,4.9320005E3,2.8988574E3,1.5523323E5,2.3885389E4,7.4299595E3,1.0485566E6,9.3530945E4,2.166294E4,8.566531E3,3.125486E4,3.5340297E5,4.7779595E3,1.1627805E5,4.2857147E1,2.314286E3,2.3254777E4,2.8528167E3,1.4140654E4,9.26045E4,5.0693882E1,1.4253062E2,3.8809227E4,6.07347E2,1.4152654E3,6.6122456E0,1.9959186E2,3.545388E3,1.4008165E2,1.1003267E3,6.671021E2,6.930613E1,1.545796E4,8.157552E2,2.2089798E2,6.1224494E0,3.8081636E3,9.62449E1,2.6204084E1,2.3755104E1,2.2677553E2,4.904817E3,4.871021E3,6.0979595E1,1.5315919E3,1.3672654E3,4.5551022E2,1.5477772E5,3.7550208E3,3.674939E3,1.0388112E6,9.74547E3,2.1154287E3,9.1415516E4,4.9075107E3,1.675543E4,1.939592E2,8.372572E3,2.0647104E4,1.0607756E4,2.8256328E4,3.2514662E5,3.0374695E3,1.7404899E3,1.7216082E4,9.906197E4,2.306694E3,7.5918374E0,7.5502045E2,2.2499756E4,8.2873474E2,2.0240818E3,1.3222776E4,9.178776E2,1.7807021E4,7.479748E4],"tree_param":{"num_deleted":"0","num_feature":"38","num_nodes":"119","size_leaf_vector":"1"}},{"base_weights":[8.985998E-4,1.1254195E0,-3.964224E-1,5.3602E-1,1.8982642E0,4.1799877E-2,-4.8978046E-1,1.0217259E0,-7.5571604E-2,2.2464015E0,1.2997656E0,-3.5189223E-1,4.6527252E-1,1.1671264E0,-5.016337E-1,1.6964447E-1,1.4014659E0,2.535995E-1,-1.7786723E-1,2.2931662E0,-3.9395323E-1,1.6272817E0,6.7060634E-2,2.6299844E0,-3.6883557E-1,8.220811E-1,-3.4758878E-1,-3.2610777E-1,2.529007E0,-5.6293404E-1,-3.8645127E-1,1.4706326E0,-3.548672E-2,-1.2191959E-1,1.6571183E0,3.6352217E-1,-3.690449E-1,8.4479314E-1,2.3366811E0,2.7550092E-1,-5.626493E-1,8.684477E-1,1.9659563E0,-2.8034586E-1,1.8687264E0,-5.7020277E-2,2.8393426E0,2.905744E0,-3.7994626E-1,1.3955237E0,3.4038335E-1,2.3519478E0,-4.6498936E-1,-4.9631187E-1,2.520911E0,9.6459687E-1,2.5309554E-1,-5.6509334E-1,-2.9779467E-1,1.0731347E0,-4.0299544E-1,9.5497206E-2,3.0401465E-1,1.0100831E-1,-1.8713286E-2,2.5537357E-1,-2.6065797E-2,1.9789957E-1,9.683814E-2,8.193584E-2,-4.0077355E-2,2.7306828E-1,-3.810733E-2,-4.2524957E-4,2.630656E-1,1.9549929E-1,2.4854329E-1,-5.8244057E-2,2.4181798E-1,1.9640324E-1,3.4805696E-2,3.139028E-3,2.2190431E-1,2.1176933E-1,-3.5402916E-2,6.2350985E-2,2.6624426E-1,2.9433736E-1,2.5290963E-1,3.0225745E-1,2.5015998E-1,3.1925347E-1,-3.855787E-2,2.732819E-1,1.0153508E-1,-1.9050755E-2,1.0500287E-1,2.6597482E-1,-3.138054E-2,7.907125E-2,-5.212898E-2,2.4887736E-1,-5.429926E-2,2.5482383E-1,8.33885E-2,-4.4588882E-2,2.211139E-1,-5.651722E-2,2.5290462E-1,2.6099378E-1,-4.2571153E-2,-3.6861356E-2,1.926901E-1,-5.0251573E-2,-2.5652543E-2],"categories":[],"categories_nodes":[],"categories_segments":[],"categories_sizes":[],"default_left":[0,0,0,0,0,0,0,0,0,0,0,0,0,0,0,0,0,0,0,0,0,0,0,0,0,0,0,0,0,0,0,0,0,0,0,0,0,0,0,0,0,0,0,0,0,0,0,0,0,0,0,0,0,0,0,0,0,0,0,0,0,0,0,0,0,0,0,0,0,0,0,0,0,0,0,0,0,0,0,0,0,0,0,0,0,0,0,0,0,0,0,0,0,0,0,0,0,0,0,0,0,0,0,0,0,0,0,0,0,0,0,0,0,0,0],"id":7,"left_children":[1,3,5,7,9,11,13,15,17,19,21,23,25,27,29,31,33,-1,35,37,39,41,43,45,47,49,51,53,55,57,59,61,63,65,67,69,71,73,75,-1,77,79,81,83,85,-1,87,89,91,93,95,97,99,101,103,105,-1,107,109,111,113,-1,-1,-1,-1,-1,-1,-1,-1,-1,-1,-1,-1,-1,-1,-1,-1,-1,-1,-1,-1,-1,-1,-1,-1,-1,-1,-1,-1,-1,-1,-1,-1,-1,-1,-1,-1,-1,-1,-1,-1,-1,-1,-1,-1,-1,-1,-1,-1,-1,-1,-1,-1,-1,-1],"loss_changes":[9.258893E5,2.4644631E5,6.2646188E4,9.117937E4,4.877125E4,4.4834902E4,2.4792438E4,5.5355953E4,3.6297508E4,1.8274812E4,3.4757312E4,7.042037E3,3.757822E4,1.823551E4,8.8494375E3,1.4075155E4,4.608853E4,0E0,1.353259E4,9.16325E3,1.3702198E3,1.7478953E4,1.1312523E4,5.29251E2,5.0429316E3,2.4870926E4,1.2527322E4,2.0742397E3,1.1853516E1,4.6815625E2,1.0513184E4,5.810753E3,7.2237974E3,6.3138257E3,2.246275E4,1.18879795E4,3.6037158E3,6.433831E3,8.0108125E3,0E0,1.4572589E2,1.1967157E4,2.302564E4,2.6780715E3,2.8859844E3,0E0,1.6417969E1,1.4570068E1,2.7802285E3,2.0895234E4,1.8436498E4,1.3525527E3,2.678229E3,5.639568E2,9.008179E0,1.4082862E1,0E0,1.9942188E2,2.4598071E3,6.0071187E3,6.2747812E3,0E0,0E0,0E0,0E0,0E0,0E0,0E0,0E0,0E0,0E0,0E0,0E0,0E0,0E0,0E0,0E0,0E0,0E0,0E0,0E0,0E0,0E0,0E0,0E0,0E0,0E0,0E0,0E0,0E0,0E0,0E0,0E0,0E0,0E0,0E0,0E0,0E0,0E0,0E0,0E0,0E0,0E0,0E0,0E0,0E0,0E0,0E0,0E0,0E0,0E0,0E0,0E0,0E0,0E0],"parents":[2147483647,0,0,1,1,2,2,3,3,4,4,5,5,6,6,7,7,8,8,9,9,10,10,11,11,12,12,13,13,14,14,15,15,16,16,18,18,19,19,20,20,21,21,22,22,23,23,24,24,25,25,26,26,27,27,28,28,29,29,30,30,31,31,32,32,33,33,34,34,35,35,36,36,37,37,38,38,40,40,41,41,42,42,43,43,44,44,46,46,47,47,48,48,49,49,50,50,51,51,52,52,53,53,54,54,55,55,57,57,58,58,59,59,60,60],"right_children":[2,4,6,8,10,12,14,16,18,20,22,24,26,28,30,32,34,-1,36,38,40,42,44,46,48,50,52,54,56,58,60,62,64,66,68,70,72,74,76,-1,78,80,82,84,86,-1,88,90,92,94,96,98,100,102,104,106,-1,108,110,112,114,-1,-1,-1,-1,-1,-1,-1,-1,-1,-1,-1,-1,-1,-1,-1,-1,-1,-1,-1,-1,-1,-1,-1,-1,-1,-1,-1,-1,-1,-1,-1,-1,-1,-1,-1,-1,-1,-1,-1,-1,-1,-1,-1,-1,-1,-1,-1,-1,-1,-1,-1,-1,-1,-1],"split_conditions":[3.5068026E-1,4.4094115E-1,3.594556E-1,2.4967312E-7,3.4582198E-1,1.0709651E-1,5.3204403E-6,5.738681E-1,3.2938495E-2,5.77879E-1,2.4967312E-7,3.011002E-1,2.4967312E-7,9.251238E-1,9.2541546E-1,9.252161E-1,2.3053749E-1,2.535995E-1,3.4379706E-1,9.150543E-1,7.282403E-1,5.738484E-1,5.062029E-1,5.7822514E-1,5.3204403E-6,3.549175E-1,5.424215E-1,1.6485246E-1,5.374963E-1,5.113081E-1,7.040809E-1,6.2516207E-1,4.4808775E-1,4.9344638E-1,5.7405156E-1,5.8479625E-1,4.448097E-1,3.337367E-1,4.7265E-1,2.7550092E-1,6.22763E-1,9.2525E-1,2.3036979E-1,5.5293864E-1,6.236434E-1,-5.7020277E-2,2.4967312E-7,2.4967312E-7,4.909604E-1,4.4808775E-1,1.14987224E-1,5.7833666E-1,7.2448844E-1,4.236713E-1,2.535185E-1,6.0073787E-1,2.5309554E-1,9.944444E-1,4.6727848E-1,5.9582114E-1,2.2766775E-1,9.5497206E-2,3.0401465E-1,1.0100831E-1,-1.8713286E-2,2.5537357E-1,-2.6065797E-2,1.9789957E-1,9.683814E-2,8.193584E-2,-4.0077355E-2,2.7306828E-1,-3.810733E-2,-4.2524957E-4,2.630656E-1,1.9549929E-1,2.4854329E-1,-5.8244057E-2,2.4181798E-1,1.9640324E-1,3.4805696E-2,3.139028E-3,2.2190431E-1,2.1176933E-1,-3.5402916E-2,6.2350985E-2,2.6624426E-1,2.9433736E-1,2.5290963E-1,3.0225745E-1,2.5015998E-1,3.1925347E-1,-3.855787E-2,2.732819E-1,1.0153508E-1,-1.9050755E-2,1.0500287E-1,2.6597482E-1,-3.138054E-2,7.907125E-2,-5.212898E-2,2.4887736E-1,-5.429926E-2,2.5482383E-1,8.33885E-2,-4.4588882E-2,2.211139E-1,-5.651722E-2,2.5290462E-1,2.6099378E-1,-4.2571153E-2,-3.6861356E-2,1.926901E-1,-5.0251573E-2,-2.5652543E-2],"split_indices":[19,35,19,32,19,8,27,22,27,22,32,33,32,10,14,10,20,0,19,14,34,22,35,2,27,19,16,5,14,11,34,3,24,9,22,16,24,23,35,0,36,10,20,16,36,0,32,32,9,24,8,22,34,17,20,3,0,18,1,36,20,0,0,0,0,0,0,0,0,0,0,0,0,0,0,0,0,0,0,0,0,0,0,0,0,0,0,0,0,0,0,0,0,0,0,0,0,0,0,0,0,0,0,0,0,0,0,0,0,0,0,0,0,0,0],"split_type":[0,0,0,0,0,0,0,0,0,0,0,0,0,0,0,0,0,0,0,0,0,0,0,0,0,0,0,0,0,0,0,0,0,0,0,0,0,0,0,0,0,0,0,0,0,0,0,0,0,0,0,0,0,0,0,0,0,0,0,0,0,0,0,0,0,0,0,0,0,0,0,0,0,0,0,0,0,0,0,0,0,0,0,0,0,0,0,0,0,0,0,0,0,0,0,0,0,0,0,0,0,0,0,0,0,0,0,0,0,0,0,0,0,0,0],"sum_hessian":[2.0722858E6,5.410299E5,1.5312559E6,3.0694453E5,2.3408533E5,2.6892484E5,1.262331E6,1.7107875E5,1.3586578E5,1.4799575E5,8.6089586E4,1.3936283E5,1.2956203E5,8.965671E3,1.2533654E6,5.2739777E4,1.1833897E5,5.1203936E3,1.3074538E5,1.4542027E5,2.5754766E3,6.801771E4,1.8071875E4,7.8652826E2,1.385763E5,9.003904E4,3.9522996E4,4.276959E3,4.688712E3,8.180131E5,4.3535225E5,7.182239E3,4.555754E4,1.7005697E4,1.0133327E5,3.4120324E4,9.662506E4,4.242164E3,1.4117811E5,1.301781E2,2.4452983E3,2.0990346E4,4.7027367E4,1.5151189E4,2.9206863E3,4.8189777E1,7.383385E2,4.6771957E2,1.3810858E5,4.110419E4,4.8934848E4,1.6463939E3,3.78766E4,4.0364712E3,2.4048776E2,6.4489355E0,4.682263E3,8.114038E5,6.60932E3,4.878625E3,4.3047362E5,5.407292E3,1.7749465E3,5.7698584E3,3.978768E4,8.3745496E2,1.6168243E4,6.905768E4,3.2275594E4,2.1373068E4,1.2747255E4,3.726271E2,9.625243E4,2.8758892E3,1.3662749E3,3.9594664E4,1.01583445E5,2.4299692E3,1.5329178E1,6.758604E3,1.4231742E4,5.4406665E3,4.15867E4,4.508376E2,1.4700352E4,1.1376606E3,1.7830256E3,5.465754E2,1.9176309E2,3.578058E2,1.0991379E2,2.1650996E2,1.3789206E5,9.0973125E3,3.2006879E4,2.799346E4,2.0941385E4,1.4759735E3,1.7042044E2,1.6247953E3,3.625181E4,6.1344875E1,3.9751262E3,2.3615198E2,4.335787E0,3.3268461E0,3.1220894E0,8.1138394E5,1.986277E1,2.776874E2,6.3316323E3,1.8147089E3,3.063916E3,2.5631552E5,1.7415812E5],"tree_param":{"num_deleted":"0","num_feature":"38","num_nodes":"115","size_leaf_vector":"1"}},{"base_weights":[-1.7532727E-3,-5.418349E-1,2.0490572E0,2.46651E0,-5.526501E-1,2.4398353E0,-4.8867166E-1,-5.6842286E-2,2.493622E0,-1.2601511E-2,-5.771853E-1,2.4652855E0,-5.7778E-2,-5.6755674E-1,5.60253E-1,-5.0575037E-2,2.4962158E0,2.1161015E0,-4.9147844E-1,-3.913835E-1,-5.7725704E-1,2.4890013E0,-4.8731324E-1,3.2255358E-1,-5.7698525E-2,2.3807452E0,-5.7746824E-2,2.4978109E-1,-4.5229282E-2,2.354966E0,-5.7593115E-2,2.0341556E0,-5.5767167E-1,2.4297272E-1,-5.7606995E-2,-4.1060188E-1,-5.7731934E-2,2.4903343E0,-5.7890054E-2,-5.7663452E-2,2.424908E0,2.2707253E0,-5.7052624E-1,-5.701443E-2,2.5102239E0,2.4916804E-1,-5.752786E-2,-5.7400286E-2,2.5018477E-1,-5.7633318E-2,1.5222958E-1,2.4199553E-1,-5.7612866E-2,-5.7149E-2,2.4909079E-1,-3.382724E-2,2.4674527E-1,2.5020394E-1,-5.3808566E-2,-5.7561334E-2,3.402884E-2,2.5173685E-1,-4.4630345E-2],"categories":[],"categories_nodes":[],"categories_segments":[],"categories_sizes":[],"default_left":[0,0,0,0,0,0,0,0,0,0,0,0,0,0,0,0,0,0,0,0,0,0,0,0,0,0,0,0,0,0,0,0,0,0,0,0,0,0,0,0,0,0,0,0,0,0,0,0,0,0,0,0,0,0,0,0,0,0,0,0,0,0,0],"id":8,"left_children":[1,3,5,7,9,11,13,-1,15,17,19,21,-1,23,25,-1,27,29,31,33,35,37,39,41,-1,43,-1,-1,-1,45,-1,47,49,-1,-1,51,-1,53,-1,-1,55,57,59,-1,61,-1,-1,-1,-1,-1,-1,-1,-1,-1,-1,-1,-1,-1,-1,-1,-1,-1,-1],"loss_changes":[2.29956E6,5.347E4,4.29187E5,4.8582812E2,2.1697E4,2.880325E4,4.7788994E3,0E0,4.665625E1,7.254206E4,2.0625E1,2.604275E4,0E0,4.5096094E2,8.368914E3,0E0,2.8550781E1,8.405027E3,9.713208E3,3.179409E2,1.603125E1,1.51025E3,7.7244714E2,9.819301E2,0E0,5.9515625E2,0E0,0E0,0E0,4.8103047E3,0E0,1.8114946E3,2.1982422E3,0E0,0E0,2.77211E2,0E0,6.4925E2,0E0,0E0,1.1227112E1,1.1658209E2,1.9902039E0,0E0,3.2570312E1,0E0,0E0,0E0,0E0,0E0,0E0,0E0,0E0,0E0,0E0,0E0,0E0,0E0,0E0,0E0,0E0,0E0,0E0],"parents":[2147483647,0,0,1,1,2,2,3,3,4,4,5,5,6,6,8,8,9,9,10,10,11,11,13,13,14,14,16,16,17,17,18,18,19,19,20,20,21,21,22,22,23,23,25,25,29,29,31,31,32,32,35,35,37,37,40,40,41,41,42,42,44,44],"right_children":[2,4,6,8,10,12,14,-1,16,18,20,22,-1,24,26,-1,28,30,32,34,36,38,40,42,-1,44,-1,-1,-1,46,-1,48,50,-1,-1,52,-1,54,-1,-1,56,58,60,-1,62,-1,-1,-1,-1,-1,-1,-1,-1,-1,-1,-1,-1,-1,-1,-1,-1,-1,-1],"split_conditions":[5.5113906E-1,5.126902E-1,6.1604184E-1,3.6681435E-1,5.8800054E-1,6.1482877E-1,4.9809694E-1,-5.6842286E-2,4.9329787E-1,9.1190296E-1,5.180603E-1,7.610881E-1,-5.7778E-2,6.1728704E-1,3.358759E-1,-5.0575037E-2,3.5114372E-1,5.4246556E-2,4.0837142E-1,5.941193E-1,5.885109E-1,5.070958E-1,5.035827E-1,4.8817214E-2,-5.7698525E-2,4.1905265E-2,-5.7746824E-2,2.4978109E-1,-4.5229282E-2,2.851224E-1,-5.7593115E-2,6.127759E-1,6.1579895E-1,2.4297272E-1,-5.7606995E-2,5.554343E-1,-5.7731934E-2,2.9879504E-1,-5.7890054E-2,-5.7663452E-2,8.961732E-2,5.7316285E-1,7.31777E-2,-5.701443E-2,8.399816E-1,2.4916804E-1,-5.752786E-2,-5.7400286E-2,2.5018477E-1,-5.7633318E-2,1.5222958E-1,2.4199553E-1,-5.7612866E-2,-5.7149E-2,2.4909079E-1,-3.382724E-2,2.4674527E-1,2.5020394E-1,-5.3808566E-2,-5.7561334E-2,3.402884E-2,2.5173685E-1,-4.4630345E-2],"split_indices":[35,22,36,20,2,2,7,0,7,14,22,34,0,36,23,0,4,27,17,2,2,11,7,0,0,32,0,0,0,5,0,25,16,0,0,3,0,4,0,0,0,2,32,0,12,0,0,0,0,0,0,0,0,0,0,0,0,0,0,0,0,0,0],"split_type":[0,0,0,0,0,0,0,0,0,0,0,0,0,0,0,0,0,0,0,0,0,0,0,0,0,0,0,0,0,0,0,0,0,0,0,0,0,0,0,0,0,0,0,0,0,0,0,0,0,0,0,0,0,0,0,0,0,0,0,0,0,0,0],"sum_hessian":[2.0761534E6,1.6433716E6,4.3278172E5,5.8860654E3,1.6374856E6,3.7503162E5,5.775008E4,5.1939705E1,5.8341255E3,7.116043E4,1.5663251E6,3.718953E5,3.1363274E3,5.3711156E4,4.038923E3,4.8728366E0,5.829253E3,1.3067845E4,5.8092582E4,6.065402E2,1.5657186E6,3.6893212E5,2.9631672E3,5.626243E2,5.314853E4,1.5529392E3,2.485984E3,5.826254E3,2.9991066E0,1.2002947E4,1.0648975E3,1.4828789E3,5.6609703E4,3.6521008E1,5.700192E2,5.876817E2,1.5651309E6,3.687721E5,1.6004526E2,2.875766E3,8.740115E1,1.7636272E2,3.8626163E2,6.513241E1,1.4878068E3,1.1468039E4,5.349074E2,2.2544147E2,1.2574374E3,5.610703E4,5.026709E2,3.171561E1,5.5596606E2,6.889469E1,3.687032E5,1.219917E0,8.618124E1,1.6304471E2,1.3318011E1,3.8448224E2,1.7793752E0,1.4843683E3,3.4384437E0],"tree_param":{"num_deleted":"0","num_feature":"38","num_nodes":"63","size_leaf_vector":"1"}},{"base_weights":[-3.5276494E-4,-5.03014E-1,8.8613075E-1,-5.0938195E-1,1.989154E0,9.9833645E-2,2.012927E0,-5.748797E-1,-3.1326258E-1,2.5100732E0,-5.7558693E-2,7.382169E-1,-3.35324E-1,2.2104685E0,1.8432099E-1,-5.773595E-1,1.6818173E-1,-5.57575E-1,1.023266E0,-3.4415763E-2,2.511671E-1,5.974878E-2,1.4938211E0,-5.391514E-1,-6.860838E-2,1.7620474E0,2.3982544E0,-5.775549E-2,2.4933805E0,-5.773775E-2,-2.5600594E-1,2.3372626E0,-5.7603337E-2,-5.7580507E-1,6.9147265E-1,1.9899559E0,-3.7082314E-1,-2.3749922E-1,1.2052152E0,7.4577755E-1,1.8588141E0,3.3520305E-1,-5.7149476E-1,-3.023603E-1,4.0260577E-1,2.8444973E-1,2.2290373E0,1.9493455E-4,2.4157548E0,2.4939099E-1,-3.4828413E-2,2.28783E-1,-5.6656457E-2,-5.659474E-2,2.5369838E-1,-5.7680648E-2,2.4935599E-1,2.20564E-1,-4.43296E-2,-5.8537252E-2,2.2145188E-1,-4.631217E-2,8.1615075E-2,-3.0041387E-2,2.852227E-1,2.6857695E-1,3.8326137E-2,-4.427406E-2,1.4481808E-1,3.799081E-2,2.0572798E-1,-5.5387985E-2,1.8518029E-1,2.4710421E-1,-5.72084E-2,3.2248247E-1,-3.3151787E-2,1.02007605E-1,-3.519174E-2,2.615337E-1,-1.167588E-3,-1.763173E-2,2.3511021E-1,-5.8109175E-2,2.5224265E-1,2.4421726E-1,1.5076362E-1],"categories":[],"categories_nodes":[],"categories_segments":[],"categories_sizes":[],"default_left":[0,0,0,0,0,0,0,0,0,0,0,0,0,0,0,0,0,0,0,0,0,0,0,0,0,0,0,0,0,0,0,0,0,0,0,0,0,0,0,0,0,0,0,0,0,0,0,0,0,0,0,0,0,0,0,0,0,0,0,0,0,0,0,0,0,0,0,0,0,0,0,0,0,0,0,0,0,0,0,0,0,0,0,0,0,0,0],"id":9,"left_children":[1,3,5,7,9,11,13,15,17,19,-1,21,23,25,27,29,31,33,35,-1,-1,37,39,41,43,45,47,-1,49,-1,51,53,-1,55,57,59,61,63,65,67,69,71,73,75,77,79,81,83,85,-1,-1,-1,-1,-1,-1,-1,-1,-1,-1,-1,-1,-1,-1,-1,-1,-1,-1,-1,-1,-1,-1,-1,-1,-1,-1,-1,-1,-1,-1,-1,-1,-1,-1,-1,-1,-1,-1],"loss_changes":[9.242639E5,2.1007312E4,6.649818E5,1.6959281E4,4.5088525E3,1.2280528E5,1.11430875E5,1.8237812E3,1.07933016E5,1.3652344E1,0E0,9.1862914E4,1.4290979E4,2.34395E4,5.291299E4,5.625E0,5.316725E3,6.3637812E3,6.884478E4,0E0,0E0,3.2147717E4,2.314514E4,4.2139883E3,1.2542885E4,5.6704875E4,8.235125E3,0E0,1.209375E1,0E0,4.644394E1,4.8927686E2,0E0,8.480625E2,6.9092124E3,1.7447328E4,2.2921638E3,1.4573005E4,2.3672287E4,2.3210287E4,1.6722188E4,7.168868E3,2.5903125E2,7.829103E3,1.7591754E4,1.3622754E4,1.83345E4,2.0872734E3,4.66975E3,0E0,0E0,0E0,0E0,0E0,0E0,0E0,0E0,0E0,0E0,0E0,0E0,0E0,0E0,0E0,0E0,0E0,0E0,0E0,0E0,0E0,0E0,0E0,0E0,0E0,0E0,0E0,0E0,0E0,0E0,0E0,0E0,0E0,0E0,0E0,0E0,0E0,0E0],"parents":[2147483647,0,0,1,1,2,2,3,3,4,4,5,5,6,6,7,7,8,8,9,9,11,11,12,12,13,13,14,14,15,15,16,16,17,17,18,18,21,21,22,22,23,23,24,24,25,25,26,26,28,28,30,30,31,31,33,33,34,34,35,35,36,36,37,37,38,38,39,39,40,40,41,41,42,42,43,43,44,44,45,45,46,46,47,47,48,48],"right_children":[2,4,6,8,10,12,14,16,18,20,-1,22,24,26,28,30,32,34,36,-1,-1,38,40,42,44,46,48,-1,50,-1,52,54,-1,56,58,60,62,64,66,68,70,72,74,76,78,80,82,84,86,-1,-1,-1,-1,-1,-1,-1,-1,-1,-1,-1,-1,-1,-1,-1,-1,-1,-1,-1,-1,-1,-1,-1,-1,-1,-1,-1,-1,-1,-1,-1,-1,-1,-1,-1,-1,-1,-1],"split_conditions":[5.754906E-1,6.6561484E-1,4.3836406E-1,2.3936187E-1,4.9602965E-1,9.745055E-1,6.351816E-1,5.0645554E-1,6.1482877E-1,4.459024E-1,-5.7558693E-2,7.1999836E-1,5.9048885E-1,4.4468743E-1,4.7230032E-1,5.049762E-1,6.116819E-1,5.738937E-1,9.748918E-1,-3.4415763E-2,2.511671E-1,6.1313194E-1,4.3030378E-1,9.748951E-1,6.122863E-1,6.390347E-1,3.3489773E-1,-5.775549E-2,7.250243E-1,-5.773775E-2,6.652611E-2,1.1567599E-1,-5.7603337E-2,7.9455453E-1,4.2814574E-1,3.851783E-1,6.746474E-1,5.119116E-1,3.428394E-1,4.1568932E-1,6.034224E-1,5.8675575E-1,4.1522083E-1,3.28731E-1,6.058152E-1,3.2412577E-1,3.3184537E-1,9.2847365E-1,8.9748454E-1,2.4939099E-1,-3.4828413E-2,2.28783E-1,-5.6656457E-2,-5.659474E-2,2.5369838E-1,-5.7680648E-2,2.4935599E-1,2.20564E-1,-4.43296E-2,-5.8537252E-2,2.2145188E-1,-4.631217E-2,8.1615075E-2,-3.0041387E-2,2.852227E-1,2.6857695E-1,3.8326137E-2,-4.427406E-2,1.4481808E-1,3.799081E-2,2.0572798E-1,-5.5387985E-2,1.8518029E-1,2.4710421E-1,-5.72084E-2,3.2248247E-1,-3.3151787E-2,1.02007605E-1,-3.519174E-2,2.615337E-1,-1.167588E-3,-1.763173E-2,2.3511021E-1,-5.8109175E-2,2.5224265E-1,2.4421726E-1,1.5076362E-1],"split_indices":[22,3,15,20,11,18,22,9,2,24,0,21,16,17,15,7,25,22,18,0,0,25,15,18,25,21,35,0,22,0,0,32,0,34,15,35,1,35,1,1,18,16,3,23,36,28,23,18,1,0,0,0,0,0,0,0,0,0,0,0,0,0,0,0,0,0,0,0,0,0,0,0,0,0,0,0,0,0,0,0,0,0,0,0,0,0,0],"split_type":[0,0,0,0,0,0,0,0,0,0,0,0,0,0,0,0,0,0,0,0,0,0,0,0,0,0,0,0,0,0,0,0,0,0,0,0,0,0,0,0,0,0,0,0,0,0,0,0,0,0,0,0,0,0,0,0,0,0,0,0,0,0,0,0,0,0,0,0,0,0,0,0,0,0,0,0,0,0,0,0,0,0,0,0,0,0,0],"sum_hessian":[2.0741946E6,1.3236488E6,7.505459E5,1.320276E6,3.3727515E3,4.4206597E5,3.0847988E5,9.8973375E5,3.3054225E5,2.8033835E3,5.69368E2,1.7919027E5,2.6287572E5,2.784041E5,3.0075766E4,9.86442E5,3.2917595E3,2.794588E5,5.1083438E4,1.4483632E0,2.801935E3,9.441487E4,8.477541E4,1.4900398E5,1.1387173E5,8.2178125E4,1.9622597E5,2.261476E4,7.4610063E3,9.863858E5,5.6148304E1,8.403486E2,2.451411E3,2.7543925E5,4.019555E3,3.0165578E4,2.0917861E4,7.4962836E4,1.945203E4,2.780101E4,5.69744E4,5.31488E3,1.4368911E5,7.61145E4,3.775723E4,1.9735344E4,6.2442785E4,1.4216525E3,1.9480433E5,7.4597393E3,1.2673572E0,5.416234E0,5.0732067E1,5.397126E1,7.863773E2,2.7535022E5,8.902328E1,1.7215193E3,2.2980356E3,2.4192754E3,2.7746303E4,1.9409219E4,1.5086418E3,7.346775E4,1.4950869E3,6.943214E3,1.2508814E4,1.0327124E4,1.7473885E4,6.7415254E3,5.023287E4,3.3510273E3,1.9638524E3,2.7012327E1,1.436621E5,6.231454E2,7.549135E4,2.0764268E4,1.6992963E4,2.2237502E3,1.7511594E4,3.0157332E3,5.942705E4,1.1560034E3,2.65649E2,1.8929594E5,5.5083916E3],"tree_param":{"num_deleted":"0","num_feature":"38","num_nodes":"87","size_leaf_vector":"1"}},{"base_weights":[-2.132814E-4,-4.854475E-1,1.08756E0,-5.474434E-1,1.2994626E-1,1.6691515E0,1.617504E-1,-5.5628806E-1,2.788363E-1,-5.57868E-1,8.6073023E-1,-5.151538E-1,2.0238383E0,-2.8068822E-2,1.8379377E0,-5.5915487E-1,1.7100823E0,-5.7591325E-1,2.0689769E0,2.3502593E0,-5.756975E-1,4.1447663E-1,1.7803315E0,2.2074945E0,-5.329268E-1,1.3986554E0,2.23652E0,6.4028823E-1,-2.8823388E-1,2.4960196E0,-5.7675596E-2,-5.6486595E-1,-3.2672653E-1,2.4902954E0,-5.7622027E-2,-5.7633705E-2,5.2305954E-3,-5.810305E-2,2.449984E0,-5.5002637E-2,2.4935387E-1,1.7198726E0,-5.762992E-1,8.578407E-1,-1.7635944E-1,-1.14342034E-1,2.1703906E0,-5.5707265E-2,2.4620662E0,-5.6663495E-1,5.9705174E-1,6.709386E-1,2.1764748E0,2.3835845E0,1.5341338E0,4.0002584E-1,2.2469366E0,-3.3477694E-1,1.8209977E0,2.4983656E0,-5.442981E-2,-5.7176966E-2,-4.722527E-2,6.6933155E-2,-5.764076E-2,-5.2975442E-2,2.5162038E-1,-4.956938E-2,1.6855173E-1,2.524726E-1,-5.8148284E-2,2.3865779E-1,-4.5938984E-2,-5.766436E-2,-5.0756615E-2,5.4309435E-2,2.4978998E-1,-4.6949904E-2,7.282833E-2,1.440992E-1,-5.813331E-2,2.2523952E-1,-6.1117794E-2,2.518239E-1,-4.958339E-2,-5.7471063E-2,-4.14194E-2,2.1927981E-1,-5.7639997E-2,3.7522297E-2,1.6780713E-1,2.3455529E-1,3.419512E-2,-5.8583744E-2,2.403334E-1,3.32631E-2,2.2070764E-1,3.0753374E-2,2.8488955E-1,-5.7590734E-2,2.5205004E-1,-3.7510302E-2,1.0699686E-1,2.7748528E-1,-2.1122938E-2,2.4989894E-1,-4.629641E-2],"categories":[],"categories_nodes":[],"categories_segments":[],"categories_sizes":[],"default_left":[0,0,0,0,0,0,0,0,0,0,0,0,0,0,0,0,0,0,0,0,0,0,0,0,0,0,0,0,0,0,0,0,0,0,0,0,0,0,0,0,0,0,0,0,0,0,0,0,0,0,0,0,0,0,0,0,0,0,0,0,0,0,0,0,0,0,0,0,0,0,0,0,0,0,0,0,0,0,0,0,0,0,0,0,0,0,0,0,0,0,0,0,0,0,0,0,0,0,0,0,0,0,0,0,0,0,0],"id":10,"left_children":[1,3,5,7,9,11,13,15,17,19,21,23,25,27,29,31,33,35,37,39,41,43,45,47,49,51,53,55,57,59,-1,61,63,65,-1,-1,67,-1,69,-1,-1,71,73,75,77,79,81,-1,83,85,87,89,91,93,95,97,99,101,103,105,-1,-1,-1,-1,-1,-1,-1,-1,-1,-1,-1,-1,-1,-1,-1,-1,-1,-1,-1,-1,-1,-1,-1,-1,-1,-1,-1,-1,-1,-1,-1,-1,-1,-1,-1,-1,-1,-1,-1,-1,-1,-1,-1,-1,-1,-1,-1],"loss_changes":[1.0946904E6,5.4717438E4,3.4447806E5,9.5221875E3,6.597807E4,3.0442125E5,7.853734E4,8.376875E3,2.1116596E4,3.5074297E3,2.6116781E4,2.6573457E3,4.4944125E4,3.8555297E4,3.9902312E4,1.7088438E3,2.907023E3,2.303955E0,4.504467E3,1.72677E2,9.383008E1,1.1225154E4,1.5367148E4,2.5205249E2,2.0775957E3,4.856964E4,2.605075E4,2.3981352E4,1.5668912E4,1.4210938E2,0E0,8.031875E2,7.680011E3,9.637158E1,0E0,0E0,7.398766E0,0E0,8.850039E2,0E0,0E0,2.705095E1,1.2988281E0,1.2635664E4,4.872103E3,2.579919E3,3.9346094E3,0E0,5.547168E1,6.495508E1,2.960281E3,1.3203191E4,1.2864344E4,1.22325E4,3.530925E4,1.2240729E4,6.242496E3,8.846453E3,6.680462E3,3.7585938E1,0E0,0E0,0E0,0E0,0E0,0E0,0E0,0E0,0E0,0E0,0E0,0E0,0E0,0E0,0E0,0E0,0E0,0E0,0E0,0E0,0E0,0E0,0E0,0E0,0E0,0E0,0E0,0E0,0E0,0E0,0E0,0E0,0E0,0E0,0E0,0E0,0E0,0E0,0E0,0E0,0E0,0E0,0E0,0E0,0E0,0E0,0E0],"parents":[2147483647,0,0,1,1,2,2,3,3,4,4,5,5,6,6,7,7,8,8,9,9,10,10,11,11,12,12,13,13,14,14,15,15,16,16,17,17,18,18,19,19,20,20,21,21,22,22,23,23,24,24,25,25,26,26,27,27,28,28,29,29,31,31,32,32,33,33,36,36,38,38,41,41,42,42,43,43,44,44,45,45,46,46,48,48,49,49,50,50,51,51,52,52,53,53,54,54,55,55,56,56,57,57,58,58,59,59],"right_children":[2,4,6,8,10,12,14,16,18,20,22,24,26,28,30,32,34,36,38,40,42,44,46,48,50,52,54,56,58,60,-1,62,64,66,-1,-1,68,-1,70,-1,-1,72,74,76,78,80,82,-1,84,86,88,90,92,94,96,98,100,102,104,106,-1,-1,-1,-1,-1,-1,-1,-1,-1,-1,-1,-1,-1,-1,-1,-1,-1,-1,-1,-1,-1,-1,-1,-1,-1,-1,-1,-1,-1,-1,-1,-1,-1,-1,-1,-1,-1,-1,-1,-1,-1,-1,-1,-1,-1,-1,-1],"split_conditions":[5.781105E-1,5.752664E-1,6.130055E-1,7.31777E-2,2.3691587E-1,2.5057968E-1,6.351816E-1,2.3320618E-1,4.2769703E-1,5.945591E-1,9.748958E-1,5.9352124E-1,5.837103E-1,4.4074658E-1,4.7230032E-1,5.749879E-1,9.9339135E-2,4.2765665E-1,9.749075E-1,2.4967312E-7,7.671652E-1,5.180822E-1,4.9398825E-1,7.666184E-1,2.4761617E-1,9.6950996E-1,4.377558E-1,3.8058147E-1,3.2979128E-1,5.814625E-1,-5.7675596E-2,6.033021E-1,8.1700826E-1,5.7416594E-1,-5.7622027E-2,-5.7633705E-2,6.257862E-1,-5.810305E-2,6.137926E-1,-5.5002637E-2,2.4935387E-1,9.447626E-2,2.3626493E-1,3.182217E-1,6.884489E-1,1.875272E-1,3.3564186E-1,-5.5707265E-2,7.720768E-1,2.4260241E-1,3.3497623E-1,8.023453E-1,3.3571044E-1,4.907126E-1,6.015994E-1,9.38166E-1,3.3500022E-1,8.9053744E-1,4.018573E-1,2.3320618E-1,-5.442981E-2,-5.7176966E-2,-4.722527E-2,6.6933155E-2,-5.764076E-2,-5.2975442E-2,2.5162038E-1,-4.956938E-2,1.6855173E-1,2.524726E-1,-5.8148284E-2,2.3865779E-1,-4.5938984E-2,-5.766436E-2,-5.0756615E-2,5.4309435E-2,2.4978998E-1,-4.6949904E-2,7.282833E-2,1.440992E-1,-5.813331E-2,2.2523952E-1,-6.1117794E-2,2.518239E-1,-4.958339E-2,-5.7471063E-2,-4.14194E-2,2.1927981E-1,-5.7639997E-2,3.7522297E-2,1.6780713E-1,2.3455529E-1,3.419512E-2,-5.8583744E-2,2.403334E-1,3.32631E-2,2.2070764E-1,3.0753374E-2,2.8488955E-1,-5.7590734E-2,2.5205004E-1,-3.7510302E-2,1.0699686E-1,2.7748528E-1,-2.1122938E-2,2.4989894E-1,-4.629641E-2],"split_indices":[22,22,25,32,20,20,22,8,15,3,18,3,22,15,15,22,0,15,18,32,21,28,9,34,20,18,17,20,27,36,0,16,21,22,0,0,2,0,3,0,0,0,20,37,6,27,23,0,34,20,23,34,23,9,22,10,1,28,35,8,0,0,0,0,0,0,0,0,0,0,0,0,0,0,0,0,0,0,0,0,0,0,0,0,0,0,0,0,0,0,0,0,0,0,0,0,0,0,0,0,0,0,0,0,0,0,0],"split_type":[0,0,0,0,0,0,0,0,0,0,0,0,0,0,0,0,0,0,0,0,0,0,0,0,0,0,0,0,0,0,0,0,0,0,0,0,0,0,0,0,0,0,0,0,0,0,0,0,0,0,0,0,0,0,0,0,0,0,0,0,0,0,0,0,0,0,0,0,0,0,0,0,0,0,0,0,0,0,0,0,0,0,0,0,0,0,0,0,0,0,0,0,0,0,0,0,0,0,0,0,0,0,0,0,0,0,0],"sum_hessian":[2.0739631E6,1.4341968E6,6.397663E5,1.3029366E6,1.3126017E5,3.9292866E5,2.4683766E5,1.2891379E6,1.3798819E4,6.761816E4,6.3642008E4,5.4890473E4,3.380382E5,2.2172902E5,2.510864E4,1.28751E6,1.6278727E3,9.339911E3,4.4589077E3,4.1123755E2,6.720692E4,4.28498E4,2.0792209E4,3.5519183E2,5.453528E4,8.58088E4,2.522294E5,6.2126426E4,1.596026E5,1.9731215E4,5.377426E3,1.2566315E6,3.087846E4,1.2136268E3,4.1424588E2,9.333113E3,6.7976623E0,5.6043146E2,3.898476E3,1.9225811E1,3.9201175E2,1.6863668E1,6.7190055E4,2.447973E4,1.837007E4,3.549854E3,1.7242355E4,2.984934E1,3.253425E2,5.295606E4,1.5792228E3,4.433317E4,4.1475625E4,2.0855923E5,4.3670168E4,5.404556E4,8.0808657E3,1.561576E5,3.444989E3,1.9716178E4,1.5036021E1,1.1694516E6,8.7179805E4,6.1885728E3,2.4689887E4,1.0157544E1,1.2034694E3,5.7796397E0,1.0180225E0,3.8048335E3,9.3642654E1,1.2840288E1,4.02338E0,6.68477E4,3.4234952E2,2.0539326E4,3.9404038E3,1.3874629E4,4.495441E3,8.1924316E2,2.7306108E3,1.6748768E4,4.93587E2,3.19425E2,5.9174953E0,5.0289176E4,2.6668806E3,6.688298E2,9.1039294E2,3.4271652E4,1.0061518E4,3.7975363E4,3.5002612E3,1.3777609E3,2.0718147E5,1.5678512E4,2.7991654E4,5.207967E4,1.9658873E3,7.138373E2,7.367029E3,1.518006E5,4.357012E3,2.344295E3,1.100694E3,1.9712182E4,3.9955544E0],"tree_param":{"num_deleted":"0","num_feature":"38","num_nodes":"107","size_leaf_vector":"1"}},{"base_weights":[5.297867E-4,1.0185189E0,-4.0470797E-1,3.9177418E-1,1.7502407E0,-5.406383E-1,-5.522026E-2,-4.252013E-2,1.4770092E0,2.0088947E0,1.484805E-1,-5.7268596E-1,-3.8210762E-1,-3.095329E-1,6.200242E-1,2.222133E0,-1.3771449E-1,2.5139326E-1,1.7571305E0,2.2197433E0,9.585189E-1,-5.766305E-1,6.0885495E-1,2.0436297E-1,-5.747175E-1,-4.9368134E-1,4.7834286E-1,-4.7102165E-1,9.2516765E-2,9.5076203E-1,-2.1047564E-1,-5.785904E-2,2.48741E0,2.9257005E-1,-3.7098402E-1,-3.820758E-1,1.1746353E0,9.513306E-1,2.1301053E0,5.9473366E-1,2.2911794E0,2.536273E0,2.0126028E-1,-5.806498E-2,-9.320117E-2,1.2732725E0,-2.5761372E-1,2.4940984E-1,-5.7648163E-2,-5.3747594E-1,-5.7688713E-1,-5.421726E-1,7.1157646E-1,-5.489314E-1,1.369624E0,-5.191701E-1,-6.145402E-2,1.879727E0,-1.25059625E-2,-4.0671712E-1,1.1790941E0,-4.208464E-1,8.5760087E-1,2.5123075E-1,-5.7360064E-2,2.440157E-1,1.4441134E-2,1.16637126E-1,-4.1838706E-2,1.7791346E-1,-4.063589E-2,2.4583621E-1,4.1484643E-2,5.2178748E-2,2.1985438E-1,6.72245E-3,2.3564461E-1,2.4309333E-1,-5.7908442E-2,2.4816005E-1,1.7979662E-1,2.5817674E-1,-5.8828343E-2,-1.3541304E-2,2.0045614E-1,-5.812153E-2,2.905135E-1,1.5165985E-2,2.2198546E-1,2.4837993E-1,-5.0087422E-2,-5.7771713E-2,-1.8455196E-2,-5.7703663E-2,-4.9571272E-2,6.436217E-2,-5.5255163E-2,-4.374256E-2,2.1868184E-1,-5.7519305E-2,3.6354128E-3,2.114239E-1,-4.026533E-2,-5.6608528E-2,-4.24055E-2,7.535808E-2,-5.3193934E-2,-5.7661682E-2,2.605642E-1,1.9330111E-1,-8.72927E-3,-5.3338435E-2,2.291009E-1,1.5277778E-1,3.0119056E-2,-4.578046E-2,1.1626758E-1,-5.8031388E-2,2.3404172E-1],"categories":[],"categories_nodes":[],"categories_segments":[],"categories_sizes":[],"default_left":[0,0,0,0,0,0,0,0,0,0,0,0,0,0,0,0,0,0,0,0,0,0,0,0,0,0,0,0,0,0,0,0,0,0,0,0,0,0,0,0,0,0,0,0,0,0,0,0,0,0,0,0,0,0,0,0,0,0,0,0,0,0,0,0,0,0,0,0,0,0,0,0,0,0,0,0,0,0,0,0,0,0,0,0,0,0,0,0,0,0,0,0,0,0,0,0,0,0,0,0,0,0,0,0,0,0,0,0,0,0,0,0,0,0,0,0,0,0,0],"id":11,"left_children":[1,3,5,7,9,11,13,15,17,19,21,23,25,27,29,31,33,35,37,39,41,43,45,47,49,51,53,55,57,59,61,-1,63,65,67,69,71,73,75,77,79,81,83,-1,85,87,89,-1,-1,91,93,95,97,99,101,103,105,107,109,111,113,115,117,-1,-1,-1,-1,-1,-1,-1,-1,-1,-1,-1,-1,-1,-1,-1,-1,-1,-1,-1,-1,-1,-1,-1,-1,-1,-1,-1,-1,-1,-1,-1,-1,-1,-1,-1,-1,-1,-1,-1,-1,-1,-1,-1,-1,-1,-1,-1,-1,-1,-1,-1,-1,-1,-1,-1,-1],"loss_changes":[8.5512706E5,2.7067544E5,7.043605E4,1.498374E5,1.1281594E5,5.4231562E3,7.12982E4,4.8949066E4,3.1194766E4,5.1920562E4,1.2638759E4,1.4019062E3,1.7233975E4,1.9582008E4,3.1200953E4,6.806449E3,2.187078E4,9.887237E3,2.2225875E4,2.2664312E4,4.682941E4,2.8515137E1,1.3332106E4,4.1427334E3,7.125E1,9.287602E3,1.8867125E4,4.2432188E3,1.622246E4,2.5180781E4,7.269836E3,0E0,6.3909375E2,2.4372768E4,1.0297465E4,5.269292E2,6.708829E3,1.2536646E4,2.3605594E4,1.7725508E4,1.7560875E4,1.8084219E3,1.6080223E4,0E0,1.8082806E2,1.3915545E4,6.7043228E3,0E0,0E0,6.92542E2,9.875E0,1.8804414E3,1.04195625E4,1.4716699E2,1.4561271E4,8.589414E2,8.680424E3,8.554955E3,1.1877615E4,3.998516E3,2.1286945E4,1.5824395E3,1.135317E4,0E0,0E0,0E0,0E0,0E0,0E0,0E0,0E0,0E0,0E0,0E0,0E0,0E0,0E0,0E0,0E0,0E0,0E0,0E0,0E0,0E0,0E0,0E0,0E0,0E0,0E0,0E0,0E0,0E0,0E0,0E0,0E0,0E0,0E0,0E0,0E0,0E0,0E0,0E0,0E0,0E0,0E0,0E0,0E0,0E0,0E0,0E0,0E0,0E0,0E0,0E0,0E0,0E0,0E0,0E0,0E0],"parents":[2147483647,0,0,1,1,2,2,3,3,4,4,5,5,6,6,7,7,8,8,9,9,10,10,11,11,12,12,13,13,14,14,15,15,16,16,17,17,18,18,19,19,20,20,21,21,22,22,23,23,24,24,25,25,26,26,27,27,28,28,29,29,30,30,32,32,33,33,34,34,35,35,36,36,37,37,38,38,39,39,40,40,41,41,42,42,44,44,45,45,46,46,49,49,50,50,51,51,52,52,53,53,54,54,55,55,56,56,57,57,58,58,59,59,60,60,61,61,62,62],"right_children":[2,4,6,8,10,12,14,16,18,20,22,24,26,28,30,32,34,36,38,40,42,44,46,48,50,52,54,56,58,60,62,-1,64,66,68,70,72,74,76,78,80,82,84,-1,86,88,90,-1,-1,92,94,96,98,100,102,104,106,108,110,112,114,116,118,-1,-1,-1,-1,-1,-1,-1,-1,-1,-1,-1,-1,-1,-1,-1,-1,-1,-1,-1,-1,-1,-1,-1,-1,-1,-1,-1,-1,-1,-1,-1,-1,-1,-1,-1,-1,-1,-1,-1,-1,-1,-1,-1,-1,-1,-1,-1,-1,-1,-1,-1,-1,-1,-1,-1,-1],"split_conditions":[4.0812743E-1,2.4967312E-7,6.2317044E-1,6.249473E-1,2.570555E-1,5.0546956E-1,7.597371E-1,2.1357283E-1,7.720768E-1,4.272892E-1,4.9334216E-1,1.77164E-1,7.805293E-1,9.255134E-1,4.3300766E-1,5.627975E-1,2.3140454E-1,8.4847826E-1,8.448293E-1,9.4373494E-2,8.412806E-1,9.805749E-1,3.5211113E-1,9.37197E-2,3.623212E-1,9.3317825E-1,8.137563E-1,7.558042E-1,5.6930006E-1,3.3301806E-1,7.9929274E-1,-5.785904E-2,4.4905636E-1,3.470348E-1,5.7110655E-1,1.1462165E-1,3.2410133E-1,5.7458943E-1,4.9196327E-1,3.6437085E-1,3.878874E-1,9.870472E-1,6.128137E-1,-5.806498E-2,3.1065997E-1,4.2608666E-1,9.748958E-1,2.4940984E-1,-5.7648163E-2,6.8226284E-1,5.054219E-1,4.8725063E-1,6.6745E-1,8.129776E-1,1.7004548E-1,7.4574006E-1,6.5573627E-1,5.3204403E-6,9.056206E-1,9.481162E-1,2.0761612E-1,9.3854463E-1,6.587674E-1,2.5123075E-1,-5.7360064E-2,2.440157E-1,1.4441134E-2,1.16637126E-1,-4.1838706E-2,1.7791346E-1,-4.063589E-2,2.4583621E-1,4.1484643E-2,5.2178748E-2,2.1985438E-1,6.72245E-3,2.3564461E-1,2.4309333E-1,-5.7908442E-2,2.4816005E-1,1.7979662E-1,2.5817674E-1,-5.8828343E-2,-1.3541304E-2,2.0045614E-1,-5.812153E-2,2.905135E-1,1.5165985E-2,2.2198546E-1,2.4837993E-1,-5.0087422E-2,-5.7771713E-2,-1.8455196E-2,-5.7703663E-2,-4.9571272E-2,6.436217E-2,-5.5255163E-2,-4.374256E-2,2.1868184E-1,-5.7519305E-2,3.6354128E-3,2.114239E-1,-4.026533E-2,-5.6608528E-2,-4.24055E-2,7.535808E-2,-5.3193934E-2,-5.7661682E-2,2.605642E-1,1.9330111E-1,-8.72927E-3,-5.3338435E-2,2.291009E-1,1.5277778E-1,3.0119056E-2,-4.578046E-2,1.1626758E-1,-5.8031388E-2,2.3404172E-1],"split_indices":[35,32,36,36,5,13,34,20,34,15,9,20,34,10,35,16,20,12,12,8,12,18,19,0,19,10,21,34,2,23,34,0,24,19,22,0,1,22,7,1,35,18,25,0,0,17,18,0,0,28,13,2,28,21,5,34,2,27,14,14,0,14,2,0,0,0,0,0,0,0,0,0,0,0,0,0,0,0,0,0,0,0,0,0,0,0,0,0,0,0,0,0,0,0,0,0,0,0,0,0,0,0,0,0,0,0,0,0,0,0,0,0,0,0,0,0,0,0,0],"split_type":[0,0,0,0,0,0,0,0,0,0,0,0,0,0,0,0,0,0,0,0,0,0,0,0,0,0,0,0,0,0,0,0,0,0,0,0,0,0,0,0,0,0,0,0,0,0,0,0,0,0,0,0,0,0,0,0,0,0,0,0,0,0,0,0,0,0,0,0,0,0,0,0,0,0,0,0,0,0,0,0,0,0,0,0,0,0,0,0,0,0,0,0,0,0,0,0,0,0,0,0,0,0,0,0,0,0,0,0,0,0,0,0,0,0,0,0,0,0,0],"sum_hessian":[2.0728945E6,5.9021825E5,1.4826762E6,3.1791484E5,2.723034E5,1.0674858E6,4.1519047E5,2.2705278E5,9.086206E4,2.3444475E5,3.785866E4,8.879755E5,1.7951028E5,3.0160106E5,1.1358939E5,9.158227E3,2.1789455E5,1.6903967E4,7.395809E4,1.9524992E5,3.919483E4,1.4702031E4,2.3156629E4,2.315255E3,8.8566025E5,1.5890558E5,2.0604695E4,2.1517353E5,8.642755E4,8.123733E4,3.2352059E4,7.9228796E2,8.365939E3,7.659978E4,1.4129477E5,1.002562E4,6.878347E3,2.3402123E4,5.0555973E4,8.22225E3,1.8702767E5,1.2710356E4,2.6484473E4,1.4580604E4,1.2142745E2,1.310619E4,1.0050438E4,5.882084E2,1.7270464E3,4.8769848E4,8.368904E5,1.5276012E5,6.1454663E3,9.572265E3,1.1032432E4,1.9253858E5,2.263495E4,4.7959644E3,8.163158E4,1.1696795E4,6.954054E4,2.7028977E4,5.323082E3,8.29862E3,6.731883E1,4.9424614E3,7.165732E4,4.2256816E3,1.3706908E5,1.1059218E2,9.915027E3,2.5565708E3,4.3217764E3,1.7408139E4,5.9939854E3,4.998716E3,4.5557258E4,3.206017E3,5.016233E3,1.3492966E5,5.2098008E4,1.2528118E4,1.8223822E2,2.231856E4,4.165913E3,1.0512353E2,1.6303925E1,5.9990405E3,7.10715E3,8.1839246E2,9.232046E3,4.3777594E4,4.9922505E3,8.353455E5,1.5449119E3,1.324945E3,1.5143517E5,3.4551238E3,2.6903428E3,9.161221E3,4.1104407E2,7.7683843E3,3.2640474E3,1.2893624E5,6.3602336E4,8.283906E3,1.4351043E4,1.0940695E3,3.7018948E3,3.0208828E3,7.8610695E4,1.1172988E4,5.2380676E2,4.9771625E4,1.976891E4,2.6413223E4,6.1575397E2,2.7027668E3,2.6203152E3],"tree_param":{"num_deleted":"0","num_feature":"38","num_nodes":"119","size_leaf_vector":"1"}},{"base_weights":[1.2185406E-3,-5.0029534E-1,6.4907074E-1,-5.675285E-1,-2.7935517E-1,-2.488904E-3,9.9423933E-1,-5.704005E-1,-2.3916355E-1,6.6207536E-2,-5.132157E-1,5.202582E-1,-2.4945201E-1,1.2210145E0,1.1147318E-1,-5.7264555E-1,-2.6285464E-1,1.5665416E0,-5.0980645E-1,-5.6721365E-1,4.6349415E-1,-5.471389E-1,-2.5138292E-1,7.859883E-2,1.8628746E0,-4.0107593E-1,4.5809972E-1,8.3404356E-1,1.7332422E0,-5.620468E-1,4.1286287E-1,-5.769977E-1,-5.259202E-1,-5.773393E-2,2.532721E-1,-5.750845E-2,2.5598046E-1,-3.0659902E-1,-5.7677723E-2,-5.781864E-2,-2.7505514E-1,1.0924586E0,-4.8324722E-1,-5.6486356E-1,-4.4673294E-1,1.9077705E0,-5.7762165E-2,-7.4764006E-2,2.302052E0,8.9258754E-1,2.268251E0,-4.2484888E-1,1.4085176E0,-2.2339506E-2,2.0962732E0,1.393605E0,4.046181E-1,1.202747E0,2.026947E0,-2.2115594E-1,-5.744321E-1,1.778775E0,1.3991717E-1,-5.770699E-2,-4.161263E-2,-5.627088E-2,2.075869E-2,-5.0177008E-2,1.24377884E-1,-5.900178E-2,2.6755658E-1,2.9884284E-2,1.6740116E-1,-5.5819392E-2,1.8821605E-1,-4.451842E-2,-5.7622798E-2,-1.98317E-2,-5.3793248E-2,2.4780731E-1,-5.758492E-2,1.0022407E-1,-3.7200935E-2,-5.9499163E-2,2.4525554E-1,-3.2323524E-2,2.6008525E-1,2.3444445E-1,-5.9278626E-2,-4.8931297E-2,6.9934614E-3,2.568248E-1,-5.7883617E-2,1.2267315E-1,-4.204939E-2,4.1344695E-2,2.6295704E-1,7.657636E-2,2.1023662E-1,1.08174995E-1,-4.4321674E-3,1.6805199E-1,7.429949E-2,1.21515475E-1,2.3130749E-1,-5.7457846E-2,2.0006202E-1,-3.4239963E-2,-5.779745E-2,2.0323394E-1,-2.2838114E-2,1.3839833E-3,2.9975614E-1],"categories":[],"categories_nodes":[],"categories_segments":[],"categories_sizes":[],"default_left":[0,0,0,0,0,0,0,0,0,0,0,0,0,0,0,0,0,0,0,0,0,0,0,0,0,0,0,0,0,0,0,0,0,0,0,0,0,0,0,0,0,0,0,0,0,0,0,0,0,0,0,0,0,0,0,0,0,0,0,0,0,0,0,0,0,0,0,0,0,0,0,0,0,0,0,0,0,0,0,0,0,0,0,0,0,0,0,0,0,0,0,0,0,0,0,0,0,0,0,0,0,0,0,0,0,0,0,0,0,0,0,0,0],"id":12,"left_children":[1,3,5,7,9,11,13,15,17,19,21,23,25,27,29,31,33,35,37,39,41,43,45,47,49,51,53,55,57,59,61,63,65,-1,-1,-1,-1,67,-1,-1,69,71,73,75,77,79,-1,81,83,85,87,89,91,93,95,97,99,101,103,105,107,109,111,-1,-1,-1,-1,-1,-1,-1,-1,-1,-1,-1,-1,-1,-1,-1,-1,-1,-1,-1,-1,-1,-1,-1,-1,-1,-1,-1,-1,-1,-1,-1,-1,-1,-1,-1,-1,-1,-1,-1,-1,-1,-1,-1,-1,-1,-1,-1,-1,-1,-1],"loss_changes":[6.731935E5,1.7348125E4,2.0332506E5,8.443125E2,2.2019934E4,4.041909E4,1.1831069E5,6.1271875E2,3.7957407E3,2.7675572E4,1.4432539E3,5.956705E4,2.2811648E4,9.320081E4,2.4520086E4,1.7884375E2,5.6586E3,2.1551038E3,9.173706E1,1.3573633E2,4.0245723E4,2.5577734E2,1.3131813E4,2.5775951E4,9.778242E3,7.533619E3,2.9533672E4,6.4361703E4,3.1525688E4,1.5753516E2,3.11117E4,9.125E0,2.0265527E3,0E0,0E0,0E0,0E0,5.0784613E2,0E0,0E0,1.4293744E3,1.8741488E4,4.7837935E3,1.6604688E2,4.890337E2,3.4675312E3,0E0,2.26382E4,2.1280898E3,1.522249E4,3.824414E3,5.512824E3,5.235266E3,1.4430975E4,7.6357617E3,5.175208E4,4.6070047E4,1.5838352E4,3.024925E4,1.030425E3,2.9419922E1,7.0738906E3,2.505883E4,0E0,0E0,0E0,0E0,0E0,0E0,0E0,0E0,0E0,0E0,0E0,0E0,0E0,0E0,0E0,0E0,0E0,0E0,0E0,0E0,0E0,0E0,0E0,0E0,0E0,0E0,0E0,0E0,0E0,0E0,0E0,0E0,0E0,0E0,0E0,0E0,0E0,0E0,0E0,0E0,0E0,0E0,0E0,0E0,0E0,0E0,0E0,0E0,0E0,0E0],"parents":[2147483647,0,0,1,1,2,2,3,3,4,4,5,5,6,6,7,7,8,8,9,9,10,10,11,11,12,12,13,13,14,14,15,15,16,16,17,17,18,18,19,19,20,20,21,21,22,22,23,23,24,24,25,25,26,26,27,27,28,28,29,29,30,30,31,31,32,32,37,37,40,40,41,41,42,42,43,43,44,44,45,45,47,47,48,48,49,49,50,50,51,51,52,52,53,53,54,54,55,55,56,56,57,57,58,58,59,59,60,60,61,61,62,62],"right_children":[2,4,6,8,10,12,14,16,18,20,22,24,26,28,30,32,34,36,38,40,42,44,46,48,50,52,54,56,58,60,62,64,66,-1,-1,-1,-1,68,-1,-1,70,72,74,76,78,80,-1,82,84,86,88,90,92,94,96,98,100,102,104,106,108,110,112,-1,-1,-1,-1,-1,-1,-1,-1,-1,-1,-1,-1,-1,-1,-1,-1,-1,-1,-1,-1,-1,-1,-1,-1,-1,-1,-1,-1,-1,-1,-1,-1,-1,-1,-1,-1,-1,-1,-1,-1,-1,-1,-1,-1,-1,-1,-1,-1,-1,-1],"split_conditions":[3.6649263E-1,4.491717E-1,3.9049858E-1,3.6501816E-1,5.739011E-1,1.02165066E-1,4.4870108E-1,9.351827E-1,5.6710047E-1,7.305274E-1,1.2726476E-2,3.533432E-1,7.019056E-1,2.395357E-1,5.6818986E-1,6.218641E-1,3.716276E-2,7.631574E-1,5.740601E-1,4.9580172E-1,1.190452E-1,3.5799766E-1,5.740092E-1,6.438171E-1,4.7554335E-1,9.914061E-1,8.468526E-1,5.738773E-1,3.5068026E-1,9.844016E-2,2.3045187E-1,9.346109E-1,2.868179E-4,-5.773393E-2,2.532721E-1,-5.750845E-2,2.5598046E-1,1.7755228E-1,-5.7677723E-2,-5.781864E-2,7.296726E-1,4.9398825E-1,9.3728745E-1,5.739394E-1,4.9214026E-1,8.383056E-1,-5.7762165E-2,4.932607E-1,5.0714195E-1,4.5027435E-1,6.2761086E-1,7.9263306E-1,4.915562E-1,5.738681E-1,3.5464773E-1,4.1948482E-1,4.935929E-1,6.249866E-1,8.4092796E-1,7.4637896E-1,3.1799698E-1,4.7689497E-1,1.4050403E-1,-5.770699E-2,-4.161263E-2,-5.627088E-2,2.075869E-2,-5.0177008E-2,1.24377884E-1,-5.900178E-2,2.6755658E-1,2.9884284E-2,1.6740116E-1,-5.5819392E-2,1.8821605E-1,-4.451842E-2,-5.7622798E-2,-1.98317E-2,-5.3793248E-2,2.4780731E-1,-5.758492E-2,1.0022407E-1,-3.7200935E-2,-5.9499163E-2,2.4525554E-1,-3.2323524E-2,2.6008525E-1,2.3444445E-1,-5.9278626E-2,-4.8931297E-2,6.9934614E-3,2.568248E-1,-5.7883617E-2,1.2267315E-1,-4.204939E-2,4.1344695E-2,2.6295704E-1,7.657636E-2,2.1023662E-1,1.08174995E-1,-4.4321674E-3,1.6805199E-1,7.429949E-2,1.21515475E-1,2.3130749E-1,-5.7457846E-2,2.0006202E-1,-3.4239963E-2,-5.779745E-2,2.0323394E-1,-2.2838114E-2,1.3839833E-3,2.9975614E-1],"split_indices":[33,24,35,33,22,8,35,14,22,34,32,19,28,27,16,36,37,34,22,0,8,33,22,4,1,18,12,22,19,8,20,14,37,0,0,0,0,37,0,0,34,9,14,22,7,12,0,9,13,24,36,2,7,22,19,35,9,36,12,34,1,35,8,0,0,0,0,0,0,0,0,0,0,0,0,0,0,0,0,0,0,0,0,0,0,0,0,0,0,0,0,0,0,0,0,0,0,0,0,0,0,0,0,0,0,0,0,0,0,0,0,0,0],"split_type":[0,0,0,0,0,0,0,0,0,0,0,0,0,0,0,0,0,0,0,0,0,0,0,0,0,0,0,0,0,0,0,0,0,0,0,0,0,0,0,0,0,0,0,0,0,0,0,0,0,0,0,0,0,0,0,0,0,0,0,0,0,0,0,0,0,0,0,0,0,0,0,0,0,0,0,0,0,0,0,0,0,0,0,0,0,0,0,0,0,0,0,0,0,0,0,0,0,0,0,0,0,0,0,0,0,0,0,0,0,0,0,0,0],"sum_hessian":[2.0719564E6,1.16788E6,9.040764E5,8.9540294E5,2.7247703E5,3.130834E5,5.9099294E5,8.876386E5,7.7643604E3,1.0997451E5,1.625025E5,1.0045311E5,2.1263031E5,4.702017E5,1.20791234E5,8.8120494E5,6.4336675E3,1.0114264E3,6.7529336E3,4.238954E4,6.758497E4,1.438625E5,1.864E4,7.558888E4,2.4864223E4,1.7510652E5,3.75238E4,2.6785147E5,2.0235022E5,3.7341895E4,8.344934E4,8.061102E5,7.509476E4,5.783818E3,6.498497E2,3.2059528E2,6.908311E2,1.6752742E3,5.0776597E3,4.085418E4,1.5353619E3,4.0607414E4,2.6977553E4,1.22273055E5,2.1589455E4,2.4460962E3,1.6193904E4,7.071245E4,4.87643E3,7.327856E3,1.7536367E4,1.7283669E5,2.269823E3,2.9015264E4,8.508534E3,1.1630213E5,1.5154934E5,7.21096E4,1.3024062E5,1.309802E3,3.603209E4,1.3897261E4,6.955208E4,8.057461E5,3.6403036E2,7.150852E4,3.5862341E3,1.4885613E3,1.8671288E2,1.3880005E3,1.4736143E2,1.7173344E4,2.343407E4,2.6149775E4,8.277776E2,1.0607287E4,1.11665766E5,5.798432E3,1.5791023E4,1.9893035E3,4.5679282E2,1.5294337E4,5.5418117E4,2.4067711E2,4.635753E3,4.2814395E3,3.0464165E3,1.7081639E4,4.547282E2,1.5291394E5,1.9922756E4,1.4331871E3,8.366358E2,7.0128394E3,2.2002426E4,2.0479557E3,6.4605786E3,6.167272E4,5.4629414E4,6.0418805E4,9.113054E4,3.5360465E4,3.6749137E4,3.3943246E4,9.629737E4,1.1306832E3,1.7911876E2,5.43302E2,3.548879E4,1.23385205E4,1.5587399E3,6.661412E4,2.937965E3],"tree_param":{"num_deleted":"0","num_feature":"38","num_nodes":"113","size_leaf_vector":"1"}},{"base_weights":[-3.2349667E-4,1.8854373E0,-3.0140176E-1,5.153555E-1,2.2949543E0,-4.5807442E-1,5.7945E-1,-4.00078E-1,1.8723509E0,-3.3451688E-1,2.3473518E0,-5.504974E-1,-2.0552284E-1,-3.971392E-1,1.2720811E0,-5.398199E-1,2.5197346E0,3.585501E-1,2.2563245E0,1.213125E0,-5.367652E-1,1.2062145E0,2.411076E0,-1.357694E-1,-5.6231415E-1,1.1264465E0,-3.502123E-1,-4.3797043E-1,2.5273643E0,1.4368536E0,-6.959785E-3,-5.6352425E-1,6.3386506E-1,-5.551308E-2,2.564235E0,-5.378482E-1,1.9979945E0,-2.0050138E-1,2.3453143E0,-5.741909E-2,2.461745E0,-5.616669E-1,1.1018273E0,-3.3316123E-1,2.4247146E0,-5.7877656E-2,2.424628E0,-5.770542E-2,1.0744256E0,-5.756786E-1,-4.149813E-1,-4.2963657E-1,1.7565864E0,6.0063666E-1,-4.4228086E-1,8.3503145E-1,-4.9457702E-1,-5.462813E-2,2.5628283E0,1.898089E0,1.0209066E0,2.2133145E0,-2.4354762E-1,1.8048802E-1,-5.7118323E-2,-5.861438E-2,3.2681704E-1,2.5754818E-1,-4.9888782E-2,1.3777332E-1,-5.702715E-2,-5.785228E-2,2.422514E-1,-5.7788294E-2,2.4964766E-1,2.39289E-1,-6.0808666E-2,2.5230095E-1,-4.9202327E-2,-5.7833295E-2,6.3452967E-3,-5.5807468E-2,2.4471556E-1,2.4452782E-1,-5.0602432E-2,-6.054278E-2,2.4550612E-1,1.1767327E-1,2.4422608E-1,2.2978404E-1,-5.7779264E-2,-5.7693657E-2,-4.4298597E-2,2.0042554E-1,-4.8906658E-2,-4.830395E-2,2.5706902E-1,-5.531186E-2,2.361316E-1,-1.785751E-2,1.8572637E-1,1.2247318E-2,-4.8283957E-2,2.4492303E-1,9.899317E-3,-5.178824E-2,8.415251E-2,2.5787163E-1,-5.1202167E-2,-2.1795144E-2,2.0218523E-1,8.545759E-2,2.9866177E-1,2.4268153E-1,-6.0521852E-2,-5.1197924E-2,6.830784E-2],"categories":[],"categories_nodes":[],"categories_segments":[],"categories_sizes":[],"default_left":[0,0,0,0,0,0,0,0,0,0,0,0,0,0,0,0,0,0,0,0,0,0,0,0,0,0,0,0,0,0,0,0,0,0,0,0,0,0,0,0,0,0,0,0,0,0,0,0,0,0,0,0,0,0,0,0,0,0,0,0,0,0,0,0,0,0,0,0,0,0,0,0,0,0,0,0,0,0,0,0,0,0,0,0,0,0,0,0,0,0,0,0,0,0,0,0,0,0,0,0,0,0,0,0,0,0,0,0,0,0,0,0,0,0,0,0,0],"id":13,"left_children":[1,3,5,7,9,11,13,15,17,19,21,23,25,27,29,31,33,35,37,39,41,43,45,47,49,51,53,55,57,59,61,63,65,-1,67,69,71,73,75,-1,77,79,81,83,85,-1,87,-1,89,91,93,95,97,99,101,103,105,-1,107,109,111,113,115,-1,-1,-1,-1,-1,-1,-1,-1,-1,-1,-1,-1,-1,-1,-1,-1,-1,-1,-1,-1,-1,-1,-1,-1,-1,-1,-1,-1,-1,-1,-1,-1,-1,-1,-1,-1,-1,-1,-1,-1,-1,-1,-1,-1,-1,-1,-1,-1,-1,-1,-1,-1,-1,-1],"loss_changes":[1.1775946E6,1.6021662E5,2.46829E5,8.163192E4,3.02905E4,3.5443188E4,1.8268812E5,1.6012774E4,1.5386422E4,1.3453743E3,1.5671625E4,5.4478438E3,7.840294E4,1.338342E4,3.33015E4,1.0422754E3,2.4669531E2,7.874092E3,4.6171016E3,1.1102086E3,1.556847E2,2.1388436E4,8.27325E3,1.6447867E4,2.1280312E3,3.9087383E4,3.2124809E4,7.9650176E3,1.6962598E2,2.685325E4,9.473614E3,6.669219E2,2.3861646E3,0E0,6.216211E1,2.1595227E2,2.07298E3,7.5362585E2,2.86475E3,0E0,5.4207153E1,3.904358E1,1.2915799E2,2.421275E3,5.867344E2,0E0,4.468875E3,0E0,1.663638E4,1.651875E2,1.6112454E4,1.8422883E3,3.9630688E4,3.1721049E4,7.663426E3,5.5909355E3,3.2955605E3,0E0,7.586426E1,1.7383406E4,2.4063508E4,1.0465508E3,4.054314E3,0E0,0E0,0E0,0E0,0E0,0E0,0E0,0E0,0E0,0E0,0E0,0E0,0E0,0E0,0E0,0E0,0E0,0E0,0E0,0E0,0E0,0E0,0E0,0E0,0E0,0E0,0E0,0E0,0E0,0E0,0E0,0E0,0E0,0E0,0E0,0E0,0E0,0E0,0E0,0E0,0E0,0E0,0E0,0E0,0E0,0E0,0E0,0E0,0E0,0E0,0E0,0E0,0E0,0E0],"parents":[2147483647,0,0,1,1,2,2,3,3,4,4,5,5,6,6,7,7,8,8,9,9,10,10,11,11,12,12,13,13,14,14,15,15,16,16,17,17,18,18,19,19,20,20,21,21,22,22,23,23,24,24,25,25,26,26,27,27,28,28,29,29,30,30,31,31,32,32,34,34,35,35,36,36,37,37,38,38,40,40,41,41,42,42,43,43,44,44,46,46,48,48,49,49,50,50,51,51,52,52,53,53,54,54,55,55,56,56,58,58,59,59,60,60,61,61,62,62],"right_children":[2,4,6,8,10,12,14,16,18,20,22,24,26,28,30,32,34,36,38,40,42,44,46,48,50,52,54,56,58,60,62,64,66,-1,68,70,72,74,76,-1,78,80,82,84,86,-1,88,-1,90,92,94,96,98,100,102,104,106,-1,108,110,112,114,116,-1,-1,-1,-1,-1,-1,-1,-1,-1,-1,-1,-1,-1,-1,-1,-1,-1,-1,-1,-1,-1,-1,-1,-1,-1,-1,-1,-1,-1,-1,-1,-1,-1,-1,-1,-1,-1,-1,-1,-1,-1,-1,-1,-1,-1,-1,-1,-1,-1,-1,-1,-1,-1,-1],"split_conditions":[5.5891496E-1,4.2113328E-1,3.1826466E-1,2.2980835E-1,6.966942E-1,1.8976693E-1,3.5068026E-1,5.844809E-1,9.749356E-1,8.237291E-1,1.045883E-1,4.9183473E-1,5.719816E-1,5.774461E-1,4.2804465E-1,9.269216E-1,2.1491932E-2,4.5116737E-1,3.6736345E-1,8.2350683E-1,5.582397E-1,5.7429105E-1,3.2938495E-2,9.7513163E-1,9.7835207E-1,4.335638E-1,5.650144E-1,8.2570815E-1,9.2553884E-1,6.211739E-1,5.719816E-1,3.2435942E-1,1.9223833E-1,-5.551308E-2,6.252964E-1,9.011097E-1,3.3488885E-1,7.707801E-1,8.622242E-1,-5.741909E-2,1.2362437E-1,6.9575727E-1,5.754906E-1,9.0080667E-1,7.1593696E-1,-5.7877656E-2,3.5049084E-1,-5.770542E-2,7.417216E-1,6.298618E-1,5.658548E-1,4.1277933E-1,6.1482877E-1,4.4283062E-1,7.359007E-1,6.8241316E-1,5.072812E-1,-5.462813E-2,8.312417E-1,4.239138E-1,2.512377E-2,4.2962268E-1,5.053745E-1,1.8048802E-1,-5.7118323E-2,-5.861438E-2,3.2681704E-1,2.5754818E-1,-4.9888782E-2,1.3777332E-1,-5.702715E-2,-5.785228E-2,2.422514E-1,-5.7788294E-2,2.4964766E-1,2.39289E-1,-6.0808666E-2,2.5230095E-1,-4.9202327E-2,-5.7833295E-2,6.3452967E-3,-5.5807468E-2,2.4471556E-1,2.4452782E-1,-5.0602432E-2,-6.054278E-2,2.4550612E-1,1.1767327E-1,2.4422608E-1,2.2978404E-1,-5.7779264E-2,-5.7693657E-2,-4.4298597E-2,2.0042554E-1,-4.8906658E-2,-4.830395E-2,2.5706902E-1,-5.531186E-2,2.361316E-1,-1.785751E-2,1.8572637E-1,1.2247318E-2,-4.8283957E-2,2.4492303E-1,9.899317E-3,-5.178824E-2,8.415251E-2,2.5787163E-1,-5.1202167E-2,-2.1795144E-2,2.0218523E-1,8.545759E-2,2.9866177E-1,2.4268153E-1,-6.0521852E-2,-5.1197924E-2,6.830784E-2],"split_indices":[16,35,5,5,34,5,19,22,18,21,8,9,22,22,15,10,32,5,1,21,16,22,27,18,18,35,16,21,14,36,22,33,0,0,3,14,23,34,1,0,8,34,22,10,34,0,19,0,34,36,22,33,2,35,34,34,33,0,12,15,32,15,13,0,0,0,0,0,0,0,0,0,0,0,0,0,0,0,0,0,0,0,0,0,0,0,0,0,0,0,0,0,0,0,0,0,0,0,0,0,0,0,0,0,0,0,0,0,0,0,0,0,0,0,0,0,0],"split_type":[0,0,0,0,0,0,0,0,0,0,0,0,0,0,0,0,0,0,0,0,0,0,0,0,0,0,0,0,0,0,0,0,0,0,0,0,0,0,0,0,0,0,0,0,0,0,0,0,0,0,0,0,0,0,0,0,0,0,0,0,0,0,0,0,0,0,0,0,0,0,0,0,0,0,0,0,0,0,0,0,0,0,0,0,0,0,0,0,0,0,0,0,0,0,0,0,0,0,0,0,0,0,0,0,0,0,0,0,0,0,0,0,0,0,0,0,0],"sum_hessian":[2.0740989E6,2.8555578E5,1.7885431E6,6.571193E4,2.1984384E5,1.5184624E6,2.7008075E5,3.924072E4,2.6471213E4,4.2951304E3,2.155487E5,1.1116465E6,4.068159E5,1.12068266E5,1.580125E5,3.744922E4,1.7914999E3,5.356269E3,2.1114943E4,4.9584363E2,3.7992866E3,1.1401298E4,2.041474E5,3.0796744E4,1.0808498E6,3.9860934E4,3.6695497E5,1.1052598E5,1.5422877E3,1.399795E5,1.8032994E4,3.670836E4,7.4086084E2,2.5393476E1,1.7661064E3,3.463309E3,1.89296E3,7.380359E2,2.0376906E4,2.0415276E2,2.916909E2,3.7430605E3,5.622608E1,5.0377056E3,6.363592E3,9.2096155E2,2.0322645E5,2.2568062E4,8.228683E3,9.9095794E5,8.9891805E4,1.1489297E4,2.8371635E4,3.239423E4,3.3456075E5,4.704934E3,1.0582105E5,1.7427877E1,1.5248597E3,6.637453E4,7.360496E4,1.735714E3,1.6297279E4,1.1756882E2,3.659079E4,5.0688702E2,2.3397385E2,1.7598042E3,6.302213E0,5.6954014E1,3.4063552E3,2.677222E2,1.6252378E3,6.481304E2,8.990556E1,2.005405E4,3.2285565E2,2.8590668E2,5.784207E0,3.6459326E3,9.712796E1,2.5432259E1,3.0793823E1,2.9429745E2,4.743408E3,6.2910667E1,6.300681E3,2.832525E3,2.0039392E5,4.727632E3,3.5010508E3,9.816481E5,9.30978E3,2.6702249E3,8.722158E4,1.1289198E4,2.0009781E2,5.88698E3,2.2484656E4,1.9995957E4,1.2398273E4,2.241695E4,3.121438E5,1.4727444E3,3.2321897E3,1.0400748E5,1.8135717E3,1.5171818E3,7.6780057E0,3.667569E3,6.2706965E4,6.7864016E4,5.740949E3,1.6136229E3,1.220911E2,1.2636962E4,3.6603176E3],"tree_param":{"num_deleted":"0","num_feature":"38","num_nodes":"117","size_leaf_vector":"1"}},{"base_weights":[1.6929138E-3,9.349584E-1,-4.0077916E-1,4.18845E-1,1.4876199E0,-1.0832612E-3,-4.8211262E-1,8.3853036E-1,-1.3069978E-1,1.7886076E0,1.0101932E0,-3.5315683E-1,4.403664E-1,1.0226531E0,-4.941987E-1,1.277722E-1,1.1460541E0,2.049463E0,-2.2055513E-1,1.8188318E0,-3.8288042E-1,1.2665242E0,-1.7044706E-2,1.9093322E0,-3.7242E-1,7.244716E-1,-3.0875236E-1,-3.140431E-1,2.0317178E0,-5.5655414E-1,-3.7752488E-1,1.1924654E0,-5.301149E-2,-7.078953E-2,1.3604943E0,2.0774317E0,6.0174346E-1,2.3727198E-1,-3.8657308E-1,1.5051092E0,1.9335619E0,2.1682166E-1,-5.477014E-1,6.649197E-1,1.5334305E0,-3.0631223E-1,1.4163303E0,2.1653812E0,-1.9088697E-1,-3.8175553E-1,1.9249473E0,1.6743682E-1,1.1902661E0,1.5408078E0,-4.8564488E-1,-4.8697242E-1,2.0319598E0,8.972474E-1,2.032963E0,-5.587564E-1,-2.8425482E-1,9.42099E-1,-3.9417642E-1,8.56773E-2,2.7020833E-1,-1.0306908E-2,2.5595185E-1,2.006667E-1,-2.0795992E-2,1.5636183E-1,5.4583665E-2,2.0420621E-1,3.037313E-1,2.0092228E-1,-5.7184268E-2,2.6788598E-1,9.125276E-3,2.2339542E-1,-3.9738994E-2,1.7937653E-1,7.496749E-2,2.0310555E-1,1.590609E-1,2.1258615E-1,-5.736318E-2,1.6925983E-1,3.474682E-2,1.1770483E-3,1.7243992E-1,1.7587468E-1,-3.691891E-2,2.0588496E-1,3.855625E-2,-3.9620947E-2,2.2920826E-1,2.556666E-1,-5.7005156E-2,2.559276E-1,-3.876379E-2,2.6520965E-1,-5.7448726E-2,8.4935546E-2,-4.0016618E-2,1.6960011E-1,4.2178288E-2,8.4050065E-3,2.2340098E-1,-5.2053493E-2,1.20424464E-1,2.0704754E-1,-5.347569E-2,2.0493375E-1,7.8800485E-2,-4.3689225E-2,1.9192319E-1,2.1042266E-1,2.0131996E-1,-5.5883862E-2,2.0868014E-1,2.8358626E-1,-3.8961615E-2,-3.545742E-2,1.6059378E-1,-2.6871715E-2,-5.106507E-2],"categories":[],"categories_nodes":[],"categories_segments":[],"categories_sizes":[],"default_left":[0,0,0,0,0,0,0,0,0,0,0,0,0,0,0,0,0,0,0,0,0,0,0,0,0,0,0,0,0,0,0,0,0,0,0,0,0,0,0,0,0,0,0,0,0,0,0,0,0,0,0,0,0,0,0,0,0,0,0,0,0,0,0,0,0,0,0,0,0,0,0,0,0,0,0,0,0,0,0,0,0,0,0,0,0,0,0,0,0,0,0,0,0,0,0,0,0,0,0,0,0,0,0,0,0,0,0,0,0,0,0,0,0,0,0,0,0,0,0,0,0,0,0,0,0],"id":14,"left_children":[1,3,5,7,9,11,13,15,17,19,21,23,25,27,29,31,33,35,37,39,41,43,45,47,49,51,53,55,57,59,61,63,65,67,69,71,73,75,77,79,81,-1,83,85,87,89,91,93,95,97,99,101,103,105,107,109,111,113,115,117,119,121,123,-1,-1,-1,-1,-1,-1,-1,-1,-1,-1,-1,-1,-1,-1,-1,-1,-1,-1,-1,-1,-1,-1,-1,-1,-1,-1,-1,-1,-1,-1,-1,-1,-1,-1,-1,-1,-1,-1,-1,-1,-1,-1,-1,-1,-1,-1,-1,-1,-1,-1,-1,-1,-1,-1,-1,-1,-1,-1,-1,-1,-1,-1],"loss_changes":[7.7227756E5,1.7670544E5,4.669986E4,7.388384E4,4.29875E4,3.7751348E4,2.1708938E4,3.9700633E4,2.71745E4,1.2043E4,3.0459633E4,5.889871E3,2.293642E4,1.2829364E4,8.614656E3,1.0558551E4,3.3082125E4,2.2108203E2,1.0126154E4,6.510625E3,1.0606232E3,1.4864297E4,9.579254E3,6.1396045E2,2.8743516E3,2.0273176E4,9.696122E3,1.6611731E3,5.8320312E0,4.62625E2,9.063098E3,4.0327666E3,6.132896E3,5.413516E3,1.783514E4,1.7667188E2,1.7537509E2,1.2639911E4,2.7722988E3,1.0566523E4,4.427125E3,0E0,1.6535065E2,9.281575E3,1.8634328E4,2.4967324E3,2.56856E3,3.3099414E2,1.315762E2,2.309629E3,9.873595E2,1.3773454E4,1.653734E4,2.6122568E3,1.5953701E3,4.6696832E2,4.4624023E0,1.138171E1,3.3886719E0,1.6757812E2,2.0370604E3,4.4247305E3,5.951578E3,0E0,0E0,0E0,0E0,0E0,0E0,0E0,0E0,0E0,0E0,0E0,0E0,0E0,0E0,0E0,0E0,0E0,0E0,0E0,0E0,0E0,0E0,0E0,0E0,0E0,0E0,0E0,0E0,0E0,0E0,0E0,0E0,0E0,0E0,0E0,0E0,0E0,0E0,0E0,0E0,0E0,0E0,0E0,0E0,0E0,0E0,0E0,0E0,0E0,0E0,0E0,0E0,0E0,0E0,0E0,0E0,0E0,0E0,0E0,0E0,0E0,0E0],"parents":[2147483647,0,0,1,1,2,2,3,3,4,4,5,5,6,6,7,7,8,8,9,9,10,10,11,11,12,12,13,13,14,14,15,15,16,16,17,17,18,18,19,19,20,20,21,21,22,22,23,23,24,24,25,25,26,26,27,27,28,28,29,29,30,30,31,31,32,32,33,33,34,34,35,35,36,36,37,37,38,38,39,39,40,40,42,42,43,43,44,44,45,45,46,46,47,47,48,48,49,49,50,50,51,51,52,52,53,53,54,54,55,55,56,56,57,57,58,58,59,59,60,60,61,61,62,62],"right_children":[2,4,6,8,10,12,14,16,18,20,22,24,26,28,30,32,34,36,38,40,42,44,46,48,50,52,54,56,58,60,62,64,66,68,70,72,74,76,78,80,82,-1,84,86,88,90,92,94,96,98,100,102,104,106,108,110,112,114,116,118,120,122,124,-1,-1,-1,-1,-1,-1,-1,-1,-1,-1,-1,-1,-1,-1,-1,-1,-1,-1,-1,-1,-1,-1,-1,-1,-1,-1,-1,-1,-1,-1,-1,-1,-1,-1,-1,-1,-1,-1,-1,-1,-1,-1,-1,-1,-1,-1,-1,-1,-1,-1,-1,-1,-1,-1,-1,-1,-1,-1,-1,-1,-1,-1],"split_conditions":[3.51468E-1,4.335638E-1,3.597977E-1,2.4967312E-7,3.4582198E-1,1.0853098E-1,5.3204403E-6,5.738681E-1,5.8748555E-1,5.781105E-1,2.4967312E-7,4.2607747E-3,2.4967312E-7,9.251238E-1,9.2541546E-1,9.252161E-1,2.3053749E-1,3.467223E-1,3.4395748E-1,3.3404934E-1,7.282403E-1,5.738484E-1,5.062029E-1,5.743327E-1,6.283356E-1,3.3404934E-1,7.2448844E-1,1.6485246E-1,5.374963E-1,5.113081E-1,7.040809E-1,2.532958E-1,8.3096796E-1,4.933764E-1,7.921967E-1,7.660539E-2,5.3977704E-1,5.712064E-1,4.448097E-1,4.7715798E-1,3.444498E-1,2.1682166E-1,9.7497565E-1,9.2522234E-1,2.3036979E-1,5.519837E-1,5.7404333E-1,6.021042E-1,5.3204403E-6,4.909604E-1,6.661207E-1,3.3326277E-1,9.2558265E-1,8.311434E-1,8.551189E-1,4.239138E-1,2.535185E-1,6.0073787E-1,4.216859E-1,9.944444E-1,7.224921E-1,5.9582114E-1,8.3960044E-1,8.56773E-2,2.7020833E-1,-1.0306908E-2,2.5595185E-1,2.006667E-1,-2.0795992E-2,1.5636183E-1,5.4583665E-2,2.0420621E-1,3.037313E-1,2.0092228E-1,-5.7184268E-2,2.6788598E-1,9.125276E-3,2.2339542E-1,-3.9738994E-2,1.7937653E-1,7.496749E-2,2.0310555E-1,1.590609E-1,2.1258615E-1,-5.736318E-2,1.6925983E-1,3.474682E-2,1.1770483E-3,1.7243992E-1,1.7587468E-1,-3.691891E-2,2.0588496E-1,3.855625E-2,-3.9620947E-2,2.2920826E-1,2.556666E-1,-5.7005156E-2,2.559276E-1,-3.876379E-2,2.6520965E-1,-5.7448726E-2,8.4935546E-2,-4.0016618E-2,1.6960011E-1,4.2178288E-2,8.4050065E-3,2.2340098E-1,-5.2053493E-2,1.20424464E-1,2.0704754E-1,-5.347569E-2,2.0493375E-1,7.8800485E-2,-4.3689225E-2,1.9192319E-1,2.1042266E-1,2.0131996E-1,-5.5883862E-2,2.0868014E-1,2.8358626E-1,-3.8961615E-2,-3.545742E-2,1.6059378E-1,-2.6871715E-2,-5.106507E-2],"split_indices":[19,35,19,32,19,8,27,22,2,22,32,27,32,10,14,10,20,19,19,23,34,22,35,22,0,23,34,5,14,11,34,0,21,9,34,27,1,16,24,4,19,0,18,10,20,16,22,3,27,9,1,23,10,21,12,15,20,3,35,18,34,36,12,0,0,0,0,0,0,0,0,0,0,0,0,0,0,0,0,0,0,0,0,0,0,0,0,0,0,0,0,0,0,0,0,0,0,0,0,0,0,0,0,0,0,0,0,0,0,0,0,0,0,0,0,0,0,0,0,0,0,0,0,0,0],"split_type":[0,0,0,0,0,0,0,0,0,0,0,0,0,0,0,0,0,0,0,0,0,0,0,0,0,0,0,0,0,0,0,0,0,0,0,0,0,0,0,0,0,0,0,0,0,0,0,0,0,0,0,0,0,0,0,0,0,0,0,0,0,0,0,0,0,0,0,0,0,0,0,0,0,0,0,0,0,0,0,0,0,0,0,0,0,0,0,0,0,0,0,0,0,0,0,0,0,0,0,0,0,0,0,0,0,0,0,0,0,0,0,0,0,0,0,0,0,0,0,0,0,0,0,0,0],"sum_hessian":[2.0560424E6,6.1950725E5,1.4365351E6,3.203469E5,2.991603E5,2.4289258E5,1.1936425E6,1.8163352E5,1.3871339E5,1.8348297E5,1.1567735E5,1.3512514E5,1.07767445E5,9.510123E3,1.1841324E6,5.4854227E4,1.267793E5,5.489904E3,1.3322348E5,1.8096434E5,2.51862E3,9.2576195E4,2.3101154E4,1.139934E3,1.339852E5,7.8134695E4,2.963275E4,4.09122E3,5.418903E3,7.7169956E5,4.1243284E5,7.961398E3,4.689283E4,1.8994625E4,1.0778467E5,5.385427E3,1.0447665E2,3.545339E4,9.77701E4,4.8462004E4,1.3250234E5,1.5210992E2,2.3665103E3,2.8451117E4,6.412508E4,1.9222645E4,3.87851E3,1.0160329E3,1.2390106E2,1.3344378E5,5.4142456E2,3.5583008E4,4.2551688E4,2.5860205E3,2.704673E4,3.8110881E3,2.801317E2,6.7326345E0,5.41217E3,7.655073E5,6.1922134E3,5.1386997E3,4.0729416E5,6.514371E3,1.4470272E3,4.6012168E4,8.806592E2,1.1756521E3,1.7818975E4,8.627278E4,2.151189E4,5.197054E3,