{"learner":{"attributes":{},"feature_names":[],"feature_types":[],"gradient_booster":{"model":{"gbtree_model_param":{"num_parallel_tree":"1","num_trees":"100"},"iteration_indptr":[0,1,2,3,4,5,6,7,8,9,10,11,12,13,14,15,16,17,18,19,20,21,22,23,24,25,26,27,28,29,30,31,32,33,34,35,36,37,38,39,40,41,42,43,44,45,46,47,48,49,50,51,52,53,54,55,56,57,58,59,60,61,62,63,64,65,66,67,68,69,70,71,72,73,74,75,76,77,78,79,80,81,82,83,84,85,86,87,88,89,90,91,92,93,94,95,96,97,98,99,100],"tree_info":[0,0,0,0,0,0,0,0,0,0,0,0,0,0,0,0,0,0,0,0,0,0,0,0,0,0,0,0,0,0,0,0,0,0,0,0,0,0,0,0,0,0,0,0,0,0,0,0,0,0,0,0,0,0,0,0,0,0,0,0,0,0,0,0,0,0,0,0,0,0,0,0,0,0,0,0,0,0,0,0,0,0,0,0,0,0,0,0,0,0,0,0,0,0,0,0,0,0,0,0],"trees":[{"base_weights":[1.3245477E-7,-1.3774999E0,9.642501E-1,-2.0164583E0,3.6843753E-1,-6.795E-1,-1.1606248E-1],"categories":[],"categories_nodes":[],"categories_segments":[],"categories_sizes":[],"default_left":[0,0,0,0,0,0,0],"id":0,"left_children":[1,3,-1,5,-1,-1,-1],"loss_changes":[4.4275146E1,1.4130663E1,0E0,1.5538464E0,0E0,0E0,0E0],"parents":[2147483647,0,0,1,1,3,3],"right_children":[2,4,-1,6,-1,-1,-1],"split_conditions":[1E0,9.7931033E-1,9.642501E-1,9.655172E-1,3.6843753E-1,-6.795E-1,-1.1606248E-1],"split_indices":[1,0,0,0,0,0,0],"split_type":[0,0,0,0,0,0,0],"sum_hessian":[8E0,6E0,2E0,5E0,1E0,4E0,1E0],"tree_param":{"num_deleted":"0","num_feature":"2","num_nodes":"7","size_leaf_vector":"1"}},{"base_weights":[5.9680752E-2,-1.6540873E0,1.7615126E0,-5.7095623E-1,-9.8653086E-2,-1.4913748E-1,7.3513603E-1],"categories":[],"categories_nodes":[],"categories_segments":[],"categories_sizes":[],"default_left":[0,0,0,0,0,0,0],"id":1,"left_children":[1,3,5,-1,-1,-1,-1],"loss_changes":[2.9162603E1,1.0247393E0,8.998516E0,0E0,0E0,0E0,0E0],"parents":[2147483647,0,0,1,1,2,2],"right_children":[2,4,6,-1,-1,-1,-1],"split_conditions":[5E-1,9.655172E-1,4.827586E-1,-5.7095623E-1,-9.8653086E-2,-1.4913748E-1,7.3513603E-1],"split_indices":[1,0,0,0,0,0,0],"split_type":[0,0,0,0,0,0,0],"sum_hessian":[8E0,4E0,4E0,3E0,1E0,1E0,3E0],"tree_param":{"num_deleted":"0","num_feature":"2","num_nodes":"7","size_leaf_vector":"1"}},{"base_weights":[3.248648E-2,-8.6959463E-1,6.379541E-1,-1.2173378E0,1.8252963E-1,-4.046996E-1,-8.3855085E-2],"categories":[],"categories_nodes":[],"categories_segments":[],"categories_sizes":[],"default_left":[0,0,0,0,0,0,0],"id":2,"left_children":[1,3,-1,5,-1,-1,-1],"loss_changes":[1.8850046E1,4.3384824E0,0E0,3.637781E-1,0E0,0E0,0E0],"parents":[2147483647,0,0,1,1,3,3],"right_children":[2,4,-1,6,-1,-1,-1],"split_conditions":[9.7931033E-1,1E0,6.379541E-1,9.655172E-1,1.8252963E-1,-4.046996E-1,-8.3855085E-2],"split_indices":[0,1,0,0,0,0,0],"split_type":[0,0,0,0,0,0,0],"sum_hessian":[8E0,6E0,2E0,5E0,1E0,4E0,1E0],"tree_param":{"num_deleted":"0","num_feature":"2","num_nodes":"7","size_leaf_vector":"1"}},{"base_weights":[5.962153E-2,-6.9809294E-1,1.8077482E0,-9.335622E-1,1.072084E-1,1.551502E-1,6.583365E-1,-3.6871877E-1,-1.4356393E-1],"categories":[],"categories_nodes":[],"categories_segments":[],"categories_sizes":[],"default_left":[0,0,0,0,0,0,0,0,0],"id":3,"left_children":[1,3,5,7,-1,-1,-1,-1,-1],"loss_changes":[1.3183204E1,2.073308E0,3.6232853E-1,2.1858072E-1,0E0,0E0,0E0,0E0,0E0],"parents":[2147483647,0,0,1,1,2,2,3,3],"right_children":[2,4,6,8,-1,-1,-1,-1,-1],"split_conditions":[1E0,9.7931033E-1,6.413793E-1,3.586207E-1,1.072084E-1,1.551502E-1,6.583365E-1,-3.6871877E-1,-1.4356393E-1],"split_indices":[1,0,0,0,0,0,0,0,0],"split_type":[0,0,0,0,0,0,0,0,0],"sum_hessian":[8E0,6E0,2E0,5E0,1E0,1E0,1E0,2E0,3E0],"tree_param":{"num_deleted":"0","num_feature":"2","num_nodes":"9","size_leaf_vector":"1"}},{"base_weights":[8.7114215E-2,-5.465328E-1,1.5365858E0,-7.3887396E-1,9.112716E-2,1.3187765E-1,5.59586E-1,-8.2727903E-1,-4.452732E-2,-2.8535852E-1,-4.9742248E-2],"categories":[],"categories_nodes":[],"categories_segments":[],"categories_sizes":[],"default_left":[0,0,0,0,0,0,0,0,0,0,0],"id":4,"left_children":[1,3,5,7,-1,-1,-1,9,-1,-1,-1],"loss_changes":[9.105874E0,1.3692586E0,2.6178312E-1,1.9040394E-1,0E0,0E0,0E0,2.5211954E-1,0E0,0E0,0E0],"parents":[2147483647,0,0,1,1,2,2,3,3,7,7],"right_children":[2,4,6,8,-1,-1,-1,10,-1,-1,-1],"split_conditions":[1E0,9.7931033E-1,6.413793E-1,5E-1,9.112716E-2,1.3187765E-1,5.59586E-1,9.655172E-1,-4.452732E-2,-2.8535852E-1,-4.9742248E-2],"split_indices":[1,0,0,1,0,0,0,0,0,0,0],"split_type":[0,0,0,0,0,0,0,0,0,0,0],"sum_hessian":[8E0,6E0,2E0,5E0,1E0,1E0,1E0,4E0,1E0,3E0,1E0],"tree_param":{"num_deleted":"0","num_feature":"2","num_nodes":"11","size_leaf_vector":"1"}},{"base_weights":[1.0575359E-1,-4.237874E-1,1.306098E0,-5.804832E-1,7.745812E-2,1.1209603E-1,4.7564808E-1,-2.3790333E-1,-8.278994E-2],"categories":[],"categories_nodes":[],"categories_segments":[],"categories_sizes":[],"default_left":[0,0,0,0,0,0,0,0,0],"id":5,"left_children":[1,3,5,7,-1,-1,-1,-1,-1],"loss_changes":[6.2741914E0,8.9792216E-1,1.8913794E-1,1.694653E-1,0E0,0E0,0E0,0E0,0E0],"parents":[2147483647,0,0,1,1,2,2,3,3],"right_children":[2,4,6,8,-1,-1,-1,-1,-1],"split_conditions":[1E0,9.7931033E-1,6.413793E-1,3.586207E-1,7.745812E-2,1.1209603E-1,4.7564808E-1,-2.3790333E-1,-8.278994E-2],"split_indices":[1,0,0,0,0,0,0,0,0],"split_type":[0,0,0,0,0,0,0,0,0],"sum_hessian":[8E0,6E0,2E0,5E0,1E0,1E0,1E0,2E0,3E0],"tree_param":{"num_deleted":"0","num_feature":"2","num_nodes":"9","size_leaf_vector":"1"}},{"base_weights":[1.1230634E-1,-3.3139902E-1,1.1101834E0,-5.1783824E-1,8.979932E-2,9.528165E-2,4.043009E-1,-1.7925811E-1,-2.9862428E-2,-2.5429739E-2,6.583944E-2],"categories":[],"categories_nodes":[],"categories_segments":[],"categories_sizes":[],"default_left":[0,0,0,0,0,0,0,0,0,0,0],"id":6,"left_children":[1,3,5,7,9,-1,-1,-1,-1,-1,-1],"loss_changes":[4.352784E0,5.961966E-1,1.3665175E-1,1.071893E-1,8.65083E-2,0E0,0E0,0E0,0E0,0E0,0E0],"parents":[2147483647,0,0,1,1,2,2,3,3,4,4],"right_children":[2,4,6,8,10,-1,-1,-1,-1,-1,-1],"split_conditions":[1E0,5E-1,6.413793E-1,9.655172E-1,4.827586E-1,9.528165E-2,4.043009E-1,-1.7925811E-1,-2.9862428E-2,-2.5429739E-2,6.583944E-2],"split_indices":[1,1,0,0,0,0,0,0,0,0,0],"split_type":[0,0,0,0,0,0,0,0,0,0,0],"sum_hessian":[8E0,6E0,2E0,4E0,2E0,1E0,1E0,3E0,1E0,1E0,1E0],"tree_param":{"num_deleted":"0","num_feature":"2","num_nodes":"11","size_leaf_vector":"1"}},{"base_weights":[1.1537799E-1,-2.5608084E-1,9.4365597E-1,-3.609427E-1,5.5963542E-2,8.098941E-2,3.436558E-1,-1.5447104E-1,-4.6570946E-2],"categories":[],"categories_nodes":[],"categories_segments":[],"categories_sizes":[],"default_left":[0,0,0,0,0,0,0,0,0],"id":7,"left_children":[1,3,5,7,-1,-1,-1,-1,-1],"loss_changes":[3.010693E0,3.9223418E-1,9.87308E-2,1.1009228E-1,0E0,0E0,0E0,0E0,0E0],"parents":[2147483647,0,0,1,1,2,2,3,3],"right_children":[2,4,6,8,-1,-1,-1,-1,-1],"split_conditions":[1E0,9.7931033E-1,6.413793E-1,3.586207E-1,5.5963542E-2,8.098941E-2,3.436558E-1,-1.5447104E-1,-4.6570946E-2],"split_indices":[1,0,0,0,0,0,0,0,0],"split_type":[0,0,0,0,0,0,0,0,0],"sum_hessian":[8E0,6E0,2E0,5E0,1E0,1E0,1E0,2E0,3E0],"tree_param":{"num_deleted":"0","num_feature":"2","num_nodes":"9","size_leaf_vector":"1"}},{"base_weights":[1.1182759E-1,-1.9998209E-1,8.0210763E-1,-2.861669E-1,4.7569014E-2,6.884101E-2,2.9210746E-1,-1.2357683E-1,-3.6092486E-2],"categories":[],"categories_nodes":[],"categories_segments":[],"categories_sizes":[],"default_left":[0,0,0,0,0,0,0,0,0],"id":8,"left_children":[1,3,5,7,-1,-1,-1,-1,-1],"loss_changes":[2.0975313E0,2.6168382E-1,7.133317E-2,7.5588435E-2,0E0,0E0,0E0,0E0,0E0],"parents":[2147483647,0,0,1,1,2,2,3,3],"right_children":[2,4,6,8,-1,-1,-1,-1,-1],"split_conditions":[1E0,9.7931033E-1,6.413793E-1,3.586207E-1,4.7569014E-2,6.884101E-2,2.9210746E-1,-1.2357683E-1,-3.6092486E-2],"split_indices":[1,0,0,0,0,0,0,0,0],"split_type":[0,0,0,0,0,0,0,0,0],"sum_hessian":[8E0,6E0,2E0,5E0,1E0,1E0,1E0,2E0,3E0],"tree_param":{"num_deleted":"0","num_feature":"2","num_nodes":"9","size_leaf_vector":"1"}},{"base_weights":[1.05929114E-1,-1.5600176E-1,6.817915E-1,-2.600264E-1,6.937321E-2,5.851486E-2,2.4829131E-1,-1.228961E-1,-3.6061853E-2,-9.215749E-3,4.0433694E-2],"categories":[],"categories_nodes":[],"categories_segments":[],"categories_sizes":[],"default_left":[0,0,0,0,0,0,0,0,0,0,0],"id":9,"left_children":[1,3,5,7,9,-1,-1,-1,-1,-1,-1],"loss_changes":[1.4638859E0,1.821507E-1,5.153799E-2,5.536166E-2,2.3780152E-2,0E0,0E0,0E0,0E0,0E0,0E0],"parents":[2147483647,0,0,1,1,2,2,3,3,4,4],"right_children":[2,4,6,8,10,-1,-1,-1,-1,-1,-1],"split_conditions":[1E0,5E-1,6.413793E-1,3.2413793E-1,4.827586E-1,5.851486E-2,2.4829131E-1,-1.228961E-1,-3.6061853E-2,-9.215749E-3,4.0433694E-2],"split_indices":[1,1,0,0,0,0,0,0,0,0,0],"split_type":[0,0,0,0,0,0,0,0,0,0,0],"sum_hessian":[8E0,6E0,2E0,4E0,2E0,1E0,1E0,1E0,3E0,1E0,1E0],"tree_param":{"num_deleted":"0","num_feature":"2","num_nodes":"11","size_leaf_vector":"1"}},{"base_weights":[9.40466E-2,-1.2744984E-1,5.795228E-1,-1.04461685E-1,-3.2622952E-2,4.97376E-2,2.1104766E-1,-8.497236E-2,3.4368612E-2,-9.359154E-2,-7.574344E-3,-3.221437E-2,-7.833374E-3],"categories":[],"categories_nodes":[],"categories_segments":[],"categories_sizes":[],"default_left":[0,0,0,0,0,0,0,0,0,0,0,0,0],"id":10,"left_children":[1,3,5,-1,7,-1,-1,9,-1,11,-1,-1,-1],"loss_changes":[1.0416412E0,1.3517559E-1,3.723657E-2,0E0,5.5964887E-2,0E0,0E0,2.1089986E-4,0E0,9.1826916E-4,0E0,0E0,0E0],"parents":[2147483647,0,0,1,1,2,2,4,4,7,7,9,9],"right_children":[2,4,6,-1,8,-1,-1,10,-1,12,-1,-1,-1],"split_conditions":[1E0,3.2413793E-1,6.413793E-1,-1.04461685E-1,9.7931033E-1,4.97376E-2,2.1104766E-1,9.655172E-1,3.4368612E-2,5E-1,-7.574344E-3,-3.221437E-2,-7.833374E-3],"split_indices":[1,0,0,0,0,0,0,0,0,1,0,0,0],"split_type":[0,0,0,0,0,0,0,0,0,0,0,0,0],"sum_hessian":[8E0,6E0,2E0,1E0,5E0,1E0,1E0,4E0,1E0,3E0,1E0,2E0,1E0],"tree_param":{"num_deleted":"0","num_feature":"2","num_nodes":"13","size_leaf_vector":"1"}},{"base_weights":[8.1729315E-2,-1.0603128E-1,4.9259424E-1,-8.879243E-2,-2.5044898E-2,4.227698E-2,1.7939043E-1,-2.0701498E-2,2.9213334E-2],"categories":[],"categories_nodes":[],"categories_segments":[],"categories_sizes":[],"default_left":[0,0,0,0,0,0,0,0,0],"id":11,"left_children":[1,3,5,-1,7,-1,-1,-1,-1],"loss_changes":[7.465285E-1,1.0026719E-1,2.6903212E-2,0E0,3.9009824E-2,0E0,0E0,0E0,0E0],"parents":[2147483647,0,0,1,1,2,2,4,4],"right_children":[2,4,6,-1,8,-1,-1,-1,-1],"split_conditions":[1E0,3.2413793E-1,6.413793E-1,-8.879243E-2,9.7931033E-1,4.227698E-2,1.7939043E-1,-2.0701498E-2,2.9213334E-2],"split_indices":[1,0,0,0,0,0,0,0,0],"split_type":[0,0,0,0,0,0,0,0,0],"sum_hessian":[8E0,6E0,2E0,1E0,5E0,1E0,1E0,4E0,1E0],"tree_param":{"num_deleted":"0","num_feature":"2","num_nodes":"9","size_leaf_vector":"1"}},{"base_weights":[7.2920196E-2,-8.5690595E-2,4.187053E-1,-7.547356E-2,-1.6112844E-2,3.593545E-2,1.5248194E-1,-5.244384E-2,2.483132E-2,-5.9999883E-2,-3.3329488E-3,-2.1631194E-2,-3.5531402E-3],"categories":[],"categories_nodes":[],"categories_segments":[],"categories_sizes":[],"default_left":[0,0,0,0,0,0,0,0,0,0,0,0,0],"id":12,"left_children":[1,3,5,-1,7,-1,-1,9,-1,11,-1,-1,-1],"loss_changes":[5.294863E-1,7.6741114E-2,1.9437611E-2,0E0,2.5896134E-2,0E0,0E0,8.950196E-4,0E0,1.4775582E-3,0E0,0E0,0E0],"parents":[2147483647,0,0,1,1,2,2,4,4,7,7,9,9],"right_children":[2,4,6,-1,8,-1,-1,10,-1,12,-1,-1,-1],"split_conditions":[1E0,3.2413793E-1,6.413793E-1,-7.547356E-2,9.7931033E-1,3.593545E-2,1.5248194E-1,9.655172E-1,2.483132E-2,5E-1,-3.3329488E-3,-2.1631194E-2,-3.5531402E-3],"split_indices":[1,0,0,0,0,0,0,0,0,1,0,0,0],"split_type":[0,0,0,0,0,0,0,0,0,0,0,0,0],"sum_hessian":[8E0,6E0,2E0,1E0,5E0,1E0,1E0,4E0,1E0,3E0,1E0,2E0,1E0],"tree_param":{"num_deleted":"0","num_feature":"2","num_nodes":"13","size_leaf_vector":"1"}},{"base_weights":[6.3183926E-2,-7.129188E-2,3.5589948E-1,-6.415253E-2,-1.1893272E-2,3.054514E-2,1.2960964E-1,-4.241409E-2,2.1106625E-2,-4.8295975E-2,-2.832985E-3,-1.7304946E-2,-3.0201676E-3],"categories":[],"categories_nodes":[],"categories_segments":[],"categories_sizes":[],"default_left":[0,0,0,0,0,0,0,0,0,0,0,0,0],"id":13,"left_children":[1,3,5,-1,7,-1,-1,9,-1,11,-1,-1,-1],"loss_changes":[3.7964118E-1,5.6727577E-2,1.404357E-2,0E0,1.8045846E-2,0E0,0E0,5.1357877E-4,0E0,8.547306E-4,0E0,0E0,0E0],"parents":[2147483647,0,0,1,1,2,2,4,4,7,7,9,9],"right_children":[2,4,6,-1,8,-1,-1,10,-1,12,-1,-1,-1],"split_conditions":[1E0,3.2413793E-1,6.413793E-1,-6.415253E-2,9.7931033E-1,3.054514E-2,1.2960964E-1,9.655172E-1,2.1106625E-2,5E-1,-2.832985E-3,-1.7304946E-2,-3.0201676E-3],"split_indices":[1,0,0,0,0,0,0,0,0,1,0,0,0],"split_type":[0,0,0,0,0,0,0,0,0,0,0,0,0],"sum_hessian":[8E0,6E0,2E0,1E0,5E0,1E0,1E0,4E0,1E0,3E0,1E0,2E0,1E0],"tree_param":{"num_deleted":"0","num_feature":"2","num_nodes":"13","size_leaf_vector":"1"}},{"base_weights":[5.4667637E-2,-5.936206E-2,3.025144E-1,-5.452966E-2,-8.667231E-3,2.5963355E-2,1.1016813E-1,-3.4321498E-2,1.7940618E-2,-3.8888454E-2,-2.4080516E-3,-1.3843967E-2,-2.5671246E-3],"categories":[],"categories_nodes":[],"categories_segments":[],"categories_sizes":[],"default_left":[0,0,0,0,0,0,0,0,0,0,0,0,0],"id":14,"left_children":[1,3,5,-1,7,-1,-1,9,-1,11,-1,-1,-1],"loss_changes":[2.723149E-1,4.1861154E-2,1.0146499E-2,0E0,1.2591672E-2,0E0,0E0,2.8828112E-4,0E0,4.8571266E-4,0E0,0E0,0E0],"parents":[2147483647,0,0,1,1,2,2,4,4,7,7,9,9],"right_children":[2,4,6,-1,8,-1,-1,10,-1,12,-1,-1,-1],"split_conditions":[1E0,3.2413793E-1,6.413793E-1,-5.452966E-2,9.7931033E-1,2.5963355E-2,1.1016813E-1,9.655172E-1,1.7940618E-2,5E-1,-2.4080516E-3,-1.3843967E-2,-2.5671246E-3],"split_indices":[1,0,0,0,0,0,0,0,0,1,0,0,0],"split_type":[0,0,0,0,0,0,0,0,0,0,0,0,0],"sum_hessian":[8E0,6E0,2E0,1E0,5E0,1E0,1E0,4E0,1E0,3E0,1E0,2E0,1E0],"tree_param":{"num_deleted":"0","num_feature":"2","num_nodes":"13","size_leaf_vector":"1"}},{"base_weights":[4.723658E-2,-4.9468882E-2,2.5713715E-1,-4.635021E-2,-6.213466E-3,2.2068858E-2,9.364286E-2,-2.7788877E-2,1.5249539E-2,-3.1324685E-2,-2.0468475E-3,-1.1075163E-2,-2.1820664E-3],"categories":[],"categories_nodes":[],"categories_segments":[],"categories_sizes":[],"default_left":[0,0,0,0,0,0,0,0,0,0,0,0,0],"id":15,"left_children":[1,3,5,-1,7,-1,-1,9,-1,11,-1,-1,-1],"loss_changes":[1.9540706E-1,3.0842379E-2,7.33079E-3,0E0,8.797208E-3,0E0,0E0,1.5693717E-4,0E0,2.6950706E-4,0E0,0E0,0E0],"parents":[2147483647,0,0,1,1,2,2,4,4,7,7,9,9],"right_children":[2,4,6,-1,8,-1,-1,10,-1,12,-1,-1,-1],"split_conditions":[1E0,3.2413793E-1,6.413793E-1,-4.635021E-2,9.7931033E-1,2.2068858E-2,9.364286E-2,9.655172E-1,1.5249539E-2,5E-1,-2.0468475E-3,-1.1075163E-2,-2.1820664E-3],"split_indices":[1,0,0,0,0,0,0,0,0,1,0,0,0],"split_type":[0,0,0,0,0,0,0,0,0,0,0,0,0],"sum_hessian":[8E0,6E0,2E0,1E0,5E0,1E0,1E0,4E0,1E0,3E0,1E0,2E0,1E0],"tree_param":{"num_deleted":"0","num_feature":"2","num_nodes":"13","size_leaf_vector":"1"}},{"base_weights":[4.076634E-2,-4.125746E-2,2.1856642E-1,-3.939767E-2,-4.35851E-3,1.8758513E-2,7.959638E-2,-2.2512984E-2,1.296208E-2,-2.5241584E-2,-1.7397881E-3,-2.8839232E-3,-1.0819066E-2],"categories":[],"categories_nodes":[],"categories_segments":[],"categories_sizes":[],"default_left":[0,0,0,0,0,0,0,0,0,0,0,0,0],"id":16,"left_children":[1,3,5,-1,7,-1,-1,9,-1,11,-1,-1,-1],"loss_changes":[1.4027204E-1,2.2691548E-2,5.2964836E-3,0E0,6.1538704E-3,0E0,0E0,8.16416E-5,0E0,3.2984302E-4,0E0,0E0,0E0],"parents":[2147483647,0,0,1,1,2,2,4,4,7,7,9,9],"right_children":[2,4,6,-1,8,-1,-1,10,-1,12,-1,-1,-1],"split_conditions":[1E0,3.2413793E-1,6.413793E-1,-3.939767E-2,9.7931033E-1,1.8758513E-2,7.959638E-2,9.655172E-1,1.296208E-2,4.827586E-1,-1.7397881E-3,-2.8839232E-3,-1.0819066E-2],"split_indices":[1,0,0,0,0,0,0,0,0,0,0,0,0],"split_type":[0,0,0,0,0,0,0,0,0,0,0,0,0],"sum_hessian":[8E0,6E0,2E0,1E0,5E0,1E0,1E0,4E0,1E0,3E0,1E0,2E0,1E0],"tree_param":{"num_deleted":"0","num_feature":"2","num_nodes":"13","size_leaf_vector":"1"}},{"base_weights":[3.481165E-2,-3.4862798E-2,1.8578148E-1,-3.3488017E-2,-3.464361E-3,1.5944768E-2,6.7656904E-2,-1.8847633E-2,1.1017799E-2,-2.307141E-3,-2.3722252E-2,-9.196222E-3,-1.4787914E-3],"categories":[],"categories_nodes":[],"categories_segments":[],"categories_sizes":[],"default_left":[0,0,0,0,0,0,0,0,0,0,0,0,0],"id":17,"left_children":[1,3,5,-1,7,-1,-1,9,-1,-1,11,-1,-1],"loss_changes":[1.0114551E-1,1.6485153E-2,3.826648E-3,0E0,4.4017537E-3,0E0,0E0,8.9499285E-5,0E0,0E0,2.3970485E-4,0E0,0E0],"parents":[2147483647,0,0,1,1,2,2,4,4,7,7,10,10],"right_children":[2,4,6,-1,8,-1,-1,10,-1,-1,12,-1,-1],"split_conditions":[1E0,3.2413793E-1,6.413793E-1,-3.3488017E-2,9.7931033E-1,1.5944768E-2,6.7656904E-2,4.827586E-1,1.1017799E-2,-2.307141E-3,9.655172E-1,-9.196222E-3,-1.4787914E-3],"split_indices":[1,0,0,0,0,0,0,0,0,0,0,0,0],"split_type":[0,0,0,0,0,0,0,0,0,0,0,0,0],"sum_hessian":[8E0,6E0,2E0,1E0,5E0,1E0,1E0,4E0,1E0,2E0,2E0,1E0,1E0],"tree_param":{"num_deleted":"0","num_feature":"2","num_nodes":"13","size_leaf_vector":"1"}},{"base_weights":[2.9718101E-2,-2.946858E-2,1.5791433E-1,-2.846481E-2,-2.752443E-3,1.3553024E-2,5.7508424E-2,-1.5789771E-2,9.36513E-3,-1.8457057E-3,-2.0163933E-2,-7.81678E-3,-1.2569905E-3],"categories":[],"categories_nodes":[],"categories_segments":[],"categories_sizes":[],"default_left":[0,0,0,0,0,0,0,0,0,0,0,0,0],"id":18,"left_children":[1,3,5,-1,7,-1,-1,9,-1,-1,11,-1,-1],"loss_changes":[7.294109E-2,1.1972129E-2,2.764821E-3,0E0,3.150143E-3,0E0,0E0,8.6722546E-5,0E0,0E0,1.7318223E-4,0E0,0E0],"parents":[2147483647,0,0,1,1,2,2,4,4,7,7,10,10],"right_children":[2,4,6,-1,8,-1,-1,10,-1,-1,12,-1,-1],"split_conditions":[1E0,3.2413793E-1,6.413793E-1,-2.846481E-2,9.7931033E-1,1.3553024E-2,5.7508424E-2,4.827586E-1,9.36513E-3,-1.8457057E-3,9.655172E-1,-7.81678E-3,-1.2569905E-3],"split_indices":[1,0,0,0,0,0,0,0,0,0,0,0,0],"split_type":[0,0,0,0,0,0,0,0,0,0,0,0,0],"sum_hessian":[8E0,6E0,2E0,1E0,5E0,1E0,1E0,4E0,1E0,2E0,2E0,1E0,1E0],"tree_param":{"num_deleted":"0","num_feature":"2","num_nodes":"13","size_leaf_vector":"1"}},{"base_weights":[2.5362896E-2,-2.491647E-2,1.3422711E-1,-2.4195092E-2,-2.1857817E-3,1.1520052E-2,4.8882153E-2,-1.3236761E-2,7.960368E-3,-1.476574E-3,-1.7139355E-2,-6.644261E-3,-1.0684491E-3],"categories":[],"categories_nodes":[],"categories_segments":[],"categories_sizes":[],"default_left":[0,0,0,0,0,0,0,0,0,0,0,0,0],"id":19,"left_children":[1,3,5,-1,7,-1,-1,9,-1,-1,11,-1,-1],"loss_changes":[5.260708E-2,8.691795E-3,1.997605E-3,0E0,2.2555587E-3,0E0,0E0,7.788907E-5,0E0,0E0,1.2512266E-4,0E0,0E0],"parents":[2147483647,0,0,1,1,2,2,4,4,7,7,10,10],"right_children":[2,4,6,-1,8,-1,-1,10,-1,-1,12,-1,-1],"split_conditions":[1E0,3.2413793E-1,6.413793E-1,-2.4195092E-2,9.7931033E-1,1.1520052E-2,4.8882153E-2,4.827586E-1,7.960368E-3,-1.476574E-3,9.655172E-1,-6.644261E-3,-1.0684491E-3],"split_indices":[1,0,0,0,0,0,0,0,0,0,0,0,0],"split_type":[0,0,0,0,0,0,0,0,0,0,0,0,0],"sum_hessian":[8E0,6E0,2E0,1E0,5E0,1E0,1E0,4E0,1E0,2E0,2E0,1E0,1E0],"tree_param":{"num_deleted":"0","num_feature":"2","num_nodes":"13","size_leaf_vector":"1"}},{"base_weights":[2.164048E-2,-2.107352E-2,1.1409298E-1,-2.056583E-2,-1.7348528E-3,9.792066E-3,4.154978E-2,-1.1103583E-2,6.7663197E-3,-1.1812688E-3,-1.4568408E-2,-5.647624E-3,-9.0816023E-4],"categories":[],"categories_nodes":[],"categories_segments":[],"categories_sizes":[],"default_left":[0,0,0,0,0,0,0,0,0,0,0,0,0],"id":20,"left_children":[1,3,5,-1,7,-1,-1,9,-1,-1,11,-1,-1],"loss_changes":[3.7945487E-2,6.308368E-3,1.4432333E-3,0E0,1.6157912E-3,0E0,0E0,6.678101E-5,0E0,0E0,9.040459E-5,0E0,0E0],"parents":[2147483647,0,0,1,1,2,2,4,4,7,7,10,10],"right_children":[2,4,6,-1,8,-1,-1,10,-1,-1,12,-1,-1],"split_conditions":[1E0,3.2413793E-1,6.413793E-1,-2.056583E-2,9.7931033E-1,9.792066E-3,4.154978E-2,4.827586E-1,6.7663197E-3,-1.1812688E-3,9.655172E-1,-5.647624E-3,-9.0816023E-4],"split_indices":[1,0,0,0,0,0,0,0,0,0,0,0,0],"split_type":[0,0,0,0,0,0,0,0,0,0,0,0,0],"sum_hessian":[8E0,6E0,2E0,1E0,5E0,1E0,1E0,4E0,1E0,2E0,2E0,1E0,1E0],"tree_param":{"num_deleted":"0","num_feature":"2","num_nodes":"13","size_leaf_vector":"1"}},{"base_weights":[1.8460108E-2,-1.7828064E-2,9.697914E-2,-1.7480949E-2,-1.3761321E-3,8.3232885E-3,3.5317328E-2,-9.319854E-3,5.7513714E-3,-9.4500784E-4,-1.2383063E-2,-4.8004747E-3,-7.71904E-4],"categories":[],"categories_nodes":[],"categories_segments":[],"categories_sizes":[],"default_left":[0,0,0,0,0,0,0,0,0,0,0,0,0],"id":21,"left_children":[1,3,5,-1,7,-1,-1,9,-1,-1,11,-1,-1],"loss_changes":[2.7372763E-2,4.5772297E-3,1.0427069E-3,0E0,1.1580086E-3,0E0,0E0,5.549044E-5,0E0,0E0,6.532125E-5,0E0,0E0],"parents":[2147483647,0,0,1,1,2,2,4,4,7,7,10,10],"right_children":[2,4,6,-1,8,-1,-1,10,-1,-1,12,-1,-1],"split_conditions":[1E0,3.2413793E-1,6.413793E-1,-1.7480949E-2,9.7931033E-1,8.3232885E-3,3.5317328E-2,4.827586E-1,5.7513714E-3,-9.4500784E-4,9.655172E-1,-4.8004747E-3,-7.71904E-4],"split_indices":[1,0,0,0,0,0,0,0,0,0,0,0,0],"split_type":[0,0,0,0,0,0,0,0,0,0,0,0,0],"sum_hessian":[8E0,6E0,2E0,1E0,5E0,1E0,1E0,4E0,1E0,2E0,2E0,1E0,1E0],"tree_param":{"num_deleted":"0","num_feature":"2","num_nodes":"13","size_leaf_vector":"1"}},{"base_weights":[1.5743647E-2,-1.5086285E-2,8.243227E-2,-1.4858804E-2,-1.0908842E-3,7.074809E-3,3.0019714E-2,-7.827329E-3,4.8887017E-3,-7.560015E-4,-1.0525544E-2,-4.080391E-3,-6.561041E-4],"categories":[],"categories_nodes":[],"categories_segments":[],"categories_sizes":[],"default_left":[0,0,0,0,0,0,0,0,0,0,0,0,0],"id":22,"left_children":[1,3,5,-1,7,-1,-1,9,-1,-1,11,-1,-1],"loss_changes":[1.9747648E-2,3.3202798E-3,7.533431E-4,0E0,8.302931E-4,0E0,0E0,4.507706E-5,0E0,0E0,4.7195703E-5,0E0,0E0],"parents":[2147483647,0,0,1,1,2,2,4,4,7,7,10,10],"right_children":[2,4,6,-1,8,-1,-1,10,-1,-1,12,-1,-1],"split_conditions":[1E0,3.2413793E-1,6.413793E-1,-1.4858804E-2,9.7931033E-1,7.074809E-3,3.0019714E-2,4.827586E-1,4.8887017E-3,-7.560015E-4,9.655172E-1,-4.080391E-3,-6.561041E-4],"split_indices":[1,0,0,0,0,0,0,0,0,0,0,0,0],"split_type":[0,0,0,0,0,0,0,0,0,0,0,0,0],"sum_hessian":[8E0,6E0,2E0,1E0,5E0,1E0,1E0,4E0,1E0,2E0,2E0,1E0,1E0],"tree_param":{"num_deleted":"0","num_feature":"2","num_nodes":"13","size_leaf_vector":"1"}},{"base_weights":[1.34241115E-2,-1.2769316E-2,7.0067406E-2,-1.2629977E-2,-8.642276E-4,6.0135843E-3,2.551675E-2,-6.5776347E-3,4.1554216E-3,-7.979691E-3,-1.454115E-4,-9.400289E-3,-5.576849E-4,-7.6178316E-4,-3.4683468E-3],"categories":[],"categories_nodes":[],"categories_segments":[],"categories_sizes":[],"default_left":[0,0,0,0,0,0,0,0,0,0,0,0,0,0,0],"id":23,"left_children":[1,3,5,-1,7,-1,-1,9,-1,11,-1,13,-1,-1,-1],"loss_changes":[1.424785E-2,2.4079003E-3,5.4429006E-4,0E0,5.9556786E-4,0E0,0E0,3.8845363E-5,0E0,1.7305749E-5,0E0,1.5120226E-5,0E0,0E0,0E0],"parents":[2147483647,0,0,1,1,2,2,4,4,7,7,9,9,11,11],"right_children":[2,4,6,-1,8,-1,-1,10,-1,12,-1,14,-1,-1,-1],"split_conditions":[1E0,3.2413793E-1,6.413793E-1,-1.2629977E-2,9.7931033E-1,6.0135843E-3,2.551675E-2,5E-1,4.1554216E-3,9.655172E-1,-1.454115E-4,3.586207E-1,-5.576849E-4,-7.6178316E-4,-3.4683468E-3],"split_indices":[1,0,0,0,0,0,0,1,0,0,0,0,0,0,0],"split_type":[0,0,0,0,0,0,0,0,0,0,0,0,0,0,0],"sum_hessian":[8E0,6E0,2E0,1E0,5E0,1E0,1E0,4E0,1E0,3E0,1E0,2E0,1E0,1E0,1E0],"tree_param":{"num_deleted":"0","num_feature":"2","num_nodes":"15","size_leaf_vector":"1"}},{"base_weights":[1.1410534E-2,-1.0853929E-2,5.9557438E-2,-1.0735479E-2,-7.346074E-4,5.111575E-3,2.1689273E-2,-5.590963E-3,3.532076E-3,-6.7827106E-3,-1.235962E-4,-7.990281E-3,-4.74E-4,-6.4752105E-4,-2.9481056E-3],"categories":[],"categories_nodes":[],"categories_segments":[],"categories_sizes":[],"default_left":[0,0,0,0,0,0,0,0,0,0,0,0,0,0,0],"id":24,"left_children":[1,3,5,-1,7,-1,-1,9,-1,11,-1,13,-1,-1,-1],"loss_changes":[1.0294117E-2,1.7397059E-3,3.9323885E-4,0E0,4.3029114E-4,0E0,0E0,2.806577E-5,0E0,1.2505916E-5,0E0,1.092421E-5,0E0,0E0,0E0],"parents":[2147483647,0,0,1,1,2,2,4,4,7,7,9,9,11,11],"right_children":[2,4,6,-1,8,-1,-1,10,-1,12,-1,14,-1,-1,-1],"split_conditions":[1E0,3.2413793E-1,6.413793E-1,-1.0735479E-2,9.7931033E-1,5.111575E-3,2.1689273E-2,5E-1,3.532076E-3,9.655172E-1,-1.235962E-4,3.586207E-1,-4.74E-4,-6.4752105E-4,-2.9481056E-3],"split_indices":[1,0,0,0,0,0,0,1,0,0,0,0,0,0,0],"split_type":[0,0,0,0,0,0,0,0,0,0,0,0,0,0,0],"sum_hessian":[8E0,6E0,2E0,1E0,5E0,1E0,1E0,4E0,1E0,3E0,1E0,2E0,1E0,1E0,1E0],"tree_param":{"num_deleted":"0","num_feature":"2","num_nodes":"15","size_leaf_vector":"1"}},{"base_weights":[9.698927E-3,-9.225837E-3,5.0623734E-2,-9.125153E-3,-6.2441826E-4,4.344821E-3,1.843586E-2,-4.75235E-3,3.0022862E-3,-5.765319E-3,-1.0507107E-4,-6.7917504E-3,-4.0290356E-4,-5.503893E-4,-2.5058985E-3],"categories":[],"categories_nodes":[],"categories_segments":[],"categories_sizes":[],"default_left":[0,0,0,0,0,0,0,0,0,0,0,0,0,0,0],"id":25,"left_children":[1,3,5,-1,7,-1,-1,9,-1,11,-1,13,-1,-1,-1],"loss_changes":[7.437478E-3,1.2569358E-3,2.8412044E-4,0E0,3.1088965E-4,0E0,0E0,2.0276799E-5,0E0,9.035386E-6,0E0,7.893163E-6,0E0,0E0,0E0],"parents":[2147483647,0,0,1,1,2,2,4,4,7,7,9,9,11,11],"right_children":[2,4,6,-1,8,-1,-1,10,-1,12,-1,14,-1,-1,-1],"split_conditions":[1E0,3.2413793E-1,6.413793E-1,-9.125153E-3,9.7931033E-1,4.344821E-3,1.843586E-2,5E-1,3.0022862E-3,9.655172E-1,-1.0507107E-4,3.586207E-1,-4.0290356E-4,-5.503893E-4,-2.5058985E-3],"split_indices":[1,0,0,0,0,0,0,1,0,0,0,0,0,0,0],"split_type":[0,0,0,0,0,0,0,0,0,0,0,0,0,0,0],"sum_hessian":[8E0,6E0,2E0,1E0,5E0,1E0,1E0,4E0,1E0,3E0,1E0,2E0,1E0,1E0,1E0],"tree_param":{"num_deleted":"0","num_feature":"2","num_nodes":"15","size_leaf_vector":"1"}},{"base_weights":[8.244123E-3,-7.841953E-3,4.3030262E-2,-7.7563855E-3,-5.307396E-4,3.69308E-3,1.5670538E-2,-4.0395022E-3,2.551961E-3,-4.900545E-3,-8.929968E-5,-5.773028E-3,-3.4246445E-4,-4.6783092E-4,-2.1300316E-3],"categories":[],"categories_nodes":[],"categories_segments":[],"categories_sizes":[],"default_left":[0,0,0,0,0,0,0,0,0,0,0,0,0,0,0],"id":26,"left_children":[1,3,5,-1,7,-1,-1,9,-1,11,-1,13,-1,-1,-1],"loss_changes":[5.3735934E-3,9.0813905E-4,2.0529237E-4,0E0,2.2462012E-4,0E0,0E0,1.4650686E-5,0E0,6.528455E-6,0E0,5.703121E-6,0E0,0E0,0E0],"parents":[2147483647,0,0,1,1,2,2,4,4,7,7,9,9,11,11],"right_children":[2,4,6,-1,8,-1,-1,10,-1,12,-1,14,-1,-1,-1],"split_conditions":[1E0,3.2413793E-1,6.413793E-1,-7.7563855E-3,9.7931033E-1,3.69308E-3,1.5670538E-2,5E-1,2.551961E-3,9.655172E-1,-8.929968E-5,3.586207E-1,-3.4246445E-4,-4.6783092E-4,-2.1300316E-3],"split_indices":[1,0,0,0,0,0,0,1,0,0,0,0,0,0,0],"split_type":[0,0,0,0,0,0,0,0,0,0,0,0,0,0,0],"sum_hessian":[8E0,6E0,2E0,1E0,5E0,1E0,1E0,4E0,1E0,3E0,1E0,2E0,1E0,1E0,1E0],"tree_param":{"num_deleted":"0","num_feature":"2","num_nodes":"15","size_leaf_vector":"1"}},{"base_weights":[7.0074666E-3,-6.6656726E-3,3.6575634E-2,-6.592924E-3,-4.5114756E-4,3.1391145E-3,1.3319922E-2,-3.4335852E-3,2.1691562E-3,-4.1655004E-3,-7.588864E-5,-4.9070916E-3,-2.9110909E-4,-3.9766432E-4,-1.8105269E-3],"categories":[],"categories_nodes":[],"categories_segments":[],"categories_sizes":[],"default_left":[0,0,0,0,0,0,0,0,0,0,0,0,0,0,0],"id":27,"left_children":[1,3,5,-1,7,-1,-1,9,-1,11,-1,13,-1,-1,-1],"loss_changes":[3.8824084E-3,6.5612816E-4,1.4832104E-4,0E0,1.6228716E-4,0E0,0E0,1.0586024E-5,0E0,4.7162757E-6,0E0,4.1201274E-6,0E0,0E0,0E0],"parents":[2147483647,0,0,1,1,2,2,4,4,7,7,9,9,11,11],"right_children":[2,4,6,-1,8,-1,-1,10,-1,12,-1,14,-1,-1,-1],"split_conditions":[1E0,3.2413793E-1,6.413793E-1,-6.592924E-3,9.7931033E-1,3.1391145E-3,1.3319922E-2,5E-1,2.1691562E-3,9.655172E-1,-7.588864E-5,3.586207E-1,-2.9110909E-4,-3.9766432E-4,-1.8105269E-3],"split_indices":[1,0,0,0,0,0,0,1,0,0,0,0,0,0,0],"split_type":[0,0,0,0,0,0,0,0,0,0,0,0,0,0,0],"sum_hessian":[8E0,6E0,2E0,1E0,5E0,1E0,1E0,4E0,1E0,3E0,1E0,2E0,1E0,1E0,1E0],"tree_param":{"num_deleted":"0","num_feature":"2","num_nodes":"15","size_leaf_vector":"1"}},{"base_weights":[5.956325E-3,-5.665856E-3,3.1089306E-2,-5.603984E-3,-3.8351616E-4,2.6682615E-3,1.13219265E-2,-2.918601E-3,1.8437863E-3,-3.5407245E-3,-6.451607E-5,-4.171014E-3,-2.4747849E-4,-3.38012E-4,-1.5389443E-3],"categories":[],"categories_nodes":[],"categories_segments":[],"categories_sizes":[],"default_left":[0,0,0,0,0,0,0,0,0,0,0,0,0,0,0],"id":28,"left_children":[1,3,5,-1,7,-1,-1,9,-1,11,-1,13,-1,-1,-1],"loss_changes":[2.8050481E-3,4.7404983E-4,1.0715681E-4,0E0,1.1725416E-4,0E0,0E0,7.648257E-6,0E0,3.4061632E-6,0E0,2.976849E-6,0E0,0E0,0E0],"parents":[2147483647,0,0,1,1,2,2,4,4,7,7,9,9,11,11],"right_children":[2,4,6,-1,8,-1,-1,10,-1,12,-1,14,-1,-1,-1],"split_conditions":[1E0,3.2413793E-1,6.413793E-1,-5.603984E-3,9.7931033E-1,2.6682615E-3,1.13219265E-2,5E-1,1.8437863E-3,9.655172E-1,-6.451607E-5,3.586207E-1,-2.4747849E-4,-3.38012E-4,-1.5389443E-3],"split_indices":[1,0,0,0,0,0,0,1,0,0,0,0,0,0,0],"split_type":[0,0,0,0,0,0,0,0,0,0,0,0,0,0,0],"sum_hessian":[8E0,6E0,2E0,1E0,5E0,1E0,1E0,4E0,1E0,3E0,1E0,2E0,1E0,1E0,1E0],"tree_param":{"num_deleted":"0","num_feature":"2","num_nodes":"15","size_leaf_vector":"1"}},{"base_weights":[5.062845E-3,-4.8159873E-3,2.6425838E-2,-4.763389E-3,-3.2599768E-4,2.2680045E-3,9.623623E-3,-2.480793E-3,1.5671969E-3,-3.0096173E-3,-5.4824355E-5,-3.5453637E-3,-2.1035672E-4,-2.8731825E-4,-1.3080955E-3],"categories":[],"categories_nodes":[],"categories_segments":[],"categories_sizes":[],"default_left":[0,0,0,0,0,0,0,0,0,0,0,0,0,0,0],"id":29,"left_children":[1,3,5,-1,7,-1,-1,9,-1,11,-1,13,-1,-1,-1],"loss_changes":[2.0266392E-3,3.4250092E-4,7.742457E-5,0E0,8.471415E-5,0E0,0E0,5.5263117E-6,0E0,2.4609544E-6,0E0,2.1504238E-6,0E0,0E0,0E0],"parents":[2147483647,0,0,1,1,2,2,4,4,7,7,9,9,11,11],"right_children":[2,4,6,-1,8,-1,-1,10,-1,12,-1,14,-1,-1,-1],"split_conditions":[1E0,3.2413793E-1,6.413793E-1,-4.763389E-3,9.7931033E-1,2.2680045E-3,9.623623E-3,5E-1,1.5671969E-3,9.655172E-1,-5.4824355E-5,3.586207E-1,-2.1035672E-4,-2.8731825E-4,-1.3080955E-3],"split_indices":[1,0,0,0,0,0,0,1,0,0,0,0,0,0,0],"split_type":[0,0,0,0,0,0,0,0,0,0,0,0,0,0,0],"sum_hessian":[8E0,6E0,2E0,1E0,5E0,1E0,1E0,4E0,1E0,3E0,1E0,2E0,1E0,1E0,1E0],"tree_param":{"num_deleted":"0","num_feature":"2","num_nodes":"15","size_leaf_vector":"1"}},{"base_weights":[4.303429E-3,-4.093613E-3,2.246205E-2,-4.048884E-3,-2.7712187E-4,1.9278289E-3,8.180094E-3,-2.1086694E-3,1.3320923E-3,-2.5581717E-3,-4.6598914E-5,-3.0135314E-3,-1.7881393E-4,-2.442241E-4,-1.111865E-3],"categories":[],"categories_nodes":[],"categories_segments":[],"categories_sizes":[],"default_left":[0,0,0,0,0,0,0,0,0,0,0,0,0,0,0],"id":30,"left_children":[1,3,5,-1,7,-1,-1,9,-1,11,-1,13,-1,-1,-1],"loss_changes":[1.4642592E-3,2.4745625E-4,5.593465E-5,0E0,6.1204315E-5,0E0,0E0,3.9927945E-6,0E0,1.7776874E-6,0E0,1.5534242E-6,0E0,0E0,0E0],"parents":[2147483647,0,0,1,1,2,2,4,4,7,7,9,9,11,11],"right_children":[2,4,6,-1,8,-1,-1,10,-1,12,-1,14,-1,-1,-1],"split_conditions":[1E0,3.2413793E-1,6.413793E-1,-4.048884E-3,9.7931033E-1,1.9278289E-3,8.180094E-3,5E-1,1.3320923E-3,9.655172E-1,-4.6598914E-5,3.586207E-1,-1.7881393E-4,-2.442241E-4,-1.111865E-3],"split_indices":[1,0,0,0,0,0,0,1,0,0,0,0,0,0,0],"split_type":[0,0,0,0,0,0,0,0,0,0,0,0,0,0,0],"sum_hessian":[8E0,6E0,2E0,1E0,5E0,1E0,1E0,4E0,1E0,3E0,1E0,2E0,1E0,1E0,1E0],"tree_param":{"num_deleted":"0","num_feature":"2","num_nodes":"15","size_leaf_vector":"1"}},{"base_weights":[3.6579436E-3,-3.4795913E-3,1.9092878E-2,-3.4415515E-3,-2.3557742E-4,1.638651E-3,6.9531444E-3,-1.7923594E-3,1.1322498E-3,-2.1744072E-3,-3.962517E-5,-2.56145E-3,-1.5199184E-4,-2.0758511E-4,-9.4506744E-4],"categories":[],"categories_nodes":[],"categories_segments":[],"categories_sizes":[],"default_left":[0,0,0,0,0,0,0,0,0,0,0,0,0,0,0],"id":31,"left_children":[1,3,5,-1,7,-1,-1,9,-1,11,-1,13,-1,-1,-1],"loss_changes":[1.0579418E-3,1.7878621E-4,4.041707E-5,0E0,4.421844E-5,0E0,0E0,2.8843187E-6,0E0,1.2842593E-6,0E0,1.1223437E-6,0E0,0E0,0E0],"parents":[2147483647,0,0,1,1,2,2,4,4,7,7,9,9,11,11],"right_children":[2,4,6,-1,8,-1,-1,10,-1,12,-1,14,-1,-1,-1],"split_conditions":[1E0,3.2413793E-1,6.413793E-1,-3.4415515E-3,9.7931033E-1,1.638651E-3,6.9531444E-3,5E-1,1.1322498E-3,9.655172E-1,-3.962517E-5,3.586207E-1,-1.5199184E-4,-2.0758511E-4,-9.4506744E-4],"split_indices":[1,0,0,0,0,0,0,1,0,0,0,0,0,0,0],"split_type":[0,0,0,0,0,0,0,0,0,0,0,0,0,0,0],"sum_hessian":[8E0,6E0,2E0,1E0,5E0,1E0,1E0,4E0,1E0,3E0,1E0,2E0,1E0,1E0,1E0],"tree_param":{"num_deleted":"0","num_feature":"2","num_nodes":"15","size_leaf_vector":"1"}},{"base_weights":[3.109197E-3,-2.957676E-3,1.6228834E-2,-2.9253156E-3,-2.002716E-4,1.3928176E-3,5.9101586E-3,-1.5234947E-3,9.6237665E-4,-5.5446627E-4,-3.3688546E-5],"categories":[],"categories_nodes":[],"categories_segments":[],"categories_sizes":[],"default_left":[0,0,0,0,0,0,0,0,0,0,0],"id":32,"left_children":[1,3,5,-1,7,-1,-1,9,-1,-1,-1],"loss_changes":[7.643562E-4,1.2917172E-4,2.920616E-5,0E0,3.1946056E-5,0E0,0E0,2.0837206E-6,0E0,0E0,0E0],"parents":[2147483647,0,0,1,1,2,2,4,4,7,7],"right_children":[2,4,6,-1,8,-1,-1,10,-1,-1,-1],"split_conditions":[1E0,3.2413793E-1,6.413793E-1,-2.9253156E-3,9.7931033E-1,1.3928176E-3,5.9101586E-3,5E-1,9.6237665E-4,-5.5446627E-4,-3.3688546E-5],"split_indices":[1,0,0,0,0,0,0,1,0,0,0],"split_type":[0,0,0,0,0,0,0,0,0,0,0],"sum_hessian":[8E0,6E0,2E0,1E0,5E0,1E0,1E0,4E0,1E0,3E0,1E0],"tree_param":{"num_deleted":"0","num_feature":"2","num_nodes":"11","size_leaf_vector":"1"}},{"base_weights":[2.7044746E-3,-2.4347815E-3,1.3794581E-2,-2.486515E-3,-7.778406E-5,1.1838913E-3,5.0236704E-3,-1.1840581E-3,8.18038E-4,-8.128882E-5,-1.7024676E-3,-7.201195E-4,-4.5990946E-5],"categories":[],"categories_nodes":[],"categories_segments":[],"categories_sizes":[],"default_left":[0,0,0,0,0,0,0,0,0,0,0,0,0],"id":33,"left_children":[1,3,5,-1,7,-1,-1,9,-1,-1,11,-1,-1],"loss_changes":[5.4654083E-4,9.593378E-5,2.1103304E-5,0E0,2.1844471E-5,0E0,0E0,1.905481E-6,0E0,0E0,2.8756394E-6,0E0,0E0],"parents":[2147483647,0,0,1,1,2,2,4,4,7,7,10,10],"right_children":[2,4,6,-1,8,-1,-1,10,-1,-1,12,-1,-1],"split_conditions":[1E0,3.2413793E-1,6.413793E-1,-2.486515E-3,9.7931033E-1,1.1838913E-3,5.0236704E-3,4.827586E-1,8.18038E-4,-8.128882E-5,9.655172E-1,-7.201195E-4,-4.5990946E-5],"split_indices":[1,0,0,0,0,0,0,0,0,0,0,0,0],"split_type":[0,0,0,0,0,0,0,0,0,0,0,0,0],"sum_hessian":[8E0,6E0,2E0,1E0,5E0,1E0,1E0,4E0,1E0,2E0,2E0,1E0,1E0],"tree_param":{"num_deleted":"0","num_feature":"2","num_nodes":"13","size_leaf_vector":"1"}},{"base_weights":[2.303223E-3,-2.0638278E-3,1.1725266E-2,-2.113536E-3,-5.942583E-5,1.0062933E-3,4.2700768E-3,-9.983778E-4,6.953001E-4,-6.5028675E-5,-1.4472008E-3,-6.121159E-4,-3.912449E-5],"categories":[],"categories_nodes":[],"categories_segments":[],"categories_sizes":[],"default_left":[0,0,0,0,0,0,0,0,0,0,0,0,0],"id":34,"left_children":[1,3,5,-1,7,-1,-1,9,-1,-1,11,-1,-1],"loss_changes":[3.9451782E-4,6.9472924E-5,1.5247322E-5,0E0,1.5705762E-5,0E0,0E0,1.4403363E-6,0E0,0E0,2.0771972E-6,0E0,0E0],"parents":[2147483647,0,0,1,1,2,2,4,4,7,7,10,10],"right_children":[2,4,6,-1,8,-1,-1,10,-1,-1,12,-1,-1],"split_conditions":[1E0,3.2413793E-1,6.413793E-1,-2.113536E-3,9.7931033E-1,1.0062933E-3,4.2700768E-3,4.827586E-1,6.953001E-4,-6.5028675E-5,9.655172E-1,-6.121159E-4,-3.912449E-5],"split_indices":[1,0,0,0,0,0,0,0,0,0,0,0,0],"split_type":[0,0,0,0,0,0,0,0,0,0,0,0,0],"sum_hessian":[8E0,6E0,2E0,1E0,5E0,1E0,1E0,4E0,1E0,2E0,2E0,1E0,1E0],"tree_param":{"num_deleted":"0","num_feature":"2","num_nodes":"13","size_leaf_vector":"1"}},{"base_weights":[1.961324E-3,-1.7496006E-3,9.966373E-3,-1.7965079E-3,-4.508098E-5,8.553744E-4,3.6294938E-3,-8.421183E-4,5.9101585E-4,-5.2011015E-5,-1.2301604E-3,-5.203128E-4,-3.325939E-5],"categories":[],"categories_nodes":[],"categories_segments":[],"categories_sizes":[],"default_left":[0,0,0,0,0,0,0,0,0,0,0,0,0],"id":35,"left_children":[1,3,5,-1,7,-1,-1,9,-1,-1,11,-1,-1],"loss_changes":[2.847924E-4,5.0305374E-5,1.1011754E-5,0E0,1.1295838E-5,0E0,0E0,1.0842396E-6,0E0,0E0,1.5008181E-6,0E0,0E0],"parents":[2147483647,0,0,1,1,2,2,4,4,7,7,10,10],"right_children":[2,4,6,-1,8,-1,-1,10,-1,-1,12,-1,-1],"split_conditions":[1E0,3.2413793E-1,6.413793E-1,-1.7965079E-3,9.7931033E-1,8.553744E-4,3.6294938E-3,4.827586E-1,5.9101585E-4,-5.2011015E-5,9.655172E-1,-5.203128E-4,-3.325939E-5],"split_indices":[1,0,0,0,0,0,0,0,0,0,0,0,0],"split_type":[0,0,0,0,0,0,0,0,0,0,0,0,0],"sum_hessian":[8E0,6E0,2E0,1E0,5E0,1E0,1E0,4E0,1E0,2E0,2E0,1E0,1E0],"tree_param":{"num_deleted":"0","num_feature":"2","num_nodes":"13","size_leaf_vector":"1"}},{"base_weights":[1.6700029E-3,-1.4834234E-3,8.47133E-3,-1.5270353E-3,-3.395478E-5,7.2705746E-4,3.0850412E-3,-2.1318198E-4,5.023957E-4],"categories":[],"categories_nodes":[],"categories_segments":[],"categories_sizes":[],"default_left":[0,0,0,0,0,0,0,0,0],"id":36,"left_children":[1,3,5,-1,7,-1,-1,-1,-1],"loss_changes":[2.0559391E-4,3.642169E-5,7.956172E-6,0E0,8.12681E-6,0E0,0E0,0E0,0E0],"parents":[2147483647,0,0,1,1,2,2,4,4],"right_children":[2,4,6,-1,8,-1,-1,-1,-1],"split_conditions":[1E0,3.2413793E-1,6.413793E-1,-1.5270353E-3,9.7931033E-1,7.2705746E-4,3.0850412E-3,-2.1318198E-4,5.023957E-4],"split_indices":[1,0,0,0,0,0,0,0,0],"split_type":[0,0,0,0,0,0,0,0,0],"sum_hessian":[8E0,6E0,2E0,1E0,5E0,1E0,1E0,4E0,1E0],"tree_param":{"num_deleted":"0","num_feature":"2","num_nodes":"9","size_leaf_vector":"1"}},{"base_weights":[1.4549693E-3,-1.2152791E-3,7.200559E-3,-1.2979836E-3,2.43783E-5,6.1798096E-4,2.6222707E-3,-1.6202689E-4,4.270077E-4],"categories":[],"categories_nodes":[],"categories_segments":[],"categories_sizes":[],"default_left":[0,0,0,0,0,0,0,0,0],"id":37,"left_children":[1,3,5,-1,7,-1,-1,-1,-1],"loss_changes":[1.4683006E-4,2.7104381E-5,5.749258E-6,0E0,5.5068194E-6,0E0,0E0,0E0,0E0],"parents":[2147483647,0,0,1,1,2,2,4,4],"right_children":[2,4,6,-1,8,-1,-1,-1,-1],"split_conditions":[1E0,3.2413793E-1,6.413793E-1,-1.2979836E-3,9.7931033E-1,6.1798096E-4,2.6222707E-3,-1.6202689E-4,4.270077E-4],"split_indices":[1,0,0,0,0,0,0,0,0],"split_type":[0,0,0,0,0,0,0,0,0],"sum_hessian":[8E0,6E0,2E0,1E0,5E0,1E0,1E0,4E0,1E0],"tree_param":{"num_deleted":"0","num_feature":"2","num_nodes":"9","size_leaf_vector":"1"}},{"base_weights":[1.263698E-3,-9.982586E-4,6.1203637E-3,-1.103282E-3,6.123384E-5,5.2528386E-4,2.22888E-3,-1.826048E-4,2.8021337E-4],"categories":[],"categories_nodes":[],"categories_segments":[],"categories_sizes":[],"default_left":[0,0,0,0,0,0,0,0,0],"id":38,"left_children":[1,3,5,-1,7,-1,-1,-1,-1],"loss_changes":[1.0497981E-4,2.0096435E-5,4.152971E-6,0E0,4.0767977E-6,0E0,0E0,0E0,0E0],"parents":[2147483647,0,0,1,1,2,2,4,4],"right_children":[2,4,6,-1,8,-1,-1,-1,-1],"split_conditions":[1E0,3.2413793E-1,6.413793E-1,-1.103282E-3,5E-1,5.2528386E-4,2.22888E-3,-1.826048E-4,2.8021337E-4],"split_indices":[1,0,0,0,1,0,0,0,0],"split_type":[0,0,0,0,0,0,0,0,0],"sum_hessian":[8E0,6E0,2E0,1E0,5E0,1E0,1E0,3E0,2E0],"tree_param":{"num_deleted":"0","num_feature":"2","num_nodes":"9","size_leaf_vector":"1"}},{"base_weights":[1.0788573E-3,-8.4245205E-4,5.2022934E-3,-9.3778974E-4,5.9127808E-5,4.4646265E-4,1.8945695E-3,-5.3846836E-4,2.5086405E-4,2.3674966E-5,-3.5859348E-4],"categories":[],"categories_nodes":[],"categories_segments":[],"categories_sizes":[],"default_left":[0,0,0,0,0,0,0,0,0,0,0],"id":39,"left_children":[1,3,5,-1,7,-1,-1,9,-1,-1,-1],"loss_changes":[7.568425E-5,1.459622E-5,3.0022493E-6,0E0,3.2365747E-6,0E0,0E0,1.7164302E-6,0E0,0E0,0E0],"parents":[2147483647,0,0,1,1,2,2,4,4,7,7],"right_children":[2,4,6,-1,8,-1,-1,10,-1,-1,-1],"split_conditions":[1E0,3.2413793E-1,6.413793E-1,-9.3778974E-4,9.655172E-1,4.4646265E-4,1.8945695E-3,4.827586E-1,2.5086405E-4,2.3674966E-5,-3.5859348E-4],"split_indices":[1,0,0,0,0,0,0,0,0,0,0],"split_type":[0,0,0,0,0,0,0,0,0,0,0],"sum_hessian":[8E0,6E0,2E0,1E0,5E0,1E0,1E0,3E0,2E0,2E0,1E0],"tree_param":{"num_deleted":"0","num_feature":"2","num_nodes":"11","size_leaf_vector":"1"}},{"base_weights":[9.017653E-4,-7.356746E-4,4.4218698E-3,-7.971168E-4,2.7398268E-5,3.795147E-4,1.6103268E-3,-1.03433136E-4,2.8324127E-4],"categories":[],"categories_nodes":[],"categories_segments":[],"categories_sizes":[],"default_left":[0,0,0,0,0,0,0,0,0],"id":40,"left_children":[1,3,5,-1,7,-1,-1,-1,-1],"loss_changes":[5.5128694E-5,1.0335876E-5,2.1675041E-6,0E0,2.3726436E-6,0E0,0E0,0E0,0E0],"parents":[2147483647,0,0,1,1,2,2,4,4],"right_children":[2,4,6,-1,8,-1,-1,-1,-1],"split_conditions":[1E0,3.2413793E-1,6.413793E-1,-7.971168E-4,9.7931033E-1,3.795147E-4,1.6103268E-3,-1.03433136E-4,2.8324127E-4],"split_indices":[1,0,0,0,0,0,0,0,0],"split_type":[0,0,0,0,0,0,0,0,0],"sum_hessian":[8E0,6E0,2E0,1E0,5E0,1E0,1E0,4E0,1E0],"tree_param":{"num_deleted":"0","num_feature":"2","num_nodes":"9","size_leaf_vector":"1"}},{"base_weights":[7.837017E-4,-6.031394E-4,3.7584305E-3,-6.7755283E-4,4.9173832E-5,3.2258034E-4,1.3687134E-3,-3.8304925E-4,1.82724E-4,3.9637092E-5,-2.892852E-4],"categories":[],"categories_nodes":[],"categories_segments":[],"categories_sizes":[],"default_left":[0,0,0,0,0,0,0,0,0,0,0],"id":41,"left_children":[1,3,5,-1,7,-1,-1,9,-1,-1,-1],"loss_changes":[3.9396145E-5,7.669798E-6,1.565586E-6,0E0,1.6853339E-6,0E0,0E0,1.3251502E-6,0E0,0E0,0E0],"parents":[2147483647,0,0,1,1,2,2,4,4,7,7],"right_children":[2,4,6,-1,8,-1,-1,10,-1,-1,-1],"split_conditions":[1E0,3.2413793E-1,6.413793E-1,-6.7755283E-4,9.655172E-1,3.2258034E-4,1.3687134E-3,4.827586E-1,1.82724E-4,3.9637092E-5,-2.892852E-4],"split_indices":[1,0,0,0,0,0,0,0,0,0,0],"split_type":[0,0,0,0,0,0,0,0,0,0,0],"sum_hessian":[8E0,6E0,2E0,1E0,5E0,1E0,1E0,3E0,2E0,2E0,1E0],"tree_param":{"num_deleted":"0","num_feature":"2","num_nodes":"11","size_leaf_vector":"1"}},{"base_weights":[6.537967E-4,-5.2853994E-4,3.19465E-3,-5.7592394E-4,2.3285547E-5,2.7415753E-4,1.163435E-3,-7.696152E-5,2.1336079E-4],"categories":[],"categories_nodes":[],"categories_segments":[],"categories_sizes":[],"default_left":[0,0,0,0,0,0,0,0,0],"id":42,"left_children":[1,3,5,-1,7,-1,-1,-1,-1],"loss_changes":[2.8725795E-5,5.418625E-6,1.1324883E-6,0E0,1.3374248E-6,0E0,0E0,0E0,0E0],"parents":[2147483647,0,0,1,1,2,2,4,4],"right_children":[2,4,6,-1,8,-1,-1,-1,-1],"split_conditions":[1E0,3.2413793E-1,6.413793E-1,-5.7592394E-4,9.7931033E-1,2.7415753E-4,1.163435E-3,-7.696152E-5,2.1336079E-4],"split_indices":[1,0,0,0,0,0,0,0,0],"split_type":[0,0,0,0,0,0,0,0,0],"sum_hessian":[8E0,6E0,2E0,1E0,5E0,1E0,1E0,4E0,1E0],"tree_param":{"num_deleted":"0","num_feature":"2","num_nodes":"9","size_leaf_vector":"1"}},{"base_weights":[5.6858856E-4,-4.327127E-4,8.146286E-4,-4.8953894E-4,3.9100647E-5,-8.958578E-5,1.429081E-4],"categories":[],"categories_nodes":[],"categories_segments":[],"categories_sizes":[],"default_left":[0,0,0,0,0,0,0],"id":43,"left_children":[1,3,-1,-1,5,-1,-1],"loss_changes":[2.0521702E-5,4.02401E-6,0E0,0E0,1.0282781E-6,0E0,0E0],"parents":[2147483647,0,0,1,1,4,4],"right_children":[2,4,-1,-1,6,-1,-1],"split_conditions":[1E0,3.2413793E-1,8.146286E-4,-4.8953894E-4,5E-1,-8.958578E-5,1.429081E-4],"split_indices":[1,0,0,0,1,0,0],"split_type":[0,0,0,0,0,0,0],"sum_hessian":[8E0,6E0,2E0,1E0,5E0,3E0,2E0],"tree_param":{"num_deleted":"0","num_feature":"2","num_nodes":"7","size_leaf_vector":"1"}},{"base_weights":[4.4010082E-4,-2.2717565E-4,8.6674694E-4,-4.16109E-4,4.0999483E-5],"categories":[],"categories_nodes":[],"categories_segments":[],"categories_sizes":[],"default_left":[0,0,0,0,0],"id":44,"left_children":[1,3,-1,-1,-1],"loss_changes":[1.536412E-5,3.5655748E-6,0E0,0E0,0E0],"parents":[2147483647,0,0,1,1],"right_children":[2,4,-1,-1,-1],"split_conditions":[1E0,3.2413793E-1,8.6674694E-4,-4.16109E-4,4.0999483E-5],"split_indices":[0,0,0,0,0],"split_type":[0,0,0,0,0],"sum_hessian":[8E0,7E0,1E0,1E0,6E0],"tree_param":{"num_deleted":"0","num_feature":"2","num_nodes":"5","size_leaf_vector":"1"}},{"base_weights":[3.626744E-4,-3.817933E-4,5.9366226E-4,-3.5369396E-4,-1.5729667E-5],"categories":[],"categories_nodes":[],"categories_segments":[],"categories_sizes":[],"default_left":[0,0,0,0,0],"id":45,"left_children":[1,3,-1,-1,-1],"loss_changes":[1.1584398E-5,1.776119E-6,0E0,0E0,0E0],"parents":[2147483647,0,0,1,1],"right_children":[2,4,-1,-1,-1],"split_conditions":[9.7931033E-1,3.2413793E-1,5.9366226E-4,-3.5369396E-4,-1.5729667E-5],"split_indices":[0,0,0,0,0],"split_type":[0,0,0,0,0],"sum_hessian":[8E0,6E0,2E0,1E0,5E0],"tree_param":{"num_deleted":"0","num_feature":"2","num_nodes":"5","size_leaf_vector":"1"}},{"base_weights":[2.7884377E-4,-2.2608042E-4,6.477356E-4,-1.8034458E-4,8.978248E-5],"categories":[],"categories_nodes":[],"categories_segments":[],"categories_sizes":[],"default_left":[0,0,0,0,0],"id":46,"left_children":[1,3,-1,-1,-1],"loss_changes":[9.032701E-6,1.7562613E-6,0E0,0E0,0E0],"parents":[2147483647,0,0,1,1],"right_children":[2,4,-1,-1,-1],"split_conditions":[1E0,5E-1,6.477356E-4,-1.8034458E-4,8.978248E-5],"split_indices":[0,1,0,0,0],"split_type":[0,0,0,0,0],"sum_hessian":[8E0,7E0,1E0,4E0,3E0],"tree_param":{"num_deleted":"0","num_feature":"2","num_nodes":"5","size_leaf_vector":"1"}},{"base_weights":[2.571212E-4,-1.6957521E-4,5.506039E-4,-2.7358532E-4,2.002716E-5],"categories":[],"categories_nodes":[],"categories_segments":[],"categories_sizes":[],"default_left":[0,0,0,0,0],"id":47,"left_children":[1,3,-1,-1,-1],"loss_changes":[6.372036E-6,1.4644592E-6,0E0,0E0,0E0],"parents":[2147483647,0,0,1,1],"right_children":[2,4,-1,-1,-1],"split_conditions":[1E0,3.2413793E-1,5.506039E-4,-2.7358532E-4,2.002716E-5],"split_indices":[0,0,0,0,0],"split_type":[0,0,0,0,0],"sum_hessian":[8E0,7E0,1E0,1E0,6E0],"tree_param":{"num_deleted":"0","num_feature":"2","num_nodes":"5","size_leaf_vector":"1"}},{"base_weights":[2.13027E-4,-7.7457094E-5,3.7245752E-4],"categories":[],"categories_nodes":[],"categories_segments":[],"categories_sizes":[],"default_left":[0,0,0],"id":48,"left_children":[1,-1,-1],"loss_changes":[4.682364E-6,0E0,0E0],"parents":[2147483647,0,0],"right_children":[2,-1,-1],"split_conditions":[1E0,-7.7457094E-5,3.7245752E-4],"split_indices":[1,0,0],"split_type":[0,0,0],"sum_hessian":[8E0,6E0,2E0],"tree_param":{"num_deleted":"0","num_feature":"2","num_nodes":"3","size_leaf_vector":"1"}},{"base_weights":[1.8184715E-4,-4.165918E-5,4.1213038E-4],"categories":[],"categories_nodes":[],"categories_segments":[],"categories_sizes":[],"default_left":[0,0,0],"id":49,"left_children":[1,-1,-1],"loss_changes":[3.631126E-6,0E0,0E0],"parents":[2147483647,0,0],"right_children":[2,-1,-1],"split_conditions":[1E0,-4.165918E-5,4.1213038E-4],"split_indices":[0,0,0],"split_type":[0,0,0],"sum_hessian":[8E0,7E0,1E0],"tree_param":{"num_deleted":"0","num_feature":"2","num_nodes":"3","size_leaf_vector":"1"}},{"base_weights":[1.6844935E-4,-8.602441E-5,2.4273993E-4],"categories":[],"categories_nodes":[],"categories_segments":[],"categories_sizes":[],"default_left":[0,0,0],"id":50,"left_children":[1,-1,-1],"loss_changes":[2.8567551E-6,0E0,0E0],"parents":[2147483647,0,0],"right_children":[2,-1,-1],"split_conditions":[9.655172E-1,-8.602441E-5,2.4273993E-4],"split_indices":[0,0,0],"split_type":[0,0,0],"sum_hessian":[8E0,5E0,3E0],"tree_param":{"num_deleted":"0","num_feature":"2","num_nodes":"3","size_leaf_vector":"1"}},{"base_weights":[1.3527606E-4,-3.280789E-5,3.1385422E-4],"categories":[],"categories_nodes":[],"categories_segments":[],"categories_sizes":[],"default_left":[0,0,0],"id":51,"left_children":[1,-1,-1],"loss_changes":[2.1199678E-6,0E0,0E0],"parents":[2147483647,0,0],"right_children":[2,-1,-1],"split_conditions":[1E0,-3.280789E-5,3.1385422E-4],"split_indices":[0,0,0],"split_type":[0,0,0],"sum_hessian":[8E0,7E0,1E0],"tree_param":{"num_deleted":"0","num_feature":"2","num_nodes":"3","size_leaf_vector":"1"}},{"base_weights":[1.2597773E-4,-8.685351E-5,1.5488148E-4],"categories":[],"categories_nodes":[],"categories_segments":[],"categories_sizes":[],"default_left":[0,0,0],"id":52,"left_children":[1,-1,-1],"loss_changes":[1.6089333E-6,0E0,0E0],"parents":[2147483647,0,0],"right_children":[2,-1,-1],"split_conditions":[5E-1,-8.685351E-5,1.5488148E-4],"split_indices":[1,0,0],"split_type":[0,0,0],"sum_hessian":[8E0,4E0,4E0],"tree_param":{"num_deleted":"0","num_feature":"2","num_nodes":"3","size_leaf_vector":"1"}},{"base_weights":[9.574493E-5,-2.8590113E-5,2.4361612E-4],"categories":[],"categories_nodes":[],"categories_segments":[],"categories_sizes":[],"default_left":[0,0,0],"id":53,"left_children":[1,-1,-1],"loss_changes":[1.3090158E-6,0E0,0E0],"parents":[2147483647,0,0],"right_children":[2,-1,-1],"split_conditions":[1E0,-2.8590113E-5,2.4361612E-4],"split_indices":[0,0,0],"split_type":[0,0,0],"sum_hessian":[8E0,7E0,1E0],"tree_param":{"num_deleted":"0","num_feature":"2","num_nodes":"3","size_leaf_vector":"1"}},{"base_weights":[9.097656E-5,-1.7953814E-4,7.558912E-5],"categories":[],"categories_nodes":[],"categories_segments":[],"categories_sizes":[],"default_left":[0,0,0],"id":54,"left_children":[1,-1,-1],"loss_changes":[1.149705E-6,0E0,0E0],"parents":[2147483647,0,0],"right_children":[2,-1,-1],"split_conditions":[3.2413793E-1,-1.7953814E-4,7.558912E-5],"split_indices":[0,0,0],"split_type":[0,0,0],"sum_hessian":[8E0,1E0,7E0],"tree_param":{"num_deleted":"0","num_feature":"2","num_nodes":"3","size_leaf_vector":"1"}},{"base_weights":[5.2114327E-5],"categories":[],"categories_nodes":[],"categories_segments":[],"categories_sizes":[],"default_left":[0],"id":55,"left_children":[-1],"loss_changes":[0E0],"parents":[2147483647],"right_children":[-1],"split_conditions":[1.56343E-5],"split_indices":[0],"split_type":[0],"sum_hessian":[8E0],"tree_param":{"num_deleted":"0","num_feature":"2","num_nodes":"1","size_leaf_vector":"1"}},{"base_weights":[3.8206577E-5],"categories":[],"categories_nodes":[],"categories_segments":[],"categories_sizes":[],"default_left":[0],"id":56,"left_children":[-1],"loss_changes":[0E0],"parents":[2147483647],"right_children":[-1],"split_conditions":[1.1461973E-5],"split_indices":[0],"split_type":[0],"sum_hessian":[8E0],"tree_param":{"num_deleted":"0","num_feature":"2","num_nodes":"1","size_leaf_vector":"1"}},{"base_weights":[2.8034052E-5],"categories":[],"categories_nodes":[],"categories_segments":[],"categories_sizes":[],"default_left":[0],"id":57,"left_children":[-1],"loss_changes":[0E0],"parents":[2147483647],"right_children":[-1],"split_conditions":[8.410216E-6],"split_indices":[0],"split_type":[0],"sum_hessian":[8E0],"tree_param":{"num_deleted":"0","num_feature":"2","num_nodes":"1","size_leaf_vector":"1"}},{"base_weights":[2.0517244E-5],"categories":[],"categories_nodes":[],"categories_segments":[],"categories_sizes":[],"default_left":[0],"id":58,"left_children":[-1],"loss_changes":[0E0],"parents":[2147483647],"right_children":[-1],"split_conditions":[6.155173E-6],"split_indices":[0],"split_type":[0],"sum_hessian":[8E0],"tree_param":{"num_deleted":"0","num_feature":"2","num_nodes":"1","size_leaf_vector":"1"}},{"base_weights":[1.5066729E-5],"categories":[],"categories_nodes":[],"categories_segments":[],"categories_sizes":[],"default_left":[0],"id":59,"left_children":[-1],"loss_changes":[0E0],"parents":[2147483647],"right_children":[-1],"split_conditions":[4.520019E-6],"split_indices":[0],"split_type":[0],"sum_hessian":[8E0],"tree_param":{"num_deleted":"0","num_feature":"2","num_nodes":"1","size_leaf_vector":"1"}},{"base_weights":[1.1066596E-5],"categories":[],"categories_nodes":[],"categories_segments":[],"categories_sizes":[],"default_left":[0],"id":60,"left_children":[-1],"loss_changes":[0E0],"parents":[2147483647],"right_children":[-1],"split_conditions":[3.319979E-6],"split_indices":[0],"split_type":[0],"sum_hessian":[8E0],"tree_param":{"num_deleted":"0","num_feature":"2","num_nodes":"1","size_leaf_vector":"1"}},{"base_weights":[8.15259E-6],"categories":[],"categories_nodes":[],"categories_segments":[],"categories_sizes":[],"default_left":[0],"id":61,"left_children":[-1],"loss_changes":[0E0],"parents":[2147483647],"right_children":[-1],"split_conditions":[2.4457772E-6],"split_indices":[0],"split_type":[0],"sum_hessian":[8E0],"tree_param":{"num_deleted":"0","num_feature":"2","num_nodes":"1","size_leaf_vector":"1"}},{"base_weights":[5.9604645E-6],"categories":[],"categories_nodes":[],"categories_segments":[],"categories_sizes":[],"default_left":[0],"id":62,"left_children":[-1],"loss_changes":[0E0],"parents":[2147483647],"right_children":[-1],"split_conditions":[1.7881395E-6],"split_indices":[0],"split_type":[0],"sum_hessian":[8E0],"tree_param":{"num_deleted":"0","num_feature":"2","num_nodes":"1","size_leaf_vector":"1"}},{"base_weights":[4.2915344E-6],"categories":[],"categories_nodes":[],"categories_segments":[],"categories_sizes":[],"default_left":[0],"id":63,"left_children":[-1],"loss_changes":[0E0],"parents":[2147483647],"right_children":[-1],"split_conditions":[1.2874603E-6],"split_indices":[0],"split_type":[0],"sum_hessian":[8E0],"tree_param":{"num_deleted":"0","num_feature":"2","num_nodes":"1","size_leaf_vector":"1"}},{"base_weights":[3.1789143E-6],"categories":[],"categories_nodes":[],"categories_segments":[],"categories_sizes":[],"default_left":[0],"id":64,"left_children":[-1],"loss_changes":[0E0],"parents":[2147483647],"right_children":[-1],"split_conditions":[9.536743E-7],"split_indices":[0],"split_type":[0],"sum_hessian":[8E0],"tree_param":{"num_deleted":"0","num_feature":"2","num_nodes":"1","size_leaf_vector":"1"}},{"base_weights":[2.3312039E-6],"categories":[],"categories_nodes":[],"categories_segments":[],"categories_sizes":[],"default_left":[0],"id":65,"left_children":[-1],"loss_changes":[0E0],"parents":[2147483647],"right_children":[-1],"split_conditions":[6.993612E-7],"split_indices":[0],"split_type":[0],"sum_hessian":[8E0],"tree_param":{"num_deleted":"0","num_feature":"2","num_nodes":"1","size_leaf_vector":"1"}},{"base_weights":[1.721912E-6],"categories":[],"categories_nodes":[],"categories_segments":[],"categories_sizes":[],"default_left":[0],"id":66,"left_children":[-1],"loss_changes":[0E0],"parents":[2147483647],"right_children":[-1],"split_conditions":[5.165736E-7],"split_indices":[0],"split_type":[0],"sum_hessian":[8E0],"tree_param":{"num_deleted":"0","num_feature":"2","num_nodes":"1","size_leaf_vector":"1"}},{"base_weights":[1.2384521E-6],"categories":[],"categories_nodes":[],"categories_segments":[],"categories_sizes":[],"default_left":[0],"id":67,"left_children":[-1],"loss_changes":[0E0],"parents":[2147483647],"right_children":[-1],"split_conditions":[3.7153566E-7],"split_indices":[0],"split_type":[0],"sum_hessian":[8E0],"tree_param":{"num_deleted":"0","num_feature":"2","num_nodes":"1","size_leaf_vector":"1"}},{"base_weights":[8.940697E-7],"categories":[],"categories_nodes":[],"categories_segments":[],"categories_sizes":[],"default_left":[0],"id":68,"left_children":[-1],"loss_changes":[0E0],"parents":[2147483647],"right_children":[-1],"split_conditions":[2.682209E-7],"split_indices":[0],"split_type":[0],"sum_hessian":[8E0],"tree_param":{"num_deleted":"0","num_feature":"2","num_nodes":"1","size_leaf_vector":"1"}},{"base_weights":[6.556511E-7],"categories":[],"categories_nodes":[],"categories_segments":[],"categories_sizes":[],"default_left":[0],"id":69,"left_children":[-1],"loss_changes":[0E0],"parents":[2147483647],"right_children":[-1],"split_conditions":[1.9669534E-7],"split_indices":[0],"split_type":[0],"sum_hessian":[8E0],"tree_param":{"num_deleted":"0","num_feature":"2","num_nodes":"1","size_leaf_vector":"1"}},{"base_weights":[5.298191E-7],"categories":[],"categories_nodes":[],"categories_segments":[],"categories_sizes":[],"default_left":[0],"id":70,"left_children":[-1],"loss_changes":[0E0],"parents":[2147483647],"right_children":[-1],"split_conditions":[1.5894574E-7],"split_indices":[0],"split_type":[0],"sum_hessian":[8E0],"tree_param":{"num_deleted":"0","num_feature":"2","num_nodes":"1","size_leaf_vector":"1"}},{"base_weights":[4.172325E-7],"categories":[],"categories_nodes":[],"categories_segments":[],"categories_sizes":[],"default_left":[0],"id":71,"left_children":[-1],"loss_changes":[0E0],"parents":[2147483647],"right_children":[-1],"split_conditions":[1.2516976E-7],"split_indices":[0],"split_type":[0],"sum_hessian":[8E0],"tree_param":{"num_deleted":"0","num_feature":"2","num_nodes":"1","size_leaf_vector":"1"}},{"base_weights":[3.112687E-7],"categories":[],"categories_nodes":[],"categories_segments":[],"categories_sizes":[],"default_left":[0],"id":72,"left_children":[-1],"loss_changes":[0E0],"parents":[2147483647],"right_children":[-1],"split_conditions":[9.338061E-8],"split_indices":[0],"split_type":[0],"sum_hessian":[8E0],"tree_param":{"num_deleted":"0","num_feature":"2","num_nodes":"1","size_leaf_vector":"1"}},{"base_weights":[2.8477774E-7],"categories":[],"categories_nodes":[],"categories_segments":[],"categories_sizes":[],"default_left":[0],"id":73,"left_children":[-1],"loss_changes":[0E0],"parents":[2147483647],"right_children":[-1],"split_conditions":[8.543333E-8],"split_indices":[0],"split_type":[0],"sum_hessian":[8E0],"tree_param":{"num_deleted":"0","num_feature":"2","num_nodes":"1","size_leaf_vector":"1"}},{"base_weights":[2.6490954E-7],"categories":[],"categories_nodes":[],"categories_segments":[],"categories_sizes":[],"default_left":[0],"id":74,"left_children":[-1],"loss_changes":[0E0],"parents":[2147483647],"right_children":[-1],"split_conditions":[7.947287E-8],"split_indices":[0],"split_type":[0],"sum_hessian":[8E0],"tree_param":{"num_deleted":"0","num_feature":"2","num_nodes":"1","size_leaf_vector":"1"}},{"base_weights":[2.4504132E-7],"categories":[],"categories_nodes":[],"categories_segments":[],"categories_sizes":[],"default_left":[0],"id":75,"left_children":[-1],"loss_changes":[0E0],"parents":[2147483647],"right_children":[-1],"split_conditions":[7.3512396E-8],"split_indices":[0],"split_type":[0],"sum_hessian":[8E0],"tree_param":{"num_deleted":"0","num_feature":"2","num_nodes":"1","size_leaf_vector":"1"}},{"base_weights":[2.251731E-7],"categories":[],"categories_nodes":[],"categories_segments":[],"categories_sizes":[],"default_left":[0],"id":76,"left_children":[-1],"loss_changes":[0E0],"parents":[2147483647],"right_children":[-1],"split_conditions":[6.755193E-8],"split_indices":[0],"split_type":[0],"sum_hessian":[8E0],"tree_param":{"num_deleted":"0","num_feature":"2","num_nodes":"1","size_leaf_vector":"1"}},{"base_weights":[2.0530489E-7],"categories":[],"categories_nodes":[],"categories_segments":[],"categories_sizes":[],"default_left":[0],"id":77,"left_children":[-1],"loss_changes":[0E0],"parents":[2147483647],"right_children":[-1],"split_conditions":[6.159147E-8],"split_indices":[0],"split_type":[0],"sum_hessian":[8E0],"tree_param":{"num_deleted":"0","num_feature":"2","num_nodes":"1","size_leaf_vector":"1"}},{"base_weights":[1.8543668E-7],"categories":[],"categories_nodes":[],"categories_segments":[],"categories_sizes":[],"default_left":[0],"id":78,"left_children":[-1],"loss_changes":[0E0],"parents":[2147483647],"right_children":[-1],"split_conditions":[5.5631006E-8],"split_indices":[0],"split_type":[0],"sum_hessian":[8E0],"tree_param":{"num_deleted":"0","num_feature":"2","num_nodes":"1","size_leaf_vector":"1"}},{"base_weights":[1.7881393E-7],"categories":[],"categories_nodes":[],"categories_segments":[],"categories_sizes":[],"default_left":[0],"id":79,"left_children":[-1],"loss_changes":[0E0],"parents":[2147483647],"right_children":[-1],"split_conditions":[5.3644182E-8],"split_indices":[0],"split_type":[0],"sum_hessian":[8E0],"tree_param":{"num_deleted":"0","num_feature":"2","num_nodes":"1","size_leaf_vector":"1"}},{"base_weights":[1.7219119E-7],"categories":[],"categories_nodes":[],"categories_segments":[],"categories_sizes":[],"default_left":[0],"id":80,"left_children":[-1],"loss_changes":[0E0],"parents":[2147483647],"right_children":[-1],"split_conditions":[5.165736E-8],"split_indices":[0],"split_type":[0],"sum_hessian":[8E0],"tree_param":{"num_deleted":"0","num_feature":"2","num_nodes":"1","size_leaf_vector":"1"}},{"base_weights":[1.6556845E-7],"categories":[],"categories_nodes":[],"categories_segments":[],"categories_sizes":[],"default_left":[0],"id":81,"left_children":[-1],"loss_changes":[0E0],"parents":[2147483647],"right_children":[-1],"split_conditions":[4.9670536E-8],"split_indices":[0],"split_type":[0],"sum_hessian":[8E0],"tree_param":{"num_deleted":"0","num_feature":"2","num_nodes":"1","size_leaf_vector":"1"}},{"base_weights":[1.5894572E-7],"categories":[],"categories_nodes":[],"categories_segments":[],"categories_sizes":[],"default_left":[0],"id":82,"left_children":[-1],"loss_changes":[0E0],"parents":[2147483647],"right_children":[-1],"split_conditions":[4.768372E-8],"split_indices":[0],"split_type":[0],"sum_hessian":[8E0],"tree_param":{"num_deleted":"0","num_feature":"2","num_nodes":"1","size_leaf_vector":"1"}},{"base_weights":[1.5232298E-7],"categories":[],"categories_nodes":[],"categories_segments":[],"categories_sizes":[],"default_left":[0],"id":83,"left_children":[-1],"loss_changes":[0E0],"parents":[2147483647],"right_children":[-1],"split_conditions":[4.5696897E-8],"split_indices":[0],"split_type":[0],"sum_hessian":[8E0],"tree_param":{"num_deleted":"0","num_feature":"2","num_nodes":"1","size_leaf_vector":"1"}},{"base_weights":[1.4570024E-7],"categories":[],"categories_nodes":[],"categories_segments":[],"categories_sizes":[],"default_left":[0],"id":84,"left_children":[-1],"loss_changes":[0E0],"parents":[2147483647],"right_children":[-1],"split_conditions":[4.3710074E-8],"split_indices":[0],"split_type":[0],"sum_hessian":[8E0],"tree_param":{"num_deleted":"0","num_feature":"2","num_nodes":"1","size_leaf_vector":"1"}},{"base_weights":[1.390775E-7],"categories":[],"categories_nodes":[],"categories_segments":[],"categories_sizes":[],"default_left":[0],"id":85,"left_children":[-1],"loss_changes":[0E0],"parents":[2147483647],"right_children":[-1],"split_conditions":[4.172325E-8],"split_indices":[0],"split_type":[0],"sum_hessian":[8E0],"tree_param":{"num_deleted":"0","num_feature":"2","num_nodes":"1","size_leaf_vector":"1"}},{"base_weights":[1.3245477E-7],"categories":[],"categories_nodes":[],"categories_segments":[],"categories_sizes":[],"default_left":[0],"id":86,"left_children":[-1],"loss_changes":[0E0],"parents":[2147483647],"right_children":[-1],"split_conditions":[3.9736435E-8],"split_indices":[0],"split_type":[0],"sum_hessian":[8E0],"tree_param":{"num_deleted":"0","num_feature":"2","num_nodes":"1","size_leaf_vector":"1"}},{"base_weights":[1.2583203E-7],"categories":[],"categories_nodes":[],"categories_segments":[],"categories_sizes":[],"default_left":[0],"id":87,"left_children":[-1],"loss_changes":[0E0],"parents":[2147483647],"right_children":[-1],"split_conditions":[3.774961E-8],"split_indices":[0],"split_type":[0],"sum_hessian":[8E0],"tree_param":{"num_deleted":"0","num_feature":"2","num_nodes":"1","size_leaf_vector":"1"}},{"base_weights":[1.1920929E-7],"categories":[],"categories_nodes":[],"categories_segments":[],"categories_sizes":[],"default_left":[0],"id":88,"left_children":[-1],"loss_changes":[0E0],"parents":[2147483647],"right_children":[-1],"split_conditions":[3.576279E-8],"split_indices":[0],"split_type":[0],"sum_hessian":[8E0],"tree_param":{"num_deleted":"0","num_feature":"2","num_nodes":"1","size_leaf_vector":"1"}},{"base_weights":[1.1258655E-7],"categories":[],"categories_nodes":[],"categories_segments":[],"categories_sizes":[],"default_left":[0],"id":89,"left_children":[-1],"loss_changes":[0E0],"parents":[2147483647],"right_children":[-1],"split_conditions":[3.3775965E-8],"split_indices":[0],"split_type":[0],"sum_hessian":[8E0],"tree_param":{"num_deleted":"0","num_feature":"2","num_nodes":"1","size_leaf_vector":"1"}},{"base_weights":[1.05963814E-7],"categories":[],"categories_nodes":[],"categories_segments":[],"categories_sizes":[],"default_left":[0],"id":90,"left_children":[-1],"loss_changes":[0E0],"parents":[2147483647],"right_children":[-1],"split_conditions":[3.1789146E-8],"split_indices":[0],"split_type":[0],"sum_hessian":[8E0],"tree_param":{"num_deleted":"0","num_feature":"2","num_nodes":"1","size_leaf_vector":"1"}},{"base_weights":[9.934107E-8],"categories":[],"categories_nodes":[],"categories_segments":[],"categories_sizes":[],"default_left":[0],"id":91,"left_children":[-1],"loss_changes":[0E0],"parents":[2147483647],"right_children":[-1],"split_conditions":[2.9802322E-8],"split_indices":[0],"split_type":[0],"sum_hessian":[8E0],"tree_param":{"num_deleted":"0","num_feature":"2","num_nodes":"1","size_leaf_vector":"1"}},{"base_weights":[9.934107E-8],"categories":[],"categories_nodes":[],"categories_segments":[],"categories_sizes":[],"default_left":[0],"id":92,"left_children":[-1],"loss_changes":[0E0],"parents":[2147483647],"right_children":[-1],"split_conditions":[2.9802322E-8],"split_indices":[0],"split_type":[0],"sum_hessian":[8E0],"tree_param":{"num_deleted":"0","num_feature":"2","num_nodes":"1","size_leaf_vector":"1"}},{"base_weights":[9.934107E-8],"categories":[],"categories_nodes":[],"categories_segments":[],"categories_sizes":[],"default_left":[0],"id":93,"left_children":[-1],"loss_changes":[0E0],"parents":[2147483647],"right_children":[-1],"split_conditions":[2.9802322E-8],"split_indices":[0],"split_type":[0],"sum_hessian":[8E0],"tree_param":{"num_deleted":"0","num_feature":"2","num_nodes":"1","size_leaf_vector":"1"}},{"base_weights":[9.934107E-8],"categories":[],"categories_nodes":[],"categories_segments":[],"categories_sizes":[],"default_left":[0],"id":94,"left_children":[-1],"loss_changes":[0E0],"parents":[2147483647],"right_children":[-1],"split_conditions":[2.9802322E-8],"split_indices":[0],"split_type":[0],"sum_hessian":[8E0],"tree_param":{"num_deleted":"0","num_feature":"2","num_nodes":"1","size_leaf_vector":"1"}},{"base_weights":[9.934107E-8],"categories":[],"categories_nodes":[],"categories_segments":[],"categories_sizes":[],"default_left":[0],"id":95,"left_children":[-1],"loss_changes":[0E0],"parents":[2147483647],"right_children":[-1],"split_conditions":[2.9802322E-8],"split_indices":[0],"split_type":[0],"sum_hessian":[8E0],"tree_param":{"num_deleted":"0","num_feature":"2","num_nodes":"1","size_leaf_vector":"1"}},{"base_weights":[9.934107E-8],"categories":[],"categories_nodes":[],"categories_segments":[],"categories_sizes":[],"default_left":[0],"id":96,"left_children":[-1],"loss_changes":[0E0],"parents":[2147483647],"right_children":[-1],"split_conditions":[2.9802322E-8],"split_indices":[0],"split_type":[0],"sum_hessian":[8E0],"tree_param":{"num_deleted":"0","num_feature":"2","num_nodes":"1","size_leaf_vector":"1"}},{"base_weights":[9.934107E-8],"categories":[],"categories_nodes":[],"categories_segments":[],"categories_sizes":[],"default_left":[0],"id":97,"left_children":[-1],"loss_changes":[0E0],"parents":[2147483647],"right_children":[-1],"split_conditions":[2.9802322E-8],"split_indices":[0],"split_type":[0],"sum_hessian":[8E0],"tree_param":{"num_deleted":"0","num_feature":"2","num_nodes":"1","size_leaf_vector":"1"}},{"base_weights":[9.934107E-8],"categories":[],"categories_nodes":[],"categories_segments":[],"categories_sizes":[],"default_left":[0],"id":98,"left_children":[-1],"loss_changes":[0E0],"parents":[2147483647],"right_children":[-1],"split_conditions":[2.9802322E-8],"split_indices":[0],"split_type":[0],"sum_hessian":[8E0],"tree_param":{"num_deleted":"0","num_feature":"2","num_nodes":"1","size_leaf_vector":"1"}},{"base_weights":[9.934107E-8],"categories":[],"categories_nodes":[],"categories_segments":[],"categories_sizes":[],"default_left":[0],"id":99,"left_children":[-1],"loss_changes":[0E0],"parents":[2147483647],"right_children":[-1],"split_conditions":[2.9802322E-8],"split_indices":[0],"split_type":[0],"sum_hessian":[8E0],"tree_param":{"num_deleted":"0","num_feature":"2","num_nodes":"1","size_leaf_vector":"1"}}]},"name":"gbtree"},"learner_model_param":{"base_score":"4.77375E0","boost_from_average":"1","num_class":"0","num_feature":"2","num_target":"1"},"objective":{"name":"reg:squarederror","reg_loss_param":{"scale_pos_weight":"1"}}},"version":[2,1,1]}